-357.18586547411331367 -362.65587417643121171 -364.10980764574770774 -358.53333368474926601 -364.0429832013359146 -356.03157639055120853 -359.65799364367506996 -359.47622191616375176 -355.66911455100103012 -353.26753054039454582 -357.27981906468420448 -368.13449327315720438 -355.32846791195385094 -365.98996725495339888 -364.44421364312739797 -365.88784904177578028 -362.02726538678905399 -363.21009625676470023 -360.36901206486925275 -356.57763050649793968 -346.39160873067226021 -355.1251710211093382 -364.86177970953627892 -371.64209953088527527 -365.03322866899884502 -367.11313237943727472 -361.42028093563311586 -368.17367805305667616 -357.25506870187729191 -367.166161824116557 -354.31699720424421685 -361.24016711876538466 -356.10807356567505622 -364.54152872388863216 -355.66645477532273389 -360.48938528080805099 -361.92892360685692665 -362.9665274538670019 -358.19913248479298318 -358.36018591276308598 -359.70371010729326144 -364.15504691867823794 -356.36943998373141085 -356.67775058352617634 -366.97037413115100435 -352.78380950992362841 -366.33355784262647603 -365.65083725688879213 -358.97843550072133212 -365.0027285803103041 -353.36973307993491744 -354.93918277563579977 -348.89709342070170806 -354.04069119121959375 -355.90863338608562572 -368.23879465524754551 -357.71490520798806756 -349.08355410472620406 -359.95126551032802809 -359.07818102962153262 -359.35292879158237156 -365.41042960892991687 -356.98794988187501076 -363.37878655549650375 -358.41438972211068403 -365.11300231979731734 -361.6787490685799753 -360.80298478461401146 -363.51847201871225934 -357.23602927224345649 -354.73916297866770719 -364.86141479652604858 -354.95275135641270481 -358.97335402858334419 -372.06776056931522589 -364.83896543464214801 -358.6815666220271055 -369.79899665636884265 -360.3241243381017398 -358.57594146719935679 -365.33330458668592655 -363.47285758107813081 -359.95808601388193892 -365.05448134853179454 -364.98567364541059987 -364.24107391158946712 -342.25775310346341485 -362.08924843166022356 -370.22127561177097732 -365.99783306099226365 -374.79430038385561375 -360.13440531983036408 -360.57833244757807734 -366.92913749877789087 -358.12403489919717003 -357.98785736846855343 -362.04706070131896922 -355.88642381862933917 -358.27063472280826772 -365.4205887311837273 -353.56964840059760036 -355.9334693587431957 -357.40926188039907174 -353.9492492177325289 -364.7827836629352305 -356.41974273644012783 -351.54601849263059421 -357.3746395612410538 -341.89388790348806424 -361.15640996107651972 -347.16676716535675951 -361.38698129776724954 -357.8330118151153556 -366.35106658011130776 -354.8320929098833858 -361.32164321124673734 -356.59853978513012862 -357.32814653669214522 -354.35687894584617652 -361.98728090338113361 -356.58740545685361667 -367.63058068668760825 -356.30166995356887583 -350.60168514390960581 -364.51507042714615636 -368.6012433092831202 -364.9666784682301568 -349.02926833012202223 -360.9881370349415306 -365.06153909852849893 -355.40345688588627127 -362.63700953007247563 -359.46585013313665513 -352.6787330714277573 -368.05312549555083024 -358.43958671311560238 -369.1468910526564855 -360.6066422130837168 -366.1673363454690957 -361.12315843619472844 -363.32009460590916206 -363.55324254985947618 -351.23588549438966311 -365.37167827468317682 -363.0590548742332544 -360.58539744870643062 -363.92292756273576515 -362.98790962441489683 -360.62135030330682639 -368.6197352883422127 -365.55607314029930421 -351.45608475763106071 -356.34230787134794127 -372.53328663806166787 -356.11540514313878703 -366.14921184139063826 -357.45947186673424767 -373.07372928791255617 -368.61447469992833703 -370.43136076639649445 -359.12952005132206068 -357.59664331406736437 -367.67445997930366275 -358.16944785928779993 -359.66097851199617708 -353.57524847752597452 -359.31296435229160124 -359.63172254358062219 -363.97519248082795684 -367.49245778893424585 -356.85657320481669785 -372.97409534732099701 -361.7668701947837917 -366.95707038400115607 -369.44493686435845348 -363.10617549334108389 -361.68545585075685267 -350.20712133634526708 -352.59968315106749515 -354.4547251178249212 -368.14676648666841174 -362.58560649266087239 -370.48876830158002349 -357.42800373568923078 -351.54756586485859771 -355.05449252515734315 -341.81587376563317093 -372.5361799975090662 -359.96036121194788393 -348.77349065662366456 -357.87096278722771103 -360.27856151575610966 -364.86927292986615612 -362.96409415912620489 -361.08455735429322431 -361.84460585881168981 -353.87934444859581617 -359.81481411992882613 -356.0559411011663542 -354.87604773709603023 -353.75015424502038286 -365.13714303538057493 -361.29254465832559617 -355.45829192025036036 -360.85443922086670909 -362.23783853014271017 -360.29181242989261591 -362.45119810896534318 -360.03382781946578461 -359.20491576124783251 -371.29735972120903398 -369.62491187625641942 -375.23463236710233559 -363.47214734934391345 -366.65188323483175736 -356.63717454775536453 -364.05166971898091788 -360.91182802389693052 -345.94342561250738299 -366.44735625389677125 -361.08438243290265746 -363.82628651362580285 -367.28759656430577252 -364.6876041601812517 -368.20853719884519251 -359.90548439094544619 -364.71720154804290814 -356.7612352003480396 -355.24618795953335848 -364.20990955693935121 -360.42369427383863467 -361.11034220814008222 -368.60338363301281106 -368.10639409489147056 -368.91655190447738732 -364.60690035999937209 -360.38983732328654241 -355.58771794774889941 -365.03121743328046023 -364.92219868790562032 -356.55369150718513538 -356.4112871022238096 -370.19479163180329806 -361.96419016984577866 -365.85786265973280251 -362.21084278996363537 -371.07777566284931936 -363.16593587517439801 -362.80365900630022225 -367.93844302889579012 -356.72220660729180963 -359.17491510891738926 -351.6385037648314551 -364.08961848016036811 -359.26940764433669528 -354.32055623573472758 -365.39181041132229666 -369.30037008588180925 -354.48257558480173657 -360.41635147778981718 -355.62365678145198444 -364.81057937741553587 -354.95893203718731002 -362.78445872044864018 -361.47932713305220886 -358.64980553258840246 -367.11423007896632953 -353.42141471226170779 -359.86220964883079887 -350.58351910870237589 -367.5708286402297631 -360.88228848322665954 -363.37622776294188043 -360.68495730439070712 -360.78717885066924964 -354.76359813972646862 -352.83292645852355918 -374.66280242186456917 -348.55054607260296962 -355.61864568515198926 -366.03269377397583639 -360.04175629030055461 -363.62436704361005013 -368.80919490330194321 -357.65591328879952471 -362.27383016647758041 -362.70809406567514088 -359.64889135648974161 -360.32709574137840036 -364.58439298854614208 -356.38421895655147864 -356.05271215250434125 -361.21954424581753074 -360.09514469481217702 -364.77540682612982437 -368.32075285144196641 -363.02014042475076394 -364.41499553148167934 -357.95774660851822091 -367.63812358288458881
-16.708729131014674607 -8.6338384459715893371 -13.744889226601603838 -12.06421578814597062 -18.233274080787886362 -14.609333696607693653 -14.76993443421409502 -13.187666188605078332 -16.503478512532748113 -11.436677102953456853 -16.159619447107814949 -13.837261109787512225 -16.129648396401869093 -16.596505298631928582 -11.669472046895997153 -18.049683784392360764 -14.57116189185284405 -16.753783980191276015 -16.593177487936372927 -11.478026606650029606 -18.669628184988798836 -8.0078818952940711284 -17.881412283357732917 -11.239708398024058411 -14.793755876613207789 -14.227679822398329179 -15.41248743143885136 -8.0310982816277984853 -18.007949774263661169 -13.811585087670673389 -12.524184632952735541 -15.243864767951917472 -14.280008661882089172 -23.007418307607665042 -15.272639697048306928 -19.535380399157013187 -13.92391944699241968 -7.035630364929233771 -12.112414881454794724 -10.368494764505349792 -17.042037897219472597 -17.252883743655573312 -12.869015727824681505 -11.210467132987064431 -11.01916711443218766 -6.4895498785789769158 -15.671315718419991825 -16.843589508157062795 -19.388186137704476408 -15.037874386411747452 -12.171320973509407892 -13.937168112338209625 -9.0036020747089935412 -15.36332671589580734 -12.616991418520536072 -12.70753303144088342 -15.185842075086677383 -6.227668577826058538 -12.959067856177068023 -10.600209875971250639 -21.443360294479063555 -13.33600105474685904 -9.6092212630892603897 -12.559834993983677975 -11.468174660776851326 -22.825195370981042231 -18.858445079798261901 -16.545553791381550468 -10.63263170447810424 -17.975966518780349901 -9.9739692506671833172 -7.049580205442174119 -13.561285076775666525 -10.288193286645114455 -15.969511648677405802 -11.388124999869432941 -8.5771556283235774742 -15.35313687685452777 -12.462727053856321291 -13.387428622374951459 -12.192835258843702562 -11.863123600107186917 -13.781333607033486643 -19.99636064886521325 -9.4524953712646375692 -13.867412126977164633 -15.846899799625576932 -15.820280874616141631 -14.111438747036393337 -19.566137734838477513 -13.497804746373528673 -14.267968643211151658 -18.977026286154710988 -15.045697267350586657 -18.876212315218346305 -9.1653615022644903121 -16.450953792016580479 -13.730144771703558959 -10.855876160293050248 -13.799987799285890588 -10.330994601304292146 -13.716388416875503253 -13.05243593924996226 -7.7768046366037193451 -17.928940011266298882 -8.9787069317977312721 -11.323599792719514667 -13.737745867302574965 -16.439674581035742307 -9.9863568851333539556 -9.7760344677435337957 -12.435252147185865468 -15.775515008135467809 -16.915138617847755853 -18.411039046982683232 -17.006389669314295077 -12.883311782068872731 -14.926595212975133364 -15.755772887910094227 -15.31658133798436694 -13.701734431614156051 -12.095990264740944298 -13.855147562276229678 -19.310254747514118634 -9.2921186686914509778 -15.053285075279230654 -13.858179466652291723 -13.391502729379274328 -6.0315481627884555138 -15.681715713559217562 -14.562986690822672387 -19.304205845262401908 -16.618027433555507599 -6.0576040239884321181 -20.047993796252313814 -16.421824392261058279 -12.24210198027227392 -17.202389756050376235 -12.626873863962725153 -15.537293309044626355 -17.348788230068155514 -15.26936435414651605 -12.878177818866571869 -16.462015586957612356 -11.345403592032386797 -25.535690762925721486 -12.997606360315995033 -18.741148266202021233 -18.57143497545104438 -14.718276045425163545 -18.962029482715976769 -23.597176132791446435 -15.833337459444674522 -20.946372468239818687 -13.436189690557403864 -14.546256465445640771 -17.44800230029670729 -10.614065754780241946 -19.141432935204019117 -12.432512599106491535 -18.845941947942698391 -20.647048861383634488 -16.09241476722041142 -14.205547785723908305 -18.189577411267190854 -12.497076935782954976 -11.68382080413201507 -13.636896790075041963 -12.124311982981621938 -13.571221629235406425 -7.2499384428510236233 -13.047640023491222649 -19.460610482092736362 -14.721951007499429309 -15.048718344678487568 -17.120426967673829211 -16.430015914497143825 -22.151771387970363492 -14.793332080873739187 -9.5740686603582094705 -11.72426834779450644 -8.284267418685818285 -18.431339009194019241 -15.473419747576526717 -17.97729832279277673 -12.99882286146054966 -18.8248696560876283 -13.514887632219135583 -12.450233849579221967 -14.461780719404311313 -7.3426848685568915087 -15.101008411205468107 -10.29454872733671067 -9.6891166277707387877 -14.998134251481776147 -10.921219024255270469 -14.736778721234067291 -13.739355682400953285 -7.1887194463453782944 -11.850365631853131632 -18.350556744136298448 -8.6977894624986724637 -14.353776052842917466 -15.702192084119502624 -10.805699278581091249 -16.110561231096966139 -10.099480132789274478 -15.832327243672356332 -12.395967901978485415 -13.034264443857500382 -16.617246349998403332 -15.793795670945783627 -17.241324723050354351 -14.143274073342615438 -20.047898725000727893 -8.4579385797955417559 -9.9345342078916925033 -16.24283136026446428 -8.8615957625006380738 -8.1626927245962939139 -13.701971246536929883 -20.785362891943051977 -16.186442218008664895 -5.4657999899808640265 -15.782110496948622114 -19.713303804375890138 -14.839968317830166455 -17.734818107827031497 -14.784679338195040543 -12.9977825974822494 -15.411705079098126703 -13.6493494793242931 -16.636887556547510059 -9.9552604068163059736 -11.337973613791463734 -14.367949663821812933 -13.671127242270836533 -15.905408213220429303 -22.337242580473798625 -14.491981540411423168 -14.733032845927581889 -11.702795553193737987 -13.806181357227032436 -13.41775661517305096 -16.430491037358564199 -10.636998743760905484 -13.490625366678401065 -20.630366985782259803 -15.014230805770163002 -13.259385706742676803 -13.410288781995364005 -8.123803694039029466 -10.61029918901764546 -7.5709662770821557487 -12.99985959892733689 -10.389369105049581776 -14.621199820682738491 -8.765538169214547537 -20.420800654258812301 -12.869680490714406673 -13.627769573995919927 -10.600539910378724784 -16.137831854366005757 -8.3488482869481117632 -13.353520310700872642 -19.324268702151361055 -18.034313664858661497 -9.6595242670882957015 -14.773684977418183095 -12.941534338996618203 -13.310897803081406465 -13.569168146792064178 -15.181461153732373148 -10.979255708068643926 -15.746433043032165955 -15.707144796417281896 -21.766262966084966024 -21.734602922734417518 -11.891035794957186766 -17.262009604466989288 -13.765382091600239178 -10.738358906794452707 -16.35607929804926286 -14.297467768002560362 -17.866393187201790482 -8.4047967687706304218 -11.892183147778409236 -5.0601871138565845953 -13.926713816709153093 -9.3837647877573218125 -16.065987662650496048 -15.197657165855872563 -18.195532211214462848 -14.917387874052224106 -16.304893100126840011 -12.747032339530939282 -10.587546132413574895 -7.5323757184751611859 -11.541374184308226702 -18.023056567315386189
255.59642233118984223 256.4239407072046788 256.45108364732772088 258.72392005284388006 255.86183988435044512 261.55724749907068372 261.56538381436439522 248.95303271098245546 266.79411597449507099 269.4098584071609821 258.00474330272112411 258.72360990593847418 254.26568904033240415 264.57545821450378298 265.53852866725173953 255.63940052232143785 264.71976628763985673 273.94670798880213169 263.56532761556997002 262.11797904412617299 249.97717633308531049 262.41006230326729565 256.81082710313944517 259.12408190346269521 251.50511654996944344 259.85545642026977475 264.83445022881289788 261.3243611128611974 261.24165242353149097 263.25575744851721538 258.70446426680450713 257.46994800832521832 263.32506333349948591 256.78062923156528541 244.93983587731383977 264.30727259942955243 256.09041270471811913 258.40465124649415429 253.05535134024455601 254.2675582108610115 270.90964407494720945 253.39050424264041794 262.38700002674340794 260.83360289145815614 256.70566529307637893 262.39828896573089878 258.67704862151703082 249.79176487278877516 258.03628998795426241 252.92006193312693085 263.39229244696423393 261.62833204335061055 259.63437507621620171 254.84541412512658098 246.88041158040059031 250.59544916107000745 255.2254301015232727 269.42277613325802577 264.03815400500184296 261.58896926910301772 272.74101175763689753 252.6766395163800496 249.85571476387823964 247.19609915030090974 251.56712431245597372 254.37006731830209105 265.41912152626883881 276.07201843375838735 272.93565436005860647 261.08526009394449829 253.80748405471433671 255.02884842616194305 264.94014883494071455 255.78149932937157018 256.02273806362126152 248.29669263982472671 251.07235214100953158 254.42572396743943841 248.111770033954258 251.45160702674141362 257.99740333401013004 270.76278089192857124 257.77427102226363331 261.86358030067481195 254.63633780196778389 269.36818807098092066 242.15160805205692895 256.72550276231220323 258.40302250478515589 252.81816397039668232 257.64169696381077301 265.13602619127595972 249.8462963688126024 265.94812675460320861 262.18416951240061508 265.58804152734194304 257.42968727708336019 260.43070208434443202 250.37551814144367768 253.51509292855214994 253.95084058506455449 254.00721830539356461 259.01731923001250379 254.13361458637450596 269.55466127295949263 267.57717205433840491 249.92243985887040481 254.75727148649099263 269.09230644892204509 257.98142491969719003 248.29794161703935629 251.56688980041366221 262.52407993852079926 259.88344254934958144 257.44136951080747622 260.0854916738612701 262.45144739441468573 267.20363922188511197 260.37576956868383604 255.75338408110974342 256.4074067803375101 262.52393720843906522 265.82198055959474914 257.95044730988388437 264.06560427283125136 253.51251743607883782 259.9559059570067916 248.12794787940734409 253.16625089800572823 248.9707275745928996 259.848033817390899 256.49873428296950806 259.1136940059278686 259.52887625294607687 262.41919965147314997 262.54280873483662617 252.85304632529062019 254.97565645443384597 263.1005442436952535 268.98135942489642503 242.63439435172625736 251.0860466930421353 264.19808384409321889 261.69831687018324828 256.25985841216879635 250.05785958856426987 261.98374216086182287 246.82656006297798967 271.16612683433669417 254.87950936036463645 257.80060663212583449 269.47973737668610283 249.57575113456633176 259.81942908022847405 264.10201077165379502 256.04308746201985514 267.57890090338150912 248.47685971288527185 262.13650480342784022 266.73194457038118799 266.87092389001611537 256.08087082756816244 273.59291042918880521 269.00655971925908716 252.54999396455224314 264.38568174632916907 254.30540831427089188 261.62751181219630325 264.76187991987978876 270.49733025546510135 266.31316175597191886 260.53985904893897896 258.63218334262444387 250.79711746286270113 260.91706058505707233 254.16959965581207825 274.34980847315370056 258.74543306521871955 252.89774085522054747 262.7588169102403981 247.20580084336970117 258.14355706208050378 259.20355618291483779 264.44032382259547376 262.48410202380472356 256.55444576079531771 265.68732753076062636 256.5841764223691257 246.20819869678209102 259.10158985937499665 258.96779108026885297 250.13076775700130838 265.10831744469385285 251.43227453669194915 246.60301530082134036 252.43101283641735222 244.95718737975354884 262.67899482963701985 259.1630105945752689 256.52613010831294105 265.88834576508173768 260.81223092625464233 265.12758107908604188 264.5258089168851825 269.20533989389372209 273.88503801471432553 245.97753785180771047 263.65659119252694609 249.70102451588601866 251.15516826887801471 253.83469405275826603 266.14861867344541224 250.93721349399334031 245.28768102897649328 252.57867179860562601 267.56370153467827322 244.22498579216767212 252.29916605053540479 266.24130171205746365 256.50258067005387375 259.00380288459518852 256.0622512623464786 257.6036347082734892 266.6549561913634534 255.81470680778679139 259.15096011155998212 267.93494937433621317 272.00157699882441875 266.72480684481763547 257.93639236278886528 254.2267143035039112 241.32909491781123279 256.19823101066663185 251.20428028791474162 262.04823889606399234 255.83904823609015011 270.43610426067237995 258.6880997583015187 251.43535167830276578 252.06957043251287587 257.77824773505511757 264.17397731729920451 243.77403958994230493 263.62115400986880331 269.79188212310089057 251.92475005020401113 257.12489948332461154 261.75162385301507584 259.76509278628304855 259.67370344905856427 273.4781270817368295 265.12416787681411279 254.30647839848103331 255.84294917302872818 249.09052677855800084 263.59397881129882535 258.95444690247677499 265.40849785987307996 255.90441760792697323 260.25510663514694443 263.09511792045373113 272.66198810966142219 263.71687670289452399 251.81483145775794696 255.02497067204711811 245.95961779799591795 266.92848591370545819 262.51392979364942448 269.60095637085646558 270.06177135831489977 253.00169992336259384 262.101687791440213 266.30241919680310048 269.96605488723832877 257.13676048802204832 258.0825454358386537 259.57968248549542523 269.51814075005961513 257.7891901049832768 249.20312332566368241 260.67093626104247051 254.37857426683225981 255.68175354976972358 260.505341733863645 256.4893744602559309 260.61485075008687318 252.65537592649576482 258.41546119927772907 273.73988751400429464 259.73117430132515437 260.85342441721741125 255.9540035563198046 253.57277244996197396 263.72678864451756908 258.05452102768242639 250.34885093207330442 261.41471636067512918 273.07867211078729497 268.97477672008238869 268.69722959636044379
-359.80998346160629353 -351.29974153684827343 -348.46008122497340764 -360.59198454829748925 -353.61292648199633959 -353.12395130279463729 -359.35870385178520792 -348.01324842416363481 -355.12347751176730526 -365.15853977039296296 -350.81410399229775976 -362.26342244494270517 -338.21619764486814574 -352.35901073883121626 -346.99801855230907677 -355.37336769460313235 -357.51736628620517422 -351.23139524442660786 -361.2670763642570364 -353.59965152025267798 -344.11397511314891062 -353.85955590929972914 -350.52429329498954758 -349.81979334073173504 -364.53550121552223118 -357.8952750259916229 -357.51654047753510213 -359.43043136483038325 -356.25080671174703184 -349.44371627615350917 -352.38963076615601722 -352.88279224415742874 -354.13793275354692014 -362.34681880617023353 -363.52283359698753884 -359.30280178026930571 -353.83860650034063156 -367.45954943324420583 -352.95530957324189103 -349.50721061660374289 -353.9712279222660527 -345.53867117066346282 -349.2047508158973983 -354.23591568023982745 -355.09868752057059282 -355.12995791486650887 -351.87842969123232706 -348.69850630690768867 -342.81350021194202782 -354.5770802751611086 -365.30413208301297345 -352.18593640498949071 -356.84087534100478933 -359.19757343593204268 -360.14687665828648733 -365.55350991688362683 -360.06132134922438581 -347.51521925215354258 -357.32049683667355566 -348.17130088393184906 -358.36920539907293914 -351.11546053862070949 -353.53891097112261832 -359.84167399914650787 -357.57095434137573875 -355.73373436039628359 -345.44234633693821479 -367.82762908908574673 -351.66984235141370618 -356.56512745040402024 -348.76171095896631869 -346.64827092841119338 -363.47598071872101855 -351.14668456707937594 -364.72853246918299419 -358.49989905425962888 -353.55628432826381413 -353.3982117113510526 -351.90639288733393641 -350.73297852671305463 -359.99673434469593758 -361.3115597285828926 -354.44688249276867964 -364.50858536192174597 -360.17717422865746357 -352.27972689332437994 -352.74194349622445088 -350.0103270687562258 -353.50256930520191645 -352.91777108284674114 -354.57257429549173366 -343.79259374255542525 -360.84835125764618624 -346.26430756453817139 -354.78276792839113796 -355.64116085383056998 -347.31763514923551384 -347.90798513503636968 -352.20828060714950425 -352.3378904761379431 -345.64350579986938783 -357.12314808927249032 -354.54931360998307355 -351.80001662693916842 -362.33026283251768973 -354.84170039349925219 -353.75961437964758716 -354.16025152216917604 -349.37568638856691905 -351.16585615623034755 -355.53536252196573741 -339.81790843210535513 -355.74185300676180077 -357.63062784864627019 -345.57404849669063651 -363.30078952172692652 -349.40902246501099171 -350.62392788674429767 -349.67018597917194711 -340.13286457480495528 -342.92690199757117853 -353.8356574471733893 -360.40923014632971899 -352.63399112569942417 -362.74532119718946888 -350.53475573032721968 -365.03364179625680208 -353.63687840342629443 -356.63603846461103331 -357.86714746218297023 -354.43774151850709586 -364.48764365756198913 -365.6424335879460159 -354.08782055482157602 -357.05910191371924611 -355.51960122702178069 -362.89551818375826997 -355.2443681785920262 -355.11130146518968331 -346.68854902318810218 -367.71948689426494639 -364.81186412630114546 -363.44937933513216421 -358.99095719848799035 -352.71231673145501873 -359.68012244608911487 -352.33029962342692443 -360.18810035196128183 -344.91468706900110419 -346.70705310642466657 -355.84656804441664235 -339.50050417787571178 -363.58892123307225575 -348.11227136633817736 -352.22576298598045241 -362.60094405729591927 -356.22676986378411357 -356.09972191423264576 -361.19461065123550725 -352.59867719416064347 -358.13208793133469499 -352.62245714916502948 -354.74245984711416213 -356.28386973990035358 -355.61435175099427397 -348.10625609223308174 -354.96861962884264585 -365.69529854876054742 -363.84917560296611327 -352.60261300654161687 -356.00727500903383316 -352.61079914406377611 -354.82921342944104026 -355.03499541262067396 -345.70038215850348706 -351.55830884569695627 -348.86640534820190851 -364.1431555172877097 -356.64467853446024037 -346.30115689920046407 -364.38626983024215633 -357.84970635320149768 -345.60393939848285072 -345.79843656648381511 -361.70260178883938806 -361.7288760398827776 -345.74553863087743366 -355.63136427436489839 -357.15591587729181811 -357.6950084395812155 -358.62085205982913294 -352.84460891736165422 -353.88946408216935424 -359.2312950562328524 -351.02042467355801136 -371.29350019723966625 -352.42872912945506414 -358.37762820520430296 -341.020168060187018 -346.59071376723585445 -356.44719229938311855 -353.57144592239450276 -364.47654537588471158 -345.5978517396879397 -338.80148091502667285 -355.22425140082560802 -345.25565942062212343 -353.39623482649557218 -357.20716054542839402 -346.84179393222791532 -356.55486691030108659 -364.65200948891890675 -355.55860133862472594 -352.22040902693504449 -353.69181509173239419 -356.04435297903705759 -352.06340633034204757 -356.65957965099443072 -358.56304045806575687 -362.01572665879803026 -360.68948337688954098 -361.21799138724441036 -365.97894696612922871 -351.86016214837468397 -360.2894005209907391 -352.08485733021035458 -357.09685207178972632 -351.94801349847352867 -353.08711208254089797 -360.85346639072298558 -360.74654542577906113 -353.06053698565511922 -355.30745798660768742 -357.1816442158569771 -352.20967545743229721 -349.56571998030392479 -360.73490799981857435 -356.0349139825454472 -355.68392198119948944 -352.50826577155623909 -361.72019515411932389 -356.36168339198951571 -355.73523652814606066 -353.74780275884535286 -351.85073153657799594 -355.18888885204205508 -366.53083287955183778 -357.01824941226851706 -353.33990483553776585 -356.30232448311960525 -359.03249986279570294 -353.10613821731612916 -356.86652616903654689 -356.01107361381457395 -361.01587064763668877 -364.00235529111785127 -359.65998260296203171 -354.11277341814536612 -352.93245196913858308 -356.82345687298277426 -360.37245118408731059 -362.62257126079663294 -353.23950390671848254 -362.03254812406561314 -350.57937955819738818 -364.94519031857521441 -354.54954765681839035 -360.38259295754238565 -357.55251973880081096 -361.52252341616861031 -350.46559608305381062 -355.72755968940055027 -355.94380376203656624 -363.41030031754257834 -364.7529118250683382 -369.41507694900116121 -355.59801846291168204 -346.49390143365491213 -356.45411101756866401 -358.08120685382385773 -348.91744055658398338 -362.37584768070922792 -350.64714842426371888 -352.38294816824588906 -355.03623818028052028 -357.57616135776839883 -360.40376978864225066 -370.63210866558370071 -346.67220158158340837 -353.31001749915731125 -352.89843630359081317 -341.05118599721521377 -360.88379587647830249 -357.80178528421350848 -362.00862052637552324 -360.13333580219074292 -350.41396524877484353 -346.85072289215383989 -361.71309330488952583 -363.13346895238481693
-41.730581595644125059 -44.040889479327752554 -40.432022014875748539 -48.543124772906928399 -41.671166100084960249 -39.103095303383810233 -36.764985462838247088 -42.483042749902267587 -40.098736155700528627 -37.792510541883501674 -40.012355561312070051 -33.02608609722935995 -45.455553024192262512 -45.497330337526648236 -49.769759380096601831 -37.911962768488450592 -39.308339420871703851 -41.633325651209844409 -38.776892539408372329 -43.494915359650470066 -38.041530251944791985 -42.853084485650711599 -47.760047949554959246 -45.928578623425153182 -37.603813588452354111 -39.510560659209261303 -42.123486062957098852 -42.942335089435005102 -48.386470937286858884 -48.546678148149823073 -41.767938443228715073 -44.610432104839588874 -39.492626568685693655 -44.28147261166636639 -38.162248495678447568 -39.904762304724386013 -45.082506395607047978 -37.770560104744809848 -43.168157717094516101 -37.130798005194066036 -41.783520959723951194 -38.040280915776371273 -47.759377172224944275 -41.492020608421512406 -37.353990443877840733 -42.177764286370816649 -39.84404824209852336 -43.467896971020145713 -43.224039002035681278 -42.104104056830649938 -44.326591751821553089 -43.6529109156390831 -40.571664656581795327 -48.313619194738279816 -49.96173399247020086 -41.803121571693623082 -41.131919277186696604 -41.774891085635921684 -45.156778831927795181 -43.782191100622704028 -45.345404709495795714 -44.901141582006232511 -43.314111491061652259 -45.007387450098640613 -46.154235233612780576 -41.428571573755014867 -43.42388886156551564 -40.059334906083556405 -45.685871308514990119 -36.776833520863448257 -51.701873508066370277 -36.113483429809903669 -39.155866180514600217 -48.511603533862071913 -44.28448861893526356 -48.279129129064912718 -42.901612631089108163 -37.267741030937322932 -41.82572954362793638 -38.115630200188995502 -45.080107421542180646 -45.813392710212951897 -50.656129980226765497 -36.177666590438896321 -44.705276112270979638 -46.890358482477438429 -37.93153255077147179 -46.750043042155340345 -43.337443737739320682 -47.702821796209441629 -52.41217186107758863 -45.293139149433002899 -43.906998131165835275 -41.404777389768653961 -44.31106165789430662 -41.956688217760891746 -44.099768769431896942 -44.655063459630959244 -46.517716281622696783 -37.619913864441350881 -39.430456474214324203 -37.872488345109523777 -40.605504806101919257 -47.76522073107993549 -42.370053028397144601 -51.240573156472976279 -50.493272998948256713 -42.037879291922671143 -41.70521279386125002 -40.493496579995991169 -41.569950109625054324 -50.304444795414013925 -50.007363510456023903 -40.589879706914381075 -36.911307157795405942 -42.079098694628321198 -44.169163550202519275 -42.089802041233625118 -43.814031832914920983 -48.184550157628798672 -45.37443898689998889 -41.820945334518441427 -41.906239875242157211 -48.169223682264259878 -38.944969870959013747 -39.80464392026550513 -46.243414478617197005 -43.519784638639031016 -41.029315674917732792 -42.978940546476053441 -40.367469851958198035 -48.825907304156366706 -49.771954324017571025 -48.141013196916603079 -41.739583572425516422 -48.187401246684686384 -43.589148139880578015 -44.994908068563702841 -40.448551854770961711 -38.475749426785249341 -42.988279281452356884 -41.391711456090710897 -37.018380900595211358 -42.876868690921654093 -42.695049432670643341 -43.577184981291509303 -40.968012392507304753 -41.910315432158654403 -40.79626701547230283 -47.677731966865898983 -37.922125150094224466 -42.529522266198824809 -48.491489158524473169 -42.647579912455938711 -39.831107587005881498 -42.290824680946641934 -41.774496689578015207 -46.636441915759498045 -40.818621011078789707 -37.783110178118285205 -43.598708726264192137 -41.13128448787181668 -45.376753040571458087 -32.471664517454826182 -32.354822521342008201 -51.162270792785008666 -36.896831241705015714 -48.30197837745344458 -35.892878318678498317 -38.688173169933683937 -43.883451477159475473 -48.704887327726723356 -42.448244473745916139 -49.880372215570417893 -45.268576747351033873 -41.493289244020729711 -47.614801300682820795 -44.396645899435455362 -41.915639292950572781 -45.505346132657308544 -39.229591272740449881 -44.392093999476415433 -44.117331110209221379 -37.354196454551939155 -36.673339599931814803 -44.57213332961171659 -40.932260482077353458 -27.329794791690922295 -42.393306428718972256 -40.249288463189280662 -43.742931830552429062 -41.050411793151035056 -43.969885543405830219 -43.043175479978728504 -50.061037387526880593 -39.797861274854163582 -40.63322763659828496 -37.606795515716243017 -49.027478887584521772 -40.138126787919176763 -43.737877016908484507 -44.510213619721895384 -48.863687164130588769 -35.617054791108124334 -40.99830849471421601 -36.379367834011787863 -38.776737137796345678 -44.639144081127383856 -42.049389599033503373 -39.842796267014563227 -40.076532570490286389 -46.069512793699011866 -43.121285074686049654 -46.57512485612840436 -37.444693151512765894 -40.263357073989972434 -44.688895183575120029 -35.308128257786655979 -44.203706122040159698 -46.758348012082223022 -45.689020552415769316 -43.333411368325627677 -43.984616861460040127 -41.390432830064426639 -43.222267827410931318 -44.763110696070100403 -45.444233296353829132 -41.772677154235296371 -49.622205197017933642 -38.690664499380517327 -40.62313135149728538 -44.996884839648330967 -49.081883855586760035 -46.586753566121444692 -45.571587684842917554 -51.080191325246680378 -39.043621487601001263 -45.264135702325596355 -46.286483179674988264 -47.004337114223289973 -43.926070698201165499 -44.608590097491649828 -41.98607247579006696 -42.258056743843134484 -44.715626595327343296 -42.965944245333830054 -44.667605196846430715 -30.688332633702998464 -51.771883740699259135 -45.358403299773662809 -48.417542720386848032 -44.180004530862824197 -49.144211038414212567 -42.066117017069323936 -42.547132807433364121 -42.57457861349605821 -46.05964239407000349 -37.010290427225726262 -49.759644552939576556 -41.230984720377854558 -37.252792642733162154 -48.318712916835394822 -40.767482203733528934 -37.06999252861167804 -35.129899371887049142 -39.077453259483498016 -44.622729062215000795 -55.051689507730543482 -40.915338922211859085 -45.203935750445502606 -43.63353917398944759 -47.502278036359619762 -41.466233633976287365 -39.868043040548506895 -45.897487028769660355 -44.274725531098432896 -39.733688519863520128 -44.570235390780567286 -42.89116797719952956 -40.973236729046078608 -38.336070484182144469 -43.436839213492916656 -44.933658042550668199 -50.834744495876933001 -45.353458093719481781 -42.526771598876578651 -40.281802656436383359 -43.649402587391591624 -39.159749255706998383 -54.540088455838933612 -40.946666619589514369 -50.141988919228751342 -45.537141919659525513 -39.656768044709586718 -48.599753109530183792 -45.756631482848156622 -41.98247565301099371 -47.800864370413023607 -48.75348035063919383 -34.13003944982975213