-282.1492408165430561 -292.68414618061683541 -285.19339582828308721 -280.83900625595777001 -278.89682867740492611 -291.181140240703769 -276.00629207598723269 -283.52782553644323116 -280.06728200697580178 -285.38769894275020533 -281.6607063770655941 -300.48755363194584334 -284.98999233210821558 -286.12540508635618153 -287.19699668145295846 -280.73302908504501829 -278.99884442566423104 -285.73119385452838515 -279.61198158862373475 -284.81524323894359441 -276.88329223367270515 -280.44033305233841702 -291.73236242991333711 -291.67637649551824097 -284.8637728753745364 -292.92520377606183501 -284.68263811967204902 -285.62714769766967038 -275.05635735079522419 -289.18051411629176073 -276.15654135793505475 -274.80442158964643795 -279.15955734806624378 -278.59978016266074974 -283.27254379425534125 -274.07526795427833122 -285.65552810809242601 -286.54471337267443687 -275.67707243277948237 -281.03433450158968299 -291.1741405484726215 -287.2610794104863885 -274.70338846458793114 -288.18183258813621705 -284.44867298359497454 -297.65589126451811808 -281.53727860504926639 -284.86759998096590607 -290.90889805326781925 -283.07373991935469348 -281.3086494104884423 -283.23285115835113857 -296.22285901282646137 -292.17144348698508338 -283.99006885276759249 -282.15437314960888671 -283.6467144277419834 -283.46408899171439089 -288.21326318327385252 -278.19950882625522581 -288.20429438406875988 -282.76437059039636779 -289.46780584355343535 -282.08400789557612143 -278.04542995841831043 -292.14711656104873327 -295.44904191686129025 -278.16704926025215627 -285.50316745873323043 -293.66383639215769108 -288.2999860193914401 -289.08551623006400177 -287.35926673345028348 -279.42502382675490935 -287.12815876097096179 -289.69398091809387097 -294.66776468867431049 -290.71772758294599726 -280.95508964202383595 -278.81280960680999215 -295.57227786524504154 -292.12786451038431323 -282.9433609728592387 -280.25802729485786813 -275.57694130800143739 -288.35727484499000184 -283.06107424077555379 -282.9971270482646446 -288.46595606596497419 -283.47043921208148731 -284.03937713631637507 -285.18065387991640591 -272.75784491171185664 -284.31620643000388782 -289.34564937086474856 -283.32220421463790672 -289.9228024406954205 -292.66045833191975589 -288.38101982722997718 -294.14055891732681403 -282.77067357854724605 -289.97373388092671576 -281.13032543001770591 -281.76415189320977106 -290.97539368169509544 -287.22135190754408995 -284.29241598005910419 -283.73837317852814977 -292.89570188365058812 -275.91946600256358124 -280.65791327095763563 -282.64830067949264958 -287.66920321367837232 -284.26140805301884029 -295.23928882781302718 -285.35544570485404847 -283.86711408811288493 -279.41795547912363418 -284.05309666554933301 -290.14203543076052938 -288.78548268476959038 -269.99329591443637355 -284.36790991860004851 -285.60750498724837598 -276.85438413732492791 -289.44562840670067771 -284.26124605930527878 -285.33608136365069186 -276.26220299756005261 -275.05830451006949033 -282.68320509456191303 -283.70511501523253628 -274.59078203406880903 -288.81662406190866932 -277.43108831156115457 -272.70324972684073828 -273.72939895770230123 -283.73336869104457492 -281.50102920982152455 -278.51344709069087457 -288.67527641898834645 -283.5296494054639993 -291.61461872363116754 -276.51201855003006358 -281.10932700414781493 -287.62375896500981298 -284.36162753779473178 -283.38273745157289341 -286.16451248069125768 -289.48226026339546024 -285.06852499591531114 -283.81795590446597544 -289.3094975008651204 -285.57495674142688813 -293.64048928700100305 -285.64394157901080007 -289.81794559452350768 -283.49971344245545879 -273.32229515183252033 -292.19958316121739017 -293.06543012666139703 -283.64261481398682463 -281.59088069352060302 -287.34193812027291415 -272.95787597092260057 -286.4833732969679545 -270.45567066365799747 -274.22740346708451398 -287.53462723435876569 -287.72426853011944559 -281.4335762723433163 -282.91981591297042087 -290.10944789517219533 -274.07148371155244604 -275.60998469178838377 -279.12213490720154141 -290.92916449625380437 -283.33552709723926455 -277.20755542529155946 -294.01583839698548672 -285.87178692706936545 -279.78887437842388408 -287.90005532445496783 -284.5707364516878215 -284.87918966081144845 -277.18276468199189821 -282.77933542773416775 -285.30183701553545461 -281.37089231029938219 -291.07723962820938368 -294.11172155898918845 -290.2405605169361138 -282.5706004787183474 -290.77365332418168009 -292.55360984355070286 -284.09645640783656972 -277.28965358565432098 -286.20778176538095749 -270.98300072568810037 -288.06411526638868281 -277.76552156924230985 -285.72071458142454503 -288.56588178454813942 -294.22014795959250932 -294.03496161028806455 -279.01710006101313866 -290.48077995468088375 -287.57105234291418583 -278.11289473513016901 -279.85582968489921996 -288.28352812404187944 -287.18174519806473199 -284.85938494979302504 -290.45422863848187944 -280.94341462399239617 -282.6272713816242117 -286.73186035431245955 -276.59794945914285336 -283.9155816246641848 -281.65545028199750277 -279.26405181931789912 -280.26269677792595303 -276.82622095308664711 -286.40425594613719795 -286.3558924624542783 -282.359126694593499 -284.97375745518718304 -282.9854183307392077 -285.84344903310511654 -284.64167872188482988 -279.69715421188720939 -284.17050738559419187 -288.75442385849930815 -289.17166715150557366 -295.82053175172853798 -293.84905218308557551 -292.59031217402230141 -287.59376090444771989 -277.98991487185264759 -281.15498088566567958 -287.10065963610372819 -291.29379125825806796 -284.287468273916204 -282.16235479635486172 -287.36052347843565258 -285.83757616393927492 -281.35374925361946907 -284.43867809656973122 -293.30553511475756068 -288.37612155679170201 -284.67620804873848783 -281.27248029818713349 -284.18754595528685059 -281.88511910720353626 -285.43847186061549337 -282.35654577130742382 -281.3626902478308125 -288.28776629517449237 -280.28647117943921785 -280.9166644906999295 -294.78287832469919749 -280.21529786947826324 -286.32347549993124858 -287.255055651760415 -298.30770339069584907 -281.57672590905332299 -290.30662101540860931 -281.07867673530489583 -285.56488411066709432 -286.25916084418253149 -293.61677985430418403 -294.55036881259252368 -285.60901834682329081 -279.79571694186296327 -284.87103925733310916 -290.11873498958834716 -283.44511711435313828 -284.50878510470448646 -285.40563907975212032 -276.11299427354686031 -289.70674625605767005 -280.65586058085523291 -283.06909333579307031 -273.82440216232316743 -286.12483937365396969 -289.86725153691577361 -282.35964612956041719 -285.64495838692289453 -284.59367837584375138 -295.69697372411172864 -283.1047424594705717 -283.58415829205358705 -285.71898457019108264 -287.02460258351004541 -286.88556204333286814 -278.53525607222093186 -281.43796533056450926 -282.68910478657363683 -280.30676168376328405 -285.05684638300209599
-78.347935644830343449 -76.656126777338769784 -68.54402595235946194 -72.481689365595514118 -77.702360714278540854 -74.81659268107465266 -76.309941056600635534 -65.415059690135336723 -74.59646346306185194 -77.933546820057586046 -77.92954429478027123 -78.773751271848254873 -71.460882174548004286 -69.565317590465994613 -76.825915777380927807 -74.93445197726290985 -78.215617545978886938 -71.735022790957799543 -77.83657009447968278 -71.807656034973916803 -72.715671919114470256 -79.873909857917581689 -71.091045937774140384 -75.200939238261227615 -74.865833601259595298 -74.756319623783795691 -70.758501115583442242 -74.929438298086239456 -76.160441898078232725 -69.870007561312519329 -76.989889315601288899 -75.44988654400273731 -72.517440105902167602 -71.546867852866370185 -73.487528385569362399 -72.518388469186078282 -73.182220246004945352 -69.781007746706862349 -70.643793670959922792 -77.588230356187892767 -73.983667006388003529 -72.351121061581068261 -80.712389217686734355 -73.251773686004213459 -75.74256971045954856 -70.089661483615415705 -82.078943355727304265 -75.203366637548214158 -75.833977972342054841 -84.131568163875897426 -75.074495501617633408 -71.560535738290397489 -76.530859041312638169 -72.068592030565554296 -69.962173258003602427 -65.057565398526762124 -69.26971143992359714 -74.079056740709589235 -78.566669748397700346 -75.634933973181531996 -71.238375056957792708 -75.528657959394919885 -72.740048690772681539 -80.201509353969598237 -73.671770717513496152 -79.720825113873203804 -80.458632701237689844 -82.651625568709789604 -74.8695920889344535 -73.779264453925691214 -73.156495860031782286 -69.73224482851792061 -75.235274698042474029 -73.403068395485746578 -74.469901208149224203 -69.330448600752333732 -72.902027394435151564 -75.37386542477185003 -70.55964078496356251 -69.87668501327736692 -82.235034418308643467 -68.839692916177369852 -73.24247536305591666 -69.721184121651830878 -73.38103068568956644 -72.72391508822838091 -79.392549157283312411 -79.307466098136970345 -80.920310119474052613 -67.462960829034514632 -70.13463562765575432 -80.044542912675865409 -71.784338385452457487 -75.406569434695185805 -77.842172250053181415 -75.560360815491549147 -77.149704994515985845 -71.311807658940068677 -74.996630077342047116 -68.5416911764456529 -72.435312861560547049 -70.274322186472403473 -77.01310956709167499 -72.355179905046881572 -74.115014034850617008 -78.170576150315184805 -79.01241045807141461 -67.664734842350682698 -73.941016176001440385 -69.73287295507611816 -77.772849320515916816 -75.980332009828657647 -73.216187383009085465 -73.639974016116156008 -76.677949925654161234 -71.570891868814541681 -74.206046498811943479 -76.104492244858903405 -69.898267538130554044 -75.006048740879819547 -80.323313944714030299 -68.955457440994379681 -74.870739066674147466 -70.601887526485938906 -82.501713221601519876 -75.535915677309205307 -74.021162227239074127 -72.306424312998430537 -69.251464012691783978 -79.589777520619918505 -68.962478340882910288 -72.089035697342353615 -74.426827062571391025 -79.668476359178711732 -76.911090590668706568 -76.34074532803680313 -82.715050952997373201 -78.692644621129218763 -69.661849552159935683 -73.507195939026075848 -76.377635490384676586 -75.800020405213956565 -73.114617610552102178 -75.423878269168383781 -74.678157853897332075 -74.48181152971048391 -77.920030163424726766 -74.952417526424127914 -79.8018571727357795 -77.468663184374648267 -76.175045682530637237 -77.703935805507882151 -71.272613692718735479 -69.119588195922929685 -72.680677867617760057 -66.073899804327240304 -81.052133358028839893 -71.736936653750490223 -69.127236154649864375 -66.142560120306285398 -79.19091515111034596 -71.530268264103142428 -76.305751236879530097 -73.868046681828388955 -79.304962899742420745 -74.324438533682524621 -76.160538714096631452 -65.879713654617546581 -70.84715783218629781 -74.03914434260195776 -70.018243365079101181 -77.624338601333192855 -79.775933864509070759 -82.113091383681279467 -78.036712498726345189 -71.361704424087349707 -83.130411521900185789 -70.739164112312749921 -75.439017086089450004 -75.977295545074085226 -76.27403223150325573 -73.322869780275439666 -69.462645804404274941 -75.268385784339983502 -75.686306724280086655 -76.101344408831963051 -72.905017784626195976 -70.308149038366693162 -75.331564213331162705 -73.66324335134447665 -77.340666672028021367 -79.298378375186928224 -71.005017341653797303 -81.838303433137014054 -74.483713549183747205 -76.037688807015442194 -67.67222372076486181 -67.696957189380995601 -68.749910202485978061 -71.321556442458401648 -69.991860080006688349 -69.325156530299409496 -79.253902946620527814 -76.758994500249585258 -73.02262930054594392 -75.948793427835312286 -71.928384772779466516 -78.087067873544654617 -73.924446102627769051 -74.830380069259177844 -77.44956602063138007 -78.767736517109298688 -75.297395823292376349 -76.563205401905477743 -79.711450481150194491 -73.332342036509260197 -77.587182590472593802 -78.581111008647212657 -71.464369850041649102 -68.486400109603025044 -71.433993054430189318 -70.005064057101833441 -71.208225269130352331 -80.978790281711809484 -74.494372524134391256 -69.770608200115930231 -77.165102501579468708 -76.526311686019866443 -70.353254629836840195 -82.318180824954879427 -79.546007543521142225 -72.75960806991459151 -71.506042494068623228 -75.568507497238016413 -76.410471206817419443 -74.539152228317234972 -75.742617402050015585 -68.592182949869538788 -77.047784027060657763 -82.532667085103255999 -80.836205714559852709 -72.189397958585956872 -74.240306653450247154 -73.234636892586394197 -74.774185298532628963 -73.484458147765664648 -71.942106488857263003 -78.620603822728895693 -70.466699090187958632 -76.218120252055214792 -77.261161520895342392 -82.980226653497751954 -75.065053526752919311 -82.995903718768772706 -73.446885843168743691 -74.044369000268034142 -75.474199144915942838 -76.837242184305381443 -73.843601896030335752 -80.874789396706589173 -68.149092315234980788 -73.950278046388831399 -71.033375148396828536 -69.418816796409103631 -78.383403177148395002 -77.870767200814555054 -70.964178875381932698 -83.538788802835156844 -75.147099134307850932 -79.170745011025232429 -68.504668209363174469 -70.695815826864418341 -74.315468178187302328 -73.038938121631375111 -70.919471866074474065 -73.189453101860252104 -79.204171862142217719 -75.277863541409317349 -76.38171052019686158 -73.53207825634970618 -75.94655737191560263 -77.643616683128598766 -72.652082678739674293 -74.783549178397109358 -72.847426704771464756 -74.030150155810176216 -72.964380694706008512 -68.717533447528396096 -73.434629551493813437 -71.623367305929974691 -75.473219867389175874 -63.447850590571555074 -83.088147070499843494 -76.123630071972002042 -68.728386205374889073 -75.225098291704114217 -71.956804590286509438 -68.912795512325885738 -69.25703021107733548 -71.433774971298788614
349.19751081915063651 343.56895489112559972 340.23355561183768714 345.17642422027387283 351.57013740199016638 348.09629610681270151 345.3983148100775793 353.82490450652846903 345.99099195155758935 345.70583140101575736 342.21339386999113685 360.87369401654348167 339.04113234184194425 341.32442087161535937 357.20079189049664592 350.62384546428449994 338.8607189031858411 348.43190535489924287 352.35136702814679666 350.81598603063849851 339.33639517029115495 336.66104215527258248 333.9277011973771323 347.98265436559961472 348.53457552908088246 353.2813195972399285 344.73363351457669523 351.30452004338837924 351.46457584274401142 343.28768303232254766 353.5693004099403538 331.40505552238630571 353.70471863371608379 349.51401464896071047 357.45584731497928033 338.45960185527013664 357.13119333849653003 354.49887462720374742 352.01622692521118552 332.76065023267381093 352.38586560037418849 341.34687654000759949 342.47919306520464033 341.56636749979702472 340.31298629429392122 345.02575143162692939 331.03360641655552854 346.87730081056702147 340.62774070282853245 358.62610748803217575 345.99012197013752257 343.64492066659755665 333.22440876807121413 340.66621327901873428 348.83533302609043858 340.26598402121595655 340.51283366405311881 339.35875160232239978 352.28318748901688195 361.72566070430400487 353.21161270185200465 351.89734166875223309 346.05347373704427127 354.09542847966747559 343.57521353486549742 336.2608999107959562 353.84119540772246637 342.38331142223694314 351.30262437838706546 340.9118743570044785 359.59313709594357533 353.29986043214341862 342.64019349537534254 345.22243164408956773 346.4970340413735812 336.90253700013505522 348.29931208099651485 348.05829479790031655 335.87528872757320642 347.51695494717040447 344.65110173058911869 348.63085135207791154 348.66624483620984165 342.14260182445724467 351.29367108028236544 361.26196812937695313 344.19396518657532624 343.66892374441465563 337.65746080216842984 336.49605325530245636 332.58983555449191272 350.37540691395821568 345.88947978365195013 352.70379165478050254 356.75496359706579597 346.72061176455468967 354.74979739633619147 340.7495993991370824 349.80553976233807134 354.41165374082692097 340.59868073017128154 341.80681355534312615 349.70671851959031073 356.21968845527231906 340.80259066061324802 347.67339290308609634 335.27145656731750023 329.70261239842858458 343.61812984032292206 341.9968528642885417 353.6192091440490799 361.50872937014884201 342.91617645882359966 341.73384919769671342 339.46399554393957487 335.25296395749484191 353.34177997350525402 343.78884723478961405 348.53839942791353224 344.87651460855067853 343.75050216920379853 344.47941752549633065 346.56260417933413009 349.39450279528938381 343.1264778112643512 344.88002778553305916 348.544104114564675 359.39896383547159076 341.72150541283457414 337.28851840632648873 358.8411746253760839 342.33142793747930455 354.95836836688778249 357.65077561567539988 350.48867743805755026 340.09213469146840225 342.63425812411094284 357.40754252377780631 348.73769115838064181 355.03387888585876908 355.06475210197481829 334.07382125606852696 350.73901118449316527 343.21825094431756042 335.99905829085167852 352.41999393109426819 351.71544353996296195 349.41213513478970754 355.98942397162562656 351.89243075961752538 346.02710670781465296 345.52167557988553881 348.54028121604335411 355.91909136218839649 349.5521990282529714 345.71158649264350515 338.64186104733613547 339.61432189631233314 338.69230419930380549 332.57989091189870123 354.75395362540683664 351.02933840111313657 341.17373026648488121 338.48572179463656084 340.16054950996243633 355.41726284727718621 343.10403248929162601 347.45551511942602474 348.30227865743347593 361.11181951495979092 336.01239835802783773 355.86550368789772847 343.72493371204734558 341.73048397368370388 340.67624273904499432 358.53497151918173813 343.65919273659591227 345.88696048926198046 340.49979674591963885 348.01285173997666789 335.72149853744031134 359.8560930571221661 358.9419894633124386 347.66713586227638189 348.33001914027784096 336.66487857244499082 346.01232958356058589 346.56498595578437971 333.0814106607500662 348.80827078864837176 339.35524778585278227 342.4322601050402568 348.08011963967510383 341.02996884953643075 338.58611986684019257 352.96451822707075507 350.12031522688096175 335.73579669472684373 344.62580457092803954 357.16311049951559653 343.67138582764232524 345.41845869075046949 346.27561666119737538 353.49821791554711581 350.89830277636781375 338.54754222386310403 335.88255523526186153 338.40102206409210339 334.36590152251636709 349.58438145353852633 332.89373468315642413 346.42078350657436658 334.99637949797306646 352.72439323357093599 339.61101219738918644 354.53156650981713938 334.41657450737801582 350.55045108852596059 348.12121315152671741 330.41138800699394551 340.7700563502982618 352.13636687354460264 347.46926928264491607 351.86194473390150961 335.34681022063301725 344.00770020868060328 342.03914213321752413 335.34483768552479432 331.26378331809246447 349.12538410519937315 340.131486422759167 341.83176825896612172 343.10115750447391747 351.15633159020109133 341.32816695113666583 336.66749599215745548 354.34996390830792734 338.31662351751577944 352.15638315541599468 345.2269099443004734 343.79337356788664692 341.60537225030668651 353.40432326454686063 351.77396654349223581 342.22799336962549432 347.97515480505285268 338.96800645234401372 340.31860737522640648 333.96569579785096948 348.36396713995486607 344.56912606547717814 353.30755460803493406 365.00189233627259 346.70524111289034863 347.97796871597483914 334.15212942312359701 335.05736535484629712 354.48583207549739882 353.73644949732056375 344.63809882620233793 345.44069054078647696 348.71073780356874749 350.35237432704809635 339.5207589706814133 339.71913394095622607 348.86686463560363336 348.16997957324167601 343.83192498175208129 322.45636956308356957 344.98180292793227864 342.40680068365060151 344.07143658048954649 339.58422415965281971 347.0522744961274384 336.94570022903428708 345.96907618023226405 371.90697745079904735 346.44997451633565788 355.09481599581818045 347.9691000296880361 342.2758074022827941 360.7754185090141732 340.30139420614210621 346.44887870189813839 360.87236059604003913 356.75069663946953824 328.10547525184972528 343.81047816196888789 353.80661981707777386 335.56549923845932426 357.80568073100010906 352.10655747910965374 365.29878190560731355 349.27391496863265274 358.40247358842151471 344.51260394898508821 352.14161393360967622 343.14939579227558397 341.63422039441496736 348.4732141625524946
-368.87856494214213399 -365.24747255187719475 -368.38710418626374121 -369.94768608596803006 -369.05764163266968581 -368.97136759985136223 -374.05857399981715616 -365.985174762308759 -377.37604447776197958 -373.02204348619557095 -361.20651287758067838 -370.43312783930582555 -364.21539000505896411 -361.8153018318288332 -372.76321662521303324 -368.03194315499320055 -374.88417045779090131 -365.17743359077826426 -370.38008130267769502 -367.65548319576015501 -368.17167315165971786 -366.36782568719399933 -363.35346963556935407 -370.87486618768372182 -364.39793636076308303 -371.10329827508678591 -366.41649890421899727 -375.99912578840854849 -364.60721732298719644 -369.59889599382790948 -378.14599236428267659 -373.1098238538405667 -376.24669323016956923 -363.39766747248268075 -370.45902846287981447 -369.81405478135127396 -375.61528795083989962 -362.49116958708350467 -368.73421820829076978 -377.11048599498207068 -365.13444580816116058 -370.09433031632448774 -369.83029248861276983 -367.11115886466052416 -379.39823864234159601 -371.56041384468170463 -365.9189886696258327 -364.67393965803614719 -366.08175759777685698 -377.33283026661342774 -372.77376127927078642 -378.45465134854242706 -368.77696564609203733 -359.49532044826332822 -362.77010007390219926 -364.71093143553702021 -371.33850924376218927 -381.23087804006502211 -370.78728787810342737 -373.21381171480584271 -368.17915661567184316 -367.53519713961406978 -367.53575530045907271 -370.96531756859076268 -370.93866104816322604 -358.646274781269085 -365.27257282399568794 -363.92088332724404154 -372.43279604435957708 -354.40638993772233789 -376.82084824097836417 -358.04091358801849765 -368.43796340137180323 -360.42427340353816589 -370.93192168734987035 -367.90123714474498229 -373.13188948425647595 -377.34469602982653669 -368.0802340792134828 -382.46958714732585349 -371.0969860818462962 -368.15222035572600134 -379.33080646020374616 -373.02459977534982727 -374.02522504035391648 -370.0078157356298334 -381.20992962597188125 -381.8880039388374712 -372.16228994300365684 -369.57058159699960243 -375.24969749021954613 -377.8634024248031551 -372.29029619697166709 -368.06692825240793354 -371.31828905507160243 -363.66468291018054515 -370.84955678313986027 -362.55859686311657697 -372.2033610054971291 -371.06753973288834914 -361.14091597390307697 -368.63805928240037701 -365.70300373599155819 -355.06876800926858095 -371.82483134934881264 -377.31929380235493454 -365.27178555982720809 -365.5716697192753486 -366.75424997490318901 -366.24971777123198535 -369.33974802096031453 -370.56008827342418499 -369.62521495549174233 -365.90611689987537147 -372.58908157496728109 -368.04686386540242893 -368.80526533838661862 -372.62096541526352667 -368.65162692718820381 -362.3517757152473564 -366.34832900137382694 -361.6009523389237188 -373.63459643459140125 -364.30420537041447915 -372.13824644200229841 -374.77958212577101449 -374.48073467066330977 -365.94664402583646279 -363.00938741488789674 -367.4840295154284604 -373.63138242179547888 -364.853047005655867 -377.83224070815759887 -370.64972103246674351 -369.60385052485958113 -363.77412979078314947 -373.44916576072250791 -370.81156135601963797 -382.55245338251557996 -376.6307124177692458 -366.21078396771582675 -363.42660326977676277 -362.79205806603124529 -368.98767281211769387 -367.44383042488993851 -367.26314240922783938 -365.78670268383632447 -366.54167495823656964 -373.52397156534914302 -375.56387850387687877 -367.66255073933899666 -363.48314532207245975 -372.53797099936571158 -376.86340545250084233 -355.0256604681284216 -373.16649641055568054 -373.39172751307859244 -361.16091040115168198 -368.00483437107800455 -364.72142826310454211 -377.67806792120637738 -368.18429715873463692 -368.14957595011247804 -356.1586858660439816 -376.17691261656841561 -367.33167800913213341 -375.36029492461165091 -365.37685881840678803 -368.77844321148842255 -363.39755073812534647 -371.60926486339695884 -372.44424035674279594 -369.51304964729837366 -371.2091125989527427 -376.79362733884823911 -384.39229461202245375 -375.62045245216592093 -372.28744742601372764 -359.41282978314484353 -370.41812532413968029 -365.03555017172271846 -373.66544064298545891 -365.19419365969582714 -369.01762230019448907 -369.00752713869957233 -380.87630214933608386 -367.7376342099759654 -365.64818301684579183 -365.43425180596187829 -368.73951653285979546 -367.74379659431861 -376.49952801032424077 -364.57645591228816784 -368.76450442714349265 -368.01139766676686804 -375.5850746984473858 -377.75352974846748566 -377.51047547954948413 -368.85298873026113142 -363.18704790379075575 -365.75126796855306566 -365.50367020920305094 -373.26283794670428051 -369.25170929996954783 -378.59238951707038723 -370.89157953499653786 -358.2248108400490878 -376.21939668885397623 -366.66686018233122013 -366.71706621384282698 -361.64396632257194142 -379.01574441950953087 -368.39264986686373504 -368.63421987433491722 -378.16149217539447136 -369.884515294260666 -359.58150102055697062 -364.24029461052032275 -374.38522581895011854 -370.83442566984922451 -364.54857908317342208 -371.33269653594896909 -368.27272159359728221 -373.45704737008850316 -359.9849768386291089 -366.01168822871051134 -372.80266090733169904 -362.22099398804857628 -372.68669424721622363 -374.21056306242684286 -366.43248428157556873 -372.63012896589611955 -370.9040865140977985 -364.25097913305677366 -368.2767340524430324 -371.22951248817088299 -376.99432654794190967 -364.82647333562903214 -372.15597110314951124 -365.39958915302696596 -374.85980734741957576 -373.77842049182743267 -365.10874171385142972 -366.98691398542428033 -364.92011276079699655 -374.15749739593883305 -375.69379283819085913 -366.69053073856997571 -371.4117929145021435 -372.02527773503533126 -363.85533394391626416 -376.72282329836036752 -378.77911834658391399 -378.69837196053777006 -367.22469907976483228 -374.0769210397231177 -360.54819964334535598 -365.80228176308918364 -367.90781141981364044 -367.4541393466623731 -363.99538083457866833 -370.05100712940264884 -367.06297601490592797 -364.03137151413517358 -367.51120234710384693 -367.05530153860047449 -355.72721267569681913 -375.62772361781230757 -370.12116133158673392 -370.26700300493985196 -367.79907638438140793 -360.95366033135496764 -362.67284579764941554 -363.30858525319752061 -354.16582629781385094 -372.12869833009835929 -376.38666239805689884 -360.37577621846355669 -374.2897457675630335 -375.58356448186879106 -367.56190576678801563 -370.67623999382072952 -367.63519289120108624 -379.30599923071804369 -368.80659617713678244 -371.15272734725436976 -364.92738420901446261 -371.64827886915367117 -363.62714858531688833 -366.9449258846030375 -369.75121832107890896 -370.77674996154996734 -379.84866545711355457 -364.56727083516511811 -384.41980039812460745 -376.08923093046200847 -361.16989155505473263 -365.6771339864870356 -365.32717540490591546 -371.47078967501499847
-49.319998612987689057 -49.026417350957274266 -41.799642069017487245 -45.540675135033971799 -49.380305903137731605 -49.078286658199829162 -54.49150839866226903 -47.425285083389013607 -55.378285843654346365 -48.261475038085372091 -45.215613616405022412 -46.442378757986780613 -45.982290169011491798 -47.660420917214899816 -49.672753200840546128 -50.649088947109930814 -46.54880756618603499 -48.254129476932689613 -52.811425884767565719 -49.910746611920373539 -48.005410605922790523 -54.457207036016626489 -51.338541981117472801 -42.442802655626891806 -46.146311397045501224 -43.385668942857456898 -36.944779716315586882 -49.14915331384116115 -56.061062452013885604 -43.417502140303739111 -46.925706632071403135 -47.296525179247481674 -50.006913825510579841 -47.626226282207277052 -46.532979047867044642 -47.343137210377427948 -44.067788562279829989 -58.356729483851090379 -49.762205389390047117 -50.440885506024621066 -52.96172212212975694 -46.304950400172174341 -42.757504200802294747 -45.67841207248438451 -49.582988374697379186 -51.366109841604398412 -47.594213380645925326 -49.893051226115275654 -45.452561696373258826 -42.616253654402356688 -45.736027808692305996 -45.371112909408296332 -44.821548354366044009 -51.096915196749080224 -40.152931645432317964 -48.890250210022713873 -46.582264636364513422 -47.967680443383791555 -46.822750357872195082 -44.77572317563645754 -45.818697541804752404 -45.675936076527293039 -49.31699457276294396 -46.146314127934800808 -41.189789071793022401 -56.113960239760061199 -50.686673268074727616 -45.651015216497029314 -50.908044869836501789 -48.684128603220848674 -45.727515070086361959 -49.577859634867422756 -44.701232642256933048 -45.464258494990346549 -48.359414856798899507 -47.281560936393489669 -43.326565817306182282 -51.241859912287523571 -44.81195949278872348 -41.511188354855548255 -49.308911113338190546 -46.808738059170899248 -53.159421093751390686 -39.4283126131694317 -52.887242713355327339 -51.673578297641761026 -47.707045189621908321 -56.47895752295251981 -47.847757933949090159 -44.040311611601531183 -43.966104871659780429 -48.999703088972609066 -49.907407217834709456 -49.37706590039027077 -38.388692436418025977 -48.919164477088486365 -47.044331318870490577 -56.274134511563815408 -43.488025702003014317 -39.46678037661382632 -47.818252269471415161 -45.493539958013300861 -46.397367044928031987 -41.842853846449941102 -46.837457287491297109 -44.841295540832106781 -43.624952377885712451 -42.161888024137489595 -53.695500512044375796 -52.676978936000715237 -47.566181542603452215 -47.357101685212889208 -46.612801565662934422 -44.501289200736714236 -50.404342076392644856 -56.506376811839345464 -47.040891998322109657 -47.836147966885107508 -57.236313799378194744 -42.227351951997484036 -44.469090483456639618 -35.947574421084794949 -48.595056145199578168 -46.858980808140906049 -49.267799709322275703 -44.135413951220833439 -49.427121596134490744 -55.449132087202748664 -45.298762254281484729 -44.011693611371327961 -46.448582267257648937 -49.730016116824863559 -47.998535507473107486 -50.906758192874335123 -38.823047604907763741 -51.451326584994156121 -48.915129102529292027 -45.261308339658810951 -45.389662955946896261 -48.987915511903025845 -48.937403196093498536 -45.096386634946256322 -48.592758777406793058 -45.882949824857121257 -46.694943015104151129 -46.186333652165345143 -52.855079488133469567 -49.117041612512615245 -53.312497661131331483 -49.32644928548764085 -49.915313812196366428 -46.907975171346578236 -45.942455834738822773 -42.927564461536761087 -50.961040928484983681 -44.205750344733765189 -46.606246452777227773 -45.419136004358421133 -40.471431053662520583 -45.367127534439880776 -49.61572824663514325 -49.060637904696292821 -40.581192935767681718 -47.415613768027291997 -45.382317527396281776 -51.765807100331379331 -50.274753130938002244 -43.637765952946310222 -51.416894763343030661 -46.374362147695762815 -43.16694433015209853 -50.992750989053114097 -43.708807394757613451 -40.890648143080632337 -50.166330549473947542 -49.666892911547122935 -44.428765497538044826 -52.838946037496057784 -37.187850331757630329 -53.689144831873228725 -48.865199132476043076 -46.461619511703581509 -53.160677904085744672 -47.275954054924753223 -49.736906737341179507 -41.96741392022064332 -48.50145041067754903 -45.526056466114368959 -44.804496090627168314 -43.947967698904889744 -48.828916955477453143 -46.434613513416863384 -47.045348620472154266 -46.980495085919642406 -43.222071605716806175 -46.268297138330979124 -47.942157142813130122 -50.39381540842937568 -46.287064898489447273 -57.999332803188075047 -48.381529197515867224 -44.194582834716499065 -54.104531784204581868 -45.05882161637528327 -57.22956928948978117 -49.1431092154106679 -46.486326000952338688 -51.968324477607389156 -49.863473953853180376 -42.465332076127907612 -41.907550670992193886 -44.14878970938394076 -52.32041520348756336 -46.507681556473379203 -45.84795256923946738 -48.090570112321444185 -46.640018645348135351 -47.576798667863236858 -45.380404573812683111 -51.014315545148839703 -46.009448295983105481 -48.943427097546390314 -55.322974463338518092 -50.733849726234893751 -47.258381181584937281 -46.496302130143504883 -48.868361601397630523 -40.057760014525648273 -45.88464701978874416 -47.306973278678171368 -49.516854087846404298 -49.308088498449350823 -44.897636448337429727 -49.006539560182460491 -50.021691686303775271 -49.950737212840536472 -51.439773456026685494 -46.271326657666655535 -47.03752256102931284 -45.373745692588819622 -49.80055441825096807 -48.498935054994952054 -48.759098001070668715 -53.084436236387254837 -43.582035304091526484 -47.715264040168761994 -57.082692423251437219 -45.128450786127714878 -51.780382364108504589 -50.044272811033835069 -40.998100487951212756 -46.000316954790498869 -48.897189467360497872 -46.251219071078907064 -47.727556984019564368 -46.080514293024819494 -44.182467476985742394 -45.790126564873261827 -47.776430197343039197 -46.116163775690637294 -46.598331350826896369 -49.252930705791079902 -44.941185634619117195 -50.243136411950438003 -48.562011936172552851 -47.664466379318163547 -42.916344925660546039 -52.703636373865442977 -45.060289034352187798 -48.516633289769075077 -44.283498540474127481 -51.22879574269152414 -50.597735644824631152 -53.647967725284921414 -37.391512273771098762 -45.951646823494854743 -48.860894954624818354 -47.831403597823310747 -42.778400040523123948 -41.596095638316505472 -48.370204742658408748 -43.178835010952283824 -47.495165551952752025 -44.505093014284554442 -54.034826024567436775 -35.730958648292400426 -49.664169843038038721 -41.130483030694506397 -52.10155899019488146 -45.494622478754969563 -40.400054854966455764 -44.286660976831171865 -48.924704115892140521 -49.616182612384797324 -44.742736328788275557 -51.928844039273172939 -44.089096719715932693 -50.4635341409077256 -50.371716882350909827 -57.458717421400834269