-130.1832722333623451 -138.63346795366533115 -129.06243841626437074 -128.3448448015603276 -138.68793024437789541 -143.71290616887151259 -139.8219067025235347 -131.59670829486393018 -145.78539196799269462 -138.17371932320060068 -134.8483831210267283 -125.28522058359557434 -137.87031809222679613 -144.11359889395222922 -144.74543705451415576 -143.45276368226294039 -132.47848155487520216 -135.37829936323564084 -134.58446876270758708 -131.92865762581647004 -134.4043221880212684 -133.05104062310317659 -123.07526048828609078 -128.41442795110776842 -144.02289252813429243 -134.56119363910451625 -133.58744307937300277 -132.06795796495862305 -133.58506005887457491 -137.55775868349786606 -128.35242806116755787 -133.52823162250999189 -142.14822383204142398 -143.96738857367375886 -139.18886041413017551 -135.49310056265315438 -129.27103269290330445 -137.62752166857808334 -142.04113862811465197 -137.34643641198340447 -140.21715738903230886 -133.01214612382105429 -144.39902546283934726 -136.29253656874072931 -136.06634953589977499 -136.24279729467488664 -142.88610265527810839 -141.32883648579277747 -138.87810482379777 -130.90363681829362008 -136.51103933555671688 -138.3168644408804937 -134.27863768873382355 -138.7104652737671131 -136.30845760883568119 -138.78262852316328235 -135.30647135775299716 -130.94517457994052734 -132.72809456701173758 -142.13196418172645963 -141.12668306223670811 -136.29685701633900408 -136.41700023835426236 -132.77378936793346043 -130.02573096092436344 -138.10983106288665567 -131.67948347225635075 -129.87136442698260907 -139.55276199736928788 -138.40362478646824229 -130.89889183969171427 -142.38719422287186944 -141.42399750460512564 -142.22009856335748168 -136.41750572292360744 -139.97743354273421801 -137.57967381958420106 -139.66947004714376135 -141.64578518601402379 -136.70436739453640484 -140.63496288357816866 -143.01096708269739111 -138.90314268350783777 -137.07275625127283547 -137.75996759965622118 -138.48468190587374238 -131.42721552381183869 -119.73334175060165308 -140.65965714972580258 -135.70508399685172662 -132.17064514253874563 -134.55794481480532454 -130.58979746315031889 -137.78468116454513392 -139.74666080373094701 -126.56332153861718837 -135.28052287244426566 -139.2140382479648224 -140.56419501046659093 -134.70957816724305189 -146.82566824244966597 -138.99459384812951157 -132.63683392426275987 -139.66804028974198104 -132.20045640323590419 -134.60923419561945025 -134.34090366711146203 -139.71771138050456784 -135.66835687850968384 -129.22283458880195894 -137.66284556867412903 -137.85358722098558815 -143.80350626535351921 -137.65926567000440173 -131.83110350376912834 -144.90592403145922162 -136.52884279267055945 -132.78722672737649191 -136.73331610490816956 -136.48018564250907048 -127.31668455875845325 -131.84820140745685535 -144.3444171936840803 -141.21340905768764173 -133.86081302152297212 -135.12114170756709086 -142.88310399895951264 -145.56616338580815295 -144.21207760260432451 -142.92875955903619456 -146.72827389720271185 -134.88475482594395771 -138.02302647774939715 -131.57844135541211017 -138.37408768363437161 -136.02190747434593732 -140.0177238525958785 -142.90032243629997311 -136.35869922013020528 -137.52347064304311175 -141.71113123574588144 -139.96863979468284356 -135.62905983156906586 -140.62999578160497549 -135.29453246093427765 -134.21774702543783064 -129.99622804127653808 -125.78770306123549005 -132.29892822348583081 -133.75720036717569883 -137.63402160669863861 -139.65575368759931507 -152.15083740696491077 -129.76334773952297041 -132.28899569773290068 -136.4590512154962596 -135.7727112693585525 -133.57279966849426955 -136.02085485535818066 -132.52209249938368885 -133.01162874619649301 -135.63531541579922646 -135.13578206258685555 -130.96050101341791105 -139.54686303776841783 -140.00473459487727723 -138.13272153855973556 -136.2713941114807028 -134.32109789717219428 -144.9306577798466833 -133.05238330310368156 -134.62283674298723213 -139.8443669602971795 -139.39528653176884632 -134.76194254078919244 -143.17938884172934877 -136.11332543705765374 -133.6441356577275883 -142.07721420056932971 -137.22469768958711711 -135.76154459601826829 -139.47479352472112168 -127.9742164327253704 -148.38230578280035843 -136.88675863953429257 -144.501119941919967 -142.43890457716045717 -133.61110868234970894 -144.10595289638069971 -127.29601957343179208 -140.87824529239682647 -135.91119431539763696 -142.96274133022524211 -129.67035344460487067 -145.22814172252148524 -135.09769617994146529 -131.6316754195980252 -138.4499195489368617 -129.60245103248368537 -122.94548077299245392 -136.9724856808772131 -145.04777295796503722 -133.25829333445651059 -132.43790516268586543 -135.43697695785976975 -138.68648295600672782 -141.27220169542925987 -131.58831477846464963 -134.7654106910305245 -141.62054573374476263 -137.94063548926197882 -131.84613322267114199 -136.13745152372226244 -142.16732679865509681 -129.00547734716812442 -133.01577578534801205 -127.29202805854183111 -142.60462921415032156 -129.66178223942642944 -133.76330999451377579 -136.3710559847847037 -139.11764454012831038 -142.20473719877310259 -128.27434724050499426 -142.77990452758604079 -136.71865908104470577 -131.77676452605990676 -127.45161562144541278 -139.75491171704797466 -142.31744541230304435 -126.92178142037612076 -123.184051303993499 -123.74566413684014776 -142.25533305753043578 -137.5988906490212571 -138.29099552148323937 -141.92126808153426509 -139.30693523585384241 -134.23811564248853756 -137.21054487858680204 -145.09726730528271332 -137.26658788059168614 -136.29451467970460499 -136.18936326383681035 -139.04835682719030387 -137.92015932106264131 -129.92230232161423942 -134.12335628840506274 -135.59836570770792719 -140.73548940464465318 -130.12876682606028567 -145.61124706564510234 -130.59554156306626282 -134.73768248082524224 -130.39079023315787254 -139.39957418959562574 -140.43541122442422875 -132.53488396806255878 -136.84850698566640403 -137.37967171498524976 -133.67949631854310155 -125.26310849974076689 -127.72217419286498341 -129.48029160636883717 -138.46641854981299957 -130.82783842588085577 -143.83803842087530711 -138.53942819581985191 -139.692051084439953 -142.6687194031848378 -134.59546095330736648 -146.10489963154694237 -136.56919429734711002 -135.71714368186849242 -138.93105144849798194 -148.99698890521486305 -140.27551130007029201 -146.35617069430242054 -144.26798252179693804 -138.22585377335630596 -128.47405158228099253 -134.76905146798972623 -133.96917414093474008 -141.65602296280712835 -141.49419830300612944 -153.15163120319022028 -138.05427463435205482 -133.64537001217397005 -143.4263776270704227 -137.24383749797411269 -135.30049794670688357 -139.99215906590740133 -137.32606917996625384 -137.4998571555787521 -141.57118804545223156 -143.70916433816850599 -128.77805041617961024 -139.17489242624782264 -141.89166716323927631 -125.78454106002681101 -136.95966051053693491 -132.42411360425293765 -135.40267415688873598 -128.09287935409469128 -135.42054404887730357 -136.78241575283064435 -130.28225733103968764 -145.1225334103652358 -137.60817687029910417 -143.03719893307504663 -134.21872776558021201 -140.30161744350377262 -141.61601570094728686 -143.70140923011271639 -144.96372955379388259 -147.61116637961973197 -140.5279817526768511 -132.4051170800961188 -136.65281423342381117 -134.7295601726947325 -134.85640565664036217 -145.45481942948998721 -133.37166921740083581 -135.22704532728675986 -137.89128422904803983 -136.14328312882722116 -142.52153672310726051 -135.55504553154895575 -139.16401373072710612 -124.86467703388531447 -138.68049720471236697 -138.98017130852986156 -138.48573008863158407 -143.70738687862555594 -133.48947809501729012 -132.76632577232052768 -137.22896720428278172 -141.24427178390280346 -144.58116659194769227 -132.31778839870437992 -137.44560207388551021 -136.25909691152014602 -134.44686799961107226 -137.30016850755930591 -131.90578327932263392 -145.32539317093730347 -134.0488167820380454 -131.21088101596390629 -123.76355616005616866 -129.79200295976028201 -134.04594728188160957 -129.40826176864013064 -142.02931223469380484 -135.37501672935215424 -138.82693340971030693 -139.37168855193476702 -145.15668220692055002 -128.49863069945217831 -129.03505881175414061 -142.01370476101152462 -142.94239339137971001 -133.6071890300285645 -134.45804657389280123 -134.99745915520816197 -133.41831968448261136 -137.31456984611864414 -137.88886202545214132 -138.64598052039508502 -135.19304403843119644 -141.40686505039170129 -141.60055697030216493 -137.11950850755701481 -134.11369820115572793 -134.27246967679309364 -135.75619196909048014
-1260.0513733834823142 -1270.670457889734962 -1274.1410436941957869 -1263.4578899410073518 -1240.820397761065351 -1239.3029600267468595 -1273.3528458885093642 -1248.467838535058263 -1291.2848904115455753 -1248.8106757589512199 -1239.4976313520476197 -1275.4801207881087066 -1266.4238642838718079 -1281.4536501245347608 -1265.3186488989033478 -1253.9036018949013851 -1252.0241301286514499 -1268.6333676246281357 -1261.4371344277051321 -1253.7266939325750172 -1281.6800637828705476 -1246.4292066268683357 -1238.055254383211377 -1271.1167162745048245 -1274.2663406956160088 -1264.9819316004204666 -1270.9983320821936559 -1242.2189607597495069 -1274.8583909638682599 -1253.9297517231673282 -1277.3006318783413917 -1237.7900546467524237 -1259.4124367061381236 -1245.5917506271362072 -1288.0603227551735017 -1261.5054731547468236 -1262.3785742437419231 -1245.8535715122338843 -1261.7804017814542021 -1253.42337449359934 -1281.0144960642951446 -1276.037379214566954 -1250.8310701450377564 -1249.617800050920323 -1272.3985395166810122 -1261.7774343069083898 -1256.1098868974106608 -1260.7246315357238018 -1263.4758510394797213 -1239.7000398223808588 -1282.2757795946574788 -1261.8701273777789993 -1261.6272321347639718 -1259.1542747854848585 -1270.1259916703834278 -1273.3802629110257385 -1253.8653547795033774 -1281.6023857123245762 -1256.6205174026965778 -1268.18365181717013 -1247.580988849949108 -1230.6803052489326546 -1274.8733673298493159 -1239.2756816550909207 -1257.1733938070724435 -1284.419870940796045 -1269.5048589425896353 -1260.2781298941192745 -1256.9680966983055441 -1266.1587718781663625 -1270.4657101804011745 -1261.6906827735133447 -1244.3554671258827966 -1274.2187911404018905 -1254.0200035119437416 -1263.3906387323061153 -1256.0209696092533704 -1267.9742404845537749 -1261.3590096193261161 -1266.6579691949832522 -1263.6884866737457287 -1289.0378543567437646 -1272.1366337375666262 -1240.4616280251486842 -1284.8214927713318048 -1255.6769634080997093 -1252.6838585088401032 -1246.659082642988551 -1247.2422563025515956 -1259.9524617857923658 -1258.361562983697695 -1269.9197022474270398 -1280.2167070486582361 -1271.074703570579004 -1257.9239923406696562 -1244.8696402195021165 -1258.9170242708257774 -1258.2664759640738339 -1255.2991456293018473 -1263.3516997882697979 -1278.5070909873961682 -1243.7060553778060239 -1261.4089584888836271 -1282.1665324875325496 -1240.4528690231468318 -1276.3209925172293424 -1281.37315319272534 -1242.4821523317866649 -1250.8782587683178917 -1272.1834503590225722 -1262.6873939618444638 -1271.0904140190361886 -1246.1728923838645642 -1252.3259498758593509 -1259.6331989129689646 -1255.2416638024510576 -1265.2650985339523686 -1259.6034782213514518 -1279.7627687880185476 -1257.6062924208217737 -1239.9702985323001485 -1262.2605848705779863 -1267.7129392522622311 -1263.5072525934072019 -1281.3095272238251709 -1282.3187046428781741 -1241.9928071599663326 -1259.0610095052995803 -1270.1760822996780007 -1255.6691809793928769 -1251.0983400814250217 -1288.9758547045994419 -1286.594187792217781 -1246.8714464496003984 -1257.4314923062834168 -1261.8900367674457357 -1237.1819558688684992 -1256.676230415122518 -1275.3217685133213308 -1277.8626429427656603 -1245.2987980329794482 -1278.8077586992301349 -1255.8833279861000847 -1238.5774290020842727 -1260.338921914571074 -1278.3283143168378047 -1258.0078049259432191 -1238.6900678024180706 -1232.3693259154888437 -1258.5911396525975761 -1250.6559752934490461 -1246.8606165345224781 -1250.3677130711425889 -1259.9521205110816027 -1260.9737853186459233 -1248.1301676820266948 -1242.1083495394118472 -1260.0316941848936949 -1269.6486359860286939 -1220.8555523407558212 -1250.5947388713505006 -1265.2038514109353855 -1257.580270404904013 -1274.1009484472165241 -1257.1974215075942993 -1264.628824432144711 -1244.9561133834185966 -1258.9783142764688364 -1270.2066975139757687 -1270.9640408369436955 -1261.528702275815931 -1257.9434769747022074 -1292.4508294226816361 -1278.5202275798808387 -1227.8589345055524973 -1258.7416986831590293 -1248.3002924407051069 -1258.1381776385035209 -1260.3205492867634803 -1265.0807189127710899 -1257.2676221953859113 -1269.658244141616251 -1253.5795379111013972 -1256.7695070270583528 -1278.2492665007705455 -1258.2082952305486288 -1253.1793710667848245 -1249.4859013313030118 -1248.1419605522373786 -1257.473199089800346 -1257.4743753632005792 -1232.1243660238844768 -1259.0688810337035193 -1262.3909648507624297 -1278.3423154955921746 -1271.7282568929051649 -1261.0269015866331301 -1268.8451845131448863 -1259.479999995997332 -1257.459609559241926 -1258.9115648729184613 -1252.6700088512745879 -1233.6039433822843421 -1273.0395206377747854 -1266.5143555756612841 -1275.6144528149263806 -1260.9049928131182696 -1258.6436140623579831 -1267.4124308167497475 -1264.5914347251107301 -1259.972553485282333 -1241.9808566316937686 -1266.1741003259769514 -1251.7820882478340536 -1261.5595262853969416 -1248.8768395527490611 -1272.9162269365310749 -1279.7058190454804389 -1254.2474954258746038 -1269.361330325900326 -1236.8550972001416994 -1287.7574955785389648 -1236.2869449021584387 -1253.162556878065061 -1247.3297582003103798 -1247.6854789319891097 -1249.0337426051537477 -1258.2235725492621441 -1268.9043141601414391 -1273.188762145517785 -1246.7882691764530136 -1245.6908416210703763 -1265.9906787793343028 -1280.6200647006758118 -1266.4138517044996206 -1254.9687751793353527 -1236.7460175898906982 -1259.4092130358244503 -1261.4743958059923443 -1270.4130390363757215 -1272.5652309355502894 -1234.7135013118092957 -1281.1513820629106704 -1282.901579938820305 -1261.7126783133749086 -1267.5218705111174131 -1268.6091616638566393 -1277.9953441215661769 -1251.1045823449251202 -1267.448395100672542 -1287.8475832992760388 -1253.3090650882295449 -1266.5865473139206188 -1263.0593202276472766 -1256.9957136268503746 -1240.079870539259673 -1274.7203309264955351 -1237.7295658738291877 -1282.6765117646145882 -1255.8712457417309452 -1250.207508075141277 -1264.5336586009307211 -1255.4942398720716028 -1271.1785491996195105 -1259.3662701571879552 -1259.8144011424781183 -1274.4658598259645714 -1249.3298832366317583 -1238.3237316978065792 -1251.7804898644458262 -1270.9302960365384934 -1270.0125498826444073 -1247.8688488134603176 -1254.4062120990811309 -1283.8749885878164605 -1281.8822236709502249 -1262.4303650389963423 -1261.0753246357164699 -1266.0952918917598709 -1258.3704236294483962 -1309.7269672229222124 -1267.7939767669179219 -1268.1016232525441865 -1244.7165863522552627 -1266.87859869101203 -1278.1468447450731674 -1253.9464678679973986 -1287.9619147478558716 -1268.3393625214639542 -1268.8627496787564723 -1248.4831958602828763 -1252.7406725611967886 -1274.1158043720051865 -1261.7303651181146051 -1241.6323924818925661 -1247.2582849603129489 -1255.4682124025764551 -1260.7194868960277745 -1244.7993562065712467 -1247.093461019631377 -1235.5357229198589266 -1247.5092072666425338 -1253.3177346783720623 -1267.253115057341347 -1263.0938158736762489 -1256.1327318416661001 -1225.8873451150932397 -1258.2894557505394459 -1259.0049281013252767 -1274.5010110932967109 -1272.0004202290269859 -1255.1406271020437089 -1252.0713792269266378 -1254.50461295557011 -1256.8241138410769508 -1255.7984540821059909 -1268.2836860413945033 -1261.2002837121322045 -1242.3535915685370128 -1246.9622340476360023 -1267.5602273051010798 -1278.5532027807739723 -1256.395807332934055 -1256.4036353698027142 -1252.6212359601800017 -1286.459870925629275 -1272.8332229242764697 -1250.7770612964811789 -1254.2824571615381046 -1276.0728919788082294 -1259.68817940091526 -1267.5213069710637228 -1262.6820194665067447 -1257.0801868782602924 -1250.2650105828972755 -1265.8810620902165738 -1244.9964872421267046 -1250.3140703693395608 -1260.0131324195444904 -1260.7371054402606205 -1267.8337395466521684 -1258.6559797560826155 -1249.8529911544387687 -1261.2113905774731393 -1267.874663389656007 -1245.512501929260452 -1238.6736412951677266 -1248.7862289872614383 -1246.9559654548713752 -1258.0560529616002441 -1264.3052010828723724 -1253.470231570421447 -1247.9518748549901375 -1282.0192207042282462 -1260.1948909916891353 -1263.2800812711050185 -1262.8078519739829062 -1251.4526299460128484 -1286.4367278323243227 -1263.3032929826395048 -1260.9496488619806769 -1233.2916865831452924 -1249.2789311027725034 -1279.3880224662336786 -1254.8733412883022993 -1279.2235626854505881 -1248.498411844869679 -1274.9668881696718472 -1289.2947538061312116 -1249.8901006264297848 -1268.4805419997142053 -1268.7036467426039508 -1256.1598513366936913 -1229.3497435423284969 -1263.1586047508860702
304.50817545327839753 302.76731598147324576 324.54083144368428293 300.37283955926386625 304.38325277343369635 303.3821364017481983 295.29806157041190318 302.04896723259190594 301.11819580401953544 325.63793800040969018 308.85201460205740887 292.21491420464991506 304.03215380878424412 295.69979223162499693 294.72845347806196514 299.63864790087023948 309.23264411696146681 297.60665077994133298 303.38443646384052954 309.03199669761647783 308.31469011683384451 302.68632117687434402 302.37552499852444043 297.60850600353808204 308.0404082499541687 303.36600370050649644 308.53608232941388678 310.30217691525535884 297.31553085000803094 301.93102379213854647 300.02260034666397814 309.44386414710157851 297.85587642763704253 304.82229298913819093 297.7387766440311907 301.66960879352603797 302.75142200985214913 304.12982139533846748 294.22218933267743068 306.80466585819601733 298.95938017983672808 305.28862053713805835 305.90275470228215227 297.91649077976938997 306.70746383201566232 307.20219225614181369 316.5283804508184744 306.6301788526418477 297.36532390978908325 300.13124719224583714 301.13000080778624579 296.57118448019019752 298.63051993158018149 308.1708059645790172 300.83879479137385715 301.61055392046932866 296.09296495803721427 307.30539996859869234 314.48801535881506197 296.85512982703613716 299.59250400778023504 293.73160468182373961 300.84248336743479513 304.59939310193038864 302.77107723141483575 305.03771102534403781 306.60598025174419945 311.96925174074158349 294.72693294652810891 319.13674578326765641 303.98054399627261546 303.99151952606018767 304.02219363076318359 302.38111328928090416 316.83787537163561865 298.33534003879577767 296.65659160501235192 319.76964683874933826 310.82396366920085029 293.78150731145234431 298.95832244208327211 299.62963517968807992 301.11852738579204924 308.09361926754348815 303.64041570489706601 296.62106172942645799 311.15132353657600106 313.31325439802122901 310.16627213457127255 292.00336256366495036 300.33896987710568283 308.74700189868741518 293.51869679557603376 290.29244002648044898 310.04154712018998907 293.17566512930790168 300.55729498929417787 307.26260829414479758 305.71615334993362012 312.52773387338629618 313.99496200141436475 295.93638608910833909 320.17390783357120654 313.8914499940207179 300.86372489647391149 298.58597832298346475 297.75740944294113888 314.27677295889378684 307.30287602291355142 288.88118869569416347 312.40666305891710408 313.58993786612461463 310.1584862051777236 295.01375222550353783 296.92186508627713692 300.8251666749779929 288.67657103524931017 307.96786633195785043 307.5716352617585585 315.62445615080685002 312.93854268225231863 314.24738491890036585 302.10049752665906908 288.91868783935228748 296.63133838488215588 301.35681892361384371 299.45787069989842166 308.61882871015836827 294.25354811111310482 296.29033313515776626 319.2305406890882864 319.46461749494312699 299.96388802796013806 306.9937493705249949 299.22799120900396019 299.62162423080121698 298.68501531688264095 292.91826123193862941 294.61084580187184656 294.22290910147984278 302.4817323238927429 296.14934192819191594 295.79327475667849967 308.13537366115900795 304.26751967811384247 310.938607060796528 299.56854931967137645 295.87068349025406633 303.96819625902202233 307.12904179275142269 303.28734919613026477 310.56581756669731931 309.98131324544021936 294.70334860632596019 307.13992112068530105 311.41829539417506112 299.98360986289827679 302.0281836039476957 298.82603350654437691 301.37079264534935419 284.46090161334706181 299.91699630958987655 315.61474733707404994 307.49890582016746521 306.1305383288084272 309.38121845741261495 308.55042640143977906 300.90733083104925072 302.75001523926084701 305.75185193343043011 287.35927630352603046 300.67948829399364286 296.31323685885871555 308.41439361692164312 301.48927769786826047 302.80497470789396175 305.88303357524318926 300.35346457710471668 316.35757280330790309 298.0234898648694184 295.53000014618817204 300.24533424714064722 313.63197308262198248 295.74736250531549331 300.27085262105606489 309.87322981902070751 309.46486478179389223 306.62869513669153321 303.26268912624624363 301.08028419966240108 300.72883983476123149 316.00101603073812839 308.26817004442131065 306.01856875379843359 294.20421633531532279 297.78887530993893051 305.16096424272433296 289.66274943177558043 288.19523983065096218 306.51491370135528314 300.39263704882068851 308.58595429634630136 302.7920283987554626 307.29257694182757632 308.3643479576977029 304.81155882874679719 308.9941165027473744 307.8516535795351956 287.65215873721348316 308.95940159314363882 311.36794733684189396 305.05814279340614803 299.14827759124494833 300.26840027481853213 300.69989060096514777 299.34389968428018847 300.91259926096807931 302.98841324425296762 302.71829474365370061 289.40651251672090893 296.88851668744570134 298.02534793142416447 299.6086896922523124 299.24969883078165367 304.32672645555368263 311.2649201728764865 311.53157890255334905 302.16906564627282705 310.63697656224047705 303.75714322114691868 305.21049018249232176 310.94757380159205695 293.29423909874117271 296.86770510834372772 295.37470171874679181 318.20692220867766764 310.17243102997446158 304.30648190481423399 304.30190373552613892 300.32286053591946029 303.9910639575907112 293.32988783298003455 298.60010110326703625 305.33626919507190678 308.25691114774230073 298.93059218171214297 295.99433730719022151 301.40614616284881322 305.66845675443801156 309.8838417174219444 308.94085178252259993 299.45575670850598726 304.07915044294196605 304.76979008027848295 316.97327643406401876 307.33335809326371191 308.14011610515325401 308.17856300827986615 311.10060712276464301 298.98085065253968651 304.50213858711691728 299.04274973304848118 313.63989902272118115 304.78076483185759571 308.01084248169104285 301.97963854349609392 313.12546315817428422 303.74286673737708497 307.72896010898858776 301.8557746131069166 293.94379946305309659 305.19293499816080839 307.42065628238668751 298.29552599346419584 289.38640187459532171 298.85911045182422185 310.83178418010942323 295.01122483204585478 301.50961237012779748 301.63962970392503848 304.87774387086000161 300.41995314305665943 294.75882102819281272 302.43664957545473726 307.1355472940714435 298.4203405904452211 310.91394901602234313 300.30705056598475267 294.44895175037754598 300.24199700527464074 306.36073443108659831 321.60872252568202612 304.01572358134245633 305.24222111047606631 300.71996198034514691 300.56312110209762523 304.09556473314711411 294.54391668790066205 292.89070248934802976 295.60599676469553287 301.49089233367470797 313.78565853698592036 285.99394770841405489 294.58462720880601182 308.42697947359647515 296.98790712161115835 311.44631072687730011 307.98867567325055461 290.92973979990574662 297.18170144770050456 308.89166420757561582 290.21249092767914135 296.33964388280890034 303.74569164299572321 311.90247587174673072 302.42257520211705923 297.51399806484062083 305.82601125673579645 304.45520568908693804 301.10612044280208011 317.0470947907231789 298.54828028353830405 305.11736624556067454 303.08603543219533094 301.3425950888662328 299.71411522037499253 302.0276583964766246 292.1800968302014212 303.16392017610769472 306.48238189169342149 303.32884802722617223 313.10147947655883627 315.10198188786011997 303.31163473413459997 294.27127378961091608 288.4002894339958516 295.72964633583609384 298.05326858173611981 298.74883914382513694 292.55046639021179544 297.63610474047999332 302.07574494823705891 299.09315723852370184 310.02975548971903663 296.26619021347630678 298.88195269707819079 286.4700227374432302 308.57131053652767605 297.49147188873331515 297.89980048369596943 311.83323728985146772 299.93023663743542784 307.47573709073651571 300.74595644103624181 304.54564105598524293 309.89279827361912112 311.77911295109083767 302.65057892787649507 299.40488653315583178 296.76099076487821549 306.3956083930826253 312.95719240664197969 313.09180698474932569 309.83075833865052573 308.50986400954849387 306.89150668163455293 306.62762199847384181 296.3604596124111481 297.62873116290529651 292.85915305953614052 312.70476246133313225 308.15925482936017943 300.45355869724289732 304.8895528312272063 296.73236654138122503
-149.23356553521944079 -140.39845560559678006 -148.84502139168154144 -157.58540512237186704 -151.80553318386185424 -150.20488748534125989 -150.34213531583003487 -143.92887793300863564 -152.55001240191745637 -158.36702239081699872 -154.50750042522366812 -150.13751546629987388 -141.42925005391953164 -154.9946808420649802 -149.76656948165171457 -148.87681377460216936 -146.17434120859508084 -147.97339700645756011 -159.14254961200305161 -156.32976279280671861 -149.29152291384971818 -153.79341180803709221 -158.88032849820916681 -146.94535520520724958 -154.26562299020972091 -163.14680500305379951 -151.35961364536575502 -158.46845722061843276 -158.35908853880781066 -153.7739877590684614 -159.36841292325533459 -159.35448424895565722 -144.20693805103019258 -164.04583116368277729 -152.46116785103461666 -148.36822769248138343 -151.36124555658162194 -146.46288206281619182 -142.5349240089207683 -159.42829612483234314 -152.34178813578816403 -145.53066648301913233 -152.01525045359437627 -149.61920957190250192 -151.63628235899730612 -162.64030890830898102 -149.44493641214361901 -146.72965142258513538 -153.71010922635375096 -161.16291683037334792 -150.81614208222237039 -153.9752017323344262 -147.64172887288020775 -151.15629960514928598 -161.38824254727367702 -147.66423043470922494 -152.63390045029382236 -153.21778197049843584 -150.44812010572215399 -146.9269729630540553 -156.34704993213054536 -159.76750991743031705 -150.95660603747472805 -156.10167800381447023 -159.68124941716260423 -149.87499971688211531 -151.96083278516564974 -161.66356240884380213 -150.68802929857170625 -155.5711123877155444 -148.05152617232701573 -154.65768235266907027 -150.92885942318352477 -146.71970556085727821 -157.27184005068485817 -143.54899309896646287 -149.33973515625373807 -143.02235486788183039 -152.63219580592590319 -162.98112976545650099 -145.10046817043391343 -156.3847416994536843 -153.67385987828245675 -162.63822702224092609 -146.31131401906927181 -162.17311284567739449 -153.33641037575466726 -156.96993721783834985 -149.17891573070815525 -157.34794897652761847 -159.48995985283303867 -155.91703042190300721 -148.89157778589236614 -159.70628852676765064 -149.84817142308531857 -164.14896847433212201 -153.35548922247309633 -147.18653306024083349 -161.62206578707369431 -159.33240289294462855 -141.2103999024415657 -150.38841785910872773 -159.67730190280923352 -150.10062923091564357 -158.7653415969056141 -149.26706661156134714 -160.16410130209291651 -160.33729570657476415 -156.96465157971024951 -147.04502735201825203 -158.92497852886540954 -156.77634930679812442 -149.23514724228840578 -151.76893906266315071 -142.72253196672301101 -146.58925728531232835 -156.8008807122433268 -164.97560960164130961 -152.35702341539550275 -151.63024904927112857 -162.65062204989408201 -151.87378242796305017 -152.54261766681767654 -158.38238357599317396 -159.96547049737759494 -153.6584883181343173 -155.75924058739201428 -157.21794635815030006 -161.37260848381916389 -146.58873683191890791 -153.98798373683848695 -163.14903455858677717 -163.36368907286657759 -142.2442898368702231 -149.91158547898692177 -146.68639787084563864 -150.53854883562729583 -152.65938824771978943 -140.22667171125712571 -141.23264223553326246 -146.71883626552667579 -154.99493611592720299 -152.79652894190195411 -152.80824237538354282 -150.10480339674060701 -141.61362803246058206 -160.09790594326844371 -146.92218705902010356 -158.76281407735814355 -144.55629255593299831 -153.95043890916727491 -149.7409177895499397 -151.00723903751540433 -141.71478280462557109 -154.85883445412298443 -156.2479989836048162 -148.68895579155105224 -147.94513727010078696 -143.7731486275956172 -139.76008526968183787 -146.25743018239606386 -149.40675851472943236 -144.95284048346985628 -158.39881820182807814 -154.26036002098857125 -157.93265548532858134 -154.48991225905331248 -161.49326452792487885 -153.44496103873157722 -145.90435088790766827 -151.31990774562564184 -156.67538495342716942 -141.41732463772279971 -145.14905752598545519 -157.97629936786330518 -148.47750157610309429 -162.10620102912250218 -145.46003496368342667 -138.20822366416717841 -145.08921931364361058 -151.65120750121954529 -157.2981300079481457 -154.43079671446582779 -142.75777520487014272 -146.36981585672305073 -154.95121194507825635 -155.63624027770873681 -155.03224273741989236 -155.5507488062726793 -153.0985507838856563 -152.7862282041189701 -159.76253854388895093 -151.5857585636908027 -147.91526868147417417 -152.91861768509062358 -146.82990551311348781 -155.00459132207123503 -149.75158011769016753 -157.1156849810552103 -150.36133991768812734 -148.77431454115395582 -147.87333098331114911 -149.92224747265484552 -154.15871260671002574 -155.92314028017369765 -153.23579832110496568 -143.04096867010139249 -144.26728664938789848 -140.84886328353042018 -153.79350199189235582 -149.70178767258718722 -156.70230946878007217 -165.2612100290455146 -161.09158844443047087 -165.80083756279580598 -144.41817071194932964 -155.88340535293048106 -143.39209535402147822 -165.29710196398141875 -153.97738462880994348 -156.62097427627520574 -150.45273111038969205 -151.99675544748001244 -156.2178101198324498 -152.1177734063104765 -146.72207359461907572 -148.870350273442142 -152.07222137942454765 -147.8568049326157734 -152.153444981288402 -153.66864580727096268 -144.32424202495533905 -162.99139203278070909 -158.61913652026325394 -155.46813442395745142 -156.277486214225803 -148.25314509544080011 -153.38971983041039948 -152.83275258754312631 -147.827734541692422 -153.60691916114265609 -156.38276731328909364 -154.1502235292084606 -150.87848240374719921 -149.93527337967327639 -153.91165254015973574 -155.78874798796152845 -160.21427542423009527 -167.41830969031130394 -149.17199530020400289 -157.75375873337202393 -156.68627199409715445 -164.45118577500625179 -152.20444676429585229 -151.65419132741752151 -153.93496321253172709 -148.21203792880268679 -151.08459360106010649 -155.83199758584285632 -148.19533908115826648 -158.27398359648381643 -147.45189366135713271 -152.54098756378527924 -154.96197393127982878 -152.70750205475820849 -146.21315059083630672 -161.612662786176287 -148.66401417990792311 -154.31478646313351533 -148.15954704366311034 -152.40717445313268286 -147.42874610236557942 -153.15085714536053274 -148.44198241100190216 -152.18143259566812731 -147.80771828601496054 -153.53685470972152416 -157.37291449891861816 -143.95649364816745219 -153.95734827784738741 -151.09212308801133418 -150.54498614088771546 -152.33641419036865727 -159.78166329349264174 -154.36347442212411352 -146.94500477508833569 -154.12422264317120835 -137.37455254629639967 -150.12442358926867314 -149.67995631598719797 -164.12387763302174903 -152.38396582588313777 -150.75534703112518287 -150.27478539412282998 -160.60581238056329312 -164.18808315974916923 -147.37934075408196577 -147.97219185693830923 -162.47161131564274683 -150.00528681626911975 -162.05787307264193942 -147.36273535697014836 -147.74169790668901214 -152.72650777480131978 -154.76968737964187994 -144.50234258720351477 -145.75993397482133673 -155.89430908212756322 -153.48252072070431495 -154.01704192557505735 -151.82641985281500752 -152.23114123084599214 -154.37931759096065321 -149.90296507835111584 -154.38408670360001906 -155.24144759066319921 -145.7536230346103423 -148.43882737419016848 -155.20505577960355481 -157.65938108407263485 -149.11337255333754115 -148.69133449730301777 -155.37293776032720416 -148.96777261481722121 -154.34493212728631306 -152.36485723032504325 -155.62878276789615484 -149.70005041511697641 -157.00088303923024569 -148.10163601616179108 -153.4931172651747886 -144.46018498358088777 -157.488947110067528 -157.37164401642249345 -158.75301661238020756 -154.49681680107431703 -157.34351790906632118 -151.84268184673473456 -145.45816034288733931 -157.68747773006001012 -158.1689864229458351 -154.78301484612094896 -154.24427816401865243 -146.80296802142279944 -154.42831257088823804 -148.5372951652291249 -146.66546714841044263 -151.35338250516366543 -146.16487043531853374 -157.18765678192323776 -153.5276379039163146 -157.61580421949810216 -148.53795123601648243 -157.50872262363583332 -155.31950444854419402 -150.21583723226638085 -150.40956556984252757 -159.26228486179900301 -150.31234518522063581 -154.11373834342060718 -155.31113103375525952 -154.26473801064892655 -155.06383284450606652 -145.30619220822194393 -156.17222610994403453 -154.07721607581774492 -140.30991784009901835 -154.55323714458450013 -152.17097441076435871 -156.53149954993170923 -153.31762110026639334 -157.91462444079826355 -153.12442455692902854 -151.01116663124798833 -151.54829837345170063
-1189.7889972543171098 -1206.1672788485202545 -1195.0955498525754592 -1174.68136099054027 -1181.2175271421408524 -1191.2862637042037477 -1192.8356088427160557 -1168.7508311852197949 -1193.3690693159628609 -1188.5778301872162501 -1198.3374158647791319 -1209.2634793550380436 -1166.8772962287794144 -1180.9474189968625524 -1188.2504130187344344 -1186.1711193359178651 -1189.141372117218225 -1236.5830371835590995 -1192.902010909604769 -1184.7219240803738103 -1183.4706528886752039 -1194.9214204900997629 -1175.0157853203331797 -1185.2538332741871727 -1190.7638686644013433 -1206.512925723287708 -1183.1024062843027878 -1191.2613132029173357 -1218.487100783117512 -1184.4880602693485798 -1182.7435768459290557 -1196.1926547919044879 -1185.6137374843826819 -1192.4286927747205027 -1177.3094236078320591 -1195.6068997063903225 -1181.3285229723182965 -1216.4227047873314405 -1205.4199888795967581 -1211.3660579612669608 -1208.8677197416784566 -1215.3900167318251988 -1192.5173434522323532 -1186.753500471668076 -1178.7861885952167995 -1188.6175549894305732 -1201.6652565909607802 -1191.783505361020616 -1200.1880418037460458 -1198.7223033730492716 -1179.7984599617018375 -1183.1194018691571728 -1197.8933798771888632 -1193.9404105388161952 -1185.4586880201184158 -1195.2221010606870095 -1211.8914869422828815 -1172.5426595450501281 -1174.6753757408355341 -1176.3385065037923596 -1176.4962360727809028 -1206.4367916382138901 -1187.7728540669002086 -1156.8251854026561887 -1214.4460256184006539 -1186.7228834708155318 -1187.619775164038856 -1185.2467865549758699 -1178.614344481975877 -1189.6614301839763357 -1206.9057779861570907 -1196.7580028283502998 -1207.9894109475585537 -1169.4455227633175127 -1180.9007698035111389 -1193.5718129502004103 -1180.811757984891301 -1194.4479024753125032 -1187.1878967871277837 -1217.7968884581437123 -1194.7708091600632088 -1180.7185878372697516 -1162.1363125358184334 -1188.3756786606438709 -1202.47588456086919 -1175.1068029555856356 -1162.2800076265696134 -1190.8632012549703632 -1203.43533494344274 -1186.256436927427103 -1184.8192252278640808 -1189.9336179036342855 -1199.1004429052431988 -1204.4008683465935974 -1184.9051117033002356 -1193.2664688775844297 -1212.6359654670150121 -1192.1280233669895097 -1212.1411257923509766 -1174.2869024899912347 -1187.7134847303946117 -1212.5853000498625534 -1187.6176308083083768 -1202.9698151755731033 -1190.7795589587667564 -1200.1267323107201719 -1192.5301036076152741 -1175.0896424522259167 -1198.4049255644945333 -1194.6830633183492409 -1165.7905866389205585 -1184.773896674667867 -1188.7582414064572731 -1166.8797066463857846 -1192.4965196196392299 -1183.8181413208312733 -1185.0121389442610962 -1177.7900086892393574 -1175.6863907929364359 -1200.3053962233470884 -1199.9283313126745725 -1175.6521038459222837 -1204.2560675647637254 -1195.6765814445168417 -1168.533588392125921 -1175.5666139821753404 -1180.5106566946178646 -1191.5169057014095415 -1192.2519094011036032 -1185.4417413804999342 -1213.0132105969792065 -1181.5556463146949682 -1206.0313260109076055 -1215.1526112306337382 -1189.145585096298646 -1172.396853696719063 -1209.1436762038847519 -1199.4115825742394463 -1174.023413719747623 -1207.6163099978216451 -1200.018446657855975 -1198.068602429749717 -1183.7831709367542317 -1192.0780084706166235 -1196.7070976124346089 -1213.2040873043420106 -1191.7049758092875891 -1190.826424435262652 -1181.7035746615038079 -1202.230598319076762 -1168.1028717259487166 -1189.7378112513888482 -1196.5376956006816727 -1185.124920393072216 -1198.617347545911116 -1213.7169650031971742 -1200.1824002456321523 -1202.7614955710250797 -1193.286829400530678 -1217.4883225327250784 -1191.8985658447820697 -1178.8274233924830696 -1195.5857735154741022 -1209.3597782127271785 -1186.1696618075709466 -1194.8381808839026235 -1191.0193041076561258 -1213.3202840066608132 -1189.9940543956349757 -1176.47850865623559 -1197.171687027615917 -1185.3515458485690033 -1213.564086409354104 -1184.1239004927845144 -1187.6573935742003414 -1184.0734818654430001 -1202.1120392898883438 -1178.7709897039883344 -1198.8942258701631545 -1198.216416095075374 -1211.7807500731717028 -1192.4216422855381552 -1210.5750805584589216 -1188.0745057157762403 -1160.6267350787313717 -1201.6895608965476185 -1196.1107581564228894 -1193.7786238986593617 -1203.2418641578403822 -1185.7902547202388632 -1190.5709140241976911 -1185.9331820824334045 -1200.2909765561344102 -1210.576212372110831 -1173.6848098910231784 -1174.97818782716854 -1182.7532782149633022 -1200.8908090634533892 -1172.7010396299524473 -1187.6745165400116093 -1206.3585752777362359 -1184.4388825001294663 -1187.4711086695049289 -1206.6007433615543505 -1195.0142343656741559 -1215.2449141618278645 -1199.3152814051068162 -1200.0513413582409612 -1221.0175931301509991 -1193.7921120470155074 -1200.4832370468548106 -1186.9350179128794025 -1200.0907241921722743 -1196.2518516038453527 -1189.1578673899980458 -1226.1514738650432719 -1214.5140684609200434 -1224.7378054937130401 -1189.4535327364305886 -1197.978156944767079 -1198.9762150090205068 -1188.2884826296312895 -1215.206305316531143 -1191.2160891331368475 -1178.2787474627734809 -1198.1473856308327868 -1195.1748799898980451 -1202.5993841760696341 -1184.1263815817189879 -1204.7540698663478906 -1207.3490351486502732 -1193.4005312429067089 -1205.8545073411426074 -1222.3421316754272539 -1201.5330797194342267 -1182.4885736709513822 -1199.7507458310658421 -1200.079675615184442 -1192.93838978917438 -1171.0342843067523972 -1180.9903586997263574 -1192.6735458122843738 -1194.067266084882931 -1218.7956181551514874 -1183.5388795119722545 -1178.8571652263176475 -1188.8383183109947367 -1207.1797958845991161 -1222.0064258464537943 -1194.7864648568895518 -1212.489983323608385 -1194.7654221149928162 -1171.7458185164725819 -1198.8635722662195349 -1203.4932277229945612 -1194.9411621805222694 -1214.6300622518331238 -1177.4549403534526846 -1178.0334734112816477 -1202.502622212099368 -1192.3809676176049379 -1199.4233097271487622 -1210.6657134085908183 -1186.4275904918122251 -1180.2329496310846935 -1186.332560145166326 -1188.2409480559958865 -1171.5802237955094824 -1203.7291600246026064 -1172.0810848339617678 -1204.4456648355794641 -1176.990162898138351 -1195.3453855997638584 -1182.7423178776518853 -1186.2206268420752622 -1169.6759899118485464 -1187.2043346982188723 -1205.3238608365404616 -1137.2988705258426307 -1177.7964004483033023 -1188.8582296207587206 -1183.2065787967462711 -1215.8807690238202213 -1174.022685278131803 -1185.5721020645110002 -1198.1691541003683597 -1195.3163274678288417 -1210.0362782640474961 -1184.8508253893401161 -1205.8939080540083069 -1175.7911222765585535 -1179.5732646254994052 -1180.0465583661114124 -1194.4265333239068241 -1189.6689382514814497 -1196.9591661717508941 -1180.1913063931772285 -1195.5582189388776442 -1178.7259773334956208 -1194.263920312086384 -1208.4769676913695093 -1206.6223664433284739 -1176.1442829165744115 -1185.2003878326904669 -1209.8470440683545348 -1202.310250527558992 -1194.528833489070621 -1201.1123506216626993 -1207.1047423533816527 -1194.3523890237102023 -1178.6525931460305401 -1190.8523237263593728 -1194.6096240521508207 -1214.7456358424615246 -1199.9494465054497141 -1195.1531284035547742 -1209.2743576859809309 -1176.9245312406910671 -1195.5388133678534359 -1177.1147593228183723 -1203.7017580729468591 -1179.6963331519095846 -1189.0366275659496296 -1199.7499071934660151 -1196.8083787975783707 -1195.6826324757118982 -1188.9508884861404567 -1180.9201544660470518 -1192.9175643897945065 -1200.7499104275455011 -1218.0055063109361981 -1191.9191796585937482 -1193.1119839502387094 -1192.0105034896093912 -1195.6778142822504378 -1174.4371359933036274 -1176.1244553861881741 -1201.9161376377444412 -1186.4230513501754558 -1172.2944895996899959 -1189.487436259962351 -1186.1525722863548253 -1198.0779786538412282 -1204.5620032205868029 -1213.4162216073427771 -1170.7088101851693409 -1205.8409747969624277 -1197.1369240971182535 -1183.5233336305141165 -1183.7000791810210103 -1205.177330729435198 -1190.8587624132828751 -1193.4963914243373893 -1214.3875413427076637 -1182.4874566612604667 -1174.7708408818079988 -1192.4745818036799392 -1174.6473363182269622 -1189.5287897874177361 -1194.6655947398837725 -1188.7129563666642298 -1208.4958499227250286 -1194.2853570610332099 -1178.4532185199705054 -1184.8547506083368717 -1182.7145182864981052 -1188.9058594716502739 -1201.7426853022375326 -1179.5328503353064207 -1202.6828913053047927 -1178.8766095405580927 -1183.9521494612006336 -1191.6820127758464878 -1189.7386745819310363 -1204.1722671724728571