33.985630232800922101 32.811354784961110909 40.537119141910658016 38.867862973296091411 38.902030887021112449 44.25297410072512605 40.852663625086165666 32.53058921708304041 36.040507991265904764 42.330597030006728687 28.601982478723471104 29.856239606675281095 30.152950265360971116 37.992369823787015548 36.413980425684243869 39.03862069912614885 28.246208304943351663 36.138762046848931675 27.798356096543308524 30.837815011339102966 34.743514125094968392 30.474018353380763813 31.718158936275152371 34.788218373208486867 34.267331736625244787 33.609389453983574469 13.962059965332528577 40.224643101625233044 34.500164827798762701 28.182858096342364718 35.569077950565691992 30.352251265440116867 34.340028112448287345 40.30083208294296071 29.367049859422358793 33.352054754680601434 33.380298673844464474 33.407720759596223559 32.515395223809377967 26.893078581198842869 35.181759581617505717 34.854407101476233777 32.544933442857640671 37.527185180571407841 33.822822349370682105 30.953990810250239463 42.452682812000531953 37.242127358412353999 34.229079783603374665 35.371723915661505089 33.877621938895636333 38.252508318442856705 27.735634882101813048 31.45923013336195595 26.714446845993002455 39.307259884673555916 30.53987090764386636 40.949065291895422547 35.274174359825927638 24.268412267555923734 43.457173997157177325 39.753156518350600379 37.090711971765529142 41.072989185409518598 33.271589755825445422 25.359489553399185979 28.187720360684146215 37.94553564665960721 30.9480542785139221 28.079633894181583287 31.583152225039654581 28.76868851535324012 29.839272715041893491 34.818670986302059589 39.874003585571209385 29.341457764544962572 21.937234234421332246 28.076111743593735071 35.297744004535196893 26.103161453711017259 29.709663325844452686 30.546717591609791498 33.640134108705559868 31.990582971788420252 37.147114664354504043 30.926629593704099364 35.359383252279791066 27.543336786080182321 32.775556703080184207 33.8809321541773798 37.581447915827247641 28.182981982310302271 25.241833780316170532 34.561206826121988911 32.319248577543675083 37.07272493578311412 34.096481729558476559 33.793658414333712869 35.98749240322420917 36.784922958174291807 41.766340185285933728 28.870276661355347869 27.930468626431803614 30.358569371119614289 22.757639810933035562 36.364278869000742134 34.313272139273813366 36.650087473119789649 29.691402436335252446 33.401155695493869757 32.599828944868377789 23.345143744428632715 37.039272875671414909 35.281118423243356119 32.517135705591890371 36.986032901714544607 29.142153590058164525 27.764300431151220039 35.404990399473248885 15.862841553314723342 26.756376126876901367 30.567935455522508903 39.170248836702043604 28.044708811174189123 34.313819093639786217 30.02754426301355295 28.121454606064155257 25.650559730400061653 30.723996724822889348 35.094939853058377821 34.118829068602423149 37.79871882935469074 33.354170396896527961 31.418526846216508375 20.673684855563173812 34.507311118812793893 31.708197318041293045 32.287955053582443554 38.105572064487503781 40.645659521509088563 29.354260691653955462 36.632768165685874351 34.1661903227034216 31.591247312789313639 40.129159808243962004 34.042052942656447101 33.904373145677034529 28.801834106211195774 37.368878932332812326 44.679490858594220981 25.173559229994303621 27.844683061993912077 34.773993019813318028 32.897342579439253996 20.570107195877994855 41.265417676524627666 42.311344133389319211 29.680477630366823405 30.308624572094082339 23.09728204139673835 33.63800882266895087 41.468474258841396818 34.441751918327653925 33.843798783141217257 36.801608439187901922 34.846559597367452454 30.348003057625561496 40.10925170335178791 29.170761989867060038 32.188675394650609007 34.337081783783723665 36.390197562453870717 28.043643768173296849 32.317496436261549775 38.383970328781018111 39.635125080359863148 31.522631926095442623 33.319160338127353782 36.014434212850261474 37.515603970364836073 33.879299702309182862 37.336279742421957906 39.540555101835686003 40.734523847096262728 28.19712831094658867 26.002857943662469609 33.940669959564488067 40.861120532465214694 41.90373777049264703 34.841799997027287361 31.631755409913665744 24.694379688413889085 31.532458245002743524 36.793937785274259511 28.264038125283612146 20.188968160012016995 33.337056188450368666 36.308259415294898531 29.982637355509332622 44.324132187245155023 36.507533564047079722 27.36363949109546212 24.769519272218431638 30.895686235774142858 42.901639241800722857 31.760256637875706076 38.785978481254517192 31.679978035310455198 30.931142486444649364 29.400753265900860356 38.381172178402003681 27.42383900129128449 26.203194707623445936 34.640683342403768563 31.335815250671956278 34.500430319186833117 38.750099624395396347 29.217468118746388939 29.643002636344178313 39.460926716466708797 29.137283233869034405 38.607921072926252748 41.433826323061310859 24.616584806367932003 31.485254779589517682 28.94511011781502674 26.875802411498611377 26.914088595351671529 42.389184040147519283 37.926682263875811429 22.408778880424961244 40.965499735229791156 36.776138671863982665 30.539639323916375702 43.512679896782046285 30.099942214218174286 33.135840492129119639 36.159968623947300159 41.846317803401916535 28.723455735838015812 35.175233386415754921 24.98870776986789366 27.135054858108816234 28.64625680005686803 42.849876777162755559 35.32026800493015628 20.23649132934728101 27.032037153722789924 36.136412259374132816 27.074082307229424771 35.255982824460808445 29.531876642303714675 29.968362678561291546 40.041843311132517158 28.487235588289145483 25.703008934419663944 31.62979004803265326 31.104341225516435543 34.51259177011581869 31.561674721210323469 28.9641714597490747 39.414271801025030584 39.478511868679959207 30.529685292335301483 31.213663625739165752 37.325698865195320764 42.791564914142767861 28.258283802853348732 33.494347897157837224 37.2186999800518592 28.228246984614528969 34.981003256665381684 23.96605616920065529 34.167916770631919121 36.10842644115396638 38.93801134020747412 40.428159267367419716 41.097598779275656966 30.718247083912643802 40.675438863453486249 31.515962046921167428 32.809675884430028248 29.288369796514331256 40.700224172018245383 42.419155449422149218 34.441229116551873801 29.400777556662561096 29.357964844636974533 31.123045233940416665 32.231460890191584667 40.962799337923271992 33.265305513087767508 29.092474382318137316 26.500418425412519241 27.974981457713631983 33.586049396109913801 34.373955442577987185 28.655197356057620084 39.242206029382018073 35.751499841997620877 27.066801540639559676 34.284795670175398641 29.9869075876222837 31.634807636877724235 29.181019818580232084 36.452443477993085708 26.781076476751835003 29.302729826689564163 35.514374187649515591 31.962520618874187051 31.464551434286896381 29.204009458802701715 31.481371457352317123 38.840396561296913092 32.981111196665935381 32.986360484058778297 32.068051056600559434 32.867464818759984269 36.746388864534459628 32.757518197072940325 38.746739401619677778 38.871746832236411251 44.153651141201137875 33.393650152875437698 26.182114836002106983 35.660536563444239277 29.287258655215531178 31.914332268914428425 31.832801448490592122 30.506981935056622035 46.686085851941378166 25.125759412844111296 25.144455011963593449 37.641937175579599284 31.400659339660819569 31.33176356168779364 37.422367720539746472 36.192576604525790174 29.168518807201529341 41.646780520558465355 37.319763673695540263 28.828164304813761021 45.171980743279306125 29.537277849816113928 30.544192573570548177 27.822713658957141547 26.494968078392780342 30.520581578968212 32.155616803041510821 29.328567600889002165 22.848171509369500143 34.115542366349458803 35.402442164709988504 20.111174639861772562 27.811671912136063156 26.188265336037105158 43.953820617055932019 34.395424262597700249 35.72162988449856158 39.110047423066355066 31.639571296915754317 37.803898328603267487 33.489973410939946064 38.361924304905038241 27.957385859125921002 30.23497447477665645 38.638218802645305061 37.093095390178319803 40.865921951621729136 35.806345332642521839 31.886042893165495116 35.769568018138208743 34.63363769517388846 23.944765711290145305 33.118445849130502268
-1727.7189683882786539 -1725.9646470919592502 -1720.3700196470833816 -1761.1723404848496557 -1719.3021823493656939 -1742.1210289305486185 -1754.2230029641409601 -1731.6915816114726567 -1726.5883643888105325 -1721.6955803597525119 -1731.6745853990369142 -1748.6100503483553439 -1763.2754145912188051 -1754.8463409447626873 -1736.3336368308544024 -1730.3093875589202071 -1735.6400981920794493 -1747.6792769194914854 -1718.8824923339038833 -1735.5251662231949012 -1755.52398682200851 -1736.1297419920633729 -1739.6499482855945189 -1743.0299084447215137 -1729.4966657307440983 -1716.9277553313090721 -1733.7455539320426396 -1727.443357421009523 -1708.8968596455877105 -1707.2512565906351938 -1723.9414458543894852 -1738.0245225123362616 -1717.3840322323148939 -1711.8699123632795818 -1713.4586756650967345 -1734.7719058494576529 -1705.5766217945676999 -1739.0367049953667902 -1730.6384320173983724 -1760.6393037497498426 -1722.3216991964582121 -1750.274164920020894 -1753.8925699435201295 -1744.3436596758699579 -1740.209629280421268 -1734.9366874749109684 -1770.9779368966983384 -1739.3735978690092452 -1737.8181473593231203 -1740.093413978970375 -1730.326442887146186 -1736.2243819228290249 -1733.30508884237247 -1758.1343614969832743 -1750.0834758532007527 -1747.6452333919050943 -1739.2058362211746498 -1737.7953942763790565 -1737.4558196231016609 -1730.8090855463560729 -1715.8328992254296281 -1754.0419629310010805 -1730.440775952791455 -1730.2340965529826917 -1758.2150411330144379 -1741.6194015619018955 -1724.7724521630129857 -1724.1764058214196211 -1736.8703293885646417 -1729.9386215259314667 -1730.4577896555931602 -1730.9532855909146747 -1738.9315323817684202 -1742.0443567163629268 -1735.9779140262985493 -1745.7463187232713153 -1738.2199607157226637 -1722.5684861201518743 -1746.2916989583372924 -1723.0761982505246124 -1740.5487934977420537 -1716.3131844903916772 -1721.1908060842508803 -1750.7397760770625155 -1722.1346804534830426 -1719.3585290163828176 -1730.3396930340277322 -1754.8847270671012666 -1713.9234316874737942 -1734.6472762792250251 -1724.516730851866896 -1740.3053982333999556 -1737.3512453096029731 -1751.2818130620075863 -1716.012352228374084 -1737.5639531352107952 -1733.6509427863034034 -1727.9408325721494748 -1746.5825911519839337 -1754.8038916801422147 -1710.5018543908970514 -1725.5892280024359025 -1731.819790969407677 -1732.2951707819117928 -1746.6448230793916991 -1718.7946493162139632 -1729.9543128964271546 -1744.1834324529320384 -1744.6990918743351813 -1742.2276735435568753 -1737.6427886918129389 -1735.9711163983063216 -1723.770926883041966 -1740.6090001399450102 -1729.2596161965489046 -1723.2035106778178033 -1725.8432291175463433 -1745.9955292962376916 -1749.3127813847177094 -1738.7351125195552868 -1737.635158836697201 -1738.4940677187878464 -1723.6703747871920314 -1747.0003718849313827 -1731.0167294342716104 -1734.8765670418545142 -1756.4304442845502763 -1753.5870264583322751 -1750.6368723495515951 -1717.1825843330800581 -1711.9745940530576718 -1728.7648202504221899 -1722.9823166486364698 -1715.6896505408744815 -1722.0480802689498887 -1742.4721581952840097 -1725.562066889315247 -1748.2131241405436413 -1715.99511591176406 -1715.0797185271774197 -1750.498807281292784 -1750.6747743230662309 -1729.5269375575385311 -1754.6266737279652261 -1735.4526333935823459 -1739.6575310894313589 -1746.0106673620327911 -1724.8526060514814162 -1727.4020358260045214 -1746.4449713793549108 -1725.6601466436695773 -1751.3433268418605167 -1757.4874271357471116 -1719.0533092767234393 -1723.7633408012168275 -1727.0060588909934722 -1753.2617100469810794 -1737.7299074317329541 -1725.0184999913790307 -1746.476013559120247 -1713.9476459474153671 -1745.8215145217386635 -1734.7468623096215197 -1734.6616262418272072 -1714.1335615183172649 -1748.0710239140375961 -1718.217273953541735 -1749.9736915865019 -1747.8272763740908431 -1754.2074966288998894 -1748.2858143814971754 -1759.7955586076125201 -1742.343946942268758 -1726.3949388179607922 -1729.2788346360339347 -1731.2844508859125199 -1725.2760820130868069 -1727.5857768879277501 -1721.8352649581559035 -1726.841730345898668 -1740.7867252895257479 -1742.4334288538452711 -1729.3035846726577347 -1761.0194831172691465 -1712.9817847939907551 -1729.6321214355216398 -1721.1653798822405861 -1723.419356243422726 -1724.6539094389074762 -1741.5113708820172178 -1736.5917738538346384 -1723.8549121017908874 -1734.5974762015696342 -1737.8476922866486802 -1740.599254238413323 -1722.4981008783811376 -1753.0604128213226431 -1713.1543877062342744 -1715.8803809006412848 -1731.0346652906780491 -1721.3094413987478219 -1753.6045593218555041 -1766.1745526612753565 -1756.4198332789351298 -1741.072740030041814 -1739.07108896696991 -1710.6190266145467831 -1754.965415919750285 -1729.5319221539343744 -1724.5349484071923598 -1742.677715232755645 -1753.698989769521404 -1741.0141443317847916 -1738.0869892634905227 -1711.621360135877012 -1752.5501820904769374 -1737.4334736444052396 -1718.0731184160947578 -1729.3857594850853729 -1732.8227677826762374 -1743.8270833689623487 -1746.4007493936105675 -1730.9960093224435695 -1745.3874114161474154 -1746.5825866525146921 -1743.1654500278991691 -1753.6583568633673167 -1727.4040613444944938 -1737.889070910760438 -1718.6821658597689293 -1729.9751964136657989 -1731.5815276657683626 -1735.4833212159314826 -1733.8067392701229892 -1744.1902715934947992 -1697.2773965324154233 -1726.9439997446370398 -1720.140471316609819 -1733.4334771830751833 -1734.5331303769232818 -1753.6406572043401866 -1732.3904643068747191 -1719.5023188605082396 -1725.4462840442843117 -1724.0819809875476949 -1751.3224730455301597 -1738.4495032822746907 -1757.2480925851314169 -1717.8643159181499414 -1745.0146798456794386 -1736.7153872362443963 -1745.8660775152573024 -1718.4765181090335773 -1742.7001163387160432 -1717.4152017209230507 -1752.1783183358415954 -1711.7295198358469861 -1726.6296818244084079 -1720.4332423498824483 -1741.0398845990562222 -1716.2086904770005731 -1727.2131190833556502 -1746.4578333542240216 -1743.861087596682637 -1723.0215327222292672 -1735.0070887875092467 -1735.8593766881510874 -1726.7538904377097424 -1766.1883696664599483 -1757.9346632813108045 -1723.6183420794754966 -1764.5052364532609772 -1719.9459852231639161 -1746.063253815022108 -1726.5640177161974407 -1705.6239500851850153 -1703.9308047884896951 -1754.4923771889641557 -1735.8559284030075105 -1735.7309247874870834 -1736.9372449214652079 -1759.6609747369930119 -1746.571819094465809 -1722.401030383267198 -1738.3812443466340483 -1708.3349016984634545 -1722.4105977750409693 -1753.775287725180533 -1746.4554631892608541 -1732.3693154933187088 -1754.860913242588822 -1729.9705475460702928 -1717.471917215736994 -1730.2473327607449392 -1737.6569393817117088 -1744.1442977687534039 -1758.9688220732023183 -1739.7215002204768552 -1751.0803684420109221 -1731.8916674744834836 -1746.9997323016968949 -1736.7187464427959185 -1758.1420318320742808 -1736.5833645364612039 -1751.5437228953246631 -1710.121547123801065 -1738.6387398387248595 -1750.4265435910685937 -1725.7515384487544452 -1745.8381664671369435 -1710.2676586777822649 -1747.8174507438329783 -1706.8115027584740346 -1743.3141585193504852 -1744.3244642756587837 -1719.1488206758081105 -1735.8085298812570727 -1713.2679108509296384 -1728.0108707316908294 -1727.6485063753325448 -1731.2881849849648006 -1748.7002308365833869 -1744.2315586789284225 -1738.8541489975013974 -1724.5154648661812189 -1745.4163917820919778 -1727.6654106060034337 -1723.8998487757448856 -1753.4259205509254116 -1728.7330111077981201 -1723.9289134733051014 -1740.500695250883382 -1756.37589832875301 -1738.992648395592596 -1713.3192933550276393 -1748.5046232962683916 -1741.4380783809911009 -1735.2009016118781801 -1733.9051926386332525 -1725.4049590084293868 -1745.4580021766221307 -1735.364909982564086 -1706.9104219625994574 -1727.6277602823893176 -1762.5801493330845915 -1745.2772401246884328 -1735.8167285809336136 -1744.9103593998888755 -1725.7560220784446301 -1728.1486821165863148 -1727.6430854913469375 -1749.6745136091740278 -1720.9816920040696004 -1730.8221579898677192 -1755.704881847246952 -1736.1556841899491701 -1753.9131589011494725 -1735.1407515683067686 -1713.7164818929322792 -1733.7735777231714565 -1738.8017180828039727 -1726.928192797246993 -1745.31536536782437 -1722.5740093900542433 -1728.3371034221806894 -1731.9447551383002519 -1729.9212101703965345 -1738.2751351748236175 -1712.7633127463054734 -1727.8812033618110036 -1725.3151407834770907 -1722.3569286950400965 -1734.1979118655558523 -1742.6366153018907426 -1723.2572938053403959
779.52163517899805356 766.29610577290793572 792.62523789825229414 784.956921958244493 783.50226455873757914 794.17979816557533468 785.68004837830369524 775.86939056643643653 770.15646811959663864 781.7593111838433515 774.76087830532185308 775.2186931902458582 775.97652191323948045 788.86252513550084586 783.32893055801048376 789.13322323127692925 787.28889012852187079 797.76034969529712271 780.61885789419636694 795.03721802785082673 783.185434333481453 771.98610756771768138 782.35558329637103725 778.99508635225822673 778.57123115957824666 787.70234098204116435 793.27357753001342644 784.11165047373867765 777.61273533976566341 782.01673796020190821 771.64171715119573491 781.73510301767851161 799.38158559179464646 783.20564854934411869 786.95851319386849809 795.48728459136964375 776.0226427400166358 774.40595036704405629 782.49813809094052885 769.38253309308936423 784.45565419555180142 780.19082124201338502 783.33428803213041647 776.16343743650531906 797.13406428339953891 784.40849452956308596 773.30739338665523519 784.24123080701849631 790.50217652662490764 789.87924588128930736 783.19374365586577369 787.31104715482433676 778.20140284985779999 789.54730354832634021 787.59355413348373531 785.64820271902158311 774.000718913280366 781.37660859847835582 768.41124479200971109 789.82643480870456187 783.95384982837811094 779.62145182066831239 776.4774412760332325 779.4727102432736956 787.18232438140796603 779.15909903617784948 774.11561552472926451 779.85933327470809218 789.45082396884595255 785.1823347810289988 780.88420388002657546 784.4007963044105054 775.75700852187469536 797.28165915345653048 791.13050371773147162 775.25927268790314884 798.57927532208509547 785.06387893421242552 779.18490929454731031 781.30137701099215519 786.07197041140796046 771.7187899083398861 791.82556800035661126 785.53670086291401731 797.80694472272523399 782.68780457032391951 790.46790906260901011 775.29410246908389581 782.35853344303188805 781.69250824813218514 779.13819560265562814 777.47566900511776566 787.93305752158562427 778.39145818188433168 783.96105818967009782 773.06034871190240665 773.62970195883997349 789.08925297945120292 783.47338883102122509 780.78438270473145622 790.49872128754600453 773.69718902356885337 777.09665085758797431 783.02918083906217817 785.68150735321671618 792.15929337249269793 774.45085353166132336 789.32013437491343666 768.68296886542816537 785.52197193948074982 785.53119108053397213 789.7977484752213968 766.75023308029324198 788.54738007483081219 783.39131819612850904 778.11291336422823406 789.43949658672499936 787.93885271073031618 779.37341561254379485 786.79208393944679756 779.54150331713447031 785.76539007111045976 777.98750637384728179 774.24346850014399024 776.21104754895441147 789.62859734266010037 779.26985199656917302 787.01967848756976309 783.9755940952633182 795.68150263816960432 786.01736596562409431 778.36510555052075233 771.21563808056521339 781.23800620840734155 769.23338010011286769 781.4155614506398706 776.18446073266534313 787.49020590078407622 786.6366961911147655 786.59792909958787277 790.99274075218613689 775.09202891921813716 776.26880370633307393 773.97082546753426868 782.33563364025235387 784.70366709435700159 788.03673142922889383 784.92621970459185832 795.59088945576240803 778.46298134002870484 785.00372989662798773 787.6293016641492386 779.85615057896632152 773.23574287259077664 787.42590701499557326 785.9093896985630181 775.05347281235890478 779.11641208414721405 779.52059622562171626 794.40850530620843983 789.21068056064223128 782.20411159198533824 787.79517469530833296 785.28882302914371394 775.24333906571598618 773.52195373407994339 777.01813777667939576 780.74396498660144061 781.08733210455079643 774.43970578763253343 795.1173256282326065 772.52424280582124538 796.72347518952881273 786.79593988350939071 789.4545870504055074 795.65365423493767594 798.66268443408444 780.64734180615050718 782.28371615607261447 778.90992820246469819 778.3730423117835926 801.24798713774453063 787.06958401528459035 763.46170676880228712 781.45572860207778376 775.72496958317947247 794.48279232554909868 784.99183989839355036 762.9564424480084881 773.57053892847272891 774.38270377675689815 778.66597072896820464 784.96668760970271705 783.34511958084840444 774.11751979928192213 780.61479626438529067 783.04930400681053015 781.10770591469940882 791.52062448252979721 778.01802306400259113 777.26799538681393642 778.74184403158653822 780.11863543532206222 794.9290176838858315 791.77557400474881888 781.06233755889297754 783.01874284149266714 783.37415346082730139 793.82488342459930664 781.74173595707645745 783.66104427929406029 779.13594245232570756 790.43885699536190259 780.68759316916725766 767.95182246938293247 789.23834392864728215 796.88492414911274864 778.3657959717063477 781.71036247060260393 782.37324052184840184 790.12265660419848246 787.4032970063403809 786.94181703427693719 785.52095772185771239 780.39269612997316017 774.47624990725148564 795.21548792995736221 794.51092797792284728 787.18315347233510693 793.03255021303993999 779.17502773940930183 784.12499397129624867 780.7811538653925254 781.74259353728132282 794.13014789056774134 784.39584148619849202 786.70426486719088643 787.90448527143121282 776.41800249416132829 789.70476431990289257 791.0837424512421876 781.16330911977865981 772.95381503085809527 778.43828275701571329 775.55770649801934269 784.2760188443126026 778.16352902274206826 778.1607553165013087 777.19969411272427351 785.12882138562076761 775.75682368515765575 789.89393043509642212 791.71068276041285117 791.57240682661722531 786.61344234793807573 786.82194592740324879 783.33345848082183238 778.2511691078137801 772.88751102855280806 786.79611055588350155 788.93214578991432973 782.6617844054512716 788.19761258821938554 779.63168831382438384 782.20818176040768321 782.6625305063370206 780.81712937590930323 788.02941661420561559 774.4862232230442487 778.33138240890673387 774.94519015612399926 783.44446393773330328 785.4718060548033236 793.13602804827746695 779.94392155310413273 768.95272512751080285 787.81135693713326873 786.59919906610650742 765.71187742893562245 790.64579338747068959 783.54674529594558408 781.46525484962012342 775.16065671762953571 799.04973151667093134 783.98005846222190485 790.17912236202721488 786.28246834434742141 793.29904367664005349 782.7614188218307163 775.69331416057536899 789.81202869259516319 794.95136443172077634 784.38461722152283073 782.90063150176081308 782.22542332907585205 793.55329628794936525 776.80010379426266809 767.7743046576050574 778.15735578953615459 789.53123036118029177 791.1087637167364619 790.57116521576426749 791.74477898484360594 783.29095150046225626 783.59032762807544259 786.80915889730533763 785.66610590821790083 782.68114922492566166 784.70912594230139803 786.79551438703606436 779.60010646254545463 795.47574821221940056 783.75107615448166598 783.40925710727969999 800.93352015060020221 783.9005077507107444 773.02912598972659453 795.31100944922184226 786.41372356438819224 774.56553071221640039 791.20506296702012605 772.69640512152420797 776.81551603636671643 775.66070307150050667 789.6173022371534671 783.91299535018151801 784.15677638952024608 789.83008222978878621 782.61265215966716369 783.30074317846674603 785.96656529644951661 783.43098497529274482 779.86734363089033195 784.33780857387637298 779.16254644015486974 780.87849431438326064 771.69608715617232519 779.02099654372057103 777.29003798993255714 789.02434273750009197 782.88588214318394876 784.99424288587442788 783.82457910010884916 766.87770034316758938 788.79868201321642118 784.59262442739520793 781.57954950258033477 789.78057554102974791 773.73789992123340653 777.09191036494041782 776.17293771576407835 787.22161661088273377 784.92657390360648151 793.69890677956641412 787.99170430461833803 789.15857973888444121 775.03081558403823692 780.56091048679331834 778.21194694719247309 790.13053486895694277 781.81895740682239193 778.78402178751161955 776.19993052709105541 784.93090708450290549 777.7206834557049433 780.00903454644344492 793.16933442793538234 780.68235538596150036 782.6844412797760242 791.46553742011587929 781.53472387449141934 787.0150688742287457 789.54252257645759983 761.25419140916494598 778.70970366820279196
172.12064557299714807 173.6265760692157869 164.55431670244990983 159.09504472355126836 166.55647833741704744 171.74307244600146305 171.44239972314500164 175.29529338879177658 168.30449115404144322 161.85404112387701048 163.65724063340618954 165.51039172490430929 177.94599580064834754 173.27806909570145422 168.94921736526967493 160.95442580863286253 176.30776236330530082 174.57172297532645189 174.93111020952554213 154.81665931140904036 173.44134393795275173 166.15439210303270556 160.75705216475529369 153.37515690566445414 168.58508564555248199 155.43944699752944416 170.64670864873707501 166.79038858899369302 175.29934754925898233 164.07988429455630808 161.26431102864103195 165.85072183290918701 179.20357272671330406 165.37536329181486394 170.56894096318620768 177.32294681874614639 174.54578930924620295 177.07984566974320728 175.2443730267083879 168.47470836163810759 168.39974797557673014 168.63272616492258749 169.53353064201675693 167.17672393048479762 159.16263088782176283 176.19639733304862261 168.86069076212658047 183.40151676556536131 177.50737337677654182 174.82856667217356517 163.4329732851955157 165.4597802628142631 184.01267357157877314 166.74025753661294402 161.12004929636907491 186.784394403028017 179.02288787016490801 175.31551168391558804 179.73257291000422242 175.79380897441836851 159.46208212009634053 172.46137959324144617 170.07376661645506033 171.48536803280032359 165.57327386111896317 163.81345437912722218 165.77492574714216289 178.71381836016416855 166.0082550720242125 172.59289756830281704 162.72482569504282424 162.98797813144767588 170.09591532385280743 166.34695225681861075 160.35218814196366566 178.87927889655975378 166.72092065750484835 178.65871736724719199 159.36153880268793159 165.65386727742978223 164.00276760544241483 174.72389856615495773 180.48117993451424468 175.13983003167538754 167.70388889661515464 170.45621675106812631 165.37127115555409773 160.9278376302540039 156.73294650576596609 172.27068606176692356 171.46347663405359185 170.40994240208308952 164.5550101337260287 171.40677463263554614 171.92401938398933225 162.70813616449123629 162.09187779826339693 170.2947377477159705 171.80807992121208372 159.2958095491661652 171.03937193377069548 170.72175968108359712 171.00895429144796367 170.01893783318686815 171.97920673634601485 161.83334377628997913 163.62450123487275278 175.57780487461852204 164.66589021528503167 170.80410252215969535 173.55392736438705015 161.8141225795098137 172.9770855345142877 172.94433644923390148 165.12382725491502811 169.29304307555446485 169.27151833853682206 172.77315167217352609 176.10801074161122415 168.83444088427143015 178.36940478286814482 174.97858286710498987 170.02044219717217288 166.13543047964085986 160.69937867850543967 173.76626389861911548 171.62126866004803105 171.3993038535351161 163.09837191553631897 167.52091976989765953 167.52152986898525455 171.03322337040623324 168.71152422502072454 165.84365616658283216 180.98401188727308408 170.85566905539590721 166.06179209264044516 174.01898536379653137 173.88543872062410856 171.97673050394041638 169.62983456072487343 157.633481298710592 172.54894468120744477 171.97339705182093894 173.27935036853057227 175.98533598328739913 154.47515582672031087 162.37967913747408488 160.61295770493609325 171.47667540374555983 166.09886329193170695 172.53328684459762599 153.55035990947993696 162.75265596975606286 171.07330398592375786 170.13888419815808106 164.73496804644091185 168.39742117925931097 168.0408877228034612 171.38057342888384937 172.78693429250355962 169.51341370156453081 170.47897763908972024 184.6518987831001084 160.87095544029739358 178.18754432659346776 167.06033037589935475 167.66488221613249721 176.79169001281312035 173.84511215570012155 164.33649418164722533 175.07654259558671583 175.98923540710472935 163.60175423778835579 170.80540515117851896 175.31225858951793839 163.51131388928735078 163.10909243552424641 178.14125508576523771 167.14369162777640554 175.81509947092871471 155.62900599686122405 171.33972717236480321 161.66051193356241811 168.44642394964520804 172.1658563626349121 170.17274588773159394 169.92548203050847633 173.61842395434410946 172.21671553736251781 169.65994596935328786 164.0538143043077639 168.78515020129717072 176.10359345260380337 168.81737037602678697 163.24704530796145718 167.47723203977074036 177.54638686005324644 178.95897771547890898 172.16446072312115234 161.76299540621005235 169.80681484443070417 165.71516328156397435 164.56087775057235945 173.21196989665762089 166.44937097512044488 174.29883088836655247 173.3442039664779486 163.43835977424865291 171.83528806685578161 168.32784061047649971 163.57370633246014791 166.66990112760885268 177.51165422089690082 166.61831401020006638 169.37338866212965627 167.62474255904891152 162.85873681520016021 172.3234083989565022 176.92481480002032868 171.9367828318117688 178.37711050912776045 163.5702274674628427 170.59092253655833815 168.01464532527060669 176.20994242839623212 172.61308280259356707 175.80224403030854319 169.06702394157019853 171.33813222951488342 163.40151430367376406 173.72781368589824069 172.42167798375641041 177.6904314336698576 167.67052255040209729 175.42559455672787294 164.25727335162622467 169.90009114382883126 166.05977866799352682 174.98542149296372372 169.63858749708327878 180.0990030052898021 159.44616723091181143 176.49390382544666522 169.90452942599483777 173.25956202917160454 170.45714476225549561 170.87743179898581047 169.50673044697450109 174.19196342722739246 168.94911399339767399 187.24008056057689942 171.29342763433413666 179.03142223224944019 176.19239458846104185 168.89375641231413283 179.10473284285654927 175.26173984995921273 167.73657901256922287 173.68810698649696178 170.76750808370474033 169.72599752612961765 173.73575564980001218 173.51452559983275137 157.88786768274843553 170.31014449348731432 170.72659553865562998 164.62932433044227309 160.31488427681514963 179.19278297052505877 180.35469023237698138 166.4090381068938882 160.53449720936581002 166.98848109022432595 167.19044621998639855 164.20276288265546327 187.94524744901343638 165.42484327469239247 180.01187891410083353 169.63209780123673909 167.78018716843297398 175.85223455864181119 170.62806876355136865 168.33276295302883341 171.48276006624411139 173.64616616359862178 161.44797701845700999 180.73034276193578762 168.64039376576835139 171.23809106874929853 176.58289934961243262 179.60068235589577057 171.253219437411218 171.86196250140031339 157.20777161054010662 161.0293684510586445 176.08336014300817851 168.46765192039643466 186.32969509283356047 177.96321015808953803 163.80831757774720359 172.69412856963162994 171.15699304209218212 162.00487093077666145 169.11574450260616231 180.93712281221505123 167.13104998892217168 168.55509702416188134 173.76946280519391053 170.43731835303543676 169.6320142673488931 168.50731227148418157 180.71258153681799286 161.85389519857426421 172.09941843811239437 182.45064024432383576 169.70831799154672126 164.02909753939039206 172.87859866551644927 153.38092023212138315 176.09177791360627907 166.04578035288096771 178.01074904459414938 175.98873967271515539 171.18728888570683466 162.93328495847003978 161.0571372694295178 169.58964354584477974 172.62994423057199356 178.91897585496613488 173.75536195394246874 182.42234455975906826 162.92702533443932111 172.49329797223538208 167.54606777680317009 176.61248865859820967 171.50910558369835712 162.61828364750397213 174.6089419163343166 174.14221791595150535 170.20968651381008385 169.57586859736767337 162.20925172708328432 166.85227164113302933 184.87696428519637948 175.5655281282329554 168.18374359854806244 178.46561910726228461 174.74184557959961239 166.02679315468290611 154.29932224797852314 159.28335243967575252 164.63070222571079171 176.77609847207659755 174.47618817825491533 171.17034350522732211 166.59111200095566119 162.94269278015960367 177.25728158776240662 167.39399711942550653 164.82178076513861242 166.30080264346256058 168.37401976077472909 180.37582083072459227 172.58894232327546092 171.76829824106164324 169.59296943279753123 165.96132888858153365 165.51374717794172398 154.93823730477370759 177.72129182992415508 164.50890182177087695 158.21793592077676749 167.88006417350300126 178.52924607829180559
-1907.306359945641816 -1910.638141616238272 -1910.1931405257396364 -1905.5734479346169792 -1914.6180759728572411 -1901.6224883758725355 -1915.9186665385238939 -1913.3090667302453767 -1911.7162109085261363 -1897.1385698778765345 -1913.4001761727884059 -1912.178157590900355 -1900.0401047282484797 -1920.3810872440160438 -1930.4620418034385239 -1917.1597190700085775 -1907.6708129761311739 -1909.3864017655903353 -1927.2475924436701007 -1906.2946545888787568 -1904.3307934538054269 -1909.6127206946168826 -1903.277166324581458 -1899.2356082785584022 -1903.950243127654403 -1927.259191185650252 -1917.9415301122885467 -1908.8272380524676919 -1904.7014043025001229 -1929.889152450034544 -1895.1192473775558938 -1924.1305110855448675 -1899.5728973570935523 -1905.5947771621188167 -1913.9661787523659768 -1948.1561537824427432 -1928.5512550431612908 -1923.0933067247367489 -1930.4394350523032244 -1901.5189678995461691 -1926.8476961004778332 -1929.2763724700228067 -1911.9982142345784268 -1919.7674580178750148 -1922.3656932048727413 -1908.6080667467699641 -1902.1969661461876058 -1901.960964799386602 -1911.1821023133777544 -1921.9642921344743627 -1931.6925740195335948 -1892.0727216736650007 -1899.0110297172823266 -1892.8311587059627072 -1888.4838739476631417 -1928.2236534674511859 -1924.3562251138171177 -1894.1916755927979921 -1902.8299462476641111 -1895.0108498325398614 -1917.796774701797176 -1892.6121582846290039 -1895.0016411264530234 -1926.9991372088923072 -1895.1376032064254105 -1930.7797825314698912 -1922.492498164693643 -1914.1860947313284669 -1899.7775524148642035 -1929.8339024312563197 -1918.3334689529256138 -1905.8818053134061756 -1909.1669093853604409 -1923.7068369717394489 -1887.5008019856436476 -1925.5504879713687387 -1907.3662044155123567 -1888.3682369973073492 -1892.2357899692835872 -1912.8247889811525511 -1905.0767716344146265 -1916.0925818169796457 -1894.5871981573038738 -1896.9127055358262623 -1896.4680750150469066 -1888.4065716793129468 -1919.0827145090927388 -1897.622214944884945 -1924.0951599713448559 -1895.1411819966881467 -1911.0715333638920583 -1920.4998173890380713 -1906.8331454073959321 -1911.016023470074515 -1910.5923481206793895 -1926.4485765726949467 -1896.1476289995061961 -1913.7976005468983658 -1910.2675787364241842 -1936.5035425850048796 -1920.3434917786471487 -1903.2295389885562145 -1920.8466496891389852 -1912.2602167716672739 -1926.4944745706716276 -1909.5057875742870692 -1924.4536997037546371 -1884.1191285553479702 -1931.1932573072749619 -1925.1098383975120214 -1915.8645037681349095 -1921.1595807462717858 -1903.7501756179283348 -1923.3386099069530246 -1900.6643702343624227 -1908.9050895883465273 -1904.7097787118834731 -1930.5881870663210975 -1897.2531051423227382 -1923.4190066075004779 -1918.597285688678312 -1906.4190555659376969 -1921.2163213130331769 -1921.7121191609926427 -1909.1121702628170169 -1906.9084107377034343 -1913.3706616117510748 -1913.892497041824754 -1916.8018464758620212 -1960.0476054665246011 -1898.3027994764534014 -1923.9171074058378963 -1931.1074741467189142 -1919.7657749816071373 -1896.6753355272082899 -1920.5273594274237894 -1912.306054961462678 -1924.837410500576425 -1916.9941020008448049 -1918.7218266400748234 -1907.4840746807540199 -1906.2741424357786855 -1897.8884642188761518 -1904.655483613795468 -1885.6220703272276751 -1900.9838062300739239 -1915.5726892595946538 -1910.2459085265163594 -1908.8703557773703778 -1907.2705001581846318 -1890.7541510276080317 -1908.2757131083576496 -1909.7152592717434345 -1907.9041122451505998 -1867.5443126118391319 -1915.3295164577200467 -1925.7150585754907297 -1883.2590732887024387 -1928.9128362627429851 -1909.0857415728266915 -1907.6514440910145822 -1920.588314584832915 -1918.309369707049882 -1902.0031447305414076 -1907.5945812189647768 -1918.6831253633970391 -1910.9845320393030761 -1908.34180297755438 -1900.3167841598628911 -1923.2840957027956392 -1920.7857476710839819 -1908.5769561332363082 -1897.5318846047912302 -1910.1988441304199569 -1927.0998624573173856 -1907.6850885555159039 -1899.8101007196087266 -1899.9276305087023502 -1901.0767624723978315 -1902.2404872829069973 -1900.6667126442980589 -1915.317501812868386 -1935.403468442561234 -1922.8545454514155608 -1898.6070014080614783 -1938.8080081679172508 -1910.6082646402185219 -1908.3231748260809582 -1911.1344116994678188 -1897.0119675311111678 -1900.3988482867339371 -1927.1109804245725172 -1912.3770905162150484 -1903.3402119999755087 -1921.0693193368647371 -1924.9250125953260522 -1910.6796605935653588 -1899.5655226571761887 -1903.0994596119980997 -1888.9350092157706058 -1939.3172920482300015 -1920.6312915923288074 -1925.3151726724754553 -1913.8734724099128925 -1916.1442081561156101 -1922.4271993188226588 -1907.0164204666459682 -1901.4929184758195788 -1920.4933701077543446 -1921.968402403614391 -1894.992322959808007 -1901.9317795362860579 -1897.7220759156125496 -1911.4978460313409414 -1895.494379108569774 -1907.9912315795584163 -1907.7401124409625481 -1895.8449475172219536 -1922.3994454089095143 -1920.2140844186767481 -1928.2173214479980743 -1885.858076400918435 -1880.5364768242905029 -1916.5888505740463188 -1903.4732224344661518 -1888.0498641572612541 -1921.9653677848818916 -1916.8201953714044521 -1903.98623951448144 -1926.5360348782351139 -1911.1218014045464315 -1909.4371672189670335 -1898.4294198348825375 -1901.036152417616222 -1915.5764115540407602 -1911.243726635801977 -1925.0436944392117766 -1904.2127374171070642 -1879.8624422480679641 -1898.8836351601173646 -1895.3261413384034313 -1907.8192515452683438 -1913.401047450731312 -1908.7107607415296116 -1913.5084593449284966 -1925.7526483431761335 -1913.8880103010917537 -1937.1279342497909965 -1919.2782659331437571 -1918.3930042615934326 -1903.6677359684481416 -1909.2876617848507976 -1923.2205996131867778 -1898.2462036633330627 -1920.2426326513634649 -1902.425611059445373 -1917.8587810830399576 -1915.9084776100537511 -1909.0943180971373749 -1897.3893821846554602 -1887.5609211308008071 -1892.7633720322087356 -1895.5897610367326251 -1912.8286459639268742 -1920.1801959329941383 -1898.3754561170653687 -1909.8791518009554693 -1905.2213590289848071 -1893.2902594961963132 -1902.4736057377083398 -1902.5173248714843339 -1918.5508570203214731 -1907.7142723900358305 -1887.7064188530191586 -1927.9833761041220441 -1903.1904599571707877 -1928.8873573732428213 -1920.7491019523833984 -1902.8015673873940159 -1912.4832674151950869 -1911.0953746858556315 -1917.3891777716401066 -1916.193104662403357 -1914.0416023610584944 -1927.197730592715061 -1910.7537014666593223 -1900.0237762434953765 -1912.8826250586328115 -1902.0896113798582974 -1884.9224264693452824 -1915.0495760253029403 -1890.4058597006749096 -1886.9598188697782462 -1909.229879398345247 -1917.1143824787545782 -1891.0223997483744824 -1901.6942615234922869 -1936.3771478260950971 -1916.4668056500997864 -1907.638319056137334 -1895.9359658988942101 -1920.6451221063703088 -1900.6286361210354698 -1917.4926050731755822 -1892.4301774048067273 -1920.3120558901002823 -1938.2230093979840149 -1911.829952546398772 -1914.5605048575891942 -1911.751893328084634 -1889.7299652038309432 -1900.3740519177008537 -1916.4240979115515984 -1906.7730263324283442 -1919.9846775208366125 -1930.7249013655514318 -1906.7813787591683194 -1909.309422089239888 -1891.0224804650824808 -1907.4845834008581278 -1899.3286252598495594 -1897.6779914176286184 -1906.8536659561962097 -1917.3564675788168188 -1904.2882912619925264 -1912.1401418121658935 -1902.137353155171013 -1905.0158638446350778 -1911.4439767687649692 -1885.5421399307433603 -1904.0777599480211393 -1912.913492673392966 -1927.7970955521307133 -1912.9781217052013744 -1900.2825532465822107 -1910.8100994230301239 -1910.0223856255884129 -1926.254262130718871 -1901.7135753175675745 -1936.1693306753597881 -1922.5607922665135447 -1889.6607594074525878 -1917.3563165164987367 -1934.6412715737890267 -1903.8490333739550806 -1915.2679197253758048 -1909.1224043651207012 -1913.3995558240585524 -1908.4986681778075308 -1895.1180487237581929 -1924.8439425672411289 -1902.8224725212880912 -1917.2177684283494727 -1925.4726686416013308 -1885.6784085049764599 -1904.6361799131902899 -1908.3609452359837633 -1897.8518388108038835 -1903.9474240787767485 -1892.6466485717162413 -1915.6814926660410947 -1889.7415622191349485 -1936.6424707065593793 -1917.7096534545078157 -1907.4169221770112017 -1886.9843290187932325 -1905.697979375668865 -1909.5143510031896312 -1888.0052309408379188 -1886.9096541082421936 -1931.3288518210551956 -1904.1836161419059863 -1895.0852309045671973 -1899.6241479969794455 -1921.5048166637250233