-251.75711572667060523 -261.53220392089804136 -252.73683451784293652 -260.7082069919491687 -252.59110148438927013 -259.1752166888766169 -251.56016521658435181 -265.53387442701841792 -256.75845357772760735 -262.71560869450547671 -258.36964853343738469 -246.32414429278497892 -259.41640903988320588 -256.29400639430843967 -257.0739264231211223 -258.69077414352642563 -261.34022741574858628 -259.54244186596417876 -249.29848955830365753 -260.00559523906935055 -259.57389783885935231 -258.90287333790655566 -269.62693970902739693 -250.48492454004730234 -247.89474424673466046 -254.26460158512924181 -253.68717307466349098 -251.90531013038588526 -258.03028614601777235 -256.83763350960975913 -263.97064454713131454 -252.24087427215954449 -246.10359405842916658 -254.79191094061516765 -253.83923530475885855 -253.93136053285903131 -250.18108939427867199 -256.70381460485867819 -253.41546323856547929 -258.08810284726007467 -254.23618279165009426 -252.42780270830854761 -254.67811620349692703 -252.11564353628736512 -250.68822304714103666 -258.33830548270600502 -255.57067394385984471 -253.59103385389599339 -254.09250428288052603 -252.47092096567456565 -254.61259210875994086 -259.57892620496681957 -258.0078392113927066 -265.70431423134061788 -259.85177170065128394 -253.19417621161613852 -247.87280462844242379 -255.54303846260222599 -264.44745840181843732 -250.18120536736267923 -261.83393356860170798 -265.58908577512312377 -265.43435786755469508 -256.22631447333640153 -263.9392783345400062 -258.04334388527144029 -240.25574015308504272 -252.28172756364526208 -256.11983302933612094 -247.26088727571004711 -265.53026655162705083 -256.88607734243487357 -259.78513579336333805 -256.87216512254030931 -262.14040430939894577 -264.07111634574420123 -253.48312226296994254 -262.22249864184448143 -251.02258365083983449 -247.97733869548289931 -247.93029095879168722 -256.45093552311152507 -263.90249198644994522 -252.67734026344015774 -259.93187942890295972 -267.28651263151544981 -261.2707867586610746 -251.60138524471062738 -250.23500934557299047 -259.76146587770773522 -254.75148981324551301 -262.39432373218704697 -257.60421801234633676 -254.382155879225337 -253.59924165464980206 -251.81969048248939202 -246.81358409307355828 -256.72414973386133852 -255.20665716537718026 -251.18900031876799517 -260.85594368834142642 -265.20177833238199128 -247.60880939431942238 -255.10839922511593159 -250.05444048712325866 -256.79141691373945378 -260.51743436805554666 -264.03642417834805656 -254.16598804842496406 -242.76741805859597889 -254.40665663005430019 -254.27435652844553715 -247.26722296713725768 -267.80267360373079555 -252.49692121142211931 -249.8734443123638016 -262.3983681418843048 -260.64677238304722096 -248.40713606418265158 -259.18867057146871957 -258.18951211042144678 -244.58394993315005195 -246.89983833286791537 -259.48291995655176834 -251.90575113439945198 -251.26974558418331185 -248.11713370901892972 -257.65877666950018465 -263.3266825568567242 -253.02827356091475508 -255.90680805230280725 -273.87450125739553641 -238.69547034759847293 -260.49726840890184576 -252.37911395800335868 -257.59370590172568427 -250.25741823116854334 -256.4908681590908941 -255.93618536743858272 -242.18760971684420724 -256.81650194381256824 -258.92010502474164468 -259.19344103686569269 -267.03054951767472858 -254.40212850360654784 -263.20875730735389197 -250.46986499980587837 -267.28919118578437519 -252.62522383294597716 -253.28219252003469819 -254.4036839215323198 -257.02337874528126349 -254.98587460922658465 -250.39094694114180584 -263.56349206444104993 -259.69651779031079286 -266.41776434784065941 -258.00066180748234501 -260.12958500509751048 -250.70133438092949518 -255.99485089074977395 -257.55068639097510186 -255.82961488968885533 -260.96399787901236778 -255.66474129204024734 -255.38283536401439733 -264.14460325059462775 -255.31633145385137595 -259.52536477109111956 -261.12279626100070118 -256.73200883712900122 -248.42590907178231419 -254.69535328399186369 -256.50650069835154454 -253.15370717753896201 -254.56305255776126728 -252.40650352070980489 -252.0802809015940511 -259.85121365719106734 -264.15586869198767772 -252.23023877457762865 -254.29533003550318426 -262.34544145096811008 -259.91312770364066864 -251.2591821948847155 -263.90433781317000239 -263.26981626916813184 -262.15601422761312733 -254.72880247970624623 -248.33726324730341162 -260.05230082933974245 -251.38954446486621919 -248.81086467971874754 -251.43024596032768159 -248.18383398554024666 -264.30415947171934477 -250.85332675653648948 -256.88629100420791929 -261.53131541818532924 -250.71678687804725882 -251.8520272103901334 -252.45950376288215011 -253.10388280524392712 -260.76544885895145853 -256.80914120564824543 -249.77328989500972511 -260.37788503841062493 -242.62493040501942687 -244.37677363559208743 -261.99579037722151043 -250.18528839296618571 -250.39511445030598225 -252.59061678345946689 -248.64785941353207477 -257.02512032769209327 -254.52525127997768095 -259.15153921374900392 -261.89133968072837888 -250.1834701455155141 -254.0598719685318656 -261.41534724752995089 -247.29732500984331978 -257.61196290812966936 -260.36634743118804636 -255.28005738444497297 -254.21592551829118634 -262.40302863237582187 -258.31777849422411464 -262.51598878813786087 -268.92203072915964412 -263.77315646746347966 -252.67066322451984206 -257.24430609731405184 -245.50395044397947686 -263.89432881236689354 -265.85168152473431746 -263.80576423247930506 -259.72542173584497505 -259.10981928525308149 -257.88908156539127958 -260.19571329265778559 -252.51128665878016477 -255.89445072613312959 -261.90840152781657935 -253.46529570815948773 -262.00755938539589351 -257.70996607477900397 -251.24300175106441202 -265.76371591904575098 -268.02859997029008809 -262.62404960708710178 -257.46290224004258107 -261.71169581408787508 -253.39977545052963137 -259.35121610756016253 -259.20075007392733824 -245.03103622185716404 -263.45321695729307976 -256.37307112542146115 -245.71238739187074884 -257.95328973307584874 -262.52104879923052749 -261.65393582781393889 -259.38358399270464361 -252.78270019208852659 -254.84699597824791795 -242.59982406012417755 -256.69282196658025441 -268.38786944473787344 -259.6734358683680739 -246.59690131251946354 -262.44507110825190921 -258.35049857198367818 -256.08626752619761646 -253.20940210527098202 -247.35899911482005109 -261.58762725481608413 -253.5237440680963914 -252.18976881055863259 -259.1629005218459838 -253.46006270947447092 -255.68648152297225806 -256.48535498595623494 -248.1231665126718724 -260.09222162234669895 -266.1754305036417918 -268.29532395982562321 -265.03763686122857735 -261.6660457600717109 -261.20339793988142674 -256.26550117598998213 -258.81275452118131852 -258.3584553519721112 -259.93318558343401037 -252.04625903870578441 -253.19409531340932062 -260.49499681255952055 -262.27377436607395111 -248.31952872170577962 -258.34172068642970999
-84.589796656167891342 -77.963478166037788242 -75.456226033549512522 -76.490294168020227517 -80.595457306100996675 -77.196520022987726861 -76.50856520340889233 -74.12668264144758723 -75.630876416795544515 -76.442447747357348931 -85.926123319345009577 -76.740811784588558453 -75.942898764583077309 -86.348318787597293067 -74.903230614178724522 -66.564345956486832279 -77.170538484951123337 -74.98239035431332411 -82.386309493616522559 -74.960265028360097972 -74.605674217360316902 -76.228024944535945906 -79.341296708574247987 -77.649845216881175247 -78.463483707589645633 -73.102639102970186968 -76.490447565206821423 -81.427226759795175326 -76.131330841456261282 -77.279863656071896116 -87.348500073720799719 -78.230622229794064992 -76.372651313938646922 -69.342897312221168704 -72.278815786383205477 -73.074661109491714228 -74.968890713520167424 -80.400594706876319151 -70.923777815500983479 -80.409382527617566438 -72.68268159561137054 -75.355256904796931394 -79.010408840673491682 -72.246201553250486427 -75.290562292259721744 -78.337863502913307912 -76.765925512158034394 -76.158365205014860067 -75.546052708572645429 -74.737165559763923284 -75.612475748575022294 -74.504833925653969118 -72.714349203687589807 -74.683466270998309255 -79.801878906063095087 -76.226007997033491392 -76.717700581111188285 -65.889458866946796434 -79.108942098402081911 -76.6986108634387449 -72.469419872145721229 -71.457743852915342586 -76.351533666828331093 -76.262503131582235483 -80.220126556816097718 -74.227049156417734821 -79.103008122305681127 -79.18953016257378863 -75.740880441945179768 -71.097957732528911379 -69.591497690552927224 -77.756462305070201069 -75.169537577274667228 -69.550354960275910798 -70.851870589168925108 -76.360259067103001485 -74.744271202862734071 -78.081993073835704422 -77.904441324713445738 -73.530141301308972857 -64.998919066157185398 -74.556050563340193094 -77.49035341871332605 -78.918021320063246549 -73.879441025999142312 -69.859348571241994819 -74.322442250195251745 -69.037409779253266606 -78.732860550234107677 -75.911057322007167159 -80.853472005076994833 -76.408674950355091937 -75.804515927210815107 -79.179059684083597404 -74.981142163030142456 -75.345710874533736501 -75.448480023338262868 -70.318495384994093911 -71.190940131116690281 -72.535710786963207397 -71.399818155996513269 -79.918792108670587027 -77.223062142778061911 -72.522372289213450358 -73.298002176669186269 -69.868198122268339034 -76.011736746596270109 -79.002467639845804115 -78.013996140436447035 -74.075464264015408844 -77.757464688551763743 -75.100510493388298983 -76.438754462514822308 -78.316667341759639953 -81.602785692394391504 -75.929947156022052468 -75.167474565207029968 -73.041025286967965258 -71.912214266380630079 -71.146064073929821348 -69.19153863138096483 -85.623137632346640657 -77.638360571310300884 -75.725901591986229278 -75.121964629751914799 -74.523157892521354029 -74.477931945598271568 -69.898611998973450454 -72.206568111046692593 -75.481385107901544984 -76.907380876368193867 -77.006610419275062895 -76.769601862102334167 -72.423954420858976277 -74.173729167270721518 -78.80804599728602966 -80.75999448663017688 -74.442758675767976229 -74.780558539331920542 -78.094315101605488394 -73.797332532229120261 -81.369177886967278823 -80.375235384529105431 -77.112740717967312776 -74.308929919546812926 -78.26770058851072065 -76.200813352757620578 -76.681477434082069067 -79.810543984197579448 -76.620839757664128911 -76.298313519755566858 -78.919083273280222102 -75.477647882400759727 -78.978693191804239859 -69.154990078464237513 -72.455141061808006953 -75.240681237140364601 -73.59536880197526898 -82.921014476049748509 -77.287762179690901121 -82.689652432611737254 -73.032465799337913381 -79.282311854680372676 -77.194900973485673035 -80.216645298111856732 -78.934553774811220705 -81.085267269559722081 -75.552990424730040786 -75.308260153866058317 -75.490831874878665531 -72.251227457610227134 -78.71873122116402044 -79.603953931101983699 -75.717766172012900938 -73.326175324965191749 -79.279397630122218743 -74.63001228424366218 -73.839474949926426461 -72.691841160481004636 -78.284582130919758924 -76.796296438979396726 -78.355794892095218529 -77.563884634439617116 -76.267472720723588964 -79.071261200808308445 -73.350290145663862518 -73.199125179704950028 -78.671938842834947536 -77.945324636566937215 -70.369420286047301261 -76.089789172178512899 -74.268344612201602217 -74.910415132792323334 -77.874920006050999177 -80.261283649657769956 -80.306160003089644306 -79.908457061049801951 -73.642460344988222687 -74.876783985457180393 -73.883946885746098587 -79.543290628604836456 -78.574924644451655809 -70.317249519740229857 -80.217038880650534338 -76.8383448147234418 -79.245063641675443478 -79.750426768976439007 -81.323688188956595013 -76.998222434888816679 -74.036464744915022607 -81.451978885190399637 -78.517984827401633652 -75.456868883458611208 -79.018309267500626447 -71.519353749233999906 -77.855106867620634148 -76.473914325998478603 -78.722512476193784892 -77.2635078148529999 -77.190298356349799747 -77.343428813901311969 -77.840950024709385957 -72.216035886986560399 -73.186893213011060766 -74.805640698167735536 -71.425539259617494281 -75.300144116261520821 -80.205384707061114113 -71.703279594488421367 -73.414037280879227865 -80.17240279706673789 -82.723325481172850004 -73.246435479660362944 -81.902943836035092318 -80.862286426414215157 -79.571650574409929391 -77.916554284952752596 -74.954356836102562056 -76.055368751480173728 -75.49970144554390572 -72.632768454623018783 -81.877503873304632975 -76.873730719833247349 -73.302754717269237972 -74.851979009171969892 -79.294904651232542392 -76.801512605864928673 -73.980630936861871305 -78.000692268479582481 -78.314598934968515209 -73.060884122194593715 -83.612086771347264857 -73.965209353717881413 -74.677469789472141315 -82.298361593434151473 -73.978804169742574004 -74.506150334521123568 -75.523800025322060492 -76.89550554490092793 -76.781353985542892815 -70.340898359127265849 -77.700807796271902816 -72.335365062920217838 -73.64615976466217262 -78.058823645031480964 -78.074447319513211596 -75.732730262186152004 -71.255406169719051945 -77.543656042275216578 -78.205786983314411032 -74.46086691386906864 -81.643128507189317133 -74.667666205317544836 -71.752813127526792414 -74.022924850025276555 -76.259832002874134105 -74.415425276533397891 -77.702891761351679634 -76.568623534073680048 -83.253290988753789748 -78.401647738303779533 -76.021638794473901157 -75.434907668273098125 -76.19214539659687091 -78.596485100016536762 -82.949458745767216783 -76.773322665297754952 -65.877670382418457962 -73.660404532400249877 -77.31379931766909408 -77.998992966923182735 -77.057275730561016758 -75.490869038632439469 -74.59472058848413667 -79.267210765042534604 -82.054657146389502032 -78.51414269306287963 -75.461935032263696144 -64.962916155744864 -76.983523663982964536
343.06537890365621024 336.05282822574440615 367.23043515900752709 356.45426052244141601 359.03879122719229144 350.28941002523777115 356.27931147990011596 354.74307458947805571 361.81244890072451881 350.13236665977422035 361.15334776520865034 362.21106744791649135 350.21617926077590255 350.02626433828964991 358.8366032845313498 360.19170078279069003 354.16872061219197576 349.58029181282029185 360.32795594229065728 368.11435025126394294 354.9316724242042369 360.78579828421726461 359.12879623649035921 361.49042843592076224 352.74622438813122471 352.40523798560963087 362.7045601566430264 340.54350830894509272 352.90726408263708436 361.44252888133650004 348.29532270559332119 349.0610710185922585 354.97288694181844448 364.35621723353176549 357.02825130715427804 334.74424163026793622 354.75385630317276764 356.13239767167476657 354.26784585118537052 342.69456311192880094 364.59061416533404554 354.88104106656737713 360.55077607863978528 364.57923850899913987 348.96058456851005758 339.46657414065356306 340.77014885647309939 363.26872915048716095 349.60125572213684109 361.28304254108087434 345.19325264618720439 369.46950337594546454 356.43469638715265546 345.30823772528771087 347.04868060648379924 362.11685069187677755 354.68330367404945491 347.30108535684945537 352.84635426194898855 365.49746225200527761 359.22443157694897309 362.75096962688428448 351.78165874622163756 356.69896045925378303 352.74103532786091364 344.31496034195896527 352.11308404545781059 358.50779254042112143 349.30160204685978442 343.9921474497355689 345.55777491969564608 337.10914771279743718 357.17344729890362487 368.2073573228802843 346.07870879298343425 353.27450920699328663 361.21831557603712781 362.09062783743780756 362.79971554440265891 354.67656890664767388 355.85732023834214033 355.91783739603255299 356.91507629985608219 349.59769914806696534 353.05243118465944008 354.25403264452523899 350.05977842977387127 359.68135091240327483 353.79491620416979458 363.11563844509350929 347.90134681316567367 358.09346059888787295 348.52600382444904881 357.12817610175358141 372.53485390177962699 355.78341707191157184 345.10702371190313897 355.58965410521005879 359.15090637927971784 358.24765093355966883 346.93143187251439485 361.16394624928653911 360.02246607367271736 357.89569372969629057 354.58556072680102034 350.92217754903566629 355.50041189461092017 352.79068115022346319 350.95615341056202396 357.39523537220782146 358.69571907237354935 355.74072521625623722 355.89527635534261663 351.41258605754103428 349.42926637227810716 346.1736814981152861 360.97305909929576728 347.66096335519131344 358.29867487448512975 363.15132044334649208 349.01347319185327933 353.8084517881065949 350.2409088531446173 363.82347229300154368 358.44536771357769567 360.36126084613590592 349.00561601121637523 357.23502871701339245 365.80042124703044237 360.30114908526718409 353.1611409713075318 350.19383948763191938 363.1039938740980233 358.33895240911385827 352.84817833581757895 340.63698895721239523 342.97870371011322277 353.73301998083422859 352.95474460219810453 358.5076416149759666 359.0967307437481395 348.48190910209535787 356.07692869623099341 355.90902859500937438 354.10806144806804241 359.31970136334876997 347.86934622648328741 350.11143743766581338 350.39782347943673813 351.83295137891241211 350.19213212489233911 352.13107565561506362 351.94793036992729185 357.25508463355447475 354.94907735869009002 355.23765878439036214 357.07696246982175126 363.65155545608121201 349.80203629589027514 349.79065192709117582 339.42817597659154671 354.1336385674118219 354.79752540354428447 352.99133750561463785 351.21827209107965473 364.49556147134080675 336.56458256661289852 360.10662537604144973 352.86928975562335609 350.35778098810192205 367.21963025799703928 362.14778371680978353 347.40993051949487835 345.24483744886191516 356.99029158639780235 354.07413974086637154 358.98656143134383001 346.45026683819992286 366.00367825032162727 364.71729035280520748 359.4171783088555685 345.65085706271770505 346.43793428995547856 371.59594505144320919 352.54639224136968778 351.96482286216678403 356.6763230467053063 348.42319077955278317 342.89780497734574283 362.68398283298506612 347.37216213453035607 362.68672729418409517 348.5543303085545972 346.60208479005331128 365.51256118407678741 360.25250242648695576 364.50957192983912591 347.44387095127501652 357.20465707319198145 355.72250223037235628 352.39114941711756046 366.58983989099118617 359.71271122102945128 361.38695561642242637 358.0000415307511048 357.79597964565670054 352.35937343073607053 347.56245144773919264 358.19040505650548312 354.97212138745965149 359.4229275815975484 352.27540556379847203 358.13457908628430459 371.49304505439982904 364.18312941427484475 353.8037917025266097 352.20689243625014342 333.10628096609616478 371.17529739991283577 333.09198523619420484 342.97353721974320706 356.77799659229663121 355.82189662586654322 362.26776812827091589 336.7023210618807525 361.4805203595856824 348.83785034221745036 350.86921069899699432 361.48498637458226312 350.13250559830999009 357.70033692632034672 361.71066248662947373 362.64632679273717031 351.993201186335682 356.23421571466690239 352.33114582316710539 349.70891711822008574 357.92078744886487129 347.4905569163569794 356.55247253851837286 350.93397592080498271 356.86652988033625888 353.04954896569967104 346.61457144116400286 341.56426087088811983 350.09802410270350492 349.83029796376791865 350.39038195081315052 357.27848770129963896 367.76691776377163023 358.58146320914738681 355.25966397933137841 361.07940094870389203 347.49924278401510946 358.01037974186817792 346.62625888114916961 362.45151755351434986 345.18516823591340881 357.70716095377315469 350.62390243158574776 360.59468952292434096 347.44606944269582982 344.26480126855256003 344.68533216353915805 358.3309250887541566 370.97391278913880797 362.21744749903518823 347.09161420404132059 354.5646768863329612 349.9171615964566513 355.20325579452628517 347.18080842724691593 348.25131029260376181 360.64245551931219325 348.93857921127147392 352.78226870460019882 364.41097931276613053 354.80404074838457973 337.42917622819072676 364.57876178621302188 354.85381495622016246 347.31946332923979526 367.48677114908417707 346.49441993776088111 351.41769993051821075 350.84196917161409601 347.95238875893107888 343.26767502035187363 359.99401994652947678 349.63001567141014903 347.19809849750708963 354.58604844157628122 363.00370830792189736 343.76277773089702805 348.80199976306766985 351.69222428822433812 343.81059264749922022 347.77579841994918297 353.75513317389953727 358.90296841362470559
-284.52373000816658077 -288.70427045752705908 -295.48598541816556917 -284.90276681658076541 -283.9116183175946162 -294.35988290079524177 -299.25028017828697102 -290.56105861000446566 -283.20268797660583004 -294.29322281242161807 -287.80113288374548119 -283.46935036607931124 -279.94147176475337346 -294.83282904747079556 -292.74375088638907982 -283.93666926254627469 -287.04965577176807301 -283.05683946282567831 -292.37534485416233565 -294.29688447691376041 -278.86149762780644323 -291.04625199061661078 -293.06767856126288052 -294.03773896494755036 -293.00774067788540833 -293.16416618064977229 -281.66268378535284 -283.40444810581220736 -282.23528576635413856 -308.74904455006355875 -278.37815225149267917 -294.55561530231972256 -289.06077459751440983 -294.27469384607951497 -287.56975284463766229 -295.77289315561137073 -284.19561221408383744 -297.96720510539324778 -298.48679028088724863 -286.47677600018499788 -282.39698386180157286 -298.89267430877930565 -285.48331034774503223 -297.94143909340908749 -290.01807694988292496 -288.54140180219400236 -297.34236455475132743 -283.31428509317549924 -284.0503350402670435 -294.42769531767271474 -288.60321470577747505 -290.45529245620627989 -279.917727655870749 -288.16039045878926572 -288.40179131826909043 -287.51924435431419624 -281.12506234135543082 -289.07250757323618018 -294.35306758379516623 -293.60836746126398111 -284.58263992482142157 -281.89425272662168709 -282.35770731383411203 -291.18276691564960856 -290.43921846307915757 -288.21871864741382296 -285.73204070589434878 -287.38255120619214722 -292.5065334798403569 -284.8584968177982546 -281.95287226757130838 -286.57805933906973905 -287.86291317123988165 -300.01747073476911964 -288.10173662903628156 -298.37890069477049337 -283.02831965698788963 -290.11115494866777453 -288.16050277144762504 -295.96228206087357648 -290.65977459335272215 -300.58572809943575521 -298.84964912084365096 -291.64821735439937811 -288.65802609751648333 -288.77529885549517985 -290.91525214988843118 -286.81840677533540429 -286.8414083247375288 -286.69446262718435037 -292.88771508716155267 -290.62747767729496218 -288.53675240675107716 -282.04351848192823127 -303.43770224214813425 -285.3524339471674125 -292.78409560217158969 -297.10518873675277973 -293.64653960112036657 -294.69125430846833069 -294.60430439754014742 -291.06599303544885515 -290.05060455320113988 -293.31500798929624807 -281.0355746994075048 -297.3768366044610616 -287.53828417194995382 -292.29812728626552598 -280.29873893386854888 -290.45413792341895487 -302.58907655936053516 -288.3483308622433583 -294.32306987445826962 -298.31819485728078689 -282.52786181825325684 -302.10406140513782702 -297.70982212489457197 -291.72233552204556872 -290.58216617795159209 -291.10211862916037262 -287.47770367283902715 -295.42377122795573996 -288.70127157571766929 -302.09292141964590428 -291.82846099806164375 -288.75456726699491128 -283.54980641906689698 -284.01928137229253934 -288.36839626442264262 -291.11859332849377324 -302.73305647213697966 -289.53974811312900783 -293.67607989348539377 -282.64289825346503449 -287.80942119300993909 -289.88923994859032973 -279.97651769415750778 -291.25292032734040504 -295.69675266683805148 -286.6601469378106799 -292.66080482518088957 -281.26785827579533361 -284.14013434431103633 -283.52665803529083632 -292.11110386481436763 -285.90136046433229922 -286.32465497449851455 -292.66141417507310507 -291.98827247500184967 -281.12075636654498112 -293.25681982507194334 -289.3805038448018081 -291.63573284126550789 -277.16620094241642391 -300.33060689315090031 -280.74212784843712143 -296.1313532700446558 -297.25962338340940505 -287.00584995891335893 -287.89428918800956581 -281.3282281617983358 -289.58927463572723582 -290.95326336494207453 -285.42506625106130969 -288.82582548350939078 -288.98416483372017183 -290.11529548875466844 -291.61458857041372994 -295.26745369859332868 -292.50363096477889258 -291.78543742200224642 -301.23736432296749399 -295.27408178144833073 -286.47204777633436379 -293.45611520538017203 -280.14162060557441691 -285.25346666829079822 -291.70217135465355796 -299.13409671848319249 -287.03883041115938113 -280.47126620834001187 -293.12397056909287585 -296.78821420786823637 -294.13345510788917636 -291.79632831817730221 -299.60959889351408947 -295.18995848104867719 -300.20276407329657786 -291.22713410805823742 -289.65483382843370919 -280.18770113213611239 -298.65878915886241884 -286.83889342575889714 -301.25041845939387031 -292.97564509079325035 -272.91698097277497936 -288.98958340555617497 -291.07823219126703407 -287.44499156436592102 -279.63193316791245024 -287.53872647349851377 -298.85421588199471898 -289.50316099245492296 -296.60641356063149487 -292.76287972880567168 -291.63039633377763948 -279.71693220665247281 -295.1321833554842442 -297.31715187360020991 -292.84046163545491481 -290.16466456708911892 -272.60950327336217924 -288.1103585969989922 -287.85049900603087281 -297.40927652150924132 -277.81137647919842948 -297.53625107221614599 -286.67737764308918713 -299.22105605456755484 -291.40621526811600006 -285.77567588837410995 -295.51180532765152975 -293.60392751635913555 -290.25338378616328328 -288.23308916878471564 -285.40360392454743987 -297.52350646112597587 -284.34003489585347779 -291.45069893896567237 -288.34093357551989811 -298.70868957879355321 -283.01652510213966707 -292.85734917225187246 -293.55185425067924143 -286.21411429555973882 -291.9295144355088496 -289.81643314325856409 -299.92042570041303406 -297.76881266169044693 -293.29879145134304963 -293.47446222533892524 -294.30172085563305018 -282.06058364889588574 -299.6687016943000117 -296.59058586520626477 -287.40145765214333551 -290.44173625681395379 -299.31395534879919751 -292.97194227380009579 -281.83636031099183583 -286.04343244439616001 -294.05105299955141618 -304.19269202230316296 -292.05626472555888995 -287.20980731307707856 -290.50250354238374939 -291.71757385722446543 -293.86078348338008936 -277.22545798061827327 -277.50510885606979627 -272.53725462226123 -288.5167068494877185 -285.43481270763038538 -293.10326709731532446 -295.19498500567431165 -292.33212939231259497 -289.98314771441044968 -301.08957111787475469 -290.31853070332215339 -277.19212800538605279 -288.77032917154849656 -281.63281595237970123 -287.71567048872401529 -287.62355737702995384 -285.93983207540333069 -293.17278043045178038 -292.48849386153602836 -284.50462809878229109 -282.82982904311836592 -294.19426081524233041 -291.55316671308662535 -287.44551292460675995 -296.52045208268509668 -279.79114952561366181 -286.16123490852328359 -290.55505942803324615 -291.51349921701438461 -297.96418327772573775 -290.65879711889863302 -298.26240973501899134 -285.5663247037487622 -291.93207743197626769 -283.7810182371351857 -282.9856770159331063 -296.56632484523453286 -296.00082416130067031 -294.63997405676332164 -291.38398685099377872 -283.19736944841008608 -290.79368027535190322
-125.82446092823511208 -122.05289376904332244 -128.45836834070695431 -129.99676878727677831 -125.70690225889114799 -125.38494468932930204 -119.11996165900232825 -121.4090147338474992 -123.62539866422798696 -125.04209855179523458 -134.07703588187501964 -121.71761764714804599 -125.57102860250677168 -122.61359634679159569 -123.88593640896688441 -125.71438590742347685 -126.26411439630727784 -126.81213778863508423 -122.33924118111001178 -127.98742700911563475 -122.4351410944680083 -125.96177691898196827 -122.15450148918736772 -119.50301323746909077 -124.29762284723248911 -126.09267396661422822 -126.53345427938130285 -118.95386094577553138 -121.96258981615412154 -128.3859491417612162 -126.6661977788822071 -113.50877306126288602 -118.12173579029982307 -121.54128837987902045 -125.09784969052037695 -122.27482075072462919 -119.8995438835538323 -123.94510456607297044 -124.73210646490149145 -122.01153818880817425 -123.83281523990316941 -129.08219159334043979 -126.42115101615694073 -121.30202665442702425 -131.16987134638267776 -124.75180411340153341 -121.25983690997215092 -122.06468140444148673 -127.55306428216613313 -128.70495245307589016 -123.83209881028719224 -128.5301699177120156 -123.21309258448920332 -121.18546033637446158 -129.04433980793149317 -119.80731613857302875 -121.47700094010376404 -125.23270385474717159 -128.74688562844727358 -124.25898658679776076 -124.83899970750641728 -113.94387541490192461 -125.86958898449584865 -123.45545658022862767 -121.72335176078858865 -129.15677633406903624 -127.76677931603640559 -127.25844722890697369 -124.46413169609354554 -123.86163293931397789 -122.699145691837046 -122.44824814616960396 -126.81230697667358243 -116.32725972404713843 -123.65133325104102369 -124.29398450949452126 -127.10752222266644651 -122.39851457875734297 -129.32183909932641086 -126.28670149715092919 -120.61083720247719953 -125.77486708831365547 -125.7523033106821515 -131.44896679325219679 -119.27233815219815938 -125.32106002688659885 -131.29323443910999458 -120.22207649357544312 -121.45607777785288306 -130.00134307308994153 -124.43532608918793869 -126.93922415750117239 -124.08904144368314348 -127.76845756310935087 -131.15424716875156719 -119.77847742518483187 -133.70730537269679417 -125.63507728620032822 -118.67707713853417317 -126.71161960504498722 -126.25479076714864846 -126.5220519670123025 -128.4942501923549969 -121.25492858358495596 -131.43861185016393733 -118.20704680896258765 -116.19251424683827167 -124.9914096189897208 -121.83988677964522651 -132.41134421418954048 -126.08727431239722705 -125.75879618152269757 -125.16383353762667241 -121.91593440094126777 -130.83577676486447672 -121.43877850973912302 -123.74065945691066304 -121.66533827102583132 -131.6308833535621261 -120.30638572324716051 -125.13019496865639724 -129.37483045009290095 -124.26831844369036162 -126.613242796694351 -124.19019077250544569 -124.22126922577540142 -119.09645726246566255 -121.3533828874038818 -125.82043997224256771 -121.94368694580121826 -122.05548060062470483 -126.11362883546318869 -129.85861557907136898 -116.09714184812554549 -131.58967002379657174 -122.30426498807470637 -123.03322218422835022 -122.82952964573068755 -120.75365478611435321 -119.62100790336741341 -124.63184928083606451 -121.27989827851057214 -121.35884171660299558 -130.27817088188885464 -127.81248603854027124 -123.28121188815177334 -123.46121773504523844 -130.59879752747596626 -124.58067805001560657 -124.71818726292987378 -123.01901371328627022 -122.50011010320639571 -124.65624684889793627 -119.55001188277311996 -129.34109378686108016 -131.2401173706170141 -119.86698749804753561 -118.63085671123265286 -120.2989852062427758 -124.03057270507659382 -125.34853090047265312 -125.99654568234478802 -120.90128305900709904 -130.25755561091219192 -125.14911874894865207 -118.69218696277877712 -126.12719653079113868 -128.35356982740427156 -115.18698234426732085 -119.39653912588812545 -122.5919887957153378 -124.98618624009446876 -119.85002801708930065 -124.16132999938086812 -125.33654108969383856 -120.53093110606471328 -127.36164200778769384 -122.51863389393054149 -119.96226454151914709 -123.13677950883963774 -131.78788621651526114 -117.15101458932667811 -128.5839610559126811 -121.8545945859861348 -115.57330766780347631 -131.23606279620426562 -127.23937593959793446 -124.64664813601062576 -123.0841072489768635 -126.51957784158841491 -122.19999861851461276 -125.1344951791704716 -124.80722090205193808 -126.03341075405145943 -117.43402252692990828 -124.57807130882942204 -125.06706260230508576 -119.57333487837287578 -125.10144167470541277 -118.92994608556547576 -125.03433683035609647 -124.08412086247977868 -122.5951393255340065 -127.06542145710683656 -118.38529089430775798 -123.89179186667122679 -130.81792962708507844 -123.10002789342370022 -125.81442080200206135 -130.93611696769511354 -129.37779059493701084 -122.43547106771605115 -121.84065853517000733 -127.45201005873292388 -116.20451525125751857 -120.60109647550385148 -124.90505329354246555 -127.84867158690602196 -122.47222515884558902 -125.09215910508881109 -124.7303279021531921 -125.22573674132981125 -126.41333137778099172 -122.926319068242762 -123.13945572247047267 -122.63476240063238265 -118.47495259222934294 -124.49344532537254793 -118.63326328509523933 -127.39242439024883424 -124.86974361306035064 -126.66926682037193075 -124.50548393307811068 -120.11751030541793739 -123.0139386619179902 -124.16578395217381114 -121.39379011252927398 -128.92964844365610588 -112.23964287436120912 -126.29853412786386002 -133.34052350895743189 -118.6576746320096305 -126.49191990213158476 -125.70116169532093409 -121.88284228462450187 -118.12445663477964786 -123.92287691000963434 -123.01969305604356464 -141.18956901304579787 -125.91919432052583261 -122.07193518307138902 -122.36596132806387516 -120.14979523511902926 -127.31975972974530009 -129.32467246991180332 -127.67222093522126158 -125.44186293664733967 -125.9783953935433658 -127.15574114078806645 -124.64221049995936141 -125.703444427203749 -124.04219747700760479 -119.76699028779651712 -119.80474028043424539 -127.57456499427642882 -114.92500542753860771 -121.41585154977229877 -118.8616247659916354 -124.50247445098366939 -118.96663886642006958 -120.81049209993769011 -131.998094977993361 -123.82023226576025365 -128.15246452121388643 -127.13440198740214271 -116.15546148453414332 -114.35972393112032819 -123.57988182530523602 -127.89939224569104681 -125.81624197305089297 -121.31106493958415626 -118.24002485332850654 -119.9864875606370731 -120.38367822508696747 -129.8195811948804419 -125.81880785354582031 -122.30845766595140844 -126.1731124655470353 -130.68083400958204265 -122.42062380302121483 -126.3400643471293705 -121.45579918857583834 -118.81515994259288505 -124.40035386967844033 -129.10934417655928996 -126.90262705780776287 -124.4202001351968363 -127.87034340517368491 -122.11689071232157744 -122.79639794805481756