59.462867506043330934 60.750213291519244763 57.057040857854445903 65.107928538891016501 53.817415031837548156 65.576522237114915015 67.471451625593772405 67.677513447461677742 63.699523834670593203 59.954353149836322245 52.014738015567267837 68.862543041561124824 65.031669963111255583 62.97262124743302536 63.897168059102483539 63.609721466492359809 63.078969783987098197 64.77058765083296521 68.358240888157780546 62.294208613080130021 73.003868944839268806 67.417176516514572882 60.357111039972600963 61.559243402106851306 66.193921448719407863 61.262689423789765897 55.005814936523407255 71.660039882358773866 62.039076356792335787 57.78108560674557026 70.250593578357424462 64.248160605972799431 54.684057004957182357 68.553869380556804458 68.319620214549530601 62.820348826230933525 74.200642082456695903 65.563196248612513273 63.924176531729330009 59.42443945334844102 62.055690151026723811 56.924693429678107748 71.44282701164402738 64.65147058467468355 62.675739781538091222 69.512863605786179733 80.070968031587995029 64.861788618469205403 72.862652155539663568 55.883231920150173266 58.073091977642967265 61.585667741211977955 60.505293111465178413 60.767786066734508665 65.833457915794298287 76.055333075853795322 72.337523594898513579 56.600280594338215678 70.70848278950828103 58.750607000499989852 60.951830268994598327 71.933456167438393436 61.331873768109566925 65.443510939913295488 64.408417185688307427 62.124269463737213925 62.527275689481236043 60.262327611316173659 56.42402851728878943 54.151068581384052436 63.907391497249236068 74.141332377015970678 70.385064831818780817 64.349448108934367951 68.73789174274283198 67.24632485604520582 70.511735900992221104 71.526037231127503446 67.383911220402225695 59.934297188916403343 64.751684111819670875 60.87507852522662688 67.608552118893626925 67.817309313718922681 61.907528569127570961 60.261133753316130424 57.958240148639411871 65.758600872334497467 58.119605123133290192 63.482129547796539271 55.585791085614943086 66.859041948173711489 65.150949981003634548 68.659232218032656192 66.965549141396124355 61.031559720323286911 70.958347128336583864 59.79598082165807682 57.22645885586569392 50.528258031175241172 66.144130251275214505 60.66617585009833391 59.97123251042274461 64.434423505175303148 69.952597592936996307 66.78175256264211157 72.308867685555441085 67.892161153475527158 64.18567189443005816 68.376388981634519837 57.185282723741082123 65.689014532776653255 61.235749402489318527 67.27391549522408809 62.017202431529540263 65.97777851279154504 60.776460573793691822 61.296982144367902379 58.931879600788988682 63.015381820349894326 65.966662351008480414 59.119105955188686607 63.919533321532234993 63.626616538252832811 66.910211652955382533 71.184373960964038019 69.766277402397392393 68.437367994474996635 64.033930434001632648 69.962530658200677181 55.830267099230120209 61.00753995266499885 61.53765933961661716 52.30943772899421873 62.877963681725972833 55.03713642799521466 58.142665149878560271 58.552392368639821996 56.905466808684117552 58.879793033566826921 65.517058452559638226 61.336020167380461032 65.917984119490284911 57.353364779954510766 58.410393166768777462 62.305237046781485333 73.180247248313804675 62.321732176922083113 64.446940339850840473 64.719619066184193912 57.473494542148770847 67.009494210928778557 68.151072180471828688 64.159849035453504484 63.712822450557375475 72.086389551167755485 57.787346791754472974 63.90225570811421818 60.412142130054078848 50.534073011415280519 73.381600338404581407 60.044021665273348276 62.302215385479215115 62.586700748905677472 65.192470594053489208 66.387243631890612505 58.928296274581178693 58.505499739337821552 69.823852362338328703 63.004804531116569422 67.314593141540996157 67.430849362130615532 59.780934523302008188 63.501299758176962484 65.420250966919411439 58.430903411666790248 58.220489066212756768 60.64740448253880345 57.394741053568623101 66.462993523810609986 65.695108792794911778 67.782397337856366448 54.684777793698067683 63.401053502287780361 63.806929565890627032 65.240513589484208978 63.490828595373422161 59.195055787547040893 61.164315338689576151 71.702208335938749428 61.510127269497949953 70.574007564868395548 69.553774833194538019 61.944553892668764661 60.509509604426462204 66.228685534240369748 65.648754789636925011 57.107614101512126581 65.345908722306148775 65.93226194868964285 63.439211702832949413 63.40558628538315844 63.720272416124196013 55.724857672079352255 62.645347577118407401 74.070717601915802675 58.439313801749129595 61.773814967745103388 56.067066780626213074 64.27430658240274397 68.47275667179867753 61.320154695603896755 58.99785161194120775 58.410329564234203303 66.386246677729346288 67.159921550876788388 60.573002308269494165 70.816722399555189327 59.937356645756921125 68.930913793817467194 61.797747082152199027 72.761181256020819319 62.667467079635088112 66.862766627117593998 68.137956214955835321 61.09431557249375544 64.531662354388984681 55.781960751278326427 67.246521113568988426 61.868923526686046444 61.550334979709376171 67.616143961022928011 66.980122189736633231 67.851065537357314383 70.550721122017648668 67.072523578908288755 64.154616833631877171 64.395319114179528697 55.488547618061097921 60.348121131449900645 61.115637006730644032 63.263649567289078846 60.167409612355093884 51.896760966944199822 56.278450295228907407 64.985913684109306132 53.388075369914730572 58.280837711137159829 65.985320080988273617 62.444575531735466711 63.23240721058544267 61.012207079771030749 59.750778441407909725 60.940389124823589384 70.438307458689564555 64.620551252538390941 60.237723642954030367 67.170405308587007198 63.145681638098423605 61.338322910905361596 60.423616304933574384 59.056476417651360578 59.810358585282330068 66.48425023120009314 58.300238995977750278 66.695105941142159622 67.072054511828824275 52.242458818114243968 64.20849598877327935 59.923801016125771923 56.977152555524391175 57.292603478602217137 66.844185103159659889 62.723846592781910658 59.586510393590266688 67.465941029004071083 60.546548887705554876 66.425362994589306709 65.287025496930056079 64.630977445178459107 58.529502345045699485 70.533179523175235204 68.442171775039284398 58.28661343435484099 63.069842694966745 59.414979539831222155 63.71049418865381142 59.363903536631582369 64.002584565434602837 69.0919407449242442 68.007386552119996281 58.582096350551708497 66.33956057047998911 57.796659682655096901 55.621284549409509168 67.240868637910779171 59.52477603533412065 63.990296184331526774 65.59591377328688111 76.53684275330411424 61.123846786561571776 63.802027561971307534 63.402214585822633808 55.463822500776416291 62.091585752842895829 64.894687389329405391 55.366957869674216397 63.252237933422200911 61.236625061443220375 70.607027783490067918 67.481728785105417501 56.411276057355841829 65.72039097926764839 61.952286164336413776 58.609419534538197638 62.715546760682620686 59.963157845116278111 72.542774502963709438 65.07323150897167352 60.181794327270132783 63.031214314395661802 60.421028412302511867 60.899694557036461617 68.92814733381871406 65.435210319997324291 65.633018465711998601 66.697204865752269143 63.682862275150228015 67.509934440602592076 63.164300530896220209 64.194850911941301774 66.884665217703542339 57.175278457083322792 59.109736345587066353 63.624262743141429155 62.002102685404167914 56.526346765809520889 69.10667468799132962 57.588087519840513551 67.042582867194909113 64.709823351620840981 71.727105440145450643 60.594035195562511831 61.417983241038946574 70.637989072494661968 67.192156579377098069 61.044080009905002271 62.066606328512712309 63.59402146529517097 70.343087883024978169 72.953794828315736254 56.794270494921853754 56.747765272692760163 70.086576045795865753 66.472139828616747081 68.757238374193093478 65.807085556572801011 58.517649233661657604 58.972342606797937492 62.805545962323023446 74.290555223819922048 64.082391609026004176 69.593826384941806396 56.974593039069560518 62.753953849518843811 55.25818202377232069 64.709240959575694774 69.308153113884031882 60.60433393009187597 66.435967788263042166 65.350197584893962244 66.179844582530094499 57.185521642021001298 63.43348939575042067 68.820922213244728027
-960.79823129572719154 -955.7506655419163053 -939.47275138070324374 -959.61276720662067419 -952.05434376024811627 -956.1475523795306799 -941.73914867543237506 -975.50752099634223669 -961.84981674572077281 -950.80015087172807853 -941.40694056323957284 -911.32128137107542898 -955.74435904548931831 -943.96626398799435265 -963.8679773878694732 -937.56764784246672662 -954.59587726489712622 -959.65682042300068133 -934.88274143940304839 -943.37976624190002894 -956.149113787049032 -942.52076350510981229 -970.20804122806384839 -964.77033126525066109 -961.55460813830575262 -936.71682672554425153 -948.51606454084537745 -960.80403409648693014 -958.97849852078786625 -950.0125654667699564 -931.87672496269578915 -950.44010517108938529 -952.18759503810224487 -952.88955100302291612 -952.48499314579953534 -955.39404764849939511 -939.6261947086101145 -953.75403712661739064 -948.76870843830704416 -942.71612185404001139 -940.84647194389071956 -953.79266616447341676 -936.94422524303331556 -965.15529411306442853 -968.17121085914675405 -963.96796567873559525 -964.44833093830584403 -945.67832333244393794 -945.38462426171952302 -935.15958600669569023 -959.04751511251890861 -967.43482467743285724 -940.01098225933355934 -964.41542756732178532 -967.75754220380702009 -933.97160830228676787 -941.91357044069650328 -964.73733613540025544 -949.86179975942752662 -961.04674237919061852 -963.98275776250955005 -967.63214722248869748 -937.86708550493142411 -952.3563229726858026 -950.81080050118009694 -950.82976103387511557 -948.11523201635384339 -976.12302209563267752 -935.60531742114301323 -942.40141661127449879 -955.46850944954610441 -944.21292076145721239 -973.74064674969315547 -933.18789959448940863 -935.35676967057372622 -965.15511512830607899 -937.17418353070638659 -970.21687051157766746 -937.75260164942392294 -942.44537122447889033 -950.71072503556172251 -965.24548612387741287 -963.80566528306087548 -926.68183447514149975 -980.80728841850668687 -935.14609681232252569 -952.37531922861569456 -948.77415604692805573 -917.75924596595007188 -965.38339857726134596 -926.49002320665954358 -980.40637191573910059 -948.80092666975008342 -940.07961342854673603 -938.32899196586004109 -948.48335852452180461 -961.83017029732616265 -946.51584773191416389 -944.26161631296338328 -961.72681891141655797 -947.35508139848730025 -935.46684445452922319 -967.03802604489430905 -954.39773632938715764 -964.71259598974927485 -932.76197620452194315 -949.83061613582640348 -951.25717423451021659 -956.79010108624072473 -976.81119446769696424 -959.25324276079675201 -941.28478945332290095 -943.98268409314459859 -942.97949115597111813 -940.17052577807510261 -932.68378552302760909 -937.53721527636594146 -952.68198723649572912 -953.1645710766308639 -949.1631806038974446 -963.35240088430612104 -959.64786297080138411 -948.05220423642731475 -963.93256483504580956 -956.33110607299408912 -959.35563042078786111 -958.84898528830467512 -952.85373608398356282 -967.1721140654416331 -947.19713354520865778 -949.33230544923117122 -946.51158016687691088 -946.50556475887640318 -964.49106458280004972 -945.65144670544043493 -970.98640249025800131 -952.60956272795954192 -949.07539673441749528 -968.5810691578146816 -961.55850972547148103 -952.58137044929014792 -946.08992865938705563 -931.36834433730211913 -964.41817952573796902 -923.43241166649988827 -957.69603491482030222 -953.69673454437520377 -940.41222869988951061 -969.42814078263972988 -981.45012859671476235 -951.1149609200423356 -969.11200107045101504 -950.03313776185143524 -946.50757137897596749 -943.2947853758846577 -948.65912489668914986 -941.56658732965183844 -948.30690875214179414 -951.29718560824755968 -966.06068414748528994 -959.48951355096119187 -945.84329591991206598 -983.95758326790394221 -952.99893061315412979 -972.05941624791421418 -973.17978919766346735 -953.94656514192286068 -929.97886324765011068 -963.24278550273538713 -953.89187004105747292 -952.88729468586871008 -953.20635700491573061 -949.47472569010767529 -957.26800792209121482 -934.65770002916451631 -972.12651926269973046 -946.27720149074502842 -968.41462550319170077 -967.862848048821661 -940.63682420086456659 -967.95443729812791389 -943.5566096946710104 -928.56031266288584902 -966.6285554726657665 -972.97918648914583173 -942.77618455860977065 -939.49353211272045883 -933.71962551889077986 -956.48347022366306192 -930.26993087969412954 -956.91799437043994203 -973.01697919125456337 -952.74911671753625342 -963.79862169009197714 -945.16656107505389173 -955.21107630793619592 -912.28614042261938266 -948.52428759696329053 -936.15749327878188524 -955.29155473462969894 -966.54228476223136113 -962.67946727899857251 -950.68754635085008431 -976.66659451420161986 -946.10729286316677644 -955.96272872652855312 -946.52636499676498261 -946.06414932215068347 -937.86401328153476697 -960.58680807618043218 -959.69108749620522758 -953.67274785754250388 -952.12174416986783854 -967.69562780431544979 -961.11525628463800786 -938.05851133292969735 -938.60207086720106417 -946.051860531643797 -927.46764859701579553 -981.9419164782682401 -929.23583943766539051 -947.72986421863379292 -953.05692061982892938 -961.5819301108875834 -936.34120212267555416 -943.70883960472644958 -954.77233695208519748 -921.70478269112811631 -958.20140382289878289 -975.6918064714296861 -940.2099458681101396 -958.98042507437128279 -942.22421829724282816 -974.86719377052986601 -934.93124176092055677 -921.48150796963409448 -954.8361832894345298 -981.15814855833207275 -953.59758502176407546 -959.77433886738629099 -975.37281979561896605 -935.05643646608007202 -951.15017610273207538 -952.86532055983809641 -963.55698925041599523 -951.04822333830531988 -939.68714846770660643 -962.52454248899516642 -944.36954054445095608 -965.0981105439093426 -957.48311213102272177 -956.79465994231372861 -939.80410125622165651 -962.04361330137692221 -946.24366561527119757 -965.31020887301360744 -972.0975622408146819 -961.82094769111938604 -969.77151260278128575 -971.16807706573956693 -955.78055640538389071 -960.53454053158543502 -961.73066628942069656 -940.20002016691080371 -940.68707611510103561 -936.14909045012223032 -974.00972202840432601 -939.76223913957483092 -959.81124627224892265 -932.50681249453089094 -960.04490563166302763 -971.78228032470951803 -936.18205300960084969 -926.3942853607819643 -989.81665543119754602 -954.20808738536993587 -956.3601818165673194 -936.80157899040284519 -972.26171480934817737 -975.87032985977941735 -923.8968607954647041 -982.08895012300513372 -959.38162967665516589 -949.52223655272507585 -961.13754400000561873 -959.37975423811440123 -961.281549509116644 -989.61097557822074577 -966.71533487827059616 -941.08563373911817962 -965.20521372643952418 -969.45531334136057922 -950.47692467649824266 -945.51821191929161614 -930.52918839320921052 -916.65098985062718384 -925.8433011860319084 -939.20113807058987732 -951.36028284573239944 -929.62401368785390332 -964.3378732948498282 -927.21370838418317817 -943.8153922393726134 -948.37902385674283323 -952.0650629985195792 -973.45563139213527393 -949.99132773544590691 -946.98110187761005818 -951.56781355880968931 -963.73144426849171396 -932.24487446594832818 -964.48745774426151911 -945.04071424243613819 -966.02535618934030026 -940.83180654655643593 -939.04613422748548146 -943.50846131307127962 -945.65442749989870208 -961.25992145359009555 -969.99807518390832684 -951.30768467871916982 -956.02402221821807871 -934.27173118963128218 -925.49261644448449715 -926.61166154053182709 -934.76660120888777783 -957.99484181407228789 -940.40134155823375295 -962.66583507250322782 -939.76038365677038655 -963.03667664007366511 -942.32203173840025556 -952.35410400658849994 -949.57556296499512882 -944.6740407832545543 -947.270837413296249 -929.3783457268609709 -946.01596790703774786 -959.99648753504311571 -934.02616855149187813 -958.50647166536714394 -938.02168026652577737 -955.78978936106659603 -964.72119410184131993 -962.55001088553581212 -963.43795379057166883 -953.16209721832819923 -953.27288095206438356 -945.08341298601851577 -950.49497986945982575 -958.66365436065609629 -968.6803486440933284 -950.97201170740186171 -935.57539229402107139 -949.54349054971999067 -931.44721315094830061 -951.79871355151931311 -951.79353362410552108 -924.58315679585962243 -949.03712898064952697 -923.72004174656535724 -959.15849546411197935 -975.36932221144343202 -946.14193502610339692 -963.15380543811534153 -973.70728467218475544 -945.43951395958515604 -975.7357686612630232 -947.95576476104554331 -931.01146558808761711 -936.13305319633195722 -962.03380507984468295 -961.85635388517630417 -970.02002200813694799 -930.92572390639702462
729.39475777524251043 731.81509038102365139 721.43072325174750858 737.93738897486798578 742.18089413689904177 732.54099875718213752 742.03946864472527523 743.71570924808372638 741.55896912400146448 736.98467381282944189 738.94763587452086995 745.9770717509233009 741.38088951355780409 744.22796205169845507 726.1375483011651113 737.50813409274780952 721.76551609688829103 744.31641798239206764 750.08236621838409519 740.11036896372695537 744.9386565588489475 732.08373412822641058 733.91667754551303915 740.86382970010004101 740.97453803373548453 738.65238381204778761 736.05401739455521692 733.55654442809645843 746.02921017784228752 737.55372351790401808 740.78464009380070365 736.00365200636213103 729.30883531009965282 749.00629664612733905 741.5789692152227417 728.6406122532404197 745.31345537381923805 735.82685936648067582 726.37884190414160912 746.46778741868411089 731.97058715516220673 739.28072711635468295 736.76780979321404175 752.05263901859927955 732.24202375205595672 735.4531288206900399 744.44371665404673877 732.78759334656729152 740.41201678457241542 741.99571722581299582 745.93499987686971053 741.37304820315534926 741.15972988603243721 745.46228386917641728 742.00347098847930738 753.31395968838478439 738.98387738396229452 721.50960233844762115 731.21823523163527625 738.66521799802194437 729.40886721456058694 726.32459266110856788 732.4033241543800159 742.57191635223330195 745.14598590926266297 743.55230440854165863 752.62643134808274681 739.04628227941714158 725.42924476792904898 730.24238869391831486 728.07274069358311408 757.0989766407381012 733.12301606865605663 733.45361641734280056 737.98798140667861389 722.8688827440306568 725.16731256797379501 746.61800684430977526 750.09037322085941923 731.94687256154338684 730.6894635739054138 738.54378481207652385 726.36263955126651126 727.82184476950010321 725.81545576783514662 720.32624538375478096 738.44486023616832426 747.60638307601618635 737.25255891549113585 746.73074824481545875 731.2333489117291947 735.66208591347810852 735.52634672165652319 738.3150641602402402 742.00502489786708793 731.89032068515098217 741.42779499050550385 747.6088500652390394 741.16109268312391123 738.71314477213979899 737.01633000162223652 731.78231695584383942 741.00675767804034422 741.57022493539204788 734.57615470058715346 747.61939402898781282 748.50699008273272739 729.25559255580833451 729.01450976597107001 725.7129238563582021 731.57223289129308341 735.4381716113746279 742.95914357024923902 728.78463297954897371 739.07515114855880256 739.06412085824558744 730.03774208902632381 740.34861028977172737 742.32323375257192311 730.12647348118457558 729.76554857845781044 738.62152121173687647 733.43290635417395151 730.58971797032188533 738.65245046529435058 734.7881275008388684 726.98241628844368734 744.41750070311150012 747.78464177830301196 743.68370403324058771 738.12872374613425563 753.16499628100712016 725.21912083964843987 744.28538263872439984 742.12770789729756871 743.9251125259050923 745.66764327273574509 747.45157412418382137 722.72958339714762133 732.11361112217900882 733.44355090183989887 737.19472410507842142 740.90458633823902801 732.73499382741363206 743.62470487818359288 739.12354979050667225 742.10443232407351388 724.66250689412731845 734.646016895778871 751.04264282443682532 743.69186652903238155 732.64377250771804029 733.39017400037630523 729.36140284320458704 714.80338869294723736 751.80054413964785454 736.34076207977886952 740.70578208086340055 746.43309686757243071 728.01349076617157152 731.59431618433302447 728.56495092824445692 742.31927854641446629 743.09321498947622331 736.41346642146152135 733.26130844667227393 736.33759582074503669 739.48932898487669263 745.28044376951527283 729.75550863986222794 738.06572796167495198 730.76909837630773836 739.70196110067172413 745.78212244890721649 745.96290057779083327 726.17396763246722458 731.42849859984369232 745.48157022717884956 736.40069527240200387 738.76629182055148704 740.68609038216868612 738.8690617925215065 740.46223403880605929 726.15121328531756717 740.67053737881599318 735.89731331993380081 735.58331714090547848 744.48889405953889309 736.25422075676385703 748.49833557357817426 748.28998107057168454 737.42319493301499733 744.50534667230772357 739.59076505143389113 738.58812761957574367 733.19668003597280403 742.96376989636530652 733.54865344284905859 723.76194321752234373 738.78721087233680009 752.7017124248887967 725.91011458575337656 736.4885355844642163 745.26966007744545095 748.01146892910503539 739.14019106496607492 725.19737552119977408 732.53866503112067221 735.88101508194540656 733.24656417338235315 736.05585975482915728 740.01957100685581281 734.38340183711613918 728.260355838418036 729.97328399019306744 734.55596478664938331 737.41134313660870703 740.29439457591604423 740.56504931553729421 734.18551365346820603 733.61682620721694548 737.55327699627139282 737.51926096434453939 739.10054691625475698 731.14825646218992006 745.86196995261241227 735.43586268698459207 728.69769559291523819 737.76608308312256668 734.14018296334597835 732.36352480814491628 737.55476405150238861 735.94292238804302997 736.68882887099255186 735.45835484047222508 743.16301108572679368 731.48719888323114446 726.48280317197531986 724.91146915262083894 738.79843784313470678 742.93259351448955385 732.24480651707608558 735.89941544805219564 741.36209642454832647 738.38779255756708153 757.55243885192317066 739.53243241918062267 742.61634096886439238 750.18108741688286045 728.81036445027211812 750.02060043268454592 727.67765560457667107 726.30876898467067804 732.73924558352268832 740.52214892560812132 732.28301286750343024 742.81289464790472721 740.55360147121405134 736.94993839264702729 733.40653932227405676 736.86794701971155064 738.99232592185740032 746.90746519311790053 736.93268487210593776 723.81277974034628642 730.1133588743296059 725.99325951071796226 738.2287961549600368 729.32859029902078873 730.05500508867521603 735.96991162652091134 746.43084745667613333 728.46190663633080931 749.54703110203195138 742.2388655926863521 738.92806107493618129 736.56375356970249868 734.90969883952664077 750.78807671267259138 735.34276880350296324 729.64555181619425639 725.61293304545824867 747.66632372991944067 742.03920913697970718 749.4012771417977774 736.94334252703902166 734.96131137976055925 731.63748154115035049 740.78516936065477694 740.7056516760148952 740.33590460470259131 742.34210064377327853 742.19530165708124514 746.53249811768910149 732.50226066134916891 749.62309830737308403 747.93606636913364127 740.44943364780067441 735.48751712232785849 743.27755555422936595 743.61915884154916512 737.49830192557806186 739.18240704683023523 733.65328344692773044 727.99520334891053608 737.14331533332051549 737.73057148356849666 741.81037620255142429 747.71463183211926662 740.38589192700942476 734.59213524530878203 729.17152038389906465 743.28104870256822778 750.10270059345452864 734.05160393739265601 743.63108043485840426 735.78581371291352298 739.61213154442111772 737.80596675932577 708.59868236896693361 748.25503669851821087 753.71128152230198793 747.89077696197909972 740.49322186044832961 741.54024183795070257 729.21308154922610356 747.01834849164299612 724.49609159498868394 731.2145508880869329 736.15065940061060701 728.55810208031891761 725.28960767496857898 733.9945022895983584 755.92457736146877778 747.58794352718518894 742.90489980122561064 747.6425511055010702 722.49671826710164169 732.78900866264518754 732.82353847330170993 732.90823842562895152 741.65268662417440737 723.32308260357524432 744.37398267169578503 745.34916594829269343 735.20474709384961898 730.78337966874732956 741.65167448531155969 736.75804731843436457 740.71573474598301345 732.41268249383642797 737.14554739157324548 737.32774928968149197 738.84667237140308771 728.75075524570229391 735.3523868629995377 739.76474184496350972 733.77498636388691011 748.13257185708721408 738.80083859549677072 733.61457632920144079 740.5862233117084088 735.74557508609257184 749.98461308183334495 733.33879882136750439 738.46687575512464718 743.40149740211722929 741.01188644555338669 739.07664120479444136 741.76761964232571245 737.64203956733319956 739.77767791107635276 733.83028664011374076 736.119480272380315 747.66882126615610105
65.984370920346265166 73.589484526583660795 83.445067886210352981 63.90138797345081656 71.369709167977660513 76.568280434284872626 70.594983524346957893 71.634425245992062514 72.684949324201014065 73.271102646520745338 79.050352032383131018 62.42559024997066075 73.566252426873660397 68.452647757133007644 77.877971599504832056 71.827634355597268723 61.979303895594924256 69.686915891823844049 75.42884101282963627 82.770882448747187254 71.806364633425118882 60.121643072685166942 70.719552188080612609 72.485710667342019065 75.857927008685464898 68.437707933138767658 61.146759259279015453 67.710398393714172016 73.053060286598892503 71.914167200108053635 68.26906047444805381 77.931677642028645892 68.197568660812507346 78.216054810648046214 75.140594088108201731 64.272092558215319968 71.306978541237313607 65.234822389110831864 65.568201273184897104 70.068708042420880133 66.282244819404908753 66.823857347509274973 60.7825055735627231 73.793198601272678161 72.096000022894472181 70.203217449593410038 68.329415769069854036 61.895859480226746996 70.62615490393302764 68.794251374373970975 63.954233305397892195 68.110180275378837678 71.731387228597583317 67.214835350617022414 67.56026476784705892 74.560359005732394166 76.936242186271869059 65.66029814324829772 65.13647813744748305 71.758496339044143042 64.841214416121530917 76.800898604520853041 65.203831230534447627 71.996874653852358961 75.620794674002027591 73.429185797480329256 80.079173035191402619 71.914870606635929562 69.449173252137654799 70.803124645863306341 65.29011093154568357 74.876531148410975902 68.983156062724660273 67.332369109406045027 75.414330474804344817 75.748484412622772766 74.698563229811298925 68.748879535931195051 65.670047964667176643 72.460031811254296485 75.128155078742281603 67.227751494678827271 68.24636395887313256 72.924697960223369364 82.018176130403105617 61.959572169734101976 67.909202254775351548 73.396445028787439924 71.344651530457795729 72.544892478412407399 75.237771250099996223 74.579830786346704485 72.670532560349897722 67.079435518972445607 67.923896468785628144 69.182491790221945394 63.638532411651027587 65.414928363149186907 74.308199342988558556 68.788315738304703473 64.521723210794576175 70.678076397401682129 68.95786914893945152 69.94625061447374037 72.120445303975174056 78.677333328038471905 61.494237440103717063 70.439891281757979868 79.034177644522799255 73.373157334320069367 73.29719220871012908 75.417419343875153004 66.199827776517082611 65.60508518676563483 71.092484751734602355 61.656145306358055791 66.427389825030132897 69.941003456178208353 71.337462841118266965 67.234389992724246099 70.638769821108454039 77.287636869232031245 71.052145806603149936 71.232166100385200025 69.722960530441909555 68.295029018453107028 75.792182054774912103 78.094147996803172873 60.321954630898446226 67.069970938901604995 69.39202939069555498 70.919053081995215848 69.295892404835598199 78.941380507975466685 64.869850116156356989 70.979485822592792488 68.460825891514630825 76.940492600096845877 69.241630585829966549 67.522076677420514557 66.890699014981038317 85.301813549744906595 66.956996070784001063 75.345051390030221228 66.066211940163242389 83.500641107491247794 77.558150237953270789 76.525659804767258265 65.794521705774229758 77.579363956349865816 74.048955524058484912 67.906125930559596782 71.748713393579222952 75.000745368456776418 65.351662338023956522 66.095661484507601813 74.701227519906353791 60.315720660176950219 75.091539418519687388 67.5458269584853781 80.578936762189684373 77.863730813944002307 75.24052234909829906 69.282292646320712493 69.897079249383011756 64.499113114823842352 65.458539501345427425 63.615001419423578 73.273323523840133475 70.313780218726847693 72.639803008836125287 71.410409238781454633 70.694016255625868439 68.719554530331322439 62.426012762416355883 69.718913828020362189 73.831106545735039504 66.155126850508864322 64.855025005313592601 77.436552812460575979 73.319727871606659164 66.482881460674036589 67.781668155580192092 75.600083521899918537 63.077828922444382442 73.389531896987264759 75.231010335237499476 69.389161040275325831 72.378171944661289672 65.847218594476345288 62.29855492301022224 70.217175188080531711 67.224254767593123461 81.757948145717520561 70.905104254132766073 68.620925330233745854 63.648688746140521744 62.566076395466517113 73.574966429234621046 72.788915695494210922 75.259269156086091357 65.578715458784827774 71.456314061518980907 74.22302621368879727 70.266280199709100884 76.085399037449150228 67.245224568125621545 71.690541249627756315 62.203432046446955894 71.782490731717373933 67.543151011105464931 59.860939706787014813 68.004381068375607811 68.663740767460652137 77.766666287173990213 65.762371103827959473 74.758341337384138114 76.940799339729238682 66.158550350769743886 79.844338636675530552 71.127734767564859908 69.206801465450624278 70.992155494075603883 70.899839064011558776 78.096674689507182165 75.512548922375543725 73.560838186306781949 59.611266572714498579 67.728869882914963796 61.909455436302430087 68.457686798066973211 72.62287855464455788 70.626941441343092265 65.21159614962203932 76.884387922074878929 77.025113161835122355 76.939325429645904819 75.473040222820856116 66.706604686123284864 72.090521797610918497 72.38630476384022927 66.23426500706162301 66.654956471753564529 67.105026000603487546 67.667097795625466006 76.275908618957345197 66.425701053642143279 72.039219237654648964 68.934224863194657473 79.47583970798854125 61.824169873471412018 64.696658329731917547 69.345712141952375873 64.95358673697680274 63.950207308456420208 67.812119245451427219 71.12447108266562168 66.587455575247830097 77.821682593733498834 68.400527803838599539 71.141898085530414164 72.546769432188028759 68.266652782770037788 79.122530285477765233 64.394038749239427943 78.339061182307915487 81.247187570642580567 75.088020978507714176 69.915353532136208514 79.681939647785227976 73.657582072776179416 64.703658431537377282 73.089264173539376657 68.200033658874247067 77.781534129757616824 72.005841264040412852 68.290649958659145113 69.669342492340717854 73.857161832505880739 79.22270842792930523 65.298063431428488457 67.820168829208029138 64.366002044002016191 65.482863599880943184 70.507617663764776239 59.989722271559521971 71.894702620004466098 82.596359211856395177 69.637879611850337369 63.394548164741870266 72.525811388763713694 69.268460245899078132 75.479367597087346553 72.237100009184004534 73.304378239914910864 72.13384164192510184 69.301655474827811076 70.652210145782746054 71.78093991782860428 65.025005767752787733 65.078941600050285388 73.600336130124389911 74.638290259588714548 66.426812854906444272 68.164171679877540555 68.038789424916572557 68.736933935599594747 68.890714463079447683 74.047046256988494406 66.655739919615029976 69.618701960647314309 71.630798561518446377 73.780562879280680022 76.757610657547246547 80.138693454781460446 71.570577777873410241 69.434879557522009463 71.011474447497960227 73.080324534161903216 68.488488588812018065 61.423962427527072805 71.316457122127431489 68.827265636245385849 68.729877770809778781 77.575751798372621693 62.488188315647391846 61.035802061601437174 73.81587856040627571 65.030936915390626041 71.341405421507346318 73.030526627471886059 56.678949451206577237 73.748297948723234185 63.729064795118972597 69.347086528103005776 69.502476397006446973 72.793862053870157069 72.67002974808832505 81.50081041265546844 75.300470203707121186 68.369178300972265561 74.50840687230937931 77.61346947215700709 73.702277912505536506 61.222697898259276883 74.564582005503851292 63.072993419073625887 68.78588403718235611 72.6791584034703817 73.322059496192906636 70.829690952380076396 60.592391031731835938 66.011394600259038157 76.932317236348708889 63.569590464654268658 73.833976247339123233 69.461222323886332219 65.297727192034145105 69.998511505102939623 75.279834571484741446 73.89930759988051534 61.524029094644014037 73.360801442173610099 71.820087349497669038 75.068301997558833705 60.480839522913790063 74.075581732174796912 60.562199514663412003 67.551715937297316827 71.812985974394067057 68.076841475821993299 70.301315178684603779 65.918247075932740131 77.577307357914079944 74.497647305098084303
-1234.1521724739623096 -1233.5040767654677438 -1237.5968972913269681 -1221.7846016231167141 -1230.543718257429191 -1224.4765584502076763 -1208.9371009965941539 -1233.7123651892213729 -1223.6088899663689062 -1225.3693334417027927 -1226.6657406465767508 -1222.7705628301000615 -1205.1441982050168917 -1225.56441218718237 -1225.9826299478124838 -1243.5152316413245899 -1202.5423790412653489 -1254.4998446843865167 -1230.8812451793103264 -1207.3558742119728322 -1221.6356384024800263 -1232.5451337911056271 -1245.9098791575240739 -1222.3342300268041072 -1226.6086349679478644 -1200.2218303971803834 -1238.2641836892744323 -1188.3300619358760741 -1222.306607532242424 -1234.3334536301329081 -1219.3526306719113563 -1228.8716971971180101 -1220.7717198963919145 -1213.1578006721106249 -1227.1268683920727653 -1202.7779979666909185 -1229.2120481323879631 -1230.293345329634576 -1216.798817128927567 -1239.8371859921098803 -1235.0394845377995807 -1230.9176231097926575 -1222.6193943987859711 -1220.4267296699401868 -1213.8247044204067606 -1204.0438024848961049 -1231.241248147544411 -1233.3525314170731235 -1216.3200710901039656 -1211.184750939798505 -1222.3796154231683886 -1223.9499055457954455 -1214.8151315121315292 -1230.9819348770856777 -1203.9841476871106352 -1212.6837881370145169 -1235.0583811008600605 -1214.1922258341369343 -1225.5821181634280492 -1205.0590348481821366 -1208.9484910542714715 -1204.1512965801691735 -1197.927122702507404 -1217.9000906471269445 -1220.5068507077899085 -1236.1701800855189504 -1234.4455018341179766 -1201.2156660849607306 -1227.2895281541266286 -1202.0539895703409456 -1212.0681209175891127 -1223.1425564102562475 -1228.2693848880981022 -1211.929328079854713 -1214.1748515550359571 -1196.4256790840433951 -1228.390998715734213 -1235.7982070418493095 -1215.4103902714105061 -1218.1427949449650896 -1222.965640941526317 -1205.896234753933868 -1231.140517586297392 -1206.5851917946988578 -1237.9668430259632714 -1208.1298596369861116 -1213.5333385747405828 -1227.1539414773096723 -1242.0522509478364555 -1223.0649535390484743 -1201.6996242725342654 -1236.5718236085033368 -1237.9357166824370324 -1185.6781628814183023 -1205.3222799040338487 -1210.5444612124053947 -1212.7690211981271204 -1213.2740008571236103 -1219.2520572384144089 -1221.7884548703336804 -1210.8272291889611552 -1219.7936967922669282 -1227.1695655187393186 -1238.3970474370830743 -1201.5272949730144774 -1215.384289509132941 -1200.1732681243383922 -1214.5104968175605791 -1236.9784773903274981 -1197.8557547330431134 -1194.2032444947374188 -1233.8442002488848175 -1210.6250339672740211 -1205.5295602657567997 -1215.6723408368491164 -1219.6499576410649297 -1203.1203182145386563 -1244.9177323095154861 -1217.8667890490980881 -1194.7508503019253112 -1228.4981800334685431 -1228.5340616536814196 -1208.5297754201474163 -1220.4874968851486301 -1207.9567142985288228 -1229.1344452936596099 -1213.0214797666881168 -1223.6272995674198683 -1234.067862357088643 -1233.3998104131114815 -1209.7020343377362224 -1175.2381829438390923 -1226.3284459664989754 -1226.2799229448085043 -1215.9458150046673381 -1221.9652655266954753 -1192.3855345985070926 -1241.8537647347388884 -1226.1001794484261609 -1218.4627806704609156 -1234.4606468535880595 -1218.5210845126041477 -1222.8277003428534044 -1239.6952341390083348 -1206.4832694422436816 -1202.4950892685617418 -1215.3712510337377353 -1213.6174230396859457 -1222.3774722613500217 -1227.3160835259027408 -1236.5017190496998865 -1225.7864142936914504 -1213.1061048717717767 -1207.9889290276873908 -1206.7837444241636149 -1209.1180938402671927 -1212.1581022984255469 -1232.574714364766578 -1218.6667634735511001 -1213.7827785556567051 -1216.375374325012217 -1230.4379076724353581 -1239.0022732162506145 -1222.6320541144355047 -1222.1799418476521168 -1209.5864263543764991 -1236.5934093428472806 -1236.8927307143112557 -1230.3907164001186629 -1214.3779080255148983 -1221.8075838956217467 -1231.2818117800215987 -1218.2989221904640544 -1250.8279996645369465 -1235.3726665408798908 -1189.4901999322448773 -1210.0397209424934317 -1208.437162236203676 -1215.5928514688516771 -1219.4908258104351262 -1235.2792345045720594 -1218.9612163576568946 -1254.0380461261593155 -1212.4032640236371208 -1216.1672745062032845 -1217.904022587149484 -1222.831909919097825 -1197.8884340053480173 -1215.6979451960537517 -1232.8323038971316237 -1192.057372527328198 -1228.753900020916717 -1222.734709824358788 -1214.9583761429371407 -1226.0300814995887322 -1200.1064483611992273 -1247.7026500649883474 -1234.4275670356596493 -1216.0149053492557414 -1195.3490212006236106 -1228.3431606659637509 -1189.7386851286753426 -1214.0224978944502254 -1229.2993164204235654 -1220.2325867422530337 -1206.5549786443389166 -1211.6700289272052942 -1200.5764332005776396 -1213.4599400053850786 -1212.3907654748115874 -1211.1917263503571576 -1224.1703761533931356 -1246.233910517312097 -1219.0615410968907781 -1211.3745868802495806 -1215.9700350799082571 -1220.5138753931050815 -1225.1724481484363878 -1223.7084282465680189 -1203.479143324978395 -1215.2387529036802789 -1236.8275077815976601 -1216.0088308901167693 -1234.7668836521092999 -1228.223679610438694 -1218.8453044901639259 -1224.7355225655892355 -1217.6997360008135729 -1225.932690081806868 -1209.2880627031736367 -1213.2336373066857504 -1204.6204192439990948 -1212.5542773707950346 -1205.923992675013551 -1238.5939519220733018 -1218.7596439844778615 -1197.1015791071952208 -1230.2836167330208355 -1216.1422978574971694 -1216.3797741366572609 -1216.0087323103477956 -1225.7714248995907838 -1245.7168863048509593 -1235.4100431592091809 -1236.6875144010425629 -1193.8142232096956832 -1220.7194298732122206 -1224.901210751680992 -1211.5893891362240993 -1215.0757420827833357 -1190.1698858031800228 -1235.1123342754099212 -1212.6056533984587986 -1219.8098340704548264 -1207.9778778130728369 -1192.9972826891601017 -1210.8864466250292935 -1240.9666075035302129 -1224.6762505453468748 -1222.9243953121301729 -1210.0942160861009143 -1215.9911975751749651 -1238.3237113907109688 -1226.7022587894266508 -1240.8931951055101308 -1220.7555323909018625 -1208.6722590263891561 -1225.1419843040553133 -1222.6494468529897404 -1214.2101725790980709 -1217.4606102667903542 -1211.4207347960384595 -1212.838029431766472 -1197.9216950054135395 -1220.9853901709566344 -1221.8127752398218036 -1195.615238837847528 -1207.7608673039999303 -1231.8795700766972914 -1176.4054980236364827 -1196.1052041118100533 -1202.1630647485308145 -1219.5244228525746166 -1230.3402494301981278 -1237.3436052253061916 -1217.7958623828803866 -1235.05237401428667 -1230.7696483247718788 -1217.7936005956062218 -1242.029613740887271 -1239.5386653524135454 -1215.1144860299482389 -1203.4229305534227024 -1212.7156074371291652 -1226.2499707836605012 -1226.7680288247327098 -1231.7228553817310512 -1194.397016817259555 -1212.7786307902160843 -1222.8917724050884317 -1233.0666825072009942 -1217.8371156667701598 -1218.4623042985156189 -1198.5412845946186735 -1209.1239579892255733 -1223.5302138928720979 -1204.4949370934971284 -1188.0051526927070427 -1239.7563007018327426 -1224.6353529086723029 -1214.6774971641607408 -1197.5148264783765626 -1227.8235393061661398 -1213.5814950511291954 -1212.7553701324875419 -1228.4476350129716593 -1210.413523111138602 -1191.5539996849424824 -1204.5275881522791224 -1214.967451314926393 -1220.9102184500961812 -1215.7684978475738262 -1239.2218545549490045 -1203.3942400027294752 -1216.0482557013231144 -1216.7776290415272342 -1255.8964284759863403 -1188.3942606965492814 -1241.7851877895075177 -1223.4360184124982425 -1241.0080367994737571 -1204.1155784097809374 -1200.6360932084942306 -1223.40479773846846 -1215.5237690193771414 -1210.7248422967420538 -1222.6766495533231591 -1218.7415948679481517 -1231.842604884153161 -1222.5299458044109997 -1246.3284144153844863 -1199.1983506606154606 -1226.6568507205313381 -1222.9846204959765146 -1219.1293933850088251 -1235.0906354979294974 -1212.7332681868845157 -1214.9906635731952065 -1199.617533849679603 -1224.5035900979401049 -1229.1563591558501685 -1195.044083330819376 -1217.6469082530586547 -1243.7600686299279005 -1208.8339417405670702 -1216.4707065421662264 -1210.773911968204402 -1194.3716782043654803 -1224.4058983618672301 -1204.7735376166635888 -1215.4242574433676509 -1201.97836985021695 -1230.8941619763786548 -1218.8725689787863757 -1231.1535528104659534 -1230.1831222212190369 -1208.1195197817260123 -1228.1270878367349724 -1229.4315034447481594 -1180.8888253981865546 -1215.6890271966999535 -1215.0052114132797669 -1208.9682014931154299 -1232.5657821901277202 -1215.5469716861518918