-183.47289908475013931 -184.92120895375697387 -187.58651026700533748 -184.60252200193139061 -188.89410562112482239 -193.31267447246995062 -180.48795312485296449 -177.54107314342209634 -177.17098906974817396 -182.84285415679011066 -186.80424842741768998 -174.95075642648095027 -179.40619790820983326 -179.87576166874558226 -187.6239470929615436 -175.69386311559114233 -181.10325857102128566 -182.43947073650477364 -185.84856014926506873 -184.31392732277546997 -178.63105823019395757 -190.77689016322324278 -186.76722964759278511 -175.8886436503423738 -183.96604267282799583 -177.56474738228547494 -189.24660130328263108 -185.37212833144374713 -189.32900095777188199 -180.96793924838641487 -181.42560914079666645 -181.3008564708901531 -179.70949552923909209 -186.651034116521231 -184.7516666953514175 -186.69662936567050338 -180.03616441439942264 -177.43132291718339388 -194.78487626167526514 -180.03332738572350991 -185.14864412768758939 -187.67343333327767141 -181.64526981246905279 -187.16761492889776264 -182.33245725235016721 -178.68091204689284268 -179.13525254096637696 -181.51400127796534889 -185.69389989773432603 -183.42103081847076851 -189.22090722518782968 -188.40346090028120329 -185.33806777540712574 -183.63938344660758162 -178.49238570254965452 -186.89329226761969949 -183.67305943082163822 -181.128253481672715 -181.23659187872689813 -181.59235877658198888 -184.4699159894317404 -192.56807988804754928 -172.91290366956397406 -176.2405301502750774 -179.76921438131958553 -180.04726985589749688 -189.20225499999060048 -187.60091901750263332 -179.10899073644276314 -185.02490490369959275 -180.67847843775462024 -183.67669265703787573 -173.84499527326673274 -183.5878744803067093 -167.72935069059008129 -177.448754813746433 -199.31232909408032583 -177.1899079621368287 -184.45477790938824114 -178.14529055537258273 -184.87661522921098367 -171.9719325534602774 -181.66467680664555928 -174.32066722349986776 -181.85637196778858993 -171.93857574341080863 -179.36712265054504201 -183.1922779195963642 -183.37151788087442128 -181.26803343391972589 -171.54233843337297571 -182.30675369765197047 -188.27927293139063636 -189.58390159826296895 -185.42883999760414326 -179.59101433424990546 -184.15106941735297141 -182.16881080473376642 -181.53219285614852652 -185.26352443825979321 -177.33053887165189622 -180.96724156949269968 -181.90856099000654922 -190.54830592260293542 -173.72243064846142602 -178.47186352145581623 -184.1306937568785429 -182.07592831197422356 -179.04575424371671488 -178.24807113008009196 -181.85608731418901129 -184.97394814181924971 -180.5169892648635539 -176.11833646048620494 -184.41060842846010814 -179.29152429494536136 -186.33156282739972198 -178.06331867204593777 -180.46010009396133 -175.00202082406153181 -191.51858426866982654 -184.08282583142755584 -178.04650335476759437 -189.62923646124954757 -181.84847149701744229 -182.01696873857343917 -187.20569353297085513 -181.84433921631102749 -182.52772123813639382 -175.23328910899476796 -186.44975026276514996 -183.93412745327617586 -194.85298131538468169 -183.22705605489929326 -179.48474882111321449 -186.07290746653441715 -192.55854524562445818 -187.06134797795556324 -183.55705595040970479 -181.92861821067336336 -180.94533348946450246 -183.20593591408126599 -188.77606562678380442 -183.21518090956436708 -185.50961099676769095 -183.8135846959103219 -183.66969100213856336 -182.58944378469561798 -178.36216573117499706 -178.06038236663457042 -190.51892808609352414 -181.21615509044264059 -187.52340727916333663 -187.93501729320055915 -180.19300670340021497 -170.54352002275052769 -191.28634869167976262 -179.85737352404541411 -175.20953580771771385 -184.69731036275888414 -187.66594583317731804 -179.52358434736453319 -193.90673353313735561 -182.47106766559400626 -187.1395215848724547 -192.58177126517139754 -187.88541637931703576 -168.47899170858741513 -195.85796398691238096 -181.33696717350949257 -177.71920668299387103 -194.23271670694498425 -174.73818364389069302 -186.76692199804739403 -183.84518289747649078 -191.60721248983261944 -183.98682446903450227 -189.44863071361740481 -184.12766834140259675 -193.73440952332236975 -180.70553176672029849 -191.79215326569385525 -185.14083750886544522 -177.92842576507129593 -176.11682932340767138 -176.09408066740343202 -191.94617549466201467 -186.22501818158306719 -199.32224973776894217 -183.14250711733103572 -188.54153038916828677 -174.30373273071103313 -182.52489368674716275 -178.45576576012314263 -188.80167001712226238 -181.89118263223554095 -178.83414480580356098 -171.12955443768433383 -184.40016761538313972 -173.86546019782315398 -183.4926752649996331 -189.05082983177427991 -174.03984754565314574 -177.82700449360962125 -196.2321305622735963 -181.7352126730616817 -179.03596590409850364 -174.71972034758422865 -182.21122824359224524 -179.06540996491784767 -184.47603940908194886 -174.27463362890989629 -182.64208489114122358 -194.50038833905756519 -180.78852361009128913 -181.74771502249441824 -182.55923435418105782 -178.61292634701945303 -181.22580997340540421 -189.62441889747933033 -193.24055821532763844 -190.89353713562138637 -179.45313961831359961 -178.25848214369068501 -188.10243151462029232 -180.30141015432457152 -191.93862332746448374 -197.97534926418015289 -180.74783255636631907 -188.48649982400345948 -181.94402119110273475 -188.67465721935576539 -195.3302760691121307 -183.13782171044090319 -178.00111073527838812 -184.94288396046545131 -182.39134604936748474 -182.20924327639716012 -190.0318232193646395 -187.48300796130698131 -190.40686535161168536 -179.4019953137635639 -194.36843712424033015 -188.11906614066734278 -176.14420560818527406 -183.48198603922142524 -186.51291640984644005 -177.05435259634640488 -184.96095904993390491 -196.11671579147875377 -176.16451312850983868 -187.2713737089175936 -189.63866286103996117 -179.07725882217877711 -185.29330032851783017 -186.88860771519821924 -187.10009207469164494 -187.01960032729959948 -182.81357935091190825 -183.06041384425108731 -178.57321886648625764 -182.70951818947426659 -180.62830986107479703 -180.78064014755565836 -172.53417579109108715 -187.22343356144844506 -186.24881969448995278 -185.95830988334577683 -183.7065422723656809 -178.77319939426786277 -179.01846512583389881 -185.09137552543347738 -181.63262554956526174 -180.87148617953951657 -187.07661494473472885 -179.92638636123794527 -181.18141271114888013 -178.25474985091977942 -182.60632745796908694 -185.34438507723277212 -179.62331866234774225 -185.84506492994316318 -185.20465818627943122 -177.68131129187528927 -180.40006938226204625 -185.05117098900319661 -180.80743524413912837 -186.57650313001818176 -173.54211483289097373 -185.30059304500366579 -174.32597721662105528 -188.06812989619163545 -185.01558353630770171 -177.26564018166857295 -176.82199583828753475 -183.59791376196457691 -181.98317798896877662 -185.63342600963991913 -185.61142961017355901 -179.41695690315157208
-6.5900581075212718574 -6.1268014671503987501 -7.0142314934144200933 -3.899940604787487608 -16.805316628691418401 -4.9425634375057310166 -9.2982690674668848629 -7.7444191162974389542 -6.997783240579202868 -10.760476004101537484 -7.9994023229938457931 -3.5866667354950814151 -13.238181559845942914 -14.009944904459569415 -14.329898767959498684 -14.394181090952343993 -13.856060994557596544 -7.86788790301600649 -10.324090550414144474 -7.9572330760849840914 -8.936581675296110916 -10.263910681678888537 -15.078056532664161793 -5.4298848443147944565 -8.1321766946035580759 -9.3004569981436837622 -8.8285811747330988908 -6.7515119084933878923 -19.516029523217859776 -12.932391252163466078 -15.80933203803736653 -12.701205613969479558 -17.714216877377310766 -4.7850288134607756874 -17.276216035494659451 -15.720477576908677975 -11.477999456518713117 -17.120647916651449805 -5.8978459351184788773 -6.9772895915558592606 -15.554677124760541318 -9.0675545003220392459 -9.7020132338444966535 -9.1036824255110477822 -11.026632906348066143 -16.91597750282880952 -12.08238996254624098 -6.9643213198048226076 -8.1431680909099615207 -11.302758507612574945 -13.331519825590724793 -9.6404291776643908918 -15.632384678892707441 -10.590801903293757036 -11.57670352456709395 -10.86670960596834945 -12.300393558511082404 -9.0214922212788000166 -7.2359382177206672537 -13.216388782394691503 -14.306119487273690538 -7.6900087767323093146 -6.0394082807755351539 -8.2096604361495053581 -12.330530694865007746 -8.1273657123143827619 -15.867348522403005973 -11.976306081382771751 -5.8681813022018864956 -12.102902940972416701 -14.751757199703616763 -12.170844638022863649 -7.5938252887578183703 -18.387671646624237809 -7.6736110427664980804 -10.898463531895341561 -11.016154750153068775 -18.860747553783621555 -14.311944361214216315 -4.9152971499380004872 -12.648116120460343836 -10.293623878125515603 -10.989580756999295374 -13.369526707525151821 -9.9498182568068038734 -14.616393258345491191 -10.472314857950966172 -7.3923305910324677015 -14.627922578864508196 -5.5976852456683561243 -8.4883830444155741191 -6.8199634511281761462 -11.206143331214228454 -14.352475904160229447 -6.4222878191121273161 -6.9558547791278435568 -8.7133242590836683661 -10.444267870513209928 -5.989983993568306353 -11.496815775115106106 -4.9634492864378998433 -8.0281352678701480841 -12.270298532292963856 -8.0738598328227197953 -4.9390803893679944281 -10.749636327002209057 -12.141424497379881942 -8.4856126566079161933 -8.3733690963697728904 -8.5471935679010062614 -10.187572568870013612 -7.3300355517764383961 -7.0683840088272651414 -11.032206321149134354 -12.326562656110867877 -12.201380768654392028 -11.077235459383381055 -10.818003684260215636 -11.28833157449068203 -13.074933982433353918 -15.78618435071141235 -8.9447676250850030044 -14.711507761593777488 -8.3039450151970086722 -17.28996190108979647 -15.542617433884476696 -11.361922998896920589 -13.248906072567224967 -12.014434460924578119 -20.274546839332064252 -12.421125566312717581 -12.134264270058329416 -3.558477194855635517 -5.6805262698931748844 -10.766138937586294588 -10.997472104659820502 -8.8254424520045304803 -8.1449372743198367175 -11.449365557779774605 -13.377947930921642694 -10.04057057665711028 -13.591280180971573088 -9.1281833694428300419 -5.6970402319296074012 -8.7677335413798438424 -17.601510484272473889 -18.24943680957389347 -9.2674168506792540256 -12.681670028229984126 -8.6354527954670849965 -10.881917475657857608 -4.4757510453049107468 -14.424794667700361117 -8.0506322777341541297 -13.303756331915195688 -18.005694533176772154 -15.463478136752470959 -14.344650084244946697 -10.078557415338218917 -8.6919828195864958786 -8.2312966287762989737 -13.16266060329794918 -11.035556176095211001 -10.139772734523381459 -16.83128849032045693 -10.265394473830905753 -14.463380318214680287 -11.446991905001187462 -9.3687903480727658945 -13.32882327926987287 -3.2732265673119780303 -7.1990298398724519302 -15.9916034377561882 -6.7371360862365232691 -8.4546730065912640839 -13.363129180338921387 -10.500911417358405942 -14.024716364604943308 -13.39956264402476549 -12.489696686675092252 -11.933350229525897745 -16.034839770590316732 -9.0385598169852965356 -12.508227358379704341 -14.360434718928075881 -7.3763891681943487555 -9.5202157764239583315 -6.8961915174830306086 -4.4919396182177564469 -12.238921856686575396 -12.28930697410278583 -6.403150935443347791 -3.7954519562383182141 -7.5752286327363993479 -13.928662901274538655 -8.1226181149113259039 -19.872886524728119895 -7.5474964547065575005 -13.265139092521524233 -10.711430333199025711 -14.366947067989345399 -7.6653066839829868684 -10.468294757931101202 -15.99644633076210809 -10.504757216658557439 -5.9450117321690045813 -15.718121568265546628 -4.4044647909913861028 -13.615612060050271026 -16.831420960558816091 -9.8579486385939745219 -8.8698250387094255132 -16.173703335973154793 -5.9774159306630565425 -11.739253874212202788 -9.3802789948695739497 -12.354416314274104138 -11.919697684329943144 -5.5741758203498363855 -10.674772796084445403 -4.20453785454325768 -10.329501894362268288 -12.257436960847005736 -18.621782122774881429 -11.151435072505906376 -15.373499973787851047 -5.8355510275793376351 -5.2102287979843344701 -10.796426553641008894 -11.885119615585475472 -5.4219650684676139463 -10.515448629164689365 -8.3252319004194497154 -9.5515560812660957879 -15.494766176756558096 -12.055775430215064148 -9.3009214088873459758 -4.9890486085832748131 -12.778296057272772401 -9.5743084733695127397 -8.4860283377904064395 -16.094971237664388752 -8.8821948696874422069 -8.4061720460381685882 -10.736118499837573381 -11.431739085362574215 -10.692323678440704526 -15.375813236878860479 -8.1403568366300547154 -14.228646411561813423 -12.934770509319690746 -17.043223040150877523 -14.107334793924383831 -4.4784824575307933259 -18.256426491040002702 -9.6545445223072032803 -13.292315816854788579 -17.724194826132652736 -14.253753006930555358 -10.416293316250925471 -8.6976724446321860285 -19.235623024783013335 -11.842145807738885921 -9.8069335704648583629 -8.4008489199607616627 -10.252355372096854325 -12.575510142466287178 -5.165178144348291589 -6.4016102068923830259 -13.032460994822312017 -8.483652626743349856 -10.37828035538031024 -13.662137512036590437 -12.214079332576121217 -12.691748049891778294 -6.7682080054865885188 -12.095500739081941788 -13.774849984242331757 -9.345167342789853393 -9.9495601656869929741 -9.5470272810344205539 -12.987553380861140084 -9.091046251635500397 -8.9977591640907625958 -12.015947064177813886 -8.6459361643505090456 -15.508115194130901671 -9.0167497008199681829 -12.563221363685471488 -13.149201971010151979 -8.99647473996459901 -13.935621087842825716 -10.725317891035659912 -13.7420636083554637 -14.255852288915422221 -12.334397297324638743 -12.134061892340211486 -7.0574481352390012745 -13.645400881755545441 -18.01237280327960022
137.9638185954401024 121.50138577210043422 119.24030783205716943 130.88315087238586898 113.73944237638635002 112.58700631180762741 127.7917688315077811 132.5912582754725122 134.41878565131099776 134.87609122416563423 136.0952964138052721 129.19458763167421012 129.86645416448706669 136.78333569064722042 124.34355618775369123 124.65848006726282904 118.14514612226804502 130.98331478164405439 128.41858556965584626 128.88702957350042766 115.77058475640433244 135.63293868053142432 119.45421713845102829 127.64001227265580951 122.12173862338066499 119.1644376269310186 136.58241298489107862 121.50515797788403916 129.23626057352416296 118.57366984195348891 136.49251318538176747 136.53708547231317993 139.58550723033903296 129.13352539714071554 133.57402682167594321 123.43194071847493376 136.64793755997277458 128.47606593117242824 123.26310102515651579 132.55486808598851667 124.51870017229042276 130.08650910213199836 125.59476498258555921 138.14417542757388446 125.56621796193857676 149.89919739375216068 128.28390532407746605 123.62481403002513503 118.26555722486403965 126.13259283724809734 129.20859660931688495 119.9280284927667708 134.71196763582614153 121.16651573273531994 135.59325417300223648 134.31134638213251264 134.55020883938374254 135.25762805631620722 146.36085670147136284 110.53650591431912176 120.84688016658574838 126.0794572952840582 131.60462494146185009 136.20920387849497502 129.78780963467318088 132.30396321039557961 129.30243553486397445 127.90509830181399309 123.03693887799664708 122.70393478717076619 124.36970965511092402 122.03393205537422261 134.47311278360191977 136.71678090799167649 134.33858504128014033 128.93630129126319162 130.39160430963855219 141.52570529647417175 133.65316166262482511 130.88002244265064178 128.17693130174686189 141.49297490647526843 128.63729681861408949 122.8593428200036044 137.33879991145738586 129.05746100300916623 135.18508394862638511 131.88722721798166049 127.35453345230357058 123.39264839918175198 116.38804825533502196 120.01269170927534446 122.49152879403870031 127.57500768429873972 144.03267434303555206 122.09866730503085819 118.18641353840177999 119.42609197431742984 126.34976258895513013 124.18795324608329622 115.32099075976532276 125.58040035823643166 126.91956062604212718 120.05604176518980353 132.61990379069968071 118.81404711669652841 134.69014451689554335 148.16499836063607631 127.10830089597631343 126.81073895124460194 127.1470897828471891 133.32653697577964635 128.52388062837161442 134.94191704382436114 135.86077099098321241 129.97720368720823103 134.76118538949384629 129.87457084653115658 125.87655299650104723 123.91711458920188704 119.1910742361983182 125.92048272395820163 129.50621134070203766 134.17329348203108452 113.21417613874801589 139.95847144250137717 136.96021810857715195 124.1772070874902596 135.84438715590582092 133.15618577217267671 143.32066114406842416 133.51079188005678589 127.63864707607827143 138.97395840902925102 124.08149250296763455 117.05160031045083713 119.12005317182422459 124.20793782807214711 122.38174944238589603 110.06202924187927294 119.64550251141321269 125.01905095094952003 128.39901915711246261 134.11872923606429708 130.14763876563304734 125.10420792846281302 109.07275681241679877 134.15033827673033784 116.62488545075679269 127.03858933909134521 125.86941810099304462 135.63782939086334522 140.59559216439987495 124.73334161116238761 134.26716832388808598 133.12456714660712009 129.4597492179299536 129.28084369330488812 137.01642939491316042 146.23642170939930907 117.45969982519515895 119.82718979286450178 127.76724310293890596 127.71073263929811503 131.88546132641738495 123.74929310358352552 121.7526017632290376 128.15422162989176513 120.22032261703400025 128.35852961374570214 123.64624465670524955 130.60855045455090817 130.34560634370117782 144.89325277442057427 126.52296803333909736 108.19795133577044055 138.28931827954409073 132.71860301729637399 128.10903474619883013 122.8538060122925657 127.27601664887303912 129.37725352578132743 138.57336222677486148 131.80575116639653288 130.6888370214530255 133.43685981181698708 132.68001643958683644 128.81457554610614125 130.83783323464518844 119.5442428369446759 112.74962275406799961 125.68042693221052275 129.86685512983194712 127.03500833755599331 127.51975274220178846 126.57818802915129197 123.18804350703643991 134.46858508313090397 125.77359809345297492 116.78133539605515523 124.64667274565685773 136.74831016128661076 136.69316180428367602 122.60765548963956917 132.83400131282922985 133.93016071498195174 126.60712713385160555 129.13349598198166746 128.33339068325670951 135.92010847517400407 140.07067937616702125 126.55320163387594334 126.3407756939726454 123.98246244197611077 129.43947383332675827 137.90816173107089071 133.54994124107827247 132.0073579349077022 127.71977921257726507 135.92196410423895259 122.23645358866923516 122.56399757886991608 124.73520993925015432 124.8093526739793333 134.04495293013619062 123.62332202787591484 137.89018476257871271 125.78443968342386938 120.98944704425400687 121.64535187001547456 118.02740854736299525 128.45580439949199558 126.92350385550733449 126.75461864770370823 130.34044406709170971 128.69115800632349078 129.47839210984025726 114.26612293551814048 129.90388800385764512 136.93148122531374611 126.19624883642366342 133.67924736731006874 122.71793223362627145 122.99854055829261767 127.10752257712496771 123.2807210919422829 122.06737456257020824 122.75467126235012927 135.56546238316380482 130.29757789630386355 124.97946952943236454 124.06422119851882258 130.69415678245658796 121.94411034535130511 132.71608803452210168 125.87210293676147899 135.13308996650482641 122.85744958560047735 131.57947852956175439 134.29970904477002591 122.7792393342097057 128.45868785535742518 125.6892028287539631 140.9698900752460986 113.82637218604931206 123.7560976395507879 122.01745397928208092 132.92106648509945899 125.03140659202223617 125.39869697450490094 130.10193046470786271 141.91972005453811789 131.54292136959688264 130.6835811240485441 128.57258339633486344 131.79474070328885205 134.33721032912603732 136.73673574814210951 134.72200386789700133 124.62000247406064091 132.5651073499963104 136.49799489465647184 125.53245658254091666 142.41651254038839625 131.20305041363772602 124.82531496403628068 138.20459063436737779 124.78710910705449066 126.34757960490367168 128.22812400175706671 134.23839295943417937 134.74132988693520474 118.25610000024306601 118.45197020988663894 132.58051721178162552 132.06092845234968536 127.21271345458136182 124.42278552505051437 115.75492296885231269 136.09031606687045723
-213.11204751663237289 -190.23509133054068343 -206.96983192787257622 -204.15302691680645353 -212.8221661305908583 -211.32268038779398012 -203.09116619173445883 -202.42163817796591729 -212.22123243282536009 -212.31063359227070464 -205.43238807408761204 -200.95386105821904721 -210.67286054175266941 -210.42849949180867952 -205.32310522329100877 -203.14147976299273068 -208.70463835540320474 -204.67808889889221291 -202.72436994899734941 -206.93102391641664894 -191.80223954427967215 -199.36968081111206175 -211.77970961705887021 -204.63346306421257736 -217.23126354478864641 -212.13134013650287102 -205.49042771260775453 -203.51120160039562279 -218.64254777227546356 -213.42049492520700937 -209.87984754785833275 -203.69146989794046476 -205.14643723001589137 -200.20673923948783113 -210.91886275357310865 -213.64503179978353842 -201.10680781747299761 -218.32196620485214567 -210.85543185126959997 -214.09153065125772741 -208.65897959944780382 -198.843826540432417 -209.62048632721393915 -209.10024451561329784 -208.51867915726674596 -215.48099824818322645 -198.16347095984039584 -209.37776296963056666 -198.55224504642194461 -199.95995005419553081 -198.46630093824634855 -210.2926989671648812 -212.62888898264742465 -208.35863334909080891 -199.22200138328858543 -205.85766260147417483 -206.72252451225077152 -213.52446922725403056 -205.25862745819623001 -212.60302014619722399 -204.07653112942455209 -204.8210156508272064 -206.80695457952884908 -200.86153930364585563 -204.75925608022848223 -209.33174630799337024 -207.42290852804853785 -203.04358116238284993 -207.1683081451720625 -193.49501099644803048 -213.735804272830336 -203.78136558542587409 -202.81519634150356524 -214.9801891689830029 -206.89676164424798799 -206.03019470157138926 -208.8467930066161955 -213.78897530737546617 -202.33653030481289647 -205.13976972531281717 -199.76341061561501533 -202.83099071246343215 -203.34459077507790425 -200.03494417815545603 -212.44419859854383503 -203.1213966721909685 -196.51621622458105776 -201.14050057986733577 -200.91383098828094944 -192.35568473253960065 -204.14752331287493803 -201.44516196651542828 -198.16119296246046133 -204.22837198155252736 -207.65685664235215313 -200.74022313813054552 -206.70913502697985109 -214.03817873049780474 -211.35267318610846132 -204.40268462976783326 -195.28194497081210557 -202.42514984595297278 -212.62234386327489233 -221.63876844266457056 -217.44878691100527135 -202.06806799201814329 -213.83566404599491761 -215.8793347812818979 -185.37769577769688567 -197.4682086691925349 -203.40257650228488728 -189.37892124712641362 -216.72542229962294869 -205.08165225819658417 -204.99244733149663489 -206.8529441995347895 -199.09804447898173407 -212.13698694392112998 -204.96001146572314155 -206.82820822737511435 -205.95489027403320392 -209.46512781938028525 -211.51454636791658004 -218.23215981504804972 -211.10300073782408958 -207.90702652290150354 -201.13541520661541995 -214.6493579670071199 -200.64693752071619315 -207.92768965528807712 -206.36323851719305367 -190.58666788756465849 -206.60435757436988524 -211.40515426542501132 -212.97726752182626342 -205.21362938180712376 -221.30720966016070861 -213.92687700379579496 -194.3415544640697874 -203.77400821748992144 -211.72994402461148411 -208.40804039442164708 -207.22349705152117849 -205.94842736031611707 -197.47248561322908245 -192.5696489197592598 -200.33144109629211016 -210.86968447802314586 -195.18648358277698662 -221.49875630406367577 -207.37937136995921605 -209.74271873708482872 -210.32103430333185656 -204.91809825395060329 -199.84907738242247888 -204.31852971076952485 -220.07030423911868411 -207.0844843516947833 -208.85234374640154442 -217.04182334910339591 -205.37808527822002702 -202.55084814519219094 -193.45704484630059028 -208.20554632180869703 -206.46815083111988542 -203.47221812651699224 -199.86739932955720178 -206.91763371106421232 -209.91136784422548089 -198.35805271304292319 -205.9476935388341019 -204.63954330052450814 -212.18493038473124557 -208.37548611528094966 -210.36271580768959666 -198.96842429544196307 -205.34156259707174286 -212.81644504014627728 -199.09336779448133825 -211.79490936286464375 -215.08612554911843517 -201.27171398534804325 -210.5547356738278495 -206.29372116854014507 -202.18799305311645753 -213.55996868818908752 -194.69281754491780134 -203.81641383082569519 -207.35533043971560119 -209.01516598177539663 -203.34084717795312258 -199.38412436944048522 -211.12874912575904318 -196.04486426202950611 -213.08334167214601962 -200.83826239684421466 -203.96781257121966746 -202.69171872503585519 -205.17872722757255133 -202.37002745096279455 -216.47442753672322624 -216.90371075502602594 -202.43523978018527032 -207.26704509504685348 -223.71334132311017129 -205.81795261409769182 -199.19150419874398494 -200.31793264613642691 -209.32208552677218449 -205.66380848006949122 -200.2902304933494122 -197.48775864025571991 -212.2971524898077007 -206.48317570944135468 -216.38167567703260374 -201.67184565749286662 -210.6772699688069963 -210.66709939192762135 -204.69549600723840399 -208.66647002693642321 -188.73707571842089692 -205.83474621154473994 -207.13544484809699497 -215.89704000408335105 -212.01671879862539072 -206.52409365040762168 -205.22527284787801705 -212.32642966579373933 -204.44751221033561706 -210.18266358730159027 -200.72760747728676733 -210.18231708003196445 -206.63655129634312857 -207.25254637475376285 -197.04782725953049294 -204.88744191282972906 -204.12703755932076888 -213.52462190408795095 -202.72452598303397053 -202.09165855639173515 -208.59805923155897744 -212.30596807732072762 -202.50533458836946465 -204.13796311258894889 -197.32745918219580972 -201.45895110175044351 -207.04193226643806724 -216.85693169505253763 -211.02932643806363444 -199.24645688027860047 -205.83880773995758773 -200.34215200074433483 -202.1679608269477626 -209.76129114336490034 -200.56946766161965456 -202.49625601483492687 -201.66066137037324779 -201.87621621917602965 -207.85173787764145459 -196.99655001225420392 -194.70906010737112979 -202.45522710562451607 -210.01064647702324351 -211.06022762141247995 -197.21633917076223952 -195.22658387286190873 -202.49059467890566566 -205.96095509433780535 -207.24167289375745327 -200.4423252145460026 -195.39359371164226786 -202.72435714749920521 -200.00929737413520115 -215.80565766860195254 -200.84624288817195747 -200.87106909208293359 -206.94911010947561181 -197.18174208611097242 -211.03972912730668554 -212.25261596973555811 -199.26030107707424577 -206.43004154640033221 -202.44484173112545022 -205.48854313426875251 -201.05738194289713761 -211.24934753290315825 -198.45765518700761731 -205.02957286127920611 -219.26675442756334178 -208.30730970525775092 -206.2578190674562677 -209.13369648673761958 -207.82941602068427756 -199.06493064101161394 -199.6418525537634423 -200.7276272159067787 -217.44258593551748504 -211.09150687285739423 -205.16120530257731502 -211.97370690448866526
-15.654533110765848747 -20.275769701861133143 -22.293891136172835132 -16.178117623500877897 -22.211899493281272555 -20.067587215510663157 -23.712844369953316459 -19.429863337837325332 -24.086331174288112322 -18.791054381870818446 -20.929528567905702374 -13.800216443486503337 -19.164665832141608348 -26.427930710828466232 -19.057482133905359944 -18.616729920579178525 -24.114728926299136447 -13.751099844780211967 -25.769731621295214552 -16.325613760527790674 -20.731537065413746745 -19.699795414799918802 -24.671553297720887343 -21.925965522907638672 -17.15546120695956489 -16.852925559011815437 -16.370923510050101157 -17.506107755188480724 -15.743043363459404915 -17.399559782620357851 -20.50932731094554029 -23.475865325461438005 -20.568264922253231219 -27.525139914565993848 -18.570818269005126666 -22.08671901239124935 -27.821126120712737162 -21.088705594834074475 -19.257557126995276775 -18.480378970418225748 -19.243469655583695044 -19.82572702854267277 -16.271316749792564593 -16.822739255431780947 -24.844960784568410617 -8.0421539904667778131 -16.789342948196154026 -22.120293704413843017 -20.180186452539942366 -19.248128425722796919 -16.960640028518550793 -21.141377950548406517 -23.661630628027641166 -22.237186827460654115 -25.738587559317398501 -21.277026135571926346 -17.785405140326101758 -19.301250517114493022 -20.100044946190237738 -13.541824917320051114 -24.180380049983423163 -17.034611001417655274 -15.697537353707289753 -13.3010599601944417 -23.250763741958195396 -17.574148726725866254 -12.360088214490602354 -17.432397003305773353 -14.099369117788075556 -19.110560470755125095 -20.779628767527174915 -16.376895593172996257 -22.901514126198627253 -17.376703087051314611 -10.873741886254876476 -19.290823640304559206 -16.193441574676182171 -26.917126191069609575 -17.900145136859389794 -12.966992601385271655 -19.745411436124122417 -19.260543136783645934 -22.427401280833265673 -14.860021628338978772 -25.354791394564010432 -19.52635661972662362 -18.077865274522594063 -25.294922852576014805 -27.990293031824904801 -18.610753966931692815 -24.194550846174244896 -16.0477617504075738 -19.450590724256471731 -23.085192766983873014 -22.797462759615797268 -23.032721728223357616 -29.67547616291642143 -17.377475730466386494 -17.471737663673000185 -20.94717916611401165 -20.182089544325869213 -14.162544516549733231 -22.991541528555266893 -24.007417160281161017 -16.977263606863559176 -18.673825829054607084 -24.994964226877961266 -20.459908258840602713 -24.040101080055588767 -17.766659879779936659 -17.593512153795032305 -27.31145138531367067 -20.942812865341743134 -15.93860682442248411 -15.769368626207503681 -15.878441771733140087 -15.27128270917613051 -15.124563068284047063 -22.854482159003900676 -13.336661378906860875 -18.975658810017090872 -21.01721712642422446 -20.828637712819798367 -25.616995239868387557 -16.217274249500373884 -15.983433196851088098 -16.604246408304966565 -8.9001809090666981206 -12.221114780924846599 -20.065716224756744879 -22.6746581853541187 -21.834922191750330001 -16.136084441086339325 -16.910500259169076287 -20.734471831552156118 -21.050371915016306446 -16.778608435689584155 -23.508473382185620437 -15.891349586187168086 -23.626094894704717575 -22.751103628934917111 -18.36274360389132454 -16.1963257287564808 -23.018979944408272331 -16.415241146557740137 -19.352219368312077563 -16.241608861363694416 -19.986594431780400072 -19.089940428953653395 -16.633959212138499595 -12.409365535766381683 -19.796975397256982632 -21.63359518246144475 -9.3261134743651226131 -17.698644683977828862 -18.627242683638066012 -23.109877478885188395 -19.091136598988875051 -12.44444285446772902 -18.181403516559246469 -17.85407438636567079 -21.452397878752663019 -15.697564358021203645 -17.934663045380709434 -20.762936999906102642 -16.693785619142836651 -26.268858756179071179 -19.84819406988174606 -17.067825031912050804 -19.609585560926934278 -17.203187219624844317 -17.480222416458651935 -24.356771509520754648 -19.519543837948454268 -14.741732879828738589 -14.074247634898576109 -16.731558828212818923 -20.698120913921695063 -18.892836405390106336 -19.469675357555242812 -16.811521699781330597 -19.822859465896300435 -19.486844451778495113 -19.803454442133947566 -16.066555431569987888 -16.311485993962307361 -16.447492073818128944 -18.829323675254943993 -9.9627670564360837346 -16.291217879013011327 -23.744379584788582349 -12.640165100630074591 -26.17196665603824357 -15.314956072617107452 -16.032545997027440876 -12.95701481183996151 -11.391271252110954038 -18.823949344294966579 -21.331250740028078638 -19.581767955550784421 -20.290778980134110299 -20.520197232779835872 -16.901166382024744195 -21.793007177940875607 -26.790824508884135469 -19.013021714214787039 -20.455188071134354999 -26.607453416248912248 -22.103100070882671702 -18.349317679619904453 -18.019491845812414255 -14.080508585982057568 -10.676704689276833804 -16.990483666131499518 -28.74932745557720537 -19.509467410523956943 -20.673541844860569228 -15.009798476145363111 -24.113992584921000173 -23.154743346174793572 -13.758808189822591572 -26.911451604670162396 -19.30415055382490408 -12.808276509180675617 -21.17409281246431263 -12.613646354488150081 -16.759162994260176305 -21.025007544129728387 -22.710154811918076945 -20.715862987703211218 -15.745387777010211749 -17.337012069289528426 -17.881105238789380962 -22.685053410136411856 -18.788795328238748539 -14.765783405309612419 -20.360325787091760219 -21.867177169899804312 -20.135756514942357853 -16.040817105470352999 -17.650796465428971516 -20.796516909631691306 -22.583343746466489677 -20.872950348332881987 -11.920774779515053154 -18.932589076061564271 -10.79986321579515085 -13.753448146389779083 -25.069508400591530517 -18.086227855902102135 -14.895898380763544111 -24.246435637846914801 -18.906904423634461665 -23.07804289143025045 -14.000807994824624458 -22.117014297504418607 -23.113550432180495875 -10.67289126507617425 -17.035757058653366869 -21.847951943075241132 -28.696017464323567481 -23.60977874547299038 -14.808000563901604352 -14.480426517745630832 -25.086256440643449395 -13.02154917979515858 -15.038672294512789307 -13.438647612429713618 -20.166235160014473138 -17.889828571975044724 -12.605016350139885972 -20.445607098866439344 -22.820680004300118782 -15.5295822009835085 -19.160100874921546676 -10.127612758937928561 -13.595679221486600241 -22.963086365283079004 -19.772345439179165538 -15.889988816256192194 -23.947160351432337677 -23.16510751535657775 -22.160132288389146282 -21.023231743156038931 -18.977776231474962287 -12.932355360564132596 -18.693582474802440174 -21.724877197562229014 -15.380024457326035403 -22.187053717245497353 -20.020181618390576972 -17.708977328808153118 -18.010094698396422075 -19.333728806804234779 -19.931592009852845848 -12.403173793063269059 -20.659692506602990392 -16.632405433242801962 -22.162025305545498099 -15.695605917164535015