129.12044097986995439 124.41334339971824363 119.23264854826780379 126.20120611230878183 130.90012220546682897 123.50018639846020108 129.02537190734511796 128.44847109792533502 124.01270828923267686 132.89175747422780205 128.94735816528884698 127.80594686357827072 126.20769439782372956 123.35807889325117515 133.07213982101831107 130.42191484009899227 122.49384366089043397 121.84501060400106098 124.97321915318747187 123.91717108106678324 112.24284797850702944 133.34038920579587284 127.40280347686484674 129.39644475277884794 137.49530997003029142 126.51281160642044199 123.49286894260740155 135.48479868765915057 124.46727336811699161 131.08025419760633667 130.57679220004902731 128.57249751134949634 125.78324829683757002 126.26864085570046825 123.95647766449405935 128.14618246402929458 128.38550721877163596 129.74051235873716337 121.98076330300183656 122.86476880405751899 120.39851199850986063 128.64504545465536012 126.41299386164902785 126.81975213343442022 129.87211368190119742 122.33146410548300764 124.78373093612390221 128.53221973036335157 126.0944660385310101 123.86463804915041464 127.38331328104614215 127.12972304169487359 144.06399459657777129 133.61766385016505865 121.2275585087903238 119.08488243974919385 132.24332357269065596 123.51162029847318991 130.15340073536151522 119.68806216338211357 126.66863372839046065 127.1972999126843149 120.29660254503876615 128.89097226623584902 125.08665166230659338 124.64226413450003861 128.57683434404668787 124.44435278708280634 125.90899852300914574 124.9880752018859198 116.27986574568132028 132.74900121017697074 125.65004721422342016 125.81753125821309425 128.77469568686137791 122.32455853800395573 126.6770737526388757 137.60119277783977054 124.92849436064854274 125.08954328741685913 123.71506200691321453 119.80293955400047423 128.63241397375895758 132.31087592245521023 125.87100039140125318 128.31167052336400047 110.4271478823849435 123.62170453087728106 127.17939593874399407 125.94349239362178139 120.52940872801768535 133.29212496783000574 126.04817107245973773 119.54569673589654144 131.85802543109565477 122.95554748459596794 126.78179658705728627 122.55335082143351144 119.75176088809658381 130.3428210760539514 134.3830650045948687 117.0502400689100142 122.7954567449838521 134.26862718235292959 126.75706592887352997 133.44912093289266863 114.09857959926605986 124.13512271190950287 109.58821742009726563 130.38653777941087242 117.0603929821883753 124.11438056965893395 124.08575164216463804 115.54518683444821647 122.26102975146299912 109.37017139656498443 117.86636409392566804 121.95204969998800948 124.35796447316090507 130.44810093416558061 123.38314979697194929 119.95218559681852355 130.3117938253186594 125.93289732219706423 124.41629454767081597 137.19921895648599275 124.16846585152380555 118.69571934069099939 124.68853040985567304 135.18841724261446302 120.09652740746361133 117.42812261059285106 114.44444787636049909 120.8209417327162214 128.02274312624476238 128.89065282851018424 135.40027268482225509 114.87689821802615597 127.56578910309981723 128.15779260257838246 109.83402922066372298 126.03255953085283636 122.58613104497435131 125.7228030125560565 134.68169602035962384 118.1458796640127531 122.77624458719282075 124.49474983853781396 127.39093471793324852 120.82093818421371623 132.76984565405422245 131.92534129864290549 117.55324503294470162 124.25993259765476751 123.68367422404085687 131.85253106525988187 124.55249858316291522 126.24820708993871676 131.20001408174604762 123.69909694887641649 128.09307212752793248 131.77192944399527619 116.08786300397248681 116.76965342213681254 120.5036533999290782 117.82839004699572172 111.20124845366215993 133.77074091212060125 119.14461899078021645 125.70952618153918934 122.22333117968052818 114.19320234218569965 122.12825415839104437 123.90783722262906963 128.67455720616013082 130.1422388628625697 116.16774392653354653 123.78150318705253596 121.75001911001200483 137.17627688059675961 132.3644627195862995 136.06786851650670656 125.54027334908982994 137.22807158962297081 128.29231290211325245 123.358773626604588 131.24681935124959864 122.71120410075963036 129.36983664327019028 122.13663607480978612 128.70449701546621668 129.6608126542265893 134.48535257517553987 117.09130390148838785 117.83103832516634668 134.58459797454094087 115.87574429359402473 124.51319640856132764 128.71374587342347695 114.60704699548938379 121.8667944665033076 125.16396845503717827 127.71921634589655525 135.0381046626889372 118.34548519473324291 125.90309804735169052 133.56799775930892338 123.6538137022232462 132.8768269531532269 130.31217295246642607 131.18928981696009828 125.30584376885828135 127.2807822163421605 126.83828927603771319 126.50255186891649828 129.28736945741033537 129.4959617765576354 121.28044821675938181 114.92706979352881547 129.45877458329940168 126.23762339584791903 119.62998472992426002 127.69599675304606023 119.5353799985346086 130.49211962637190254 124.82052899184050432 125.48152981770309111 128.26426558736253014 126.78299386726394005 120.09836332033661677 124.02164229334753998 122.68730072279993237 135.15177002505615178 127.12962838897210816 116.33696988924059212 127.01924452572538371 116.52689430005850113 126.51800012743686352 123.68609647756547076 122.67858565539172844 122.05113490774013485 135.67558341011962852 126.48580381918904436 138.83496806975492177 122.17390282756512931 127.00989465704944337 132.72169057817569637 121.50383750706383523 130.97633924066789746 121.97825138467582917 123.12592998116399201 135.53893976491585249 129.92002657188643866 123.13412499208712347 116.0532092542339484 128.83549387105583151 123.32552374093175729 126.47461311153851682 116.80496630245744427 122.31904482598417871 128.67656956780587052 115.15763944523027362 128.30260215565570547 120.85491400248317007 118.0543589972327112 126.78957739136355087 131.52677102446054391 119.80111867316654184 124.80644218507693211 132.11479331590899733 119.00303195291922975 125.36581548161485955 134.03166535592336572 124.76618934430818797 125.00774704773505164 115.9329287408138498 126.05672865519014181 128.45056857620758706 116.40087223547925532 130.62266435861045011 124.78766794657887829 125.36787778055163756 127.20737933128137342 125.01203342564339493 134.77147630358382457 126.53078309908747201 124.66397587403812963 130.19903316013528638 131.9261477870713577 122.17078308420734345 136.07865562394812287 127.55068991998386707 143.1264664226492016 122.18499909958295291 136.42525480465963028 127.0426421593722921 129.77036376103063731 136.2137095931024362 123.38961421188227519 120.31627246263934694 116.90256483084755246 130.60673087893897559 122.96387555611957509 130.36916158336285321 135.34470005747857613 129.82094417652237439 123.18467986611274512 127.98790357752555735 121.55376427833959951 137.07352741335230917 126.73594876497452333 133.53906347594440263 116.42443465074433107 126.80775349503134919 134.17365550504038652 117.40327000022338666 131.76041865887336257 121.33534710452059358 129.57576905965152037 132.38950584024357227 125.27063425846081657 135.69420365408822704 127.27934825689580123 112.93367226387290714 127.64358677237815698 122.58369346412355583 128.67509153526407317 131.41335769386469678 122.36154864202430304 125.11860379755539441 120.12449133180439276 122.03042343547809878 126.43981598269159861 120.90303898372658864 124.56855861415843378 114.50035276328765121 124.3822966776614436 123.9630589518091881 122.46505607843093344 122.29883310523874229 119.5187353826556631 127.76537497768394758 122.53015398885835907 134.34072899553586922 125.49246570327532879 133.8712676305099194 126.58173888959387909 130.36613744302161422 125.53449342564650237 128.409773414769802 127.51263455255420354 131.67364348502536586 123.28897181180299469 125.43378422892725155 124.33245609374773721 128.15602487868659409 115.38425112027734087 118.08016618443190282 138.6756630222153035 125.62529211394893025 128.74437087062398177 129.55600839215364317 125.85558130624825424 125.88910328039987974 127.24550134080821806 121.17735085150209784 130.57124052944641335 119.42111913915911714 132.35626127594355239 129.16575802082547852 112.48813645829937968 137.62761307744793271 123.96078817148314499 120.11667018422852493 117.65409314906473526
-1339.6407737709985213 -1334.1401950581780511 -1335.0421602964117938 -1354.3233043355633072 -1336.4218170309159177 -1361.9121068003594246 -1332.7464215987158695 -1327.1144203165463296 -1344.964840509606347 -1322.2451898899651042 -1344.2969749516853426 -1348.7509723779460273 -1353.7649518047985566 -1335.4633264803467227 -1341.1206754891675246 -1325.4916712582171385 -1353.2057253679672613 -1330.9115353100430639 -1348.1296701903856956 -1330.8318553235865238 -1362.820952637692244 -1342.5271440556587095 -1337.0983836324912772 -1339.6748664987721895 -1337.7810115251963907 -1323.1248884842082134 -1350.1790679037098926 -1323.9223080398755883 -1329.8952104658701501 -1336.469456893796405 -1327.3650724922870268 -1324.9677645469630534 -1325.8831170828625545 -1345.1700124777455585 -1332.7912304015965219 -1355.7668470085079662 -1333.9390616422317635 -1353.4684017957408741 -1342.7232924436343637 -1326.6666958110295127 -1339.9348876728186042 -1325.2155916026390514 -1342.2503340172313528 -1329.6190052654528699 -1341.7133284840829219 -1341.3918920328794684 -1333.3003298907647149 -1322.1487943865411125 -1337.1039392324780692 -1328.242601657823343 -1352.5678828384434382 -1349.2575847482271456 -1321.6834612843870218 -1361.8734325573134356 -1340.2917175223726645 -1353.863695953394199 -1314.7537145370718008 -1346.5199609685212181 -1355.5632934592219954 -1338.6938998336470377 -1316.4025238036967949 -1318.5455714194692973 -1331.0500972569022906 -1331.7234632333786521 -1332.8731383798808565 -1331.0492557408256289 -1345.1206183662775402 -1338.4962481409163502 -1346.5184159970658584 -1337.6696071049971124 -1343.434085722617283 -1364.2676042776461145 -1335.4345108376367079 -1330.9918635151509534 -1311.6270594522211468 -1325.6376437266339963 -1330.2005003491901789 -1335.7565387312631628 -1332.197768018142142 -1322.1925146150936143 -1337.946949534780515 -1348.7017373879871229 -1336.5729863743081296 -1322.3884850254457888 -1344.9538590704607941 -1348.0722982271054207 -1344.2609445503924235 -1359.9280181014746631 -1328.8611207396777445 -1357.728896825859465 -1335.1938751648140169 -1322.2229962218059427 -1341.7482307686691456 -1327.2857629812633604 -1349.3610192910234673 -1340.0481549154621916 -1312.6557483850403969 -1348.2633698162633209 -1360.4509835354199367 -1364.3480370039847003 -1319.1120754297971871 -1346.7846084557288577 -1339.5811686122440278 -1353.4325795364034093 -1328.5397643944609172 -1339.4036872620092709 -1344.9165699205643705 -1347.9864209539846343 -1339.7125910118502361 -1332.1961940612036415 -1331.1051724160588492 -1373.3625236031537042 -1332.8459597626876985 -1323.4122939569456321 -1305.0278461934519783 -1354.8322415821803588 -1340.0918576317151292 -1327.7142674085287126 -1376.3116209247832558 -1344.9089214162893313 -1342.1270819475059852 -1334.3666053201343402 -1333.2222524830920065 -1318.2062477105903326 -1353.7603356560211978 -1305.7934607523407067 -1320.3881770958403195 -1318.2378400196716939 -1334.6972989597354626 -1318.4196432089725022 -1339.5269760636517731 -1339.0042096268191472 -1350.8945018165770762 -1323.390727916378637 -1334.2580218720690937 -1344.217085869425091 -1313.3598194348264769 -1351.5002965089495319 -1358.4120019361043887 -1323.0329243354335631 -1328.7067512664123115 -1352.732797203883365 -1317.6797779316775632 -1347.0166444733247317 -1331.196176956217414 -1335.6702116486876548 -1338.8534828444546747 -1352.2678001039616902 -1330.1321944457247355 -1344.9810619357690484 -1347.5605431418985063 -1343.4753888465675118 -1332.9083131754262013 -1351.0307253304711139 -1355.5366805558137457 -1347.0222420020822938 -1348.0838374832032969 -1345.6719406532236007 -1347.7180494458439171 -1317.5974767372526912 -1327.6104368683531902 -1364.3818899301681995 -1320.0333607454931553 -1333.1409212632884191 -1366.8258538357604266 -1348.6226247539004817 -1319.6586384316228759 -1330.1690224249068706 -1325.6459406714468514 -1309.4522962083619859 -1339.3669983124807459 -1345.2131797474944506 -1341.0726546004432294 -1330.0670292526444882 -1330.2165408653504528 -1351.8559516471518691 -1325.5950133962660402 -1340.57232507075787 -1301.8125725272630007 -1350.7264306252977804 -1350.9294093491478179 -1330.7992046691613268 -1310.5306077198149524 -1331.3344270774969118 -1337.1178042312465095 -1351.7530303273790651 -1333.0548384207413619 -1323.9233206130043072 -1329.4967450345784528 -1351.8273245773505096 -1367.7600908406111557 -1337.0502084112072225 -1348.4883660364694151 -1345.0995770918350445 -1344.1397503792356929 -1317.8291011025801254 -1333.5348402680144773 -1367.519291845979069 -1338.778298686680273 -1328.9668536670446883 -1340.5769693901227129 -1305.6257403984081975 -1337.9293812435680593 -1336.1333193007567388 -1345.0468682645691842 -1332.2279718505412802 -1322.7064783904540946 -1338.6142252514109714 -1324.6668638357825785 -1336.9519844577021104 -1324.4854634799360156 -1332.491789962433586 -1313.827309846171147 -1338.7789914947613852 -1339.2571317351025755 -1358.0447832719946746 -1344.1237931490361461 -1360.385877076038696 -1335.612125802455239 -1342.2915615934903144 -1311.9186427156498667 -1354.5308165934832232 -1345.740463721677088 -1319.6387030652176691 -1316.833885751511616 -1331.0058033062837239 -1335.2803344393355474 -1332.4247690917593445 -1326.0747417861309714 -1360.4720307234388201 -1339.3538802123200639 -1322.6198646948532769 -1355.0333403391455249 -1366.3916116427531051 -1347.4816639839352774 -1322.6457141729945306 -1325.5636727213816357 -1341.6244044578884314 -1334.7937419492247955 -1321.6713447013155474 -1340.1840321625677461 -1340.5618983948434106 -1315.3488356141167515 -1346.367515564116502 -1365.9036514003241791 -1319.3782467865232775 -1342.0189886861417108 -1318.2260440445061249 -1329.4003504972160954 -1342.1473692103095345 -1315.6514798191644786 -1333.4328813362251367 -1338.0785473720848131 -1368.1628311386584755 -1330.2336930196729554 -1322.1637758249228227 -1333.174881484931575 -1334.7127183312738907 -1348.371235727707699 -1344.6655064944279729 -1336.2818898229875231 -1351.3807305597833874 -1357.8428285672789571 -1328.6116676542944788 -1312.550410251996027 -1333.5132389934406092 -1361.9917257597519438 -1337.6218633082205542 -1367.4758967637003479 -1349.6091127449869873 -1352.8367103587477231 -1330.5462940778702432 -1326.3642752366947661 -1345.2070199723170845 -1332.2575912008123851 -1334.1007181617619608 -1337.6576553751128813 -1338.7411349710328068 -1333.0565762896208071 -1337.9505885191683774 -1345.082339603721266 -1326.9867647315659269 -1347.179682583700469 -1317.1136993423879176 -1347.9723923325657324 -1345.640723564134305 -1334.4667188973696739 -1331.4135106747139616 -1325.6180476177730725 -1364.6782488259932506 -1366.9442199083441665 -1345.0287351445601871 -1325.9351148106613891 -1334.3092618511434466 -1308.9027950169795531 -1334.4245301247208317 -1336.0406334318954578 -1337.6396568471086539 -1352.7791351637958996 -1347.3739070243238984 -1325.0852754478310089 -1337.8536812844724864 -1331.8832371703540502 -1337.0183954112649189 -1326.9590185065867445 -1325.1714226376604984 -1330.2527489113488173 -1342.5515746437888538 -1339.4142693114981739 -1322.4873512956601189 -1331.1483577385706667 -1344.2734475650340755 -1339.4642095950071052 -1341.0495313095070742 -1326.1888847117782007 -1313.7249151164396608 -1350.7562484672814662 -1319.0137946587160513 -1336.5339844609720785 -1330.635637986378697 -1301.8127526829257476 -1349.2979706699898088 -1352.7550201058520543 -1326.9276825905235455 -1336.2632941454266984 -1334.5309732769690072 -1324.6067790286360832 -1299.8305841843300641 -1330.4883333492805377 -1325.5007827751280729 -1342.0607900711536331 -1326.7348807885953192 -1338.8639285237265995 -1355.8562018235941196 -1330.5851458059948982 -1336.3241784251786157 -1311.2777205745985611 -1336.7666324277352032 -1326.5130280079631575 -1317.4127084796079998 -1341.4044746503507213 -1327.365354615699971 -1343.1263249917178655 -1312.6990339702092569 -1324.0279395274621947 -1333.9800692287324182 -1346.9315209367848638 -1330.2642948149348285 -1352.4908210083801805 -1339.6517240491984921 -1331.3712426977690484 -1329.3249926882685941 -1317.2701059057692419 -1324.6257738407007309 -1347.5623166685188608 -1336.3578644199030805 -1328.8677850549406685 -1338.0044770501137918 -1324.3464614441049889 -1348.7412755496256977 -1349.9517468639996878 -1346.5187764972768036 -1339.0695401181878879 -1336.9395853421676748 -1374.9607319676049428 -1320.9943801704191628 -1338.2538384785045764 -1301.8921036773649575 -1336.4525440423935834 -1333.0547511908507659 -1315.1396747967346528 -1323.9195439710147184 -1314.5948035233286646 -1340.854323739808251 -1325.6616124934157597
994.08505246791924037 978.21162516223171224 980.9764003531055323 984.75594835087906631 987.51103889032174266 992.74463031521815992 990.99035900329533888 994.65588893248116165 995.30377308610138698 984.88100151024650586 980.26461825698413577 981.69674868658671585 982.49060800684981132 981.6803319639042229 990.27373292548611516 985.38468577140633897 991.25530882016778378 986.30699486421963229 974.88403310025330484 979.80730917215635145 1007.4935583550947058 988.17964129666586359 996.9342847572016808 989.30119100474189509 1000.125380165538445 989.92292594399339123 994.15960477899227499 978.80478240512763932 982.55793850461304828 984.12945216631078438 983.07013148529949831 977.66756432101851715 985.55353479049756515 981.54796741049631237 984.04231222311034344 986.61881534285112139 976.99863106462601081 991.53401950568638767 985.02413904666173039 991.30070053035251476 979.57984761194563816 990.7334334822709252 996.40895071489478596 985.28680609836828808 990.14574003515815548 976.45806429018000472 979.38143698803094139 987.19682346373974724 978.06803522969244113 976.30613276875430984 984.1928786831006164 986.25356110102370621 991.76988086506742093 985.6132912320667856 991.17685994361727353 987.62419082689109473 987.75992812472293281 993.55834597535999819 975.00011852595036999 985.98222882365530495 991.56735749402650981 997.59971964176133952 991.82623743976284914 989.94648541350125015 987.01221034205343585 978.91660514908176083 977.47382720631969732 977.81971923806975155 972.94594236127250042 988.60525281840045864 978.42086680500813145 984.04421781086318788 998.12197655907141325 993.24250906295685581 997.25078287521284892 992.42117207128853806 992.53388231946621545 993.03101697215333843 986.11060576018167012 991.45292950482712513 983.79881630792078795 986.67623963985192859 970.94815785461207724 989.20134323436070645 976.33441095713260438 968.04559318605618046 965.51874533339002937 988.42722799862463035 986.58316229724380264 989.4822617069229409 1000.2579349452021233 985.19586566992484222 994.78165544798343944 976.68870602622166643 994.39279464683454535 986.77038054816000567 997.22751560429492201 989.83676681804911368 991.19709398801353473 984.90112306349419669 998.26540589321814423 987.74566323876672413 1000.8524456341052655 988.53820705477198771 984.60498602281165859 986.17976335127684706 981.01359304952939056 991.31791779918273733 987.82882378161525594 981.68880386657974668 989.27751076018569165 979.57652338469245024 987.42526056646681809 992.22372768525201536 989.76828384894929513 994.10120971366313825 992.19912593811056922 991.60201943023082549 989.64132395850617741 1003.9026112035114693 987.51472646964111846 985.34530048099259147 983.06736620709295948 993.76103965297568266 984.32146446768615533 988.2537182344581197 999.55402010941077151 975.72060047724130527 974.90166297452299204 982.700075716615288 973.38894928470233481 991.91892300053143572 983.27967393316976086 1001.1204005218518205 982.61102905277198261 1000.6544380048471794 990.79309220896527677 996.39215786605836911 992.00278433566802505 998.49087904702184915 988.92638083076803923 980.07748868728037905 995.12677921684519333 978.18877903097688886 982.74211586516537409 975.35845331625796462 983.35760137924160063 983.81607961619749858 988.65987386629547018 985.35652363051462999 995.57654451928635808 982.88669577143139122 986.26791211518946056 984.69496810654800356 990.04394142775072396 993.89129494950304888 999.12270574092008246 1000.695321367175552 998.14467540883890706 969.80484018426318471 974.63671481346068504 988.71361523239454527 982.0106879116865457 993.03336215655667729 983.94362347387834689 989.1006959292620877 988.65270582870948601 991.32999725547244907 996.8510537875083628 998.18475750574657468 990.90757708706496487 995.03078261750454203 996.33869888916797208 985.05228954526762664 995.24595308984578423 983.86920971743643349 995.92213292150620418 991.37138218244706422 987.20400150948944429 968.65054176505896066 987.49854749268536125 1000.4877647450559834 989.23575055870537653 995.84864513870581959 992.70787151538627313 1001.937140335282038 991.35465226746214285 981.57441056827701686 986.63952373932568207 989.00581649876085066 981.70574737535025633 981.23197508137377554 999.82254328965746026 992.58474289877619867 991.12135935675667042 993.06868862128817455 993.28908843351689484 976.80751041488622377 988.58111041039671818 996.57136241554064782 981.54655875487071626 981.13057164266433574 993.83449149118735022 990.11490032302901909 998.36930500153891899 979.33610661964451083 989.75661146853622085 977.82489507752063673 992.9833929401415844 989.28563113886082192 979.81060819065294254 986.40560012071102847 984.99617820828382264 993.74173653216575985 991.92626454668095448 982.24992579880233734 990.84375025449105578 976.01347394479466857 992.19858992842864609 978.16152808147876385 996.83566012935523304 993.96871016178113223 973.2098890832160123 977.69190196458418995 979.7803251701687941 1002.8381075812441168 993.59830772442080615 981.15023079495028924 980.45985792429303274 988.36846222546512308 988.1804376391473852 978.5863169540796207 971.36439886830123669 982.17978855520209436 979.23844158499457535 994.47492608227332767 1008.8606260554353184 978.33452569058783865 977.59823485938079557 982.38574414094489384 980.04812216481673204 980.37902876055693469 986.75705016025995064 1003.762736862396082 977.68512042912630022 992.97825544352883753 991.23191346308692573 996.04836937973084332 988.2129833649014472 987.34865665515383171 996.92336986636564689 971.32436731243012673 991.01666407167112993 983.91615665139715929 989.06097364878712597 997.98119106687465774 989.44977977126234236 982.33071725487025105 984.36498044822440079 976.68074904533057179 987.06392342384117455 965.95314434012311722 987.05161794784032736 980.43008936186117808 978.98158529441730025 1001.9098932345675621 1005.1496102509910315 979.47636857253655762 987.36491279584049607 998.42348109372289855 978.24219334951612836 984.15116276218680014 984.75424913990468667 979.39372216404490246 997.17897941795274619 993.65563188819737661 982.56830079023654889 977.24635993159631653 991.38169138301861949 971.12217251978302102 994.55709457063153422 996.59411472827389389 982.32328747230462795 979.62604358295584461 980.12879875571536559 990.83759793850128972 1011.2495641731125033 999.1332599678984252 974.90534933134608764 983.61386991215294984 975.63147038425938717 976.38317199427285686 983.65907351060536712 982.63088913482965836 978.75119901072866924 988.30594374033944405 983.11507820736017038 989.11009581461132711 976.78740968619820251 973.88034577315625029 983.09917369912011509 989.36101230884105462 993.41225304009287811 990.20199342350110783 984.02605297479624369 984.17361466124930303 990.181138015552051 982.80735476622839997 982.40700806267886946 977.80689166288038905 980.26615116524260429 991.1117138085771785 984.92691682012923593 993.00689671502186684 984.75528085623864172 995.27592619117331196 996.06275553798582223 996.26251661367655288 986.81171076858049673 988.44549307698025586 981.20284186850346941 992.98950217737535695 989.87467521545590898 978.83365118417850681 984.48539509240310963 984.38920234821841859 988.52667788654378001 985.25856727754182884 982.95612578794089131 990.28712632625354217 994.54086384251775144 987.22275012725913257 997.40708714877462171 983.76297532768558085 974.02948099688740058 994.96788333515132763 986.22394310609968215 990.68977391495604934 978.81014518533811497 984.55436707311639566 990.36892217532908944 986.14187244104891761 999.7752149215098143 995.21614027580972106 990.75094774944136589 982.62049374476816865 999.24285658361804963 991.16219779172786275 981.16595543697485482 982.69286789017712636 991.99105666400271275 976.49520016129588385 988.63852700896450187 989.59510580448898054 976.08126209781391935 984.39114451343948531 998.24300648002144953 973.55220490684405377 987.55600514706804915 979.07565605566003342 979.75949478286531757 995.91396003695831496 988.94795763914146391 980.90256740548932157 981.68652672966061346 987.36088388140831285 995.06691915590852204 986.02744167007369924 994.51036294733103205 989.35675307337669437 992.06662730832829311 978.08666709304702636 987.91282459686181028 985.35777754943012496 972.75929260803331999
235.43314036093735808 221.48174889459232872 227.39744759089131776 229.18733761197961485 236.94359351191104679 229.86755669108296729 221.40745859448617239 219.11399498247786255 213.5718834263117003 231.30797766908273161 222.26679241431142486 232.78206801124295566 235.23955147142396527 236.81170221441567492 235.39393928575222503 239.66245666337724174 234.08606652820705563 230.83363254371218432 222.90081182389047854 224.68826863124192528 227.63772126805145035 225.17828396147973535 229.11324992500775011 239.27267355464894649 233.76754982844636288 237.3342618615628794 232.76255305800850692 242.31068658035357544 232.65677583786387572 229.42915400377154356 228.14400694100669398 236.51273823080319403 222.48284621039789499 225.53515675385256145 230.49830684115042345 231.78062152566153031 231.44771521911457057 222.65684143831657593 225.78298000275034951 220.67993516564339984 224.37344776605746688 228.46397756924102396 232.94377293865329648 227.01345700455675569 230.70756660486392775 224.60938031378728397 230.64397452318465298 226.46939359766599864 229.11171438554038104 227.80649760941977888 227.92342526037708694 233.3886717744935595 228.8708292513882725 240.7295869146700511 235.08499311366927031 220.18845317283594909 233.3853487506213753 233.13548659395164009 230.14477273592228812 236.24772624769980212 228.67193663999182718 225.5922438538953827 239.45161542769173479 230.39627470397601883 229.72387368236047678 239.58522065296497772 235.26176090948536057 228.02338161836593144 227.32724391523464647 217.46493686332857465 223.97696298616585864 222.65361614952101377 231.8965116757567273 224.00803149593329522 234.70591720249660739 232.6474147200960374 230.5311379719922229 234.81566057277126447 229.17901465938845718 228.70329805524326616 237.0627172268937386 236.83344961078230995 230.09618743541591357 227.8515002362672135 217.36926586309866138 232.88458695052696612 221.22857558340999162 229.89301734428846657 231.73187634467507223 223.39954295956840724 219.92256064604902122 231.05402189289375769 225.6590398063880798 233.63679170907315097 225.81802088012352669 231.72372183683052072 228.25466411959192214 234.12511178157845393 228.22048244475274714 232.71178464574188638 225.26740389239131446 217.75915256546088017 232.00238308667155707 229.22752619223462034 238.36455979910840597 225.1871889731687304 223.03924558754758323 227.04933782500600614 233.66938008286993522 236.7869372455737107 232.83933489760002544 230.52480585320913065 219.84773494820120732 224.62120118773228228 222.03247424693077505 226.88718376478340133 236.69658361561457127 230.68527261983305721 231.68154852051372927 216.8691468274009253 228.39457382219623582 226.77816848869443334 225.83983374504799713 227.97039639890425633 223.80247495644701416 230.66253500443832536 224.77588964932212434 227.69677859425647171 230.71878450362100921 234.76534732706727482 227.59579485529016551 219.07318985337150252 235.05590581097553127 216.93387983565853006 235.89336843516258568 229.94381514039073977 223.99446177079411768 230.7570585107129375 232.49084464753912016 236.19963905946076466 228.31238662199510259 227.61934134732447887 223.08089670255992587 230.63286030732291465 221.18954180107942875 231.12692574703842752 232.5112391432712684 225.69259658943695968 231.55309273370832557 235.79404833262884722 242.6300860822743175 231.98231738281953085 232.11753549824149445 230.73725019287422811 225.16057025151437188 229.32678106147781705 225.0678212365814943 235.61385308488632973 227.88777278851159735 231.75569091290930146 240.12871357324030441 231.44341289656762228 223.90494108060633494 227.8874697983855242 232.14447691380013339 213.91807941766742829 231.77438433601847123 236.90593786679264099 238.13970102270957341 230.51121396561700294 229.28959766841182955 227.54803478937247974 233.96419618333504786 224.58092085208710387 224.09210380661420459 218.86879236153183115 222.33877345379539747 232.95857387275560768 224.46781286310218206 228.68922680324061503 235.04040817562994903 223.62359680219793745 225.80688389836643637 224.7129998232362027 234.28504573218344831 225.16882004887514768 236.05380414704313807 219.35154904836414858 228.79424413452022691 224.3949350255566344 238.53250535797013754 230.19695872594047614 244.52490343632300096 229.20143089619250532 232.40403407220159693 227.78521737982188711 236.90836892180897166 223.39387978265781953 244.36183762150807297 219.44123708645702209 219.79991497307187842 235.60801838557824794 234.24179126884402535 222.57671991130337119 225.82127064750403633 230.42379211078088019 231.04645284893652502 232.98954192596622192 239.14418417563766184 227.27321023122613042 234.65583194581824955 226.38323229518869084 222.23277734740941014 231.39039419735146907 233.45678073238195793 235.09461926312198443 224.50288327267148247 229.72854040915834162 247.2383379639970542 235.46221104527975854 227.73180318646473097 232.16049923924583709 220.78641707659613758 216.26214472832873525 237.34546967862337397 224.586846515569448 236.06868712498052787 226.20385730780174072 232.32892693542243023 224.01976854401229389 217.84997718423889523 226.36070021496928462 237.83681617082021376 230.60038628752059253 232.02729015474332641 228.34322518033098959 226.61577386192297467 231.09488728411378133 236.22482454298074117 222.14272851403347886 239.80082756936221244 231.44163561967388887 225.68747494886090976 227.90482729156460096 223.87170539734023578 222.0424636065927757 226.71720537061568734 236.07703675289678813 232.77819330643112039 218.57640994191845607 236.86206025244786133 237.08488943057784581 227.68298286957940491 220.16022246940167406 221.35266134147582306 239.17004250735334381 236.53960535046726932 225.52732118798829219 226.27768546967533325 222.08109048137109198 228.85467124986269027 233.79037265773641252 227.08909183359199346 227.43476635292677202 232.4345936586998107 238.5484441800771549 223.79426548318818391 227.01961758294004312 229.17019435886285805 232.90557778094816399 218.15919870121140889 229.18320532800117917 229.00960678196909726 226.2884731452088829 223.577910085413464 224.65185107352826321 226.65598648388521497 234.27978806269041456 235.37031737233695594 229.29819239959195443 243.20376119449872476 237.46747982252000497 225.12583359362770352 228.09786837972268358 234.60724491546872628 236.73076738921449191 225.19549748685469126 227.65732667621409746 232.65674370834994988 222.45137109626509186 239.04118293786177674 237.53043008798917413 237.75458098769757953 233.44863238332266064 239.38456383636031433 228.75456845268598727 226.21089410326186453 227.58890658818049246 230.67744349701609963 230.4097851743678973 223.34816755242596287 232.67651340597859644 232.86663821747305292 223.26614069662025486 237.29289351041654754 225.30043632959470301 223.3697044297665002 225.3986523061181515 232.88684040714340995 239.73403705559164223 226.17871316886672162 223.92939605436782813 233.80853256965636433 223.38205746144285513 220.14653577244169469 230.88577374355287475 232.76392810877067063 227.29117408756897589 219.95712245582942046 214.83750932547744128 224.08801652016231287 230.16851597697566945 234.78609689748580536 220.32675725712130088 230.83855855138466495 221.28334662767062468 236.99841459168911229 234.11250009149210882 215.93709663367548046 221.36416869668451568 231.17232274110151025 231.92180931475925831 236.89633242346727116 226.04532674979068929 219.77172907530456314 236.82028852401350605 225.3657907012067767 227.94311829515629597 226.28186080500344701 231.52132970497308406 228.8804979300722664 229.88989017771046974 224.32346082589930347 233.58066950625544678 228.12396548022499587 230.16939958588898207 229.53918055925180397 221.08894738724990248 231.67225082633129318 248.97838985264951361 238.48749575923409338 223.56016518259963277 239.50857859331847521 221.09006244508262284 231.39361484059006102 232.30858618223663825 227.14310628382705204 228.58362281797525384 230.75203834387059487 235.94578352606424687 235.9570697092123055 228.44091070158040679 236.81210824179370888 240.41185236640421863 223.01137166116907906 229.3491711711926655 229.44853389890641893 232.81126601311032687 224.50100495223227881 230.81901015083380457 240.10769889250730103 221.0352853049438977 217.77942843283713614 232.07338088058895664 226.61338202762146921
-1528.3079286042695912 -1523.1037071571533943 -1519.8743128122634971 -1523.7415489076884114 -1510.3068234977779412 -1536.292217882758905 -1514.1882034777700028 -1531.5491545861684699 -1547.1287116713458545 -1501.1449215836910298 -1533.6195637219236687 -1532.1591631014482573 -1513.2767671739336492 -1513.980568213139577 -1515.5970798266162092 -1524.1781721629931781 -1535.1737876255583615 -1518.7450310907172479 -1521.1104270205717057 -1512.9958753618666378 -1532.9137659900761719 -1514.672719504138513 -1507.0532243970847048 -1515.5920286782127278 -1555.9819182812634608 -1531.5002951286282951 -1519.8594487468601528 -1521.3787107425241629 -1511.6313518662238948 -1524.4944736756167458 -1516.2594602437714002 -1493.2640343086832218 -1550.1647400108804504 -1534.363932037709219 -1520.3474231744394274 -1521.6068711782911578 -1506.9110122742795284 -1540.2431440328593908 -1527.1470188939197214 -1541.3973961638309902 -1536.0322447135979473 -1524.7916289599986612 -1509.666052993648691 -1490.9272043322534955 -1531.1788801343805062 -1525.1287931799329272 -1506.4898229171944877 -1528.657378820616259 -1527.9795055594556743 -1531.8146123892774995 -1521.6100536428468786 -1537.8973358139949141 -1547.505957082154282 -1501.3126214877743223 -1514.3115289641993968 -1532.8234150137298002 -1519.2184465085413194 -1531.6702335717909591 -1507.633528815043519 -1522.2439629795535438 -1538.526580118908214 -1536.4023024260545753 -1530.1796372557291761 -1526.0356519505412507 -1520.1579191827831892 -1501.6003528967223701 -1521.1703750110457349 -1493.5479577409778358 -1522.0605886616151565 -1513.6123413938516933 -1517.5894632355934846 -1514.929482632718873 -1521.9936673874710777 -1544.4719113693417967 -1524.0960798617616092 -1538.0004275192356999 -1517.1612589571902845 -1543.0333506907027186 -1531.7981161103414252 -1533.2171538371760562 -1530.0451324931702857 -1515.9450464769781775 -1520.8659424763477546 -1498.1602365959588496 -1506.5659347561606864 -1526.7938700889221764 -1512.7736978822299534 -1510.7920641759121736 -1512.2598532497954693 -1531.5091764391927427 -1529.9618537681483303 -1510.3126544262800053 -1521.2333222928020859 -1525.5303869903057148 -1511.3088492574204338 -1535.8594536734899521 -1540.339239113159465 -1535.7715050602307656 -1518.0264922843389286 -1515.8713358115028313 -1531.4471134360712767 -1553.5800616847027413 -1505.2815063954724337 -1507.4723952137969718 -1545.0197663450364871 -1512.8930268856922794 -1515.9992896033174929 -1492.0496858729970882 -1493.8018396239087906 -1499.1698791013770915 -1522.1315264104905509 -1540.9612441016681714 -1506.2397479938917968 -1526.9695133374079887 -1516.4578652980712832 -1492.8378002012161687 -1530.4199232640103219 -1509.5126883842160623 -1510.677059617773466 -1513.050854438530223 -1528.0707947070486625 -1524.8424513087425112 -1514.9079055586871618 -1513.1919628763653236 -1531.6369843287372987 -1509.77779235475532 -1511.7566334109262698 -1515.1400969105263812 -1501.7894200680830181 -1520.3558071447416751 -1508.81937479233261 -1507.6407468299703396 -1502.6464819464124503 -1526.2624478202242244 -1522.0932685920870426 -1524.5229345714087685 -1510.5364979904557003 -1522.7053105573954781 -1510.9508111967247714 -1531.3123795402825635 -1498.8914595723611001 -1507.1759569801554335 -1510.5266328782972778 -1522.2482697679733974 -1548.4072931904565849 -1514.5596687145439319 -1526.6321004346721111 -1526.0026190704852525 -1523.3481355675223767 -1512.551181796179435 -1543.4522780694319408 -1517.8674004164899998 -1533.7541690441687479 -1533.1997713678972559 -1514.0865655344657625 -1515.4871645446996808 -1556.9386759914414142 -1532.4688716870734879 -1524.1773668826624544 -1523.2079690917819335 -1529.1685944949731493 -1527.1085704029508179 -1525.5486704698503218 -1494.0044722491275024 -1502.637240622332456 -1521.2220357938813322 -1518.3222455503378114 -1538.8132055285016122 -1508.2975251223272153 -1530.1026355474098182 -1558.8404870573590415 -1517.5238482140430278 -1519.143194476433564 -1531.3861538231069517 -1510.5389096302797043 -1505.847557479594343 -1528.6797156629131678 -1550.1403638105716709 -1536.3729956569666228 -1515.8768105508315784 -1536.2646941743710158 -1516.0590440801529439 -1518.3297311581900431 -1522.1221830384886289 -1507.6361209508977481 -1545.2123418352193767 -1525.2226321144078156 -1509.9027376849330722 -1497.9442162013858706 -1510.9702555712676713 -1527.1264448722445195 -1503.4563853355796255 -1539.2710350433217172 -1528.1159916876833904 -1504.4831226904634605 -1538.6200748467135782 -1540.194965046111065 -1528.4271657256902017 -1541.3252312552658623 -1528.9619156659114196 -1491.7757697842300786 -1525.9020927442818447 -1523.7544375356910678 -1530.4043643498046094 -1525.2562606603489712 -1547.3456245915090221 -1531.4367933744658785 -1500.8951685422666742 -1539.3569204373152388 -1519.6673150435835851 -1517.2989940729191858 -1525.8177185476654358 -1517.7823900209464227 -1535.5786046599394012 -1523.2523464392290862 -1514.6408456360748005 -1513.8936485214603636 -1518.5183824108137287 -1523.6094379582691545 -1528.2781671912632646 -1536.2848927089185054 -1519.993475499582928 -1519.0414205421398037 -1542.9788269114133072 -1521.0095378741971217 -1532.8676208014842359 -1516.6103713357465494 -1496.4249122113826616 -1526.807063822658165 -1504.0785755147815053 -1498.0388609189330964 -1520.5765824268985398 -1520.3812743033317929 -1519.7535982523036182 -1496.7386487896576455 -1523.1227054864014008 -1513.3974394202275562 -1510.0780521994579431 -1518.5536510309584628 -1523.6818985415925454 -1490.1006734724205671 -1506.894951414213665 -1511.0605591607043152 -1517.1971912080532547 -1531.1428446284351139 -1533.5808837189085807 -1541.7044445807835018 -1516.9611769030937012 -1514.7726260263900713 -1502.8862356987754083 -1506.3219850234204387 -1520.6596981496718399 -1516.5721779674447589 -1518.888120275969186 -1523.8751126998183736 -1518.796126921359928 -1524.7863607246961237 -1543.7460136932941168 -1503.3805541902877394 -1539.7942472252584594 -1526.1667389792626182 -1503.6797105401590215 -1520.1580192497262942 -1536.5128694180043567 -1527.0762642728170704 -1508.4232194775208882 -1524.5080275354944206 -1512.834649230823743 -1496.5137799367762454 -1499.8818259572124134 -1525.383569905000968 -1542.9787605294839068 -1531.0731094453110472 -1526.3819478746095228 -1543.9198406678781339 -1498.8434090779198868 -1512.1858926487909685 -1515.787012043472032 -1503.1750796996875579 -1509.6047557021468037 -1507.0169163443265461 -1515.4021718851504374 -1527.6472224296128388 -1550.4923633589239671 -1525.9468447700662637 -1551.0872129131998918 -1515.4063860342655516 -1487.7224634182744012 -1513.0380114228380535 -1541.7167064875141023 -1533.5094387606613964 -1553.4529770926965284 -1500.7249239842205952 -1533.5895976743804567 -1533.0077593129803972 -1504.6464706739918711 -1516.9278781682255612 -1524.0791799504538631 -1510.9339911387919528 -1504.9339897191232467 -1503.2853842943809468 -1529.5731838195533783 -1538.6036435777059523 -1509.1755028975619553 -1520.3527813400246487 -1497.9121449173198926 -1543.7688227971793822 -1511.0063452965539454 -1504.1053430215474691 -1540.6114456637401418 -1517.7234616699145135 -1513.6537346202435401 -1527.7808603122443856 -1514.8254638668520329 -1544.6326951982343871 -1539.2167572224889227 -1527.1973985546483163 -1502.0788617503585556 -1536.0194630208488888 -1507.4395032047270888 -1534.3793579233474702 -1522.1159793520916992 -1517.9379309431119509 -1522.630019998438911 -1539.9043197824453273 -1522.6176765661746231 -1520.5044953791489206 -1526.3893552299985004 -1506.6951230994257003 -1523.0132088085745181 -1515.3011912573274458 -1506.9442525040381042 -1496.6345393868757583 -1514.3574673559658095 -1504.8579579222732718 -1524.0025717184239511 -1533.4627437019187255 -1524.2172265732310734 -1524.9571189040514128 -1515.5557981936799479 -1510.4674508644609432 -1500.0346311484063335 -1507.3002498361688595 -1511.3534155128611474 -1518.4739196903808534 -1516.2565133369946579 -1528.0800842642586304 -1507.8417107035659228 -1537.7629040997453558 -1512.3548965544441671 -1513.4011560058318082 -1506.4917338594334524 -1529.6536664000011569 -1526.8320400392651663 -1500.064363912974386 -1506.1704900949464445 -1529.6362808631913595 -1506.962905810676375 -1526.4794792845609663 -1513.3010679636083751 -1549.703458472524062 -1541.6188675484461328 -1522.6137260108366718 -1504.8279112388290741 -1519.638734793212052 -1532.5950340377280554 -1523.8582979729303588 -1527.532937663085022 -1516.4561832193262489 -1522.5521556501678333 -1513.4107340735040452 -1505.7770510584778094 -1528.1867671209154196 -1492.3178552327879061 -1501.5227512150313487