-266.75613051576056023 -254.48590033013465472 -260.8644037738643533 -251.46003250173649235 -260.72111241916451263 -258.53513861215060388 -267.93963724308713381 -257.38006673935905155 -257.38448112119777988 -263.69625315327238013 -248.33434576280009765 -269.17992980038684436 -263.93596813813979907 -263.31828756236609479 -264.5017405710515277 -249.95695551346477714 -256.55358749233403159 -251.74265577541254402 -264.71331668904304024 -259.24577490596118423 -260.50482930501812007 -245.46652174667590884 -257.95829540193574303 -265.65057297828440142 -248.99586037854550113 -254.64635411353464178 -270.88258598356816265 -254.81141336841577072 -251.23224245627099549 -257.56374608491836398 -262.57020918231467022 -260.08926876013879337 -254.13371250725316486 -261.66162849267834645 -266.95968940830448446 -257.86711932358730337 -248.08311722706139335 -250.95270153096910803 -273.07487235411383608 -269.63312127073623969 -252.72726768997469549 -260.686185657883982 -251.53890749113782022 -257.65895384024901205 -265.53210772192562672 -257.41613676686540657 -258.86063207508573214 -268.64370527384238585 -257.99448517299265404 -251.74190544272488523 -247.11453069725629916 -260.40757594381574336 -256.92712854985484228 -262.07355648857992492 -263.51393213895681811 -262.01898510708389267 -255.69148251821616213 -263.48217649657453876 -259.5102690921974613 -254.40542611132570983 -259.48043902466429245 -260.60533691265993639 -262.54194068192481382 -258.56485673249989077 -254.83625338665930826 -256.16435139585070146 -249.87635735605391574 -257.07442765477560442 -257.33067998687050704 -243.66725401663509842 -255.68402151352745477 -251.53151005314757072 -270.24144057851384559 -249.52584782893154625 -263.62670458935940587 -268.72997657392181736 -261.30292546477124915 -267.12014956881898797 -254.4324990180653856 -263.15616391202689783 -254.07289300491154904 -253.22041753481659043 -254.18365980636605173 -256.51734632063016761 -241.0064890842099885 -263.82328522249662228 -254.33637709028957374 -257.39253889259106245 -261.77731091022178589 -251.95085363471639539 -260.42178752543617293 -256.14864340747999449 -253.72673618253875816 -255.89869863265136019 -264.73492962247058813 -256.22259001811289636 -265.01654548557797852 -259.30944765769555715 -260.91162411807368926 -250.98895506110974907 -261.62435287038221077 -254.10132898221814912 -260.64185471591315491 -265.52767655277011727 -266.74114378214045473 -262.46046104899340889 -255.62359610690705836 -265.12902053398289581 -267.2519738234984743 -256.43671073795638904 -251.19114176712810149 -253.51627697682403095 -262.04129352117831786 -246.95690485163135008 -264.9661891070047659 -261.46776474505008991 -267.17667914438050047 -255.82771138450422654 -261.80687285265281616 -259.89419243875107668 -259.75646458009856588 -260.36224399634164683 -259.31946675045975326 -265.90255403936788525 -257.30016299671245861 -259.57195793810694795 -253.03860224702020787 -244.28376836231893776 -260.60224866789042153 -260.5044550713818694 -263.308777735839044 -265.61569695204559594 -241.15099259322226999 -253.48233842884982892 -261.94516926349109553 -257.86376619520939357 -247.52779299216754794 -257.08296694328595322 -251.64083456239541192 -251.18860599958716762 -267.40655333201181065 -260.17204678796201733 -254.968926676847218 -261.36276401064657193 -258.95910135426146326 -248.13025235476305852 -260.55721809612106199 -249.28053587454067497 -256.59871833523686746 -247.47289030548409983 -268.98520107136835122 -249.96164351516208058 -254.94770424560400102 -262.34142299969323631 -255.66207128602391663 -264.92174946727476481 -263.26888811616890962 -257.53683014534016138 -257.87384656823377327 -253.305424835216769 -262.03576980986844092 -262.9688306682272696 -253.24224320755493522 -264.29106165951503726 -255.57851598116255332 -261.45160269773771233 -258.47383381788654333 -252.37400161990089487 -263.49330924428932121 -267.72846482507276278 -250.86094005336514101 -263.91063020292745023 -252.32775088716536516 -266.84567138007844278 -250.51585462389647319 -261.32775407318899852 -255.7996925552777725 -267.03354735902769335 -265.17137133241431002 -258.4587274084829005 -254.6876711247086007 -258.20763917197393766 -269.5301916023130957 -254.87716127237911223 -257.90946798643159354 -255.54977285760568861 -248.16205355703246482 -259.89274222209303389 -255.81691038803035099 -269.95255822630025477 -269.46740681143353413 -258.68120132426065538 -248.49117495970168079 -264.63976255783023817 -246.6457724133571503 -253.51338925015150494 -255.07453677373172241 -248.73492168334934149 -251.33525537159545138 -254.38827285041597293 -257.976420994031173 -265.5601112363494849 -268.17907590185228628 -248.22637092978456508 -254.46172635417678976 -251.88837228060418738 -251.8573821244590647 -256.25635865427778981 -259.6789288214143312 -268.3740655949311531 -270.77896061747844669 -269.03307716713686659 -253.10025831296042043 -260.01287685008446715 -262.58891746226123587 -257.56363309013295293 -264.05629743289216549 -267.13774421207267551 -255.25319990092955891 -256.12204246341474345 -253.36040979526364936 -254.2400190046343198 -246.9144551692081393 -259.32368396698745983 -256.52526256695279017 -252.49054936181292419 -255.57957015677035884 -264.16769944530875591 -257.27563020688393181 -261.45084306978196764 -256.36974439613317145 -261.40015684730974499 -259.21992833204672024 -257.44431258691639641 -261.75095687208232675 -260.78959241106912259 -264.66884506008307198 -266.33714086749006356 -269.505050782210958 -256.49574622537915047 -245.96971968164646682 -266.59396322714820826 -256.78705997117958759 -247.4782895944084089 -267.74704466163200323 -258.20830073491134726 -259.39682635706049041 -255.90882250965685785 -264.27195075773130384 -267.78067870261025973 -261.1328666167372603 -269.35739466635487815 -261.60614827739345856 -257.43992236195998657 -266.0841152774381726 -260.39258743839297949 -253.5481838624062334 -258.30952632276034819 -257.34642134920284207 -264.6361326629723294 -255.32833095847789195 -259.92481926709353957 -271.4480701860775298 -263.05993113342316292 -251.75355033907766256 -262.1271476813199115 -265.14419412114779107 -255.82070154227170633 -258.13905785953755867 -259.13043702395941636 -251.67784171429454432 -253.72478803139304659 -269.66616167606088084 -246.83523760945163872 -252.8981958182124572 -259.30823901921291963 -257.93797299254669042 -257.20460339051311394 -249.39282416468427073 -265.47516711937970513 -261.99670700369557608 -257.59003701393061192 -260.15649388830621547 -261.26520944285084624 -250.40927308393369799 -255.51854902030626704 -256.42382031891457927 -258.85442496261862289 -269.552420563567523 -254.94144453332253875 -260.49746938950835329 -254.59760279096099111 -261.9572846150297778 -257.22149009043209844 -248.03726898824263003 -266.03296356564658254 -254.10479021719280013 -255.09055119173731896 -261.96980516825362884 -260.47368844319345271
-78.073286023405003675 -75.462653967549258027 -76.674875847127793804 -87.326228805648824505 -72.10245782270190773 -73.035402472513069938 -79.820217291528479109 -78.502214488557370942 -74.672806709586581064 -79.535396019075761842 -78.683480337036655783 -79.218890333437286699 -73.450892485683198174 -81.117737739999824953 -77.983577080923851099 -76.481776609807852196 -77.561823573314967462 -79.267243484784955854 -74.625349596769538607 -72.748097626407897565 -75.610523375758930342 -72.807279433102451094 -67.239391296291373123 -77.449148654043170836 -72.080952728356891157 -79.453988846870245766 -74.933343813622741436 -77.443153371216425285 -76.608587138864791655 -67.844159078989846989 -74.883106493170018325 -78.040257346179075171 -76.009110092291308547 -76.00627591232527891 -78.420906354373187241 -72.897409433219877428 -76.335926813561300719 -76.152679454137171433 -75.815875419344052943 -74.815787076277089795 -76.134950939060246355 -71.288032360330845449 -72.153954708939366469 -85.801180082081998535 -77.704916030401363969 -73.519464173939951479 -70.744468479899012436 -77.691152529646203106 -74.775904002043276364 -76.857864617921208605 -68.075569537539195153 -75.768357337176013289 -79.960751579419110158 -78.240336606085520543 -73.859410065401235101 -79.415808107376946623 -78.136237419682188943 -75.017974767708864192 -79.657760924450485618 -76.061813815524757842 -68.117123867402625592 -75.706445122475784615 -73.574861047479785725 -75.100408877235821592 -72.237995527343585422 -72.034042365401290908 -82.014009994587837582 -77.997652301885338488 -73.833263682218913004 -78.687599503733025585 -76.87733886411295714 -74.521642935374330818 -73.528541170385238956 -72.055273420587425903 -74.796462952790506051 -78.767841281667116959 -78.29781022584592165 -82.626421979010473251 -74.958079123779583597 -79.348209994078104046 -71.576320137775326202 -75.007542165670514578 -78.819458986343036599 -75.288338039674982838 -77.746135619224133961 -74.242489123304110876 -72.98112283397543365 -85.378675782188452104 -77.91831487896338615 -76.501606017694740558 -72.526033768582749417 -75.934432990496276261 -81.862469821846985951 -76.905351466378832015 -78.188883146752402808 -76.569378689028269491 -76.829059698830292291 -78.435666317287783045 -74.603894313628444479 -69.595498469019659638 -75.47627350888099329 -77.247818804160516493 -72.135898716531215769 -74.453785103443081539 -70.802337286378772774 -76.108593939278947005 -80.756341690009264767 -76.835136800399169488 -73.200571619644762222 -77.577227996396132426 -73.567277587384552362 -75.509392029830053161 -72.429267289009871433 -79.181916206264091329 -74.319110676811703797 -75.148655489279732933 -78.984913637599575509 -78.239177706036301174 -76.162835784389542937 -81.371676543767847534 -80.922360154990116143 -76.198353822248193978 -77.751805465189463007 -83.503861052311336266 -72.246246285922737229 -78.537688815165253686 -73.781395795017459704 -77.619931947434295694 -74.901945075843741506 -69.982841588855222881 -68.058528996973620906 -80.477182273850573324 -75.412730867616318164 -78.46092818931352042 -73.03771809062892828 -70.102978620077877281 -76.028281853739230201 -76.260497007511077072 -76.018787796644289756 -76.14387654355813595 -77.505564621897150346 -71.668887152905810467 -71.798480353545457433 -72.863549503625506532 -77.76518539967626964 -74.402711240528347503 -79.909955730165563637 -77.715028865681333059 -74.953042106279056611 -73.333792089789540114 -80.041553988317744484 -76.296016696390850598 -74.274317441196458844 -81.876059647363973681 -74.893188978983147308 -84.488854621617576868 -75.90384565828379948 -68.055613772642843173 -78.810920552007758033 -73.540916582174688187 -80.263811017565657835 -73.179509256744040613 -75.141860543131627992 -84.535322903405358375 -73.697142060128470575 -74.547756673198875887 -76.445151975537939393 -72.509070894622809078 -74.511842455829707887 -82.764953230368803361 -78.789728438275091094 -79.434984678575517592 -73.701915083975478638 -74.811774390361676979 -75.940848818288088751 -66.846295413516330086 -67.474799671920479227 -77.680985712488023864 -79.327607453700707651 -77.68191433655107403 -81.018901598654281315 -76.661711288469774672 -75.372680919271104472 -78.414703658537661113 -75.752134299043802912 -78.728577095291058185 -78.485689991064020887 -76.857708500558601372 -75.915893304610762016 -77.057202763075338225 -79.726558648750923908 -70.2161080872172505 -73.293103144367663049 -77.66662029993545957 -77.53620237253251446 -71.520163791828409217 -72.880115609626315631 -81.554501865709042363 -64.618068662116897372 -79.383242826705142647 -80.686531252703659334 -73.997518181000884852 -75.653646774864043323 -78.422101350999568581 -75.158763721065511731 -72.518007420070617286 -71.177427388562946931 -76.66553772316950699 -80.680167416674493097 -73.537801956145642635 -74.307002400146629384 -75.300085277518348903 -75.188489558794287859 -75.226715376805401547 -79.951394960429354342 -81.066197433247964454 -79.308280232464909432 -72.652305746636159256 -74.61630619054976421 -74.536710455412546139 -81.229545270965402892 -80.476115855092047013 -71.606735339523723383 -71.246764802410552875 -75.05776343265611672 -73.454800379155884116 -76.713537098303163475 -69.726206672979671453 -79.397772041635050755 -70.164848024123699588 -77.902820737802258577 -80.768254274023945527 -70.825343247177386274 -88.681252941371951692 -69.399948374568282361 -77.866229241634826508 -73.659498123811559367 -78.032648776174880823 -75.301468994629829012 -71.05487339800249913 -72.084481196902899569 -77.441812282255284572 -75.297482210589478768 -74.354130737038701682 -69.66835237180143281 -70.925136928856687746 -74.259269132092981636 -79.357449473243121929 -77.817558853274618968 -73.088802926960113382 -76.360725896319792128 -80.058876631410456071 -79.525847070440335074 -82.356582298162535949 -80.710216951983369427 -73.245750172262660271 -80.153509988700591293 -78.43536895975101686 -72.75973382274821688 -69.907872831132948477 -69.4478746330419483 -83.177142239325704054 -72.667697886687761866 -77.396218623965154393 -73.110279268346857862 -76.74971537159596835 -84.900134041600111345 -74.8404685488610113 -75.310722666954717397 -71.772902127882545642 -79.680205832412781319 -74.086840982154058111 -84.483979535106854541 -79.540577050254370306 -78.058292238988087774 -75.765791640172253096 -76.855631827362685726 -70.370518734692041107 -81.024888154350321656 -76.536678768052368582 -77.784714632556642755 -77.969918179509832612 -73.112725170855966894 -82.154301429206270768 -75.612043642308563562 -71.200627268649213875 -78.363787396270751628 -79.328153273262046241 -79.102161237956266859 -86.48878245256995001 -78.442873213268200061 -77.84885711150408838 -76.801185505550805033 -78.528317720249177114 -79.315549795983571357 -76.161632282037871278 -75.200284239086727212 -78.265167392963064685 -80.033606991633988059 -76.347066398115728703
288.11255316759741163 295.87887818598380818 301.49926268095816795 304.49530292355393613 307.57023810794157725 309.25816940074918193 292.46584720060911877 307.37538192715311425 291.19654982412646405 304.29794332376934562 298.96511850376828079 288.82384177463569586 301.72952850654223766 304.35504633530496221 294.78054274969127846 290.93269024924961741 299.941852416711356 316.1357487949464371 299.62394411214239653 294.64468806043436189 305.01019687389606361 313.00200944263372094 292.05566006691981329 311.62503866377016948 302.96778105732380482 297.52189293276069293 299.20328758617512221 309.87727600541313677 308.46111509485837132 305.95005599335502211 307.35194642761098294 302.49327902362591658 304.06944597930453256 304.13362379624572895 310.45869802096774492 308.89748441180813643 299.76206745889180638 302.8545058799348908 304.19398821470275607 297.10271579097678796 308.49022068647116157 287.17531765174146585 303.28797312411700204 316.47957233072338568 293.72685851849200844 303.60465318867017004 307.47155528023802162 305.95287848216645443 289.95863753091509807 300.75788776569572747 314.33223063805610309 304.03953378046418266 297.00002460382211211 311.34556520099840782 298.25794106292937613 299.02085552290827763 302.99065822860819708 302.7615704524624789 300.5870284261670804 298.84548060564088701 289.30125505763112415 304.02516511536833832 309.75115349921696861 300.43398740793469415 297.2014028044591214 305.49820075718616863 310.33545348904851835 304.90826450061160813 309.01579961351620796 308.71358095764463769 319.49418752823294199 301.08605976276174943 293.94804461182445721 300.42229791604324873 304.84254654293357589 296.65947475397916833 297.24305759064645827 296.40443707093106696 290.29662199762384489 288.59378243607176273 301.87688498965400186 288.2471545828727244 302.8491233294512881 292.00302004500025532 302.3966108647209694 298.7857244694434371 299.14088499940413612 293.05026337123484836 302.20592895465540551 302.57742353728764328 303.69123925270457676 310.11590889321320219 288.7612930436837928 296.38288970860594418 305.27362730999374207 291.02689577040069935 296.13641539810896575 290.12119949247579598 309.94760679107281476 292.19567814113406712 298.95741700176802169 300.74362467768281704 298.211983030577926 306.50307130352655349 306.86352821650751821 305.75792527937278464 300.09988997157114454 301.82980026090069714 294.52544161180657056 296.38426201791673975 300.55454438600878575 293.57142757110199227 299.46989600653955677 295.96221500530390358 301.29652044444742387 299.60548446230041009 304.26636659249493277 307.91476885622324744 294.2157738776333531 305.14468928316097163 298.72908031579493127 289.59301785495392778 304.08822762860000921 308.75633883732012919 309.1066063775322732 299.22068808050784128 301.12358219970087703 300.20074308735621571 298.76420183461107172 299.40986169195434741 301.8361903772080268 302.19275411681110199 299.33492487914350022 305.58419764620873593 297.88699717879939044 299.5477794589920677 297.91089449428437774 299.14456930976558624 300.07897424905888784 284.46829277729023033 299.25584606427412382 295.02167858353789143 303.07755348765243752 290.90075096789365716 299.67573869900820682 294.26696652511446928 303.03998866177232685 294.32680973310039008 297.8444756036753347 299.01484163222494317 300.13832318989238956 304.78414707277545403 312.8706661876830708 315.76049454864323707 297.54870145734952303 294.67523029884802099 297.65649306419948061 305.70146781410204539 292.41160593384523736 298.1864458558210913 306.00577315576265391 302.94814179056925241 302.8518402502991762 301.38586911650560296 299.08532260951824355 309.26151771665058732 298.5150613960145165 307.8896418156654704 306.85032234733137102 302.52020903835676791 288.18896995953002715 289.30283477133116321 309.00520750051725827 297.77747927908870906 298.78203884637110832 303.97960622838019162 292.64118062705074408 296.54662282226405523 298.48427164807611689 316.67819388176297934 297.87494071758948166 291.82203339099032746 294.43837657289753906 300.12203396446227543 304.02850904701301715 299.56458669525375171 299.19744332986846302 292.688979858630546 299.99033912717351313 303.18036502579980151 289.79594707975877554 302.15590663902412416 318.13477773443014485 305.77990890886349007 298.2685983353615029 289.26418898083232989 298.57125654961805594 298.42981821761424044 294.55084447869353426 294.80076021339345971 300.70956881466270261 291.60491693291538695 298.00942101314672072 292.10762941633112177 292.89131261165852038 290.75960106422809304 307.10813686311433912 312.05782929541555859 313.91922528877432796 292.72586100298417477 301.5772727326916538 310.54013006063144076 305.18363511926190768 295.45476699929361075 294.39461463672228092 296.03061025227219716 295.21804839307549173 301.39263977511899384 292.41632025349815649 293.33488033075974499 287.48509331343331041 298.19822971712250137 294.26170400712965147 307.49143991399114384 301.489883814043651 287.60735177266980145 304.10280060894103826 294.26881173975544925 294.18471336454285847 310.17431944547280409 301.19165508673722798 307.59881192808990136 310.07661303103463979 304.46347155717768374 304.48138097522001999 296.61882560934753883 300.61684363951428622 300.82386383663623519 300.31646510706946174 299.31016073534863153 285.45104918221232992 290.39402882836651543 290.03410830679615628 301.10634740828987788 310.64797876853577918 302.10445187948420198 320.27851288115579109 309.52165235301231405 307.61839175455941131 309.00832878160201744 292.24632264717962471 298.90954627365982788 298.6494334305559164 304.13036445718438472 304.66330266227942047 296.53476306912477867 298.25040429331289715 304.01186459642633508 292.25855015830302364 304.33296922003233931 303.49819075754123787 303.81749186194252843 294.78694318760335591 301.37299841106727172 295.86076305794364316 308.72332286433282889 306.67485402612533107 301.81961963497917623 301.56371972598179809 309.76454377410607322 312.18202584532502897 282.25196952316559873 291.14745429818970024 312.60009684154505294 315.99717710807038884 294.5335814557021763 306.57764016098172988 301.39374982852228868 305.48102240425566833 303.57358066383750383 309.85518656684996586 296.78807322463308083 300.73919203809077771 287.93126400618081107 307.95590849947643619 296.6969318430657836 304.0712137663420549 294.70160825085969236 306.38829676689755388 290.37299969534058164 290.50065954886355257 292.17829513833476085 303.77983968541138893 286.899233561325957 302.65034751194519913 299.48118322407736969 302.66260712304165281 298.52731979571160537 293.65333537614890247 301.60024621695004043
-316.38181947036622432 -321.2778242965384834 -306.79912655223535012 -316.20805533913159024 -321.21190468053697487 -314.9528162305196588 -317.56319583123263328 -312.58168144334598537 -308.34223627716210103 -313.85629085137901484 -322.92084498945240512 -318.03224870668623225 -310.82553566115007015 -295.18119377558326732 -314.17272557230791108 -314.86646984584763231 -307.12384163244547608 -313.38473463712739431 -317.9258768582589596 -324.37483106413873202 -306.51012833255839496 -300.38543621240222592 -317.72179242889654915 -311.52860018463974257 -315.98660874561142009 -312.5642567840353081 -313.60737713826335948 -323.33630909081119853 -320.70475457461998303 -308.77405029495514555 -321.93842174277705226 -309.62525732949092117 -319.36140826503236667 -313.82152743522846094 -325.64547937826819179 -309.28001472651362747 -328.19359577514967441 -304.37467699912048147 -298.0638702831001865 -318.04195370722334246 -308.78925830910401373 -305.94593256568401785 -312.8533935888351607 -321.34589784514673738 -306.69102351506069226 -309.55328412966588303 -315.46357377662451427 -324.61853679234565107 -320.45403962595310077 -300.29477289614254687 -317.06875540435083849 -316.25562440068608794 -311.50779979515203877 -316.77198523620739934 -310.10534828697467447 -325.83242296240882752 -311.5397415672746888 -312.85916334747270184 -316.16854227270465572 -308.72523315792750509 -313.38462936787595936 -312.45266297179028925 -318.26489519348399426 -303.74631226193554312 -319.21050390387716789 -308.78759683349539955 -322.40595643214840038 -323.24322784401317676 -305.70642361984488389 -326.24366550452253932 -321.54701013760438855 -317.90278401075738657 -314.14914605554895388 -318.82083148101827419 -315.7788071732192634 -319.38564998920008975 -323.46872539026975346 -310.16594827155512348 -310.64912132835007696 -296.86904738037031848 -314.15920827327204279 -318.82146982848433936 -308.5665521703586478 -315.34790651793338156 -306.05088433663144087 -310.55588515060708232 -316.65309337832343317 -318.96436588725475758 -313.26224158130759179 -312.10845853615319356 -303.60150698345000819 -313.4771601297009056 -308.27459684757775449 -307.21283131438912051 -321.61129312277148529 -315.38099720690996719 -304.91720856720303345 -310.19677340720033953 -308.54823424647406682 -319.38883099496803197 -321.34683861918648518 -319.52093512196000802 -306.93829477754377422 -316.6497251646070481 -310.33231795443447254 -317.38367386946367787 -318.73473478277827553 -305.35819979717331307 -318.34274464822215123 -307.37825697420441884 -313.25396523199157173 -318.33855584476617651 -316.29685506333208878 -306.21153048549774667 -312.45753099058288171 -310.69909096812284588 -315.96687843188789202 -321.54682527030132633 -316.61874139728917044 -307.41369478463252563 -313.16297882683829812 -306.828445415875251 -314.10268390103084357 -310.09778061629367585 -314.0061901077116886 -303.13847275010999738 -307.94301793071116435 -321.97888585407264372 -318.34546783127871095 -314.17033822992584646 -308.37242084112619978 -310.34687356909603295 -317.37096609242951217 -311.84538407253427295 -307.6355319278250704 -313.31164628564204122 -308.37174238835734741 -311.05464782884007491 -313.92907753228189449 -317.63864072940333472 -309.38265904520955019 -311.51526141506889189 -309.49776147305965424 -313.76308203308849443 -315.49285702697829947 -321.00984189985319972 -309.8659343810272162 -312.21630927647595399 -314.53529477108077117 -318.01542561107140727 -315.67284422697321133 -329.94557303254742919 -305.90652034557081151 -312.59561241104927376 -305.90886587339855396 -316.84624920300166195 -312.09040191179519752 -302.06877811163343495 -304.00824596862679527 -312.27485716012438388 -323.17864383911404502 -301.73668161440127733 -318.28502713382823686 -313.33471952103656122 -312.35355949984949575 -317.31437464054369002 -312.09098609831858084 -309.87568409852383411 -307.90252054594020592 -311.83082892436237898 -319.51311335186267115 -311.88245253056294359 -321.95388516040668492 -318.22861549729935859 -311.87300805642291834 -312.89376689077948868 -318.18142548526628843 -312.07449093550383168 -318.86596586107168605 -318.99459797393240024 -314.97933215151323338 -319.24550890970868977 -316.41929581782710557 -311.97901438182861966 -309.03455984385493593 -305.48528384664587065 -319.68479714179693474 -314.21079270215705037 -312.8702076648471575 -314.17262682193364753 -309.78509681790575314 -310.81790895353032056 -317.52948552629072765 -322.09499668598101607 -320.84944686108985934 -321.60241387738500407 -316.4635043708996136 -305.85638682838595059 -314.62314150430734117 -308.30357414060421206 -318.50008183637436332 -320.92563927538833468 -315.51014170455329122 -305.35095678677356545 -313.90881758961199921 -314.34942410121141165 -316.74283762891849392 -307.36020391320175804 -307.54889081475096191 -311.13609915205688594 -326.39660613065944972 -308.68787536962139484 -308.66570349948636931 -316.32466994548400407 -314.62211968802262163 -307.38283014390674452 -321.32251242159827598 -320.544099590407086 -308.47375633295393982 -320.79907782801717531 -314.46321613221471125 -313.80587066750132408 -306.44280889992177208 -318.54990328782008646 -315.49865357328235405 -310.31644677341841998 -311.37907447212052148 -309.86060451502260094 -300.65721595495841711 -321.53425196095207639 -314.63199806529269154 -312.22965072377814977 -307.08902710309342865 -312.58777479895366014 -307.10757254519967319 -313.40010402051103711 -305.56666757519963085 -307.47788450363066204 -317.96866016329505555 -323.1783849825882271 -303.54101643224396412 -320.56397899715216226 -316.45322531314872094 -314.73780290765506606 -317.569782023299922 -317.58367358614333398 -307.97696324231094422 -316.84933409139972582 -312.82668812296964234 -310.25831711000660107 -313.97104129779120285 -311.0480420832630557 -310.28646039920113253 -319.33002576952077334 -300.11097901846227387 -296.68167266339969501 -316.34355799482398197 -311.38402350166484212 -306.32931063723077614 -313.54588430039569857 -308.34190139722255708 -321.22278646181842987 -317.77188341830554918 -319.92384119757076633 -313.92775235816668555 -320.97561330101871135 -315.45447175451380417 -323.42627779504147156 -318.01456595611750799 -319.60480714484543796 -299.18908864148824023 -313.19813388187259307 -314.64301704617861333 -306.90356922720604871 -310.53552558005048922 -314.58146543160694364 -302.95059510715657325 -323.04253786026248463 -318.22196503714781102 -315.6088575393241058 -317.11561141045905288 -308.86189871856714717 -315.0117158246879967 -310.87278289791441921 -314.62376746916766024 -321.61353112797081621 -319.80980846970714992 -325.51234237623737044 -322.47425942691887712 -309.08155583222833229 -317.14488297905046466 -316.24812349078280249 -313.89194428016651273 -309.58388155897665683 -316.35840080027429622 -316.51573628639010849 -312.28316887619700992 -312.56538787639374277 -315.69975731761121551 -317.48400871502536802
-46.650218224840109826 -51.577559064358425189 -46.808279592433223115 -53.40033524620751848 -50.030735956744116777 -57.147367676200843789 -55.617484685181267423 -51.371749526725352553 -49.695993256109346703 -46.351812224262289419 -58.407339995527479459 -52.259671772728019334 -53.43972511245041801 -55.332553343732229223 -54.725213305613834791 -56.944788859141652893 -52.724241106590078232 -53.828773195765776904 -55.392301901302502642 -55.828280189055142557 -57.44734365008068977 -58.609415043861524452 -54.781466684127856581 -56.066026483880520459 -58.819370494956636719 -54.708638226248865521 -53.836202123944858045 -50.318551855082958468 -49.570931234582324976 -57.864087112163396398 -49.081294153539609226 -54.483151135281531197 -54.992890687828150931 -52.458794628298832663 -56.034345433555955651 -56.458307595783388422 -58.454325359330596257 -53.762883732128486258 -50.861138173493721126 -51.776082761030210122 -54.485401574175646999 -56.460942846194754452 -63.219169909690158704 -59.180263960243664201 -55.147252546460414635 -53.302918126637351293 -57.423133972806809311 -55.679932662770134755 -50.09615323703011569 -55.156171157554652495 -54.104758396938471776 -46.992737879189157013 -54.560269607039863615 -57.794814651352197643 -53.335654006913060243 -63.811758598490833094 -46.407855944804808246 -59.672613229591952688 -53.147685435559196776 -60.264670705207805668 -51.013029663688101323 -52.507960029065579022 -56.693606335843028887 -49.91682086104542293 -61.698300469001040369 -55.636871147579483932 -48.302039546785685786 -52.5298803116527111 -49.271096666168979539 -51.97373087565748051 -60.799527562389357627 -53.197087941797519761 -55.212551792915121496 -55.141903461420938015 -55.078046500377411121 -51.719421477558285005 -48.951110236125423114 -60.404240327293521773 -53.265328918814830672 -47.19845343056201159 -47.272470432424981368 -56.345284932196840089 -55.446612607089548419 -54.456566704541742752 -52.530818281199991304 -57.979947393001666001 -52.663408603845056177 -65.333087892664622132 -52.216138263112760853 -55.677229279847168186 -57.730855991828562424 -54.957552952036749616 -50.20736637182598372 -47.86674840222789129 -59.578728407185622018 -62.109250014615938085 -55.140255346048498097 -52.112561927943474416 -56.465015544854040286 -56.445860975558474593 -57.587594775963019345 -52.368952723979134589 -58.429184188019881674 -59.177283783602732115 -57.432375071673199329 -53.770790904278790379 -60.269074002398291157 -52.497011542237686399 -53.511598874858009367 -57.519584027634373058 -54.817443575825791413 -56.212702631874520875 -51.745136853558015844 -52.597983426900796644 -58.282962011357483334 -57.848874566517146434 -51.314322011166382254 -56.116880673719663264 -54.971900180745493003 -56.332557713736228777 -57.069088005261491503 -52.930630359240645078 -47.795500003777192433 -53.702644380222785969 -55.51140768341023346 -59.572190181758308825 -50.394204523351206149 -51.766628395190295464 -51.333278118621166186 -56.630601679178681707 -51.840512329200130637 -58.473563426121785369 -53.108331234243678409 -56.424419426073541217 -52.095266468089178602 -53.869189210552740121 -60.918633086051151793 -63.480675341759507546 -50.77344748067447 -53.437373629454143042 -53.186139427407596258 -57.112159711956238084 -47.032870505035262454 -56.428471176326020498 -57.783520526966050568 -60.027305380765454856 -54.267762248274081571 -45.846578894882718203 -48.545611381505210602 -52.576194276743713374 -52.357501257877423484 -49.865003580396063398 -51.97612448022699283 -55.27528588658691433 -52.442773466491821921 -52.680276587850947578 -58.311910152509618399 -53.503004715076826869 -54.211113307609082312 -66.681447143477015516 -54.356331456458356399 -56.025585344462811577 -51.886108964060255744 -55.787044630831140068 -57.053378275937177477 -60.432662766941277255 -61.000207796932286897 -53.065015988287356663 -59.884268370028884476 -56.749227368563119001 -56.935948842500096134 -59.635823641539467133 -47.956712819614260468 -63.997673837292190058 -58.658215847600402526 -55.488446550542633418 -55.847694985342599239 -58.99446565157994371 -54.534763303768038156 -57.748741947406756481 -46.491282594803422512 -53.053323356560305513 -59.836970816696251063 -45.104287065877969098 -61.170041611075859578 -45.957510219160369047 -54.771238997940351112 -61.687834750548788065 -53.948502525276950337 -58.464422420388281409 -50.97391064841086461 -55.110721670956074547 -56.510578049775531895 -54.626665298772749679 -59.380998244828163024 -52.037962561154245122 -56.640810977972819273 -60.39879587836112762 -50.795957790466594872 -49.958766675682838354 -59.421072438121179005 -53.516026425711039849 -58.564295719857383915 -57.676008156024138884 -59.069814406229731674 -52.398722518080788291 -56.722407813903089391 -58.295726435157682488 -60.933044387906377892 -58.966114670182669499 -55.160564632535376006 -52.881453579381854979 -65.152725149765018386 -46.7577879089462769 -50.827809299565160472 -59.985567399258037824 -54.490682983655354121 -63.877708717131042704 -49.578211609982375307 -52.339090770032392186 -56.149661604780170876 -50.077233885210560516 -55.265558639304543931 -52.681068968748256509 -54.418535466023719493 -53.073074196933688995 -54.70361911205733918 -56.163170236790868728 -48.457229034365560949 -59.314181671328952916 -59.172785826814610743 -56.291948749851826506 -51.847382837157475421 -51.25135762004944695 -60.608752279777490912 -59.761087538749961823 -56.437214646311566923 -50.680442228066873156 -47.429289444696507871 -53.989529007694940788 -54.029902734343735915 -56.245315289508027945 -59.279771764983777871 -56.640740603498443306 -53.170451017781303449 -50.706614475301755363 -50.404687078374053044 -54.563479512794160087 -59.117406871002742719 -61.144090352181272863 -57.064346063269070441 -57.738723969353543453 -54.389592378277683338 -55.008340191162560018 -55.673231561183790461 -45.519177885013057505 -55.109976742085031276 -50.970574765184210264 -52.934850534223429008 -57.347933449282827212 -58.166781704525675423 -51.721290344927993488 -50.374365531525498341 -57.550664495986310953 -56.864214687770690659 -58.985815706024162353 -53.240158294235349956 -54.629409301247477515 -51.644910155005760544 -59.959203850569856797 -51.32285181000747798 -51.388955573032170321 -59.070654804957328565 -59.814885840290706653 -52.447492823675808893 -60.3558014458634986 -56.106809526456395076 -49.27699862634084127 -54.937655289056223751 -64.521870887364542568 -57.058667049753118761 -57.102703159277766076 -57.56092008447724595 -58.786357407580858592 -52.377716610073534298 -59.780593539433091621 -57.991642810756381721 -55.600864950619062199 -51.28086954967388067 -54.220796126838138207 -56.551543358243606008 -49.257211197120660984 -57.280174525402138386 -48.582001906808130798 -59.229388100737722311 -54.184476311617494559 -51.340168118792576024 -51.192812918866231087 -56.575217778455758832 -61.319250291827060551