16.077708036385292445 19.949395163737179359 20.48393817809814621 22.385362841731623718 28.925661922605385712 31.990631399629307907 26.262941126233808831 24.477161955294160833 22.399216827133280105 20.067295371366345336 21.020838864465712703 30.08249198657631851 26.315529855184994545 27.666102026682708015 24.600869628158584135 33.795511147578146449 20.868201552503663265 23.321745303066244048 23.492549781018716715 23.803342654208567097 15.986206148516430403 24.75504191655033992 29.16412574477109132 27.736180375117740482 21.226239821134381458 25.471122765521798215 19.190132905588633605 27.787693530038097833 17.772392234845963088 23.760486093170193556 16.343393545746213391 16.65387896545229296 20.075057480386803377 12.38803078681618608 22.033330028289579872 24.231555207484003489 19.708261389093848948 22.331597017844103448 20.898187189579239487 31.02640994134335628 18.239507258665199174 14.268283259706180388 32.970622773042016718 23.343949677981644442 21.993734485767372888 27.167603109788124982 15.043217349130799221 22.511538555698081154 26.262699299800935648 20.325428083368585419 20.270845620741475557 16.534305168174434186 28.41366804471108054 25.072722133746275119 22.184412753192908951 20.497097220740599255 22.672244370703637628 25.151148909000113463 20.458942449579367917 22.229453182074681905 13.893475207026634521 25.839087417825794546 26.997832154665807991 25.71658823983695541 25.894881354981734489 33.263538502514620632 32.920536996690387355 26.692926164069337602 33.94683217114369711 24.054996842301054727 22.174515492336414724 21.655358150389865557 17.932252326921819474 32.171823438432852527 34.851034553414692141 23.119117667551257966 16.790270892230207522 23.160908429290081756 20.275364834063477559 22.069282851872273454 15.847426384064437599 16.348393674853234359 18.762599928136076244 30.063001467080603391 24.915057035527151896 25.397505992865966107 22.558463469315189087 32.83004459514345541 32.355882234114382356 20.114115844479634632 22.159882340998493078 27.342383203419231563 18.043232045091482263 22.147685651945067775 15.6374506340070063 16.379699051045168545 17.376767023265330181 17.395632994433775309 23.2219247942268332 25.499798813392573038 29.888473118359645042 17.57915169722052795 19.134117703050637971 22.2476560526376268 26.7953353460708108 28.472127447845039683 16.258273895127953068 21.671834242105127544 23.247592628613670485 18.073900777206510782 28.661139255619559663 20.890987995406241851 21.491291539950331924 31.320402956715089005 27.219572380445832493 25.880127412214452676 25.066423812954862882 24.346562102677204109 18.330555099416649512 24.519779235012432395 23.37920563907914584 19.298951228104360922 18.066156848813655245 26.164440540710327099 27.47747284970465742 25.268201465118394822 17.08481893077372149 28.402311201517790096 18.882137464251353975 23.128585449746157821 25.756620564742995327 19.419367629434304945 22.063301354621806638 26.482409749775925434 18.789868623018826099 24.176200888084924401 13.747688545277346961 26.875016814428246192 26.582587028051481326 14.222844361063454954 13.517977275178065355 15.535512365257194034 10.757390191328566331 19.651017855988225591 20.933853508769551865 24.466948861004091498 27.480311635415102245 28.168190690828460276 20.330176949967437849 26.958019414103311817 16.760175812309025645 28.699490916439334143 17.186212470179956568 24.300405991044101484 33.501551234247827438 21.189727979070255515 24.694582982422222273 26.618368881948107685 20.770304870034699718 20.300163655299282794 21.730752973751506829 13.704930581974537063 17.849018625473142663 19.136671452285341388 8.9209971921814741336 20.981798290023096598 25.293542404192677964 23.729845866568194168 16.171368351363042848 22.857162698779916354 15.771616894275597431 18.017569864316797634 27.615666479656503896 25.365951821125715782 28.713925164779219301 16.078307211515209474 29.189099571829011381 23.294123569205495983 23.257942603931844872 20.137967149874437922 21.916553688963773538 20.390177108903980496 24.005560596806205353 27.791022204177416199 24.567474924523097002 30.922339938865206932 17.598084857543089043 24.44340526779178191 22.842714986640306307 25.458216758917060929 25.125925603439394962 23.139886631822356833 18.64933657353974894 26.077983422906410027 15.271634399989657993 26.858898637327953907 25.293925957043047248 27.225542835669745756 30.624233960545375055 19.711185380107764331 23.969672637712655217 29.583617047916973775 23.338711274321241262 29.271526303424657556 28.902621396218492578 25.233294413058377614 16.992332941040590555 18.895068857847519439 18.51278393435748626 21.472729350439287543 23.887932519806192033 16.947041786964803123 9.206517849595346803 18.809678345884883299 22.182407522338323247 30.116233594668901929 19.906963579858857116 19.094372754630018818 25.456535483167879619 25.248985012330631861 19.3799867985166685 16.470933165173342161 25.841233457258748984 19.907323229400560649 32.034895878396611124 14.652778210935268888 27.325011989002646828 15.90534412017736976 12.287038926847195341 16.083156788544290094 20.995159469802651131 16.919153278076645819 20.359607607552284492 25.63825207368715553 18.678385082931598049 21.846631396848007256 34.349965437431940529 9.311081722650790482 18.561880958616967519 18.375312535965491634 25.991565514458187636 18.620529712386577614 25.673230703363927319 19.085123285535843252 22.618158865729323992 24.988605202283252993 27.654485143644457423 17.79237761231050996 20.092070655555410497 27.44030690092910163 29.630553928853689882 29.591388415131632428 25.501232648984988316 19.228944618182389092 26.206496432097754479 21.733235501415730795 25.919988955094460437 25.080458000948262054 16.14011181106516446 21.862201210645860527 25.309690474818488326 25.303808637948602467 27.279360154229376434 25.508496936748329631 15.373430921340723643 19.435596861333596763 22.357987974103153306 17.365076065137738937 31.742347879655739007 27.959280092813330043 14.217296580629326996 29.732588317564001557 20.484585720869006309 23.629131705157575993 17.648086791727429556 14.386569365531636677 21.151935965463891876 12.030419063802010982 22.847644106163247812 19.871547675123508725 19.624299248995278333 26.154923193079333998 27.379783081506314346 17.973001993261657816 21.208871019460517005 26.362681298104931216 19.218316195151530223 23.774044204268331981 27.088861826537005584 32.951117512307774859 23.130308308086956259 24.332043504535548095 25.565698178333278179 30.567847510308435943 18.873370727639589006 20.318608298367323073 21.433852898187709002 25.757523094432311694 21.179164213589352528 23.680987736015300271 33.114254797440580091 22.035459003127638056 27.438023995322357251 20.125505435613099792 25.895308806892664677 25.225542792054678642 24.541857958832370201 25.374204181684511639 27.0592300761015494 24.459776958009143755 31.362730982702736071 24.847186219753698566 25.062424843963952981 21.7728640759431471 25.529655419840590724 11.435236871995034136 23.116065455037432486 22.37716945275779068 21.044026906377975905 19.251620665918448339 20.697523881212585906 22.484671414394650668 22.83768936990401599 24.564384156267419002 13.541312125263253563 19.101804863473937246 28.884498914367526368 23.696200183215228918 21.779679458403983006 15.082555712625609345 9.8912673207377235229 22.322192728796757422 27.654314237684552324 21.889944869481972489 17.610620835409616092 16.666285203084271416 24.431895584646632358 27.039265856636447438 23.994177444048180092 15.473062174009104552 23.253962846128075626 15.571311114995737057 15.99873377202116842 12.001144683311148142 19.140781747868715001 13.395405802016366437 21.606426266044405082 23.530846830698777694 19.535226549971802967 22.279232654043600093 24.838899860776717077 13.738288249219278825 22.781397288634678944 18.03597427080172011 18.505912084386423544 26.2615584235572328 20.084911331759386144 18.434183870100813607 35.322592073133570523 18.356939500979258639 25.672084123396558653 29.423676552687254571 24.454876675690563559 25.676307171825971665 25.447367545868235794 25.075862922142242439 27.965481780217228192 28.971173500368031739 19.015414038524792062 22.449156934058205337 26.971846979202279471 22.960279235165927503 22.375052273928016433 25.782351173554911128 27.848825385855590753
-1510.2258549542302717 -1507.6561613892661171 -1508.3818580731167458 -1474.9521605843033285 -1506.1569668742040449 -1507.0423975848216287 -1495.820193421986005 -1501.7106609788324931 -1509.9730879272606217 -1516.568075258020599 -1492.1532982104135954 -1480.1374102131599102 -1508.3192965179521252 -1474.0883238462129157 -1488.8600205462905706 -1487.7224579974574681 -1458.0583488724496419 -1490.6663889964827376 -1478.89401933804902 -1461.3457053287204417 -1490.5015597217302457 -1471.0495124213332474 -1495.7249202457519459 -1497.375425563152703 -1503.0763794138629237 -1482.1260083911172387 -1481.839936927407507 -1489.1047881056945243 -1490.7255610319546122 -1477.7395852174636275 -1504.7616521600962187 -1504.8253523141916048 -1494.7564810001651949 -1484.5215304433891106 -1497.897904990968982 -1491.4192565222015219 -1475.7873767243361272 -1501.2638075940019462 -1480.0914462501184516 -1505.3281391613329561 -1487.5920728544774647 -1483.4609378357235983 -1507.3686993698895549 -1497.7725770900583484 -1474.5324467855004968 -1505.9935789486378326 -1474.5110793490889591 -1492.1804418489798536 -1482.5938526586041917 -1495.9615572864977366 -1483.5618087741411273 -1492.0507355030381405 -1470.6932765842216213 -1502.1954654246362679 -1489.7767134771095243 -1491.466347373389226 -1485.5325424584500524 -1487.9064418268492318 -1499.6881870256347611 -1515.6522073037338032 -1501.9439621203887327 -1504.9675940369759246 -1501.8902470487578285 -1471.981780308010002 -1503.7932893619929473 -1496.7764578831877316 -1481.7306949288386022 -1515.5592052673614489 -1500.0498702421141388 -1497.2676367207575368 -1500.8291831647225081 -1486.0852720634552497 -1512.3167178738654002 -1501.8176913738113853 -1502.2690867421820258 -1496.1126455553885535 -1492.2869187724281801 -1484.4953375906841302 -1511.0583243521521126 -1485.8602342361537012 -1490.2946999207047156 -1481.10569344734472 -1507.2281748789575886 -1489.793383249835415 -1474.6243504164217484 -1479.1091665024748636 -1489.5110649480286611 -1485.2796928723200836 -1466.456790300009061 -1509.8113783004412198 -1493.6718479867533915 -1496.7359630598800777 -1483.2501601372230198 -1498.154870466633156 -1486.6299452226555786 -1516.0380528777741347 -1506.4930984492384596 -1508.0212299758627523 -1491.9636509691551964 -1500.9097509212992918 -1511.638954558531168 -1483.5728674062738719 -1487.4770409445195583 -1496.9942690774291805 -1497.6827530936327548 -1510.1292459805895305 -1489.6467744783390117 -1493.3047031664059432 -1468.9415527581509195 -1491.8972327892840894 -1461.7536156380967896 -1491.6210326057664588 -1516.9146283223217324 -1494.5141688770256678 -1494.8372947518892033 -1498.8796186558458885 -1486.7277625342558167 -1488.3099357160351701 -1480.5357107986510528 -1512.3606892349562258 -1470.9666956120574923 -1469.818141611144938 -1521.8553558982916911 -1483.8351668826819605 -1497.8516116332168622 -1472.2799864775913647 -1500.0310016342361905 -1510.2486050193942901 -1484.5893450640739957 -1500.068843404445488 -1486.7858768401488305 -1502.2568781563491029 -1479.6875477688840874 -1514.9379829586689539 -1483.8740328251344636 -1485.1011971764705777 -1487.005664430540719 -1488.4695840069614405 -1493.7156646399564579 -1485.810020032845614 -1489.314342140550707 -1474.7368367240999305 -1490.8130076920649572 -1475.032369290182487 -1478.1086215619684481 -1472.0864902527528102 -1471.4955270153636775 -1495.1198389384367147 -1485.8825047596697004 -1491.2112398875585768 -1487.9903651174763581 -1506.6799153462084178 -1476.6987087929883273 -1489.904328636402397 -1498.5865465356962432 -1480.849226971118469 -1501.1482347063752059 -1508.573628994159435 -1483.7344037553127691 -1496.0723745875122859 -1504.7872741163507726 -1512.5358113261243034 -1503.3263699876272312 -1484.944167499062587 -1486.8275005626337588 -1474.3327772143916263 -1476.524767258423708 -1506.6027004435763956 -1476.4170631632232471 -1465.8298003080085437 -1494.9551727233967995 -1479.1291236201823267 -1521.0828188071827753 -1483.8437499333588221 -1479.7328042135577562 -1453.2642739362484008 -1495.2483644021649525 -1502.8663216015879698 -1506.303138231305411 -1494.2980157822089495 -1515.1724371173697818 -1489.4525204862591181 -1496.1647672841927488 -1505.2620745075450941 -1497.8982938182568887 -1477.9124600579889375 -1481.6221289602997331 -1487.8405043733412185 -1515.3656834972537126 -1488.4156006586629246 -1487.9542037701937716 -1491.0935130677962661 -1482.9055935295616564 -1501.1017589915061308 -1469.628949011859504 -1505.7227946888592669 -1470.2133252689968685 -1511.9309936499853393 -1492.2288875576723512 -1484.7050995729066472 -1486.4416947707291001 -1493.5267754340179636 -1494.4416308782524538 -1479.3138263536422983 -1490.9508817278747301 -1500.1592278418847854 -1488.2777612053464509 -1498.0226121793107268 -1505.3899340753978322 -1503.4702556639538216 -1504.3223058795599627 -1506.4380601251432381 -1508.8694268766666937 -1483.1039487917923907 -1505.4719532245467235 -1465.439751832124557 -1465.6783154640804696 -1481.7374132143536372 -1484.5498312322747552 -1503.1116213376371888 -1492.5357341395440471 -1468.9622409949274697 -1504.1477584594956625 -1495.8857541212105389 -1466.748572007920302 -1484.7826440850540166 -1490.1306060206532038 -1523.4906203901591653 -1493.8273967097388777 -1475.5578723319208621 -1509.7614756668176597 -1515.4417877699049768 -1498.7779532309398292 -1503.4529581113774839 -1484.6039194620225317 -1493.3054641064313728 -1481.5795076733813858 -1499.699516250953593 -1487.3891225225031576 -1510.9674186763770649 -1506.4213021710490921 -1506.7314961100018991 -1488.2470966961886916 -1498.8593421201567253 -1476.7979693856609629 -1514.5230920982355656 -1488.6040734282685207 -1503.7723129663099826 -1498.1397508505792757 -1498.2306056800855458 -1495.6587631442403108 -1466.9964874865622733 -1489.9243636288549624 -1487.1778225199793724 -1480.9686933117368426 -1500.841250633538948 -1475.6576919173430724 -1493.0296392643112995 -1513.2736439087209419 -1493.0308193250698423 -1485.2320004727778269 -1492.441230390174951 -1474.1687309158019161 -1485.9453488902818208 -1483.3648840178195769 -1489.2747335442377334 -1517.012259745474239 -1516.6915524765020109 -1488.1747093233695978 -1476.8021071254343042 -1500.2332998703250269 -1492.6704272205734014 -1518.0959987908358926 -1504.8516798832235963 -1511.3376735756337439 -1477.5379638067231554 -1496.6292263159571121 -1512.6420333535140799 -1474.579015657147238 -1502.8774625055987144 -1481.0360281749467504 -1488.9738984568571141 -1488.5004713043124411 -1484.8337856654668485 -1494.28466996206771 -1487.0277943190922088 -1504.5319573170168042 -1505.2540614370013827 -1488.235183753344927 -1494.5876646518302096 -1496.2676621984769554 -1505.1690918749964112 -1479.976141807973363 -1496.819222636690256 -1474.2903447796818455 -1469.3123891080895191 -1483.9999030519365988 -1471.1522989359168605 -1488.6538193813350972 -1486.8177779297516281 -1504.0032851307933015 -1489.765138352769327 -1488.8082726337024724 -1465.0555126907493104 -1492.9016988564965231 -1505.9151399890738503 -1476.6741407137774331 -1476.0225264159212202 -1497.1147472767620457 -1504.5924664269059576 -1476.925139874266506 -1498.1069521773511042 -1489.7765672785710649 -1487.0236377417350013 -1510.0238617389356932 -1502.6114526707267487 -1516.176762108935236 -1496.0896685263267045 -1478.0735467131466976 -1464.1755065284776265 -1471.6316997533156155 -1506.6605506622761368 -1468.1445269321100113 -1497.5336329698093323 -1497.376196211588649 -1479.0084274636080863 -1475.6897045364132737 -1503.0542487470861488 -1506.5312716056130284 -1482.7302024335058377 -1493.1641774371573774 -1510.0755557392617447 -1464.6149689023181963 -1468.4925624486957076 -1491.0726919068313236 -1497.2088601364437181 -1479.0160624722454941 -1519.1917629488575585 -1496.3161989303803239 -1496.5820104653537328 -1494.2669286955197094 -1493.4396521074190787 -1489.2824317690378848 -1498.912608628017324 -1492.9818227888661113 -1485.7014366965056524 -1471.2867562971073312 -1517.2034865670566433 -1490.7895402051487963 -1482.8711402327128326 -1486.713549387308376 -1508.792044211834309 -1508.5278985752668177 -1481.0977906076793715 -1483.4030000249758814 -1488.7645742801862525 -1477.036571916731873 -1495.2158838355539956 -1510.9503203377014415 -1485.1484115117327747 -1500.4683016518970362 -1498.7324992210612891 -1508.1628139033118714 -1510.5667715313625195 -1492.543766235441808 -1504.7933112689554491 -1485.9490276468641241 -1468.1112829033054368 -1484.4584363721271529 -1494.7209299606126933 -1487.3648118781165977 -1502.496424882302108 -1487.8038070872928529 -1509.3282636590024595 -1514.6479927377693002
326.80406765626980814 332.18188625725389329 339.02444570561567616 340.00764239460971794 330.61335562902831953 334.17230043911797566 331.34690899021438781 326.25245304188581486 335.65432896275541452 337.99353537046704332 334.73058739898914382 341.49038372222452153 331.51717583474061257 326.15918558836955299 342.28690896969908408 324.91251964509444861 334.59746468983689738 334.3255210726210862 327.90345341354912989 328.24620937366239559 336.88967679884808604 319.76282835075778621 342.78760623524232187 334.7532280423918678 330.56000814513976138 343.07543266517603797 323.17845766665277552 326.67479690954331772 334.21286079938028024 331.91102263616528489 326.71244637297922964 336.1901618893322734 325.01673336694591399 343.58195078173298498 347.18626348754969513 327.98920930993284628 337.87220104917287244 334.80949220346616357 341.26344133838733796 320.14579089709638993 331.29541677249358145 340.19645928258250933 333.46568048467111112 336.49185443332862633 334.1191120122152256 327.25207372828936059 343.46945420900760837 324.64777329003936757 318.75130743496492869 325.71667203666049772 337.98147244532947298 343.80691495837606908 341.6361523542877876 337.41773179494475698 328.0322396657676336 336.06269547701953115 330.89028191119814437 334.15078417512421538 329.96373462174983615 335.9612469113563975 344.06454457427315674 323.31470476339382003 324.60180002311466296 342.43553760700183375 336.69756399065249752 332.12684318178327203 338.71029325135862109 337.58823350486431991 325.66422198384418607 315.61038677310352796 328.93251768483742126 321.85497094076112035 339.14578235310386845 339.02518537930586717 330.23487736783965829 335.54409805536653266 326.8818496401459015 342.45234947564614458 328.78198238339797399 324.34740242283203315 336.4498170628685898 333.28090523200307871 321.28571432297633237 332.26713967134372751 345.90948723487923644 331.40577961491476344 329.01850262525056223 319.3383874265730924 336.57442005135709451 331.89184627223829693 347.98757864956274943 322.18768136723809903 330.40864947513057359 332.65406558313435426 335.59613592937279236 350.47034749636168272 324.29573137890758971 336.63341387482410028 335.58616209339038505 347.61818263824477526 323.42876652712925534 332.64189895450300583 344.81630577859749565 320.56066730113963104 329.14746951093081861 331.10566933914077481 332.67150197289095104 330.33837310470380544 325.99596398853776691 326.70482026105236173 336.16611210323071646 333.78453535324865697 327.08333129871510891 337.06068490580508978 323.12368567464557145 351.86194160109795348 333.78802397714565586 341.12660998258860445 345.55464340536957479 344.02688669617668893 344.48085641155091707 334.77130939469429904 331.60032264567809079 325.18904019729592392 328.90822767327682641 336.20880135918173437 343.41088836731478295 328.26435174586930543 338.04808827017279782 335.75292263102846846 336.65678570297791339 336.91145157967969226 342.49032805328101858 327.27372777408436377 331.78169254977478886 327.11076010983606466 345.344307492190012 340.13083425755434064 333.56990141191221255 331.3608096770173006 340.76306797956851824 340.65236871481425851 334.25514840208074929 337.2875156259883056 326.67425197278623727 335.29569521463156434 319.4969272047751474 343.06566679226290262 334.70484844297322979 335.28123163867218182 334.87371465814425164 328.24556713600134117 332.54853113500735162 332.22845411303694618 330.83760508831915104 329.57537656718432117 336.72534499602841151 334.32404824225977791 328.73122310925333522 328.517637967654764 341.64193038837578342 329.88126410958625456 335.88882206092267779 332.39232728074927081 342.57201438648337444 342.20283544514029472 334.83002354866488304 322.42247690659439741 328.25822754231091949 335.33449042102358817 335.1548974119254467 340.98889989476128903 337.66089836271288505 350.15860929688500391 329.2953796605225989 327.7681584021675576 324.31023677807098693 333.09330976548227454 339.53740162060938701 335.33889161215319064 332.83139035537328709 327.93370958798891479 345.15522232411223058 322.82771703283310671 338.71555589022574395 336.44151427735397419 346.55848590276775667 336.3833220530706285 334.08547890462546093 327.53726925254153457 334.71839990373410956 337.97439680345678426 336.907276218773859 334.42461753669061864 333.92238404151197528 337.0354512508832272 335.22309780923052358 323.21764548543433193 334.70773326744290443 336.04982761736141583 344.29044564888221203 337.55406665383327436 339.75493240150791507 345.68214924604671978 341.38554204692843541 327.83126860904599198 337.72438379775553585 335.09693984156302804 326.94688436100739182 339.99704230722500142 329.35033469511904514 336.32115279742629355 334.69994614431101354 341.86789183476525977 327.85529868278695176 343.06761831168012122 338.2930453722244124 330.63350425475380234 331.90455724562991691 340.64571244073607659 326.43032275797747843 341.35935869644447394 331.37611690490018646 333.03124464968317398 321.25421141950590709 328.82312816226431096 336.53340907034663587 345.40217911593271083 331.68309177610643701 332.78188908094313092 325.70104264158396745 332.60045047046708078 338.8972798507042512 324.74770313817310807 337.41554767044920027 332.11645503563903503 336.98627660538642203 343.41181733964475598 326.60870833929129731 339.23160823094406169 336.27624015023252468 330.29466191551318843 332.2140808115440791 336.56051515039632704 341.81215299009562614 351.00839104549345393 338.60874590995706512 325.47407105116263892 329.99211059465289964 338.16368764100712951 330.95965934686535093 325.01093318562783452 344.42932990169776986 338.35528884401247751 338.78048945588665219 325.87589021593623784 326.85513615331706205 328.41512379969577751 333.77314593174298807 341.42469691863271919 337.6521193096439788 332.60561740532796193 322.50971457131788611 333.88642194460595647 341.39926846346952516 332.57153061482631529 345.87924034215870961 338.51590103342169868 335.61541530309079917 329.59734082045827108 339.28406457032946264 336.78112170835794359 329.97717176729281618 333.89088438589470798 323.70161782971860021 327.12227288910855805 330.86169353198414456 333.14025406132680018 328.32352241798599835 332.62814284701369161 327.81553618001174755 335.21220344696257598 337.15138244183407323 336.7386955163165112 327.99362359231838582 330.5064673898689307 331.01464493973497838 345.86074939881717683 326.20303347701099028 332.98981426460778721 340.97972887356911542 330.32142101184155081 333.90062930133206009 325.19880454728979657 330.55008273895998627 332.92996198631186644 334.83536108464380732 321.55306004764679528 334.43648607223400404 334.67499227766353442 318.13583442403637491 327.38074472377797974 338.06731366210971146 332.35954744771072455 327.72301495664686399 333.33698999559919685 333.33797872280661068 323.0282859835419913 339.74199696108809121 345.8453789066071522 317.36372503796707178 327.84638010013571829 333.52758890082736798 345.15238691475860833 332.05864398289304518 331.32176753847903683 338.03719798412146247 349.09391747354607105 336.26287537575387887 325.94361294737814205 336.10875565518125541 338.08038813220963448 330.83941353603262314 335.12871568242377407 343.29905619322903476 323.94405756327546442 334.38416502787202944 329.34265191588087873 339.80957063986858202 317.30351205359789901 333.39296882130309996 322.57145524285289184 319.35654007703720936 329.63336384418209946 324.72587745739633647 342.04492536544472614 331.81127644418029377 323.21822912555114726 336.07482936276653618 334.90169766562883069 332.41654735353648675 338.06154623080209376 330.53339980564402367 337.84283901225660429 322.67979301592896491 332.51657198374653035 341.17271116166642742 352.42297787261924213 327.81174557323231511 337.09151321653632749 323.84698553091396889 334.63720585989034362 337.57186336101000279 350.68181262278443455 330.31890470041128083 343.99372851583325428 313.78216992148952613 340.87161686952049422 324.34006359646565443 344.15834420012129158 326.39805789460291408 330.81471746453365768 332.62747713494979962 344.84193136281078296 327.30664613727492451 332.47635290067273672 341.52393899635148955 345.49027209048222176 333.07862960495924654 338.6087515839203661 343.21403084418858498 326.41586868190938731 327.50453036993695832 333.15332938993475409 323.77012501259400779
-72.485683190003371124 -79.766294877018509624 -83.392477649020207764 -82.336408997054931547 -80.171973634136733722 -75.124696084611898073 -79.727276376825329862 -71.346325423424559631 -76.181836835231877103 -72.90565081592076524 -67.719307802398589047 -70.94928365265977277 -70.124043521135362766 -73.689949509023392693 -87.13169957909643415 -71.011318076078097761 -76.403580270729023027 -80.094181960253621355 -78.725334989124590379 -62.757936726643166025 -79.717049135836191454 -73.446978398835142343 -75.340513348606179989 -71.754645509595491149 -70.108970692959275084 -80.778274071050191196 -77.128406031580226454 -76.557728145616962934 -82.334014800790384925 -80.753819310558725419 -83.651212873653321367 -75.815917758424262729 -72.458393723509246342 -73.281450642642028015 -77.865888466326850903 -73.506360282366699721 -73.040486351834829293 -75.64861704671885434 -78.464312089168885223 -82.846187232491942609 -70.062049511496979903 -83.281349447634084981 -65.374665006289717439 -67.495743139632097041 -71.043692376215958006 -67.655774975765154977 -70.184644393921388428 -86.018709513879215933 -86.342968240579338612 -73.5087184316564759 -74.063704422449049503 -76.334943715164200739 -70.080516163865283374 -72.065199579681475939 -65.419989053105553012 -76.446147319855555224 -70.966595221919931191 -74.475317768291375842 -72.569175127338496623 -83.734562943735312501 -80.157030825672180185 -72.673193655912712074 -80.40461426997624983 -68.978544940661663532 -74.969785429265826338 -79.788299839882284914 -76.241064776727199614 -83.701539351450932713 -77.239567316211591219 -74.901597401197065551 -75.388746918081693593 -76.663803775257889583 -78.200708101167776931 -80.338669471528532995 -70.607150396302543527 -79.331424017513342051 -62.869031550167122191 -79.365494882402018106 -77.41313242025331931 -68.289112634618533093 -65.289848387299755927 -68.991908704939589825 -74.136545253265381916 -69.396171278611205935 -88.926803165646362004 -95.037289720478099753 -86.443926603413757448 -77.617527561888365994 -72.92632949999493519 -70.400653546735284749 -81.890374698798254371 -72.119074926741149056 -82.647076227754254774 -77.388394086843192099 -78.553316476376735977 -74.330567911686330262 -82.995840899593659401 -71.273691971195717088 -77.800358393149551262 -83.893567286571993691 -67.687055554309722538 -70.951721001698004443 -76.897819194621888528 -74.351663881241179865 -68.773690337451540699 -72.2426715306690852 -78.352605916832516186 -62.17365369891128779 -72.266317940203649073 -75.830638373834958088 -78.351702635088201987 -73.531805673172470961 -72.104643241965064249 -77.232034521838727414 -75.644671138526661025 -78.434856998397776806 -65.363386734952769075 -76.084698294290973308 -68.490950198405215588 -79.646285288195798557 -63.783843110263418907 -73.249612182437175534 -69.217534378919964411 -78.768376142030291476 -75.013694030440333904 -90.695138363589236974 -83.758095224741992979 -67.676514585464587981 -81.251273990078814791 -79.669018918953725006 -83.60190194290242971 -76.777073346994910708 -72.622370183484093786 -71.997849033486858161 -72.994198110809776381 -81.174768923523032527 -70.780372310638441036 -69.009072656974140614 -79.527167083729324304 -77.079805487631716687 -76.966865629509612745 -66.223052104843958432 -78.005489508555697853 -79.551147849721672856 -81.575119089464607214 -84.078258967890405984 -74.407857117258373592 -73.443756439461353125 -60.067839150317219321 -81.290118024670391605 -77.832877265493664254 -73.905601942452690878 -78.896052827666196094 -75.277295078238495307 -75.663121923746842867 -77.332887563438376333 -81.586748982762799187 -82.052029493372714342 -78.56556164474528714 -77.906728507501782133 -75.316604490963271701 -76.508692096669236093 -72.090128080382882558 -74.732617805914458131 -77.438220303501424269 -77.024417902948641768 -78.168068393596414012 -75.192099746999673471 -73.077603763898594025 -84.536599026440171656 -79.058111327048919748 -71.280671727375988667 -70.19311413817894163 -73.405892930434731625 -74.141690742498937539 -77.144994719576004627 -78.165935377011848573 -83.525849193927939496 -71.583713040854462406 -74.332119176886934042 -82.377405852173438916 -77.425146110652377729 -67.406799074633724445 -74.541214754584260049 -73.87493847579654016 -85.089255864292468345 -75.466107353222056986 -76.32816035952775735 -78.074656900487838129 -72.490395496772123352 -74.310151337320874632 -81.999228866494348722 -82.25389259339104342 -78.280518206322881269 -75.251621197198190316 -78.017851804824431383 -77.95738759956168451 -70.483012909438798488 -85.132611451801011526 -81.871359722824266214 -77.201534041704860556 -75.307315886545524108 -77.168375186795657328 -73.950692608577384135 -78.67755787928973632 -77.878181139417179679 -73.040381839869098712 -73.507176999444865828 -71.425261183287801714 -72.05756550699297236 -73.473661748449870856 -79.060785532218858407 -78.08121525725645995 -84.415310386585474589 -74.804209707787379102 -71.670959111681412423 -80.353519591381044052 -75.162479004905492275 -72.643388666754091787 -75.912565834650806096 -78.57486909612906345 -73.990283563391813004 -79.819307800754089044 -85.388217417937923415 -78.520243432261480621 -67.931276406016081637 -69.582243479639316774 -77.24318935576354761 -80.326631105327180649 -74.833012716416931198 -79.641896400525240551 -71.087434532971983003 -67.73549736473923133 -83.611873286133572947 -70.211289905632753516 -73.084449061802402525 -78.850039051858175299 -77.094228903228881222 -89.905353576756027678 -71.078797758981664856 -75.507437259694029308 -78.565505281142876015 -77.869255202596278309 -73.656811763747299437 -69.922144639856583126 -75.393604506509163343 -70.007788356886891279 -73.815027558837726929 -72.383834599792280073 -72.884144872305682838 -81.55957896618514269 -83.446340008287947398 -67.398040165142845126 -77.929955047076902019 -77.467431807657533227 -82.651118163177557108 -76.206637712286621422 -78.972776864731088153 -80.247744357161266748 -78.920877721067000721 -70.980972942158629735 -67.730325155741226695 -81.126547361684629323 -83.249578363062397557 -70.17633680240479066 -81.179448465638643029 -68.648422563613138436 -75.256947439735085936 -79.613841719624304005 -71.38330857476276492 -75.816047211336126566 -70.580939919344032774 -69.105225724948837751 -75.941203591038146214 -80.323083105981993413 -76.780660968541255329 -74.761102132698738387 -75.409222477489777248 -76.509757724802710754 -80.663013828128981686 -76.601642894363436653 -84.567214955935497755 -71.78685073536698269 -67.35972466972731354 -81.149605766576627275 -75.680704191986848173 -86.079443182404361323 -68.823623749575602915 -65.361480656412055623 -70.883827097717272636 -72.089389080858978787 -86.194253061708906216 -77.279174548128082733 -75.895804622167801767 -74.736416774083622272 -71.565866522870948074 -77.070218408536987909 -73.342417502011059582 -71.150461500015779848 -86.751798540469650334 -86.578450369581361201 -74.313812014604664569 -83.326762191346730901 -70.570585317185617669 -72.298063187230127369 -76.790428746381678593 -85.446383119494569769 -82.069754723336785673 -83.036631740769792032 -78.804456486782243019 -81.28249664996451429 -80.946122147816765846 -80.554444459937542433 -81.030841518226907283 -83.971554714765417771 -70.803265994909082792 -71.731181061316092951 -83.469912063492188281 -74.746980951546944993 -82.170540690273469409 -86.295188753783335756 -84.141340976667592599 -80.215403525551266739 -65.619551292628642614 -72.975272168650235471 -79.170989349675181757 -84.070593333205621889 -72.722346984835098738 -76.381090080396873532 -60.768685182842524739 -78.233137453284726348 -68.748504406658071275 -73.095371701684683785 -79.240994567638495027 -76.247972788734401206 -82.730172789095263397 -80.595181501424534076 -75.351972865928289025 -84.189122824974020887 -71.449387773242676758 -76.441181957410179848 -72.909407540557367611 -72.817581025370913039 -77.125046211403400775 -74.521869830889954756 -80.819539650613677395 -74.58753966115587275 -73.865784425021530524 -76.502047365722958716 -68.660108191418572687 -74.512642459760002112 -79.422427379083416099 -74.305906689173937707 -71.449656176084488379 -75.890223297717511741 -79.116721406153956764 -68.608020255795565845 -79.573358527571670606 -81.760113833370795078 -76.186404430344623506 -82.427093341418128603 -75.290000200353162541 -71.858881039205911634 -66.980478383102251883 -83.143611511906215128 -83.735139012335935149 -78.550382819080311947 -79.258941210935745403 -66.836830707994323575 -79.688127178604162282 -79.386197807876555999 -71.024830911990434856 -73.124060146986920472 -80.468592042537324005 -67.86009162365317593
-1544.1344774029403197 -1554.3763740540894105 -1553.7352306116781619 -1528.7845742706188048 -1533.1588206536514463 -1542.5505450271100472 -1539.4707572167314993 -1572.8621672855194902 -1553.9588443003278826 -1541.5452579057161984 -1534.4062302804859428 -1564.5429022847783926 -1551.4556856691885969 -1560.5111117819035371 -1560.3515516155557634 -1548.2801774261306491 -1550.1119553212461142 -1557.291865703398571 -1561.7799902588972145 -1552.7368245179450241 -1544.6157444778352783 -1546.4749170631889683 -1528.4557723394400455 -1543.1230398748371044 -1552.35509240068086 -1558.7244165226743462 -1548.4573615567958313 -1554.8427111768501163 -1510.614444971183957 -1551.2997528241210148 -1554.9040368910623329 -1530.6833528252102496 -1537.9108749858141891 -1537.1766842039266976 -1566.98676531367596 -1553.420672767128508 -1535.7214524115665881 -1548.4588771205947069 -1566.4568987299087439 -1569.1043426243165868 -1537.6343307521287898 -1529.8775065579329748 -1557.5107341470456959 -1541.52218502420601 -1549.7026336555945818 -1535.0771356383229431 -1537.6188217063506727 -1557.4091961758451816 -1561.5954908213018371 -1574.8825111705077688 -1562.4336149554067106 -1544.9752257706204546 -1565.4272420271663577 -1563.0904107730923442 -1545.2748141998636129 -1554.7748301772853665 -1575.6252258428271489 -1562.1174803168755716 -1557.737013460871367 -1563.5010319357731987 -1538.3046924498812587 -1551.6788763252666286 -1548.6945983378336678 -1512.7430481536825937 -1560.374633635316286 -1555.3615109142472193 -1542.9274672585702319 -1543.3012927233817209 -1546.4656402264629378 -1543.5427465196344201 -1543.2221765721735665 -1527.9749956128475787 -1537.9876927143257035 -1528.3628342095482822 -1537.6861232880339685 -1558.7925641803392409 -1549.1112313195890238 -1564.5701198157948966 -1532.2427408031237519 -1552.0168098955075493 -1541.6026076134501182 -1540.4098621522018675 -1546.5093698397749904 -1539.1377185610206197 -1573.3203209998453076 -1551.5170338204673044 -1535.7530622426770606 -1560.7444430581765573 -1542.6249487498291728 -1562.350738021809093 -1529.8004731513785828 -1546.2364401223840105 -1543.7130105260353048 -1542.8388122394742368 -1583.1210919068350904 -1552.24802606319804 -1549.1180993041498368 -1556.9556491950331747 -1555.238812381500793 -1569.879895644869066 -1534.2126081014866941 -1546.1365531168760299 -1570.6756646774063029 -1564.263128552066064 -1554.1414020691429414 -1536.7231462025160909 -1560.0122214475791225 -1572.8818091484333763 -1558.0093840480167273 -1562.4157013051537888 -1570.6666080449053879 -1567.2025843081066796 -1540.7168632313919261 -1571.7665432819133002 -1543.1168466551177971 -1546.1855768792747767 -1536.4826349718509846 -1551.0266806211379844 -1552.9284973324254224 -1545.4156185930287393 -1568.4495729644770563 -1568.8129409144853526 -1526.1057660564713387 -1542.6690215046373851 -1556.5816284468673985 -1544.9928745576819438 -1554.0809682170020096 -1557.7732654759240631 -1540.7628665619636195 -1518.7514051526377443 -1564.0202113752623063 -1530.0368379306330553 -1568.0170786714463702 -1530.094214713675683 -1544.189288021263792 -1538.5136854933109589 -1579.0985256350950294 -1538.5530745282799217 -1558.449245685675578 -1573.4706458999226015 -1541.8192420776431391 -1557.3679939968312738 -1550.6825459086026058 -1546.5339305786135355 -1543.0243817574344121 -1553.9938270488764829 -1541.6359211403093923 -1531.4996855565746046 -1558.0608541313813475 -1556.0763891648607569 -1546.4471593451712579 -1551.6060420832768614 -1545.307822325777579 -1520.5437143523388386 -1547.2946843936483674 -1557.6927304091218502 -1558.0864221014983286 -1510.934311834276059 -1566.3442192973877809 -1553.436030784264176 -1560.4561040786550166 -1535.5677619087784933 -1538.8476462054661624 -1548.9181757870235288 -1561.4435285568006293 -1554.5753287141380952 -1562.4103407013353717 -1550.3426747161158801 -1553.0558184965109376 -1530.1324351659229706 -1547.9879924470228616 -1555.6817346176092087 -1554.4635644453228451 -1563.4635294960908141 -1553.7258056442703946 -1535.7197291449765544 -1536.3423170516618939 -1561.9055815870735842 -1544.2947412629216615 -1533.3924558165656435 -1539.2507727936315405 -1542.5709873551893452 -1556.031541991743552 -1570.8839852448681995 -1537.6675969461648492 -1555.2794275695289343 -1533.4730618534194946 -1557.7010086619861795 -1572.0362741947515133 -1537.2026594119149649 -1540.197179804538564 -1563.7069613622504676 -1565.9899283775598633 -1571.0564838892325952 -1543.737012648985683 -1548.5710601398734525 -1553.5784292343012112 -1561.4132526862931627 -1540.9595808422357095 -1558.0517182401429181 -1548.7244610475761419 -1571.6707113463251062 -1543.0212878307079336 -1556.5392972747554268 -1541.1467789097962395 -1559.350779165783706 -1554.2726407073798782 -1556.1760689437840028 -1557.307834195316218 -1562.6441053807370736 -1567.6444427879587238 -1540.967250205782193 -1560.7436388630092097 -1560.3314464092336493 -1537.5016621797508378 -1563.3981895631759471 -1544.659397672318164 -1545.3344124701150122 -1549.8044072955779029 -1525.64550014947622 -1548.5124444731723088 -1557.6065000472260635 -1574.2204122950424789 -1558.7006692818579268 -1543.8558004297206026 -1541.3917122627478875 -1559.7555582161585335 -1534.0170484597385894 -1571.2877143484959106 -1551.1172643018255712 -1536.2646204787906754 -1520.2516183206275855 -1553.6212373229855075 -1562.5412616716628236 -1550.7500731078662284 -1544.459877451183047 -1566.1253933058817438 -1559.477966199089451 -1556.0589975220404995 -1536.0084705228905477 -1570.3907587543865247 -1555.8468050235453575 -1553.2905300984602945 -1535.9510827237086232 -1562.5268591881188058 -1534.4444581318541623 -1543.6184002229779253 -1544.4723472314085484 -1537.8087653185989438 -1545.4906933567710894 -1565.2736430064896922 -1538.0691032075535531 -1532.5446441022313593 -1561.7848585691194785 -1550.7611976146179131 -1560.1352959772048052 -1564.2048478015829005 -1559.8339939072800462 -1524.9842512173624982 -1543.3035622334539312 -1545.6254058649860781 -1565.5368352390439668 -1580.653558899429072 -1583.9562482096550866 -1552.3229547248715789 -1549.4321257642588989 -1565.5424704029476288 -1543.1839276186424286 -1592.7564484911752061 -1539.5473005318335709 -1539.6615877244450985 -1543.6499927466222744 -1573.794766169650984 -1538.2517830633073572 -1556.5377383237350841 -1550.3181750775204364 -1538.6987051580370007 -1562.0378185831996234 -1538.9643413358737689 -1551.1005985438189327 -1533.6764690105705995 -1544.3271500089363144 -1569.8373643666598127 -1533.1233839864512447 -1560.5547955132562947 -1562.5391825046253871 -1548.7592341750646483 -1552.3011111416251424 -1556.9825415279806293 -1551.214904988385797 -1580.176870902666451 -1529.0736487878014032 -1587.3786930221174316 -1542.9502456765840179 -1529.602428892812668 -1556.3370981013674736 -1550.5716316657581046 -1541.0053653810459764 -1528.8991930557817795 -1547.8133759742052007 -1549.5734949379771024 -1548.7177274960058639 -1544.1795249430915646 -1558.4392680682369701 -1531.2006548581332481 -1562.6509483087459103 -1534.2731824592435714 -1550.8625166291465121 -1559.8003431379806898 -1544.3065298950846227 -1547.0205328931238 -1539.7383304706388572 -1532.7357108338264879 -1560.5519467920832994 -1532.2869694501725917 -1553.2494664843054579 -1535.2901090881155142 -1542.1581391348861416 -1545.8286761589433809 -1547.7218983248153563 -1541.5659463973236143 -1547.7137480899475577 -1553.812713825064975 -1556.3387044167604927 -1539.4635427818611788 -1559.9311814057418815 -1556.5617584854908273 -1545.293951946013749 -1531.0975994593754876 -1550.5436937671429405 -1532.9867015485165211 -1564.7417218895202495 -1556.1680930603345132 -1502.9406725897072192 -1557.1234096028254044 -1550.9016953034035851 -1540.4582102533379384 -1548.252645457081826 -1563.518548869270262 -1556.5785874726236671 -1563.4399259324213745 -1551.6591696422142377 -1564.5554280872900108 -1555.9072725089688447 -1537.8535816452535983 -1542.8387633535585337 -1561.3740120646007199 -1548.9593515546603157 -1535.5074142004446003 -1546.3925569716866448 -1552.978451996995318 -1531.1093307213816388 -1544.4990206491459048 -1557.6275970539259106 -1538.500894604549103 -1549.4822031469102512 -1551.5077593610176336 -1537.3325589394491999 -1538.573497785986774 -1532.3989012860806724 -1548.3267605512724003 -1548.8670834835797905 -1548.4360401327890031 -1564.2855947005041344 -1543.5649808435241539 -1543.4314873513812927 -1557.0402533457952359 -1543.7796706026656466 -1561.9313744666142156 -1554.9108702884634567 -1548.7059057709891476 -1546.4677886257409227 -1561.9050706448315395 -1543.495637337571452 -1543.6226084101010656