50.590941056705773349 54.225388943302313294 47.862429667003745237 51.919882155769542464 55.263018104426343768 56.861877178217461903 48.89425945788682526 50.792163640806052172 55.634034399875623933 45.795439977973224188 48.064138791501392234 54.378562629115350546 38.177639231334460135 51.40135837134013741 54.845887270830679938 48.568623634744000128 52.884534058654097066 54.931909887365371503 50.065486011987857751 54.627083697685165475 47.54302949326546468 61.385517152395337348 56.894916255159209584 53.278078161206316565 57.070120288664050179 52.27707184244252403 46.726088809124412649 55.252372587223675282 50.948742736607670167 47.392652370748606927 57.960841808775249717 45.340140002518850793 43.736921534642867471 60.057897675554919203 53.693774253371842065 49.043156335033870619 55.496574012990635083 51.361103662950860382 57.484581405170686708 51.016134491971527609 50.275235337866924112 47.316040513024184122 48.054725628441246954 44.105338321012482083 48.876426888412574101 46.440781524871653119 58.575163220952859433 53.331509330570440852 44.778468443062912741 44.203568873675763484 47.515551120695022291 53.274565280561020586 57.084858720227465767 57.062824208759359124 49.18872022179818515 51.930623197241246203 50.718439589719920946 41.871200692187933612 53.137149924487566466 45.588778917881278119 48.158177773445316916 54.078084572596537782 62.783826155887211939 52.286601734931508645 48.406030780239071021 47.595457226067161116 42.44592567564455976 60.108861983894328773 59.899051248146122362 41.994238998984762645 49.889038640950005288 47.515249403605480438 46.628413010419926366 52.895833057015053669 39.586682445322068702 53.135160646554147945 53.124090963618002093 58.037879825896176555 49.070130513803732697 48.784393054907660314 39.250129492686902211 48.276974587049437559 46.95764278224388022 55.265317029677198946 52.844872690037007601 50.068687326675053839 44.360616332632481829 45.748405917299628243 54.986962724677709957 53.876753579462651089 45.407810966666602326 58.254285225271658533 49.055738956704061593 41.913137256462192681 46.838476443242512914 51.200663326012517018 49.122693025561169122 63.865255765834241686 43.602128983306997156 51.483805066617023272 55.486693619190937454 49.647774780650067328 47.707847023098111094 48.079028432825730022 47.394295576544642756 44.63984871509914143 54.982621312022779136 49.603610574368701691 57.351108467862644602 44.685165345463531139 42.63208997512483478 47.461782843515017305 54.130597111794962473 55.348470612896015552 50.449102619720392227 55.700594434405502398 48.554032232104745503 46.284543394898435054 51.390534446940051794 47.553690106914629609 50.686838803940631237 47.155144017801788436 54.840589242616879062 46.724693049927992661 53.464247263028809698 58.534286283319687527 49.635341082835971349 43.258510194163598328 53.836289593248437768 45.943111519871230541 53.913894405353445904 53.34895889664417723 51.817529220724075856 53.243929597353933048 54.294797580454343233 46.927182218891573484 61.271714745442061201 53.003835329897860618 50.163559939268473897 39.885813155914618733 50.92044035819347414 53.882897958349090572 45.73602159851441229 51.243489328548136541 55.448316794331347523 52.678592342706295426 62.955817917954533414 51.602534763694329456 49.335380355630867655 47.326574262610400012 40.677274707789322861 53.604049031748338905 48.42797547157439908 46.913329445778302329 55.85839278882212966 52.434135078852747824 49.263837405111274848 53.612280572252579702 46.132304332917264844 50.303461361260090712 48.26458751612932474 53.06873109169465863 48.406327408999317186 46.762114558217511728 53.807915677309125613 46.572840291141510249 54.173290042652581633 48.367049549333003711 50.245056277543667989 56.242987926922964448 46.001611160379582088 48.553972889081293829 45.815810059328299531 52.266768014396333797 51.031209551892430909 49.074195363855366736 50.37083979391662325 52.445979994240083499 48.858142261461097178 44.419859817720684703 51.08794881962592882 46.612639661266655366 52.899683687442291102 48.397499725690948935 50.484175059044879674 54.500699848933898295 36.014854067338127663 58.077471915105810751 55.413121488188359365 49.998022843197887255 49.504169601059125227 49.102793425627957902 54.131217287937374749 49.2092275674657742 54.799656970443351156 45.963725401873126941 53.206011295401708594 45.989992320405754356 56.810736495964540893 45.881207011428735143 59.095439658367141078 57.782027337501489228 52.190087138695879787 46.452573357925260211 44.494306545765702765 52.26813889493030274 46.957084801936268548 53.720080769656121333 49.725481145922657333 55.971591087376438622 42.409684425982668188 50.304767510105953932 53.627763254736485976 45.188184424806927098 49.915710842059354491 40.593970436570160132 46.502177144587399482 46.983614006252999218 49.030951573987891834 44.134590907140314187 50.136587809578855968 50.021095460410997191 50.486484550436600216 60.703574611035975295 51.824015499579950017 43.950429427803456406 53.633907240809961081 50.662047660343397126 56.191212467857333479 49.929684173191049013 41.411665645252917045 44.333392545221322223 51.926596881009338347 52.409349081932013803 49.319721672035072402 43.740040913138237499 56.362425237910720455 44.195293707297402364 57.567011980776740643 45.970618628980616904 49.904996436214695166 51.110280164936831682 51.735155153384184246 51.059169532129097036 52.833846748850270103 56.283073632944677911 43.113280835463591245 52.080100864028025853 46.930918278316084979 51.37333092871627116 53.102253592703775098 58.110646201364005492 57.375595061061261504 48.6988169320447426 47.54446871005383457 49.3341037820588042 46.252913584407124858 59.658354016912632289 59.468958886096693561 50.777308850472479662 47.131467206574022555 50.207275702409035034 60.509819228746913211 50.924215083733770371 51.810011537916437874 52.656313291217387018 53.226471466533148202 47.935596330108779739 53.016142153189754538 39.198758840414647864 46.514277274527039197 52.696746896548631867 56.791082530000615236 44.350610043713835751 52.593456990832841313 39.297069460160543031 52.897390221159852786 51.36492583266812062 52.056971903354856579 48.767049236423090974 51.806423588390103419 59.969205320193211151 49.936909488955777192 48.741440993298652984 51.034542521585088082 56.805608968293057615 49.881662073036828531 58.758221587841724443 57.526890944886922341 52.725074952966828334 56.6854743917057462 56.602283033299968906 52.54759487531291029 47.605034371729715303 41.108863071304682535 47.40435207316504318 58.490919158218844132 56.114809628927680762 51.438218841652094682 46.155229884944070307 52.428126964196813731 50.212971902325158169 58.208381712213061121 58.613357108952982344 49.58357327452839769 50.307152856618763792 50.491752986380582513 55.837529600662662688 53.626466423178825949 56.794350330026588836 49.857625595615473912 45.037511735272175883 54.684733053030029737 51.35561843122430048 48.732689553733990806 55.669026499970904354 61.24307219021937243 53.765220773476428917 56.048890813350332962 48.97520795332917487 46.011462388872715223 47.225148199775013325 51.08402248647259114 50.744590183162159747 46.823645175709771138 52.166138165227820878 41.269796898892813886 42.918365629050363452 50.151604267085744482 45.6824563939855679 51.949814314024976625 42.064708768578142895 55.921929805193386187 52.464060047797289599 40.470761860667323617 58.872336536437025245 52.3707239257407835 51.583013219124325133 37.199021351111511535 51.004150999705075265 47.16810497512251743 55.387977572380371782 45.531981554841692628 40.639582849613461235 51.089977971883385521 50.649795103878702207 51.152360035307232522 44.448846596361896388 43.389801345625208739 42.791944822558392048 44.090889777529355342 49.383349343119206765 55.810777462284569594 52.925181558651807734 52.747834530669479136 45.618717688400558075 51.700340148965572951 50.063107263672314673 52.33709518922947268 50.509766772650763755 54.098627503912105396 45.17008484306322913 41.112050564938542152 39.868253908731638546 58.806751351774202874 49.274971412314414465 43.264768945516372867 50.725550621090157222 56.122290176491148372 50.296918337391723242 47.176008738972200263 50.317284877945198218 56.609426555112385415 49.042330019619875259 50.824873644712056375
-1702.2966465018223516 -1680.0607922457807035 -1702.9960986936343943 -1701.651330969898936 -1692.3764293210499545 -1688.4990431427054318 -1678.2059463849366239 -1691.1212185604915703 -1683.1613180031049524 -1695.2310788531574417 -1701.4329616051950325 -1698.3652203717513203 -1669.9396267527692999 -1671.5123576295086423 -1678.8187724103731853 -1711.9138799537738578 -1695.1440360963454168 -1661.1889418603780086 -1683.294828572325514 -1691.2123389528283042 -1691.6188909058096215 -1676.024352869601671 -1668.3021575333980309 -1686.5928138886042689 -1676.2962785961317422 -1695.3869535104497572 -1701.8114588510011345 -1677.2820452322264373 -1689.6045507759149586 -1689.740850474287754 -1691.5615428983808215 -1693.8093378198557275 -1669.1362156790753488 -1695.3673717824469804 -1696.0190495590811679 -1677.9663307738846925 -1652.5970992224365546 -1667.8118950283719641 -1685.7538687114993081 -1674.6313974679021612 -1677.0900422041102047 -1672.9097001226252814 -1695.950468328172974 -1695.326892005573427 -1672.6811142089738951 -1665.5606286319148239 -1688.3042822988079479 -1688.9997690873894953 -1679.3912723251162333 -1702.6181457541026703 -1697.6044465416705407 -1689.8317070593993776 -1696.8125805616489288 -1693.9853163654486252 -1700.8253179272330726 -1697.0332153463989471 -1676.0187710662523841 -1667.9138499303378467 -1684.8289194321791911 -1685.7417922457955228 -1682.4031629121120659 -1671.5421004710783563 -1705.0108941288892765 -1683.7159071658836638 -1708.1505771432123311 -1688.4880805757086364 -1679.9987178968810895 -1667.455166330804559 -1676.4164497122021658 -1698.1858168723601921 -1678.9834835038398069 -1683.7246232514744406 -1674.4569380737830215 -1680.2813026229873685 -1678.3531693704251211 -1661.0852763391624194 -1676.116771782307751 -1690.1609679619905364 -1689.0611889503893508 -1666.3457608057858579 -1682.9919867316887121 -1683.1948043652878368 -1691.4786135453402949 -1686.3061905748497793 -1685.4835705889809105 -1681.393978273138373 -1702.4304492443757226 -1690.9066477445144301 -1693.5411105170001065 -1690.4190037478081194 -1661.141200674618176 -1669.0628316124682442 -1686.1523700038621882 -1702.6683339425010217 -1686.1866699955003241 -1669.3418563722873387 -1681.2045822773868622 -1708.6867042744872833 -1663.8441887251003664 -1693.3922743826988153 -1647.1863398199088806 -1646.5336515539302127 -1687.966928380446916 -1718.6124853026699384 -1666.7239397585872211 -1683.8628568144661131 -1704.6886961723280365 -1692.0985964143055753 -1674.2442398313464764 -1703.5521106983956088 -1691.1109663829702185 -1691.8672609346701847 -1675.5627236707564407 -1680.6119359833694489 -1680.4609120634181636 -1685.0345182345304238 -1690.2654669324613224 -1679.7014380341704509 -1690.3871170759325651 -1670.9324789565700939 -1685.9877360670318467 -1677.1982136450053531 -1705.108441789525159 -1691.5250610943260199 -1696.2025365380816311 -1688.9121394680237245 -1677.1360321484073665 -1699.5976484818859262 -1673.1529023336224782 -1678.9161936275165772 -1706.3117261581953699 -1667.6880414836957698 -1696.8015717630746622 -1706.1456940776668034 -1667.721953264566082 -1676.9189561536509245 -1670.5200873150038205 -1668.5678150832588926 -1674.0429436449976492 -1684.808568902759589 -1682.1076458730494778 -1675.8907262398083731 -1717.9180713808032124 -1678.4325562862470633 -1667.4538864851631388 -1671.0011986021136181 -1656.4922056924419849 -1710.0745929468805571 -1680.9238962512376929 -1701.6448723751018406 -1680.1132505818725349 -1706.3212192631403923 -1704.3371618509572727 -1699.2985116753172861 -1676.8703253763346765 -1688.2039954843257874 -1715.1959040423530496 -1694.5323000603734727 -1677.6351501471015126 -1676.3149367318997065 -1703.1076444329480637 -1696.4105121536081242 -1713.3882223942589462 -1687.8035294623286973 -1678.3990603082550024 -1686.0836031368592103 -1684.0981292071587632 -1690.2301479497698438 -1691.2553392120712488 -1689.6670499854847094 -1704.7325888928912718 -1672.1667159718188032 -1686.4466852575214943 -1703.9118655631054935 -1671.359989011341213 -1684.3233138213577149 -1695.9987935823589851 -1706.0485745343576127 -1650.6457989508924129 -1692.5559453687676523 -1675.8098928090553272 -1700.0927894963613198 -1690.3443675686696679 -1694.944469081994157 -1682.2111917899660511 -1702.6827387255711983 -1674.8986353165757919 -1681.0423710892871441 -1680.8942085654568928 -1677.2192546241183209 -1699.1393185771460139 -1703.5924574999512515 -1684.7833065638949392 -1672.3323294472554608 -1675.7655155412514887 -1680.0486792867322947 -1688.7335273780224725 -1684.7358534797788252 -1681.2799454349594725 -1674.8675595082011114 -1700.3272336688110045 -1698.85060546755426 -1665.4203102878034315 -1697.4786248726520625 -1686.0791910323418961 -1712.0211709717661961 -1695.9024031092337736 -1697.2943903173456874 -1689.5640560963263397 -1684.2726790200476898 -1691.2723813722523118 -1690.2276926916206321 -1704.4240427175741388 -1692.9567534165698817 -1693.0168660265603648 -1674.8806234676303575 -1661.5556977560522682 -1689.0853147155485203 -1690.6964044359945092 -1689.9767435392482184 -1676.6576718139961031 -1715.2668760332951479 -1680.5062071997977 -1687.5643124775128854 -1669.9767142589405466 -1665.1569362748650747 -1680.2247677117516105 -1681.4495831812182587 -1685.7621822339112896 -1722.987354236320698 -1687.1994285531363857 -1706.2201457759349523 -1692.6885835527505151 -1682.52460418722535 -1683.0257253229692651 -1684.9017790891780351 -1679.317938914813567 -1720.6593330041780519 -1688.4405157906955992 -1674.5184197386849974 -1700.2520341666695458 -1697.4913174822411293 -1692.1713763205038958 -1709.1560954672595471 -1677.9631525801071348 -1671.0663091280223398 -1676.4608330211297016 -1693.3005759867089637 -1675.6631589154405901 -1659.2477868453502197 -1688.9023787503490439 -1698.944459122916669 -1702.2469943417445393 -1697.8422193165033605 -1679.6542785735480265 -1678.5584318172850544 -1702.7128353442551543 -1680.9514783806148444 -1689.1933951052460543 -1696.4521228306184639 -1686.8884418016605196 -1682.6854334142935841 -1694.6338222328333813 -1679.0200982498349731 -1690.196894615116662 -1662.2199577892031357 -1695.3135585709192128 -1680.8864423116554008 -1681.1287447924291882 -1680.4275157014803881 -1684.6725166949740924 -1696.0218185791534324 -1681.0291156765958931 -1673.7556313084692192 -1668.9691417717247077 -1686.2722908657631251 -1691.1409860608735016 -1679.7617580160431316 -1689.1686186203712623 -1684.5474284319980143 -1690.9527264018315691 -1693.2738179506629876 -1700.4082042406168966 -1680.4900891915269767 -1684.8041302829858523 -1689.9537740238943115 -1693.94708251593147 -1691.3761150751188325 -1691.4492393939342492 -1689.5214844510151124 -1688.8225484435206454 -1714.6292120488922137 -1705.6975684626218026 -1687.7115185029872464 -1674.5192253135103329 -1666.7663552575509129 -1695.1111008170764762 -1668.6203395218619789 -1699.0127963067386645 -1706.7829579408464724 -1688.6430092651226005 -1700.6755880284088107 -1699.0528654975473728 -1682.8593723360538661 -1666.6343364097874655 -1689.4309698698605189 -1672.4930594270028905 -1677.8579746876162062 -1693.1693602260909302 -1693.1896157310475246 -1690.0627245093644433 -1681.8360991518879928 -1667.7371674405139856 -1692.8158898002234309 -1690.6375704661440977 -1680.2710749172699707 -1693.8396993932603891 -1686.0950545261148363 -1703.6163153780132689 -1699.1714574028446805 -1665.9818750021788674 -1686.4417675993640842 -1683.8601629647623668 -1673.1298013196890224 -1687.6981806604439953 -1679.7105657242857433 -1675.7606676833715937 -1679.1457985398860728 -1671.9472595955060115 -1670.5113399132260383 -1682.0872644821067752 -1687.7587037379719277 -1686.7609243582001 -1667.7652672072360929 -1677.9282787347490284 -1679.4428031197976452 -1672.0327780608622561 -1695.1267903509397001 -1685.3997459111933495 -1698.122511513004838 -1683.2019891418642601 -1664.0888262553949062 -1674.780309117263414 -1698.2037979573683515 -1686.9182933844849686 -1666.8399333208421922 -1707.087544238490409 -1686.823793376905769 -1676.120918463187536 -1705.105679287930343 -1704.5109478577255686 -1694.431508739201945 -1666.5658820667365489 -1675.2993772545239608 -1662.7578038811157057 -1680.0605622794794272 -1665.82401219471285 -1680.6046145073732987 -1701.2837903090587588 -1679.3195220881311798 -1670.5973816289404112 -1679.113514733976217 -1690.146710224014214 -1684.3718614244064611 -1680.6591046055318657 -1698.6005823074137879 -1714.1769020237129553 -1714.8986319871662545 -1706.9298233116703614 -1683.601393267103731 -1691.4750845088647111 -1693.3154657385441624 -1688.6360856342350871 -1684.5866001076547036 -1705.9571257248014717
851.62414072847855095 868.75751903864306769 867.62832712696683757 862.46586788562740367 856.38830059232930125 845.92933673719960552 859.91098079597395554 859.57896778000520044 859.25226506483647881 861.57406702659829989 870.83538623481467766 865.23821440521135173 852.13787589454295812 854.98478625604809622 863.50502800763058531 861.79819781041032911 883.1360568637680899 858.59931183201149452 855.51952421438124929 860.3472592815490998 850.34912072103293212 856.59078778747584693 866.92478261285384633 866.65124947639617403 845.85073921720720591 857.20495360727852585 864.59776777116212543 863.00190290436273699 865.15502357246191423 845.3521001053342161 855.0492705493630865 842.7836167301113619 882.90790839206624696 877.73724331748621807 851.42999457414612152 865.1108870984872965 866.05554609500984498 864.73505966224365693 859.23946142183888242 852.38269849856703786 857.55057445342549727 852.86463879144650946 869.75888470271206643 861.9391780845098765 861.90265628267002285 862.69345179475521945 858.42793436541126084 856.955752859285667 865.58076601090783697 857.37059310701783943 862.78941054657843779 864.63136460766600067 860.51580637912445582 860.12670556324701465 847.41786280107169205 859.11358791575946725 876.67027984925903183 858.43307982911323961 867.31703204580151123 848.50581685683027899 859.60406248925050932 856.27819184949782993 849.23473638966129329 863.86835625372259528 857.32605467298503754 853.98835709680338368 857.43283285107827396 859.64585187625152685 857.0352896194629011 859.43762827687487516 854.45125642683353817 869.46116505508643968 862.63136143291649205 871.02736913054457091 874.21149974240006486 847.61146083461130729 869.7393598860048769 853.34843377569916356 852.08881779120815736 859.5316562083791041 862.92046570285890539 864.32903335799267097 863.48761520722848672 864.96430414426970401 859.04271907312863732 871.85809999737625731 859.78537984955096363 875.98199280526148414 857.58646714528674693 864.29636781707222326 864.24284700349699051 858.45888843896045728 870.6305056983983377 870.66925557412855596 865.84253054847829389 855.5135425849987314 861.28768499129319025 862.74617795906385709 872.1331617598966659 855.60586942124723464 864.44042843311751767 862.65137912111936203 855.4556703018160988 858.09304642772065108 860.30285968484645309 874.16112817716054906 853.32275690822439174 858.63747544016587199 859.07972026737843407 856.05525894826030253 874.27327034036431996 863.51713635181624795 864.40362545390780724 870.70020235185211277 868.12103307475035763 867.48878508826840061 876.63151177249483226 872.19347114030949797 872.72898881851313035 858.80413264216463176 862.54022211305596102 861.01775595681772302 863.36770802433352401 858.47979214497786415 861.46314056760695621 869.69030999867504761 851.70376257365387573 879.34757835452523977 862.20654348994480642 863.06363781599941376 854.63009317952253241 856.80394548949220734 863.05171855362232236 864.81678301242266116 857.98788391115817831 870.57943684321730871 860.92320117395831858 862.16586073773476073 855.90160981224607895 862.9754892702237612 864.72477318988194384 869.05469070503943385 866.04507712541476394 860.53445534294644403 864.07929608055553672 864.11435117440157683 853.01249301948769244 871.87120455271690389 866.31366056227875561 858.8237222297751714 857.62395383031764595 865.85296955909200278 873.24050997964184262 869.42783692580530897 852.55094218380384063 876.30133879984623491 867.53405702197960636 869.29949284661120146 860.28445874213514344 853.26730059410112972 851.4950058300943283 868.06834183237583602 851.23748410903135664 860.31988201263459359 860.33395753068009526 858.80078920764299255 859.2937449285806224 863.41438229609786958 862.15514463072031504 861.43814460049611625 861.18200215594026758 852.92322447001527053 865.05345448439732081 861.58135653614078819 866.36507465497311387 875.03491000932558563 856.54439040922738968 869.42750299207330045 871.37768019857708168 861.12687202225470173 863.97605603649378736 865.05938077027326472 852.96255575522820891 862.4522663604019499 853.76826218683527259 859.49643558136574484 865.19146680740402644 864.97469664979985282 872.67815133211536249 862.95139758506195449 860.89447117476822768 864.73514257072099554 855.72289878059507373 860.68252822089232268 860.90582600208506392 855.71165942079142042 849.13239604685963968 866.63002279713441567 866.17915513604862099 871.37587798985214249 870.14054739800837979 859.64677919904363534 857.63064460396446975 863.86906218846047523 868.76540107967082349 863.63789582526658251 865.75891928465557612 868.18936212205835545 863.61917135968917592 867.17666552984076134 855.8010880918653811 863.84794289095339082 861.84397068872397085 849.24109937550008453 859.11839045159115358 871.18468396136495357 856.61695672381893019 861.76797408618188001 866.04932999014863526 873.43001865044288934 855.28510932747985862 853.72558071135506452 854.70823225080550856 870.92488831920388748 865.22446934190179491 852.83062594682598956 863.52452327129458354 845.95707359578557316 857.50768665802775104 870.01026039753605801 853.6865058939526989 852.64330683364505603 853.66672931128232449 857.6209914710530029 864.07710058742077308 860.87716608088055636 866.38031459210594676 858.91214222679218437 858.8702988103016196 857.8452353907334782 863.2386534254299022 861.53021239965812583 864.74645385387088936 869.85004119949428514 872.60178613910181866 868.08178747173985812 860.62138092526834043 858.62910180715243769 862.88410984040444873 864.16124815022351413 862.94413068436688263 869.71653740241049491 855.19948321393087554 854.07774728227548167 858.01246438431110164 861.61463728652915961 860.09437539169630327 850.63466012323635823 865.59263558898624069 866.38681506417412947 863.81131839572651643 868.72038399376776852 855.25834859916426467 858.90168099576101213 867.48787654415002635 866.54812954350950349 855.97876959936797903 867.87831353654246413 856.52008121671428853 861.74963121608914207 853.85401786426348281 855.65695425606236313 865.96725034378221153 850.9973267835198385 872.03092815509273805 860.98771044442378297 851.79683839362701292 847.72146921516764451 865.87028171683664368 869.54922137247024239 865.92443108376153305 855.66182460098366391 870.57007778756258176 850.02528342428456654 871.81605121149186743 869.68208321333986532 868.28262617420136849 853.67998275970307986 858.53254202200787404 870.00827515326636785 860.20197785543234659 859.99302115549346581 854.14468625758649978 852.03582465114618572 864.85488257764825448 863.71049594084593082 855.66437346541385978 873.24147529888637109 863.9140721829727454 862.86072003246704298 869.32499211869162536 862.27246209026054657 864.61463941586168858 855.07260313572214727 854.3801255143293929 860.57614246931723301 857.02912169178398472 850.27848301948188237 865.65872066610518232 875.22396385816023212 864.96509138033059116 873.47200266832078341 853.21122849594553372 857.4494314344774466 869.94520087046248591 862.85808526607661406 871.0620415343177001 867.70201735453497349 863.74595626076961707 864.57809783650850477 860.01046761835482357 866.35899939446210283 854.4347564443464762 854.33194993303391129 861.65973090558384229 853.39756604127910578 864.4444152463362343 869.3445307072322521 853.11470710731111922 867.64161838018821982 858.98523933927958751 864.10860097399199731 857.89946493859395105 859.34200724471713784 871.70200924410028165 853.4765575390927097 872.27428136616549637 872.87733492923030099 865.17520688039383003 865.60294985460018324 862.71605586872874483 864.87353925838351643 862.35963770091905189 843.74573976893339022 870.31033040367242393 861.57397202623394605 855.30284173516952251 869.47566788213816835 855.60959875015703346 861.77957060960034141 865.8931228379226468 873.46106562190198019 862.88790883215824579 857.36832573221408893 864.34266669935357186 870.56759110653615608 855.44469840567717256 855.64555700253617943 864.91558560005091749 859.08339391716788214 853.25060822155705864 865.78305628744556088 861.29494822037031554 867.39478537168508865 862.29293685067705155 856.73728278985925044 847.86773692595522789 859.80417791627212409 856.18145264136580863 867.8530537993372036 863.79917274196156995 863.97135265924566738 865.668551227969715 859.34000273183107765 861.51236360100085676
221.69741667723710066 219.97777510877833151 220.62168685891026598 223.33344002942152429 220.08695601250971663 222.16342740037092085 214.39526047547138887 217.71104481543972042 216.93727135548314777 227.65293447847867014 222.43612894915341371 221.11306712615689207 216.64808956838680842 220.85627496006142678 223.28644693170937785 223.4187466511390312 211.95425782038785201 216.22664423682994084 222.58740047334478618 206.09663664742183187 212.52842750668125404 216.91930682312795398 225.53578075851913809 220.72766232366893746 221.13700717196525147 225.07773966190683268 226.91130143352972937 218.29461515822910656 218.42462325428778058 208.72677364612309248 222.18671796870100366 220.74529511199060039 209.66353452179774308 222.45371955303346567 220.69156637411995803 216.73503938179112538 213.56479961417596769 208.64639291573837454 208.07816671583179868 223.60076509984989457 222.90426949627024555 219.11952800361669347 211.43082551130228808 217.96722650496840856 232.23879718557680008 221.49386496019738502 222.21413378812724204 211.67333380795804487 217.49253822713623663 222.65793269661793374 221.37041141304811731 215.23941298200179517 214.15516934898204227 220.50308073701447142 226.7282238465051023 231.3784138897622995 216.68103329541261814 223.42286571665550809 229.22079011518508196 214.92453603904300508 221.00286097269790275 214.50480355151472622 213.35542249780684187 210.60341049087179499 215.18899976529408491 214.49652760387624539 215.17917472118435285 222.48593238398481731 225.00637540664374114 220.52108404047820045 215.4126366754069295 225.81187208530624844 214.78492415582738317 217.25687042068082633 227.16661126043760532 209.71094686035425525 216.14436488218308341 220.88372666061201244 221.98336760402386858 222.77435237469893536 225.52400859082698048 216.03311577621076367 225.40948843510517463 216.56694094283446361 229.64216605827235185 224.37680278037709058 225.03893986422843909 218.28393601794473966 228.81183429045856315 228.00055078992039626 218.52184947789419311 219.8803072696220795 212.42291989219697257 229.34513102599035506 222.42226403685225478 235.74213181456448751 215.27857924307670601 217.83620912700382632 220.073652754152846 221.7495624907920444 213.2227582673376105 218.3245632974083037 219.58063483557748441 214.37505147038666564 222.17726089560963487 220.03992129560089097 230.49623334121309881 219.16207553019327747 215.62699212501598822 215.75805567278968056 226.838978210328861 213.2254847255520076 227.67300633499732498 219.75701408461483766 225.16403889558205265 225.45019771725463897 216.98692352759852042 212.28275949436337555 216.29616302835242436 216.52040061556320438 218.70205535824086951 221.26270564552805808 219.82758131679167946 222.70304426062327252 218.80713831963507232 202.59706487557832588 219.7562021542679247 222.77188787495933298 215.99767961796209192 225.83370041205435541 226.68750474662539318 219.96787220858419687 215.20640270317889531 207.06339107727353621 212.89519106228510736 220.27528883301408769 218.54656378994280885 220.87341405739775269 221.73507780984101601 224.64445622622338306 219.68513039546249388 223.87277751611568988 220.10910136478892696 226.47029691165451482 219.66908297295145758 218.00354882841077142 217.36600086399820952 224.85088561897788395 231.16411981796184705 215.25613967805685434 218.84991482848363376 216.92136798988155988 216.87081016062560934 218.69140661373140233 212.13786755091800273 226.60842382173643728 215.23139592869742387 216.20550496385291694 218.65206044932352825 232.49543686698035572 213.38124925057979908 216.06932129647267971 224.53181581899488606 227.9505400657408245 214.141109519791911 213.81389828908024242 221.1715790898846592 215.07440670845451791 213.67823484505407805 217.78002746241540422 226.44740642714728551 217.22720467453723359 219.47191827141944032 221.82758789536768518 215.84143026947205612 223.1072715226360117 219.95408640557752733 223.37494858991811952 222.50035524369701534 215.24707720335285899 221.13340528937717977 213.05982226166256055 221.13491841500814417 212.64018839047835741 211.35453482778191869 229.92430189869401147 220.1630084807214871 223.634778900274938 217.53185144373600224 223.05111140080333598 222.32561834386095256 215.74627936152450047 219.9515334052142066 222.47150834526061658 222.75836270969645625 220.22224956836322463 217.61230901336824672 218.17171582567925725 210.841248452852426 221.4845086272671324 217.79219323020191723 216.24445120323326819 212.34624137055683946 226.94125995881364588 221.80597629467283127 221.90038178172815719 226.57864321648250439 224.35069698907869906 213.50139047727384423 224.44679766963926681 212.12486717541071357 213.34134167620118205 225.55020013018713598 214.95792511340056308 220.77902939220453504 227.25409676831006323 215.50724737611653836 226.58531392475572375 225.07386017199277717 223.09691085093413676 223.77943000291475073 210.17350008110608428 212.85887837338074746 227.82783725962144672 216.2859735344661658 208.92378131921688578 227.4544182386376292 224.89242004631881855 226.91026106536327234 223.71664081665122126 223.08101230287169869 213.92204039649180913 214.26788386130712638 226.7328313296185911 212.59080505282270224 224.78990303403980988 214.9312074171132565 223.95774288982138955 212.08518445056100177 232.01389879509156344 223.7641560690547351 221.65832234376213705 230.06028344517977757 217.45723720383460886 219.88926776792220608 215.03106467206077923 224.60403530179701193 217.87980751196232632 219.90361149589639922 217.43663167463444097 219.91174314834864845 219.29332342721153282 224.98358937487515163 218.64922488700756276 220.72603041611662888 223.73055133893734592 218.09602892770712401 229.55165641186772518 212.65459474428820386 214.76194718965842867 221.70383763207257743 218.89111988740577885 210.97381519809215433 211.42472037415851105 222.54592363221513551 213.77288600339161917 222.74322477785960928 216.27402856274397891 213.32270490537783303 222.22549956554243522 221.17169892428790945 211.8189960923384092 213.45180411620020777 221.97156116352047661 217.0893253485081118 218.27404956035513806 217.47485422202890959 220.77190547219117889 224.96412963996300505 225.50951642619682502 214.02806727360527361 226.83425101009964919 214.6653886043445425 221.61667945341915242 226.22869382451096953 221.40973483568487268 225.26910458787793345 228.14600891473031652 227.48748162442961984 218.64256005026263097 220.32504873969756432 216.91668053681647166 215.54769111195039955 219.53429690932574658 217.46058133039116456 219.78182907303011007 218.16827816038508558 219.37765810071104511 221.11916094306573655 216.27652265041791679 221.12654465044948893 223.27958986323164936 223.00830766328186883 211.67079385405881453 216.83578673385346747 223.11273051038784843 222.72927236758081904 218.42241127066066042 220.32552389981299257 220.87022620516711413 215.22933019942627197 221.36671312221761809 214.28086699067921472 222.73172831261609872 224.26372992008131746 219.08255270975629969 220.23983503712724996 222.31281240809579458 223.7265396026178621 215.36472424867832842 215.26172377615796449 232.43049418634439007 210.48511090952129621 217.15623861830616192 219.50287236744810571 222.72756627369238913 221.89017526796368429 222.92967072497143022 213.57604856309561114 222.97401755423217651 220.41582157718940493 221.31324858208682826 212.57185626146383584 214.93857164479464927 228.7756022846131998 218.43784657841158037 220.06826952038147738 215.71182310359995427 226.34648221940332746 225.38618096030427296 211.11865903089329777 230.50064848882783508 223.22960541693257142 228.1577793606178659 229.80909381766858246 213.11322092057582722 226.54151673912335241 223.23575707875170338 221.48845214549015736 217.08606840988932163 220.89181952331205139 219.36459494008582283 219.31699031968426539 212.6700627529392591 219.58737148419663754 227.08672162015292884 228.70105022858061261 215.65583041112927276 214.11491607882305743 229.36357648111220442 205.85107329467535919 216.82220763732817659 223.8310985687082848 212.22864966410401166 212.60318874302069503 223.83040264021715871 216.66518113980819749 213.37441189670846597 218.8437148672668684 208.37861446721115044 207.65406007285594114 219.55330491353149114 216.86270248567950603 217.94677309551445887 220.28352707246426689
-1934.2337593753352394 -1932.3004814431947125 -1939.7918224741031281 -1935.1909651808839499 -1905.4259998048678426 -1939.7660623294902962 -1917.0486524546240616 -1945.7105424768546982 -1935.617279484671144 -1950.288569152570517 -1928.6557555108072393 -1936.6908566416911981 -1946.8066802574644498 -1920.0200272575327745 -1922.5436492078815718 -1922.7588707631498437 -1943.6550308594498802 -1956.8134275888633056 -1939.9422117390670337 -1958.0983947566764982 -1949.6925150470431163 -1931.3943499517579312 -1947.2551938635870101 -1944.9613123345791337 -1938.7697615046745341 -1937.5795429023387442 -1939.9155718748868367 -1936.1413911457573249 -1968.3579355492195191 -1949.3825506770833726 -1959.3994778589819816 -1933.845215894416242 -1926.6778879432281428 -1941.9871495160912218 -1962.0969350792904606 -1934.7398154980787695 -1934.7363801160543062 -1945.8454377740242762 -1947.1057043902731039 -1966.2792220297692438 -1920.5682891327091966 -1943.5459858691706359 -1950.0834377865116949 -1945.900667545753322 -1951.3141000084272036 -1943.1019723603615148 -1934.1420648537655325 -1930.9161960664250728 -1930.3297429816750537 -1907.5133677038688802 -1935.9530346617584655 -1917.9658060790904983 -1938.2280874578850671 -1957.8808570800870257 -1946.6550450065981295 -1941.0596943949551587 -1938.2808839813496888 -1944.8737516354560739 -1933.5362323982465114 -1915.0503486701593374 -1951.0309474754260464 -1940.6133830136714096 -1941.7379740349269923 -1940.9773161504401742 -1941.7309176606333949 -1950.6707395972603081 -1948.8720044011656682 -1948.2974364324197722 -1933.3364030315572109 -1941.1524879630542273 -1925.7233050506738437 -1948.5957190124120189 -1946.9264516014097808 -1953.819397415493313 -1933.3802238693906475 -1929.2858615348902731 -1906.5542291713063605 -1937.0691355934443436 -1923.9491822448101175 -1953.9888020868240801 -1947.2445108845315644 -1936.5383145818138928 -1954.6664410531211615 -1935.5159519097267093 -1970.0154907198664205 -1931.6546805452348963 -1943.0767049348139608 -1920.5353408334624419 -1941.6546605238720531 -1930.2345664673778174 -1944.7651800731755429 -1942.2568117211769732 -1923.9903373464844663 -1922.0016861913850335 -1952.9440562958857299 -1928.1612478622939761 -1936.8185109698235919 -1951.7948261708156679 -1923.9555982602562381 -1923.8555549941902427 -1938.5105605968180953 -1934.5404612031943543 -1947.4202198912812491 -1922.5955545995850571 -1909.1458127571581826 -1969.8296167749242613 -1941.6781369983511922 -1938.1884788410950478 -1922.1711260488273183 -1931.0348648230242361 -1972.2019644160768621 -1930.1989816606578643 -1933.1462893081722996 -1936.8741922601470833 -1948.5929296044459988 -1958.8001533929248126 -1937.8056481457476821 -1945.7638670198464297 -1961.416129510140081 -1951.1188194896963068 -1931.0703551508372584 -1939.519769391294858 -1944.2766335459657512 -1961.7780897754437319 -1929.6043091669746445 -1925.8843542932224864 -1926.7410102364865452 -1945.4239534888381513 -1937.818685901339677 -1927.3440855943167662 -1934.006613099381866 -1932.8562837264328209 -1951.330580589197325 -1940.7896994469556375 -1935.881898486720047 -1939.6570373582533193 -1937.6259354418527892 -1953.7365253005539216 -1945.3439710658271906 -1949.0053509022177423 -1937.6885388372938905 -1941.4776075350166593 -1950.7994888350619931 -1958.4530946830464018 -1955.5360391776891902 -1935.053716343748647 -1921.2076770275748459 -1932.9739738432617742 -1945.3856324652992953 -1947.8246035900572224 -1970.8146545972381318 -1942.7034568235203551 -1936.2590391179194285 -1934.9291736212937849 -1951.6582383508014118 -1927.1590833226480299 -1942.2043255114833755 -1941.2901021585146282 -1947.8103989820460811 -1956.0615227894604686 -1952.3233576289885605 -1937.0743907127605326 -1920.3765560850797556 -1943.5613168501738528 -1961.7323536703538593 -1927.9099126724490816 -1934.448268006418175 -1940.2131384991073446 -1937.6339720330552154 -1942.7125944462009102 -1932.0493259469733403 -1945.8690661676337186 -1948.4705844633801917 -1940.815205596436499 -1950.0896861064788936 -1950.0811646860622659 -1942.829988110944214 -1938.9380544170535359 -1926.2344953109288781 -1946.6359403444264444 -1935.312844513298387 -1919.6722363033263719 -1922.8662994067640284 -1959.7390598659835632 -1943.6696314716127745 -1924.6166132124315027 -1938.0825288253522558 -1925.7651567942234578 -1953.5175975961515178 -1951.6154354509221776 -1934.4076878843472969 -1950.8923709347816384 -1931.0022429863165598 -1926.8056715393954619 -1956.3896893339851886 -1940.4682871831480497 -1931.2801090593206936 -1945.7877850917898286 -1932.7901697075690208 -1937.7027027432479827 -1950.4093945690453893 -1937.6774756022650763 -1931.0790021512943895 -1947.11183955374986 -1937.6429958640719633 -1929.5216259389133029 -1938.6149010530100441 -1934.8961574231814211 -1951.8443732728185296 -1952.1175563728954785 -1928.9445103408734212 -1922.8827996130396514 -1962.5484562951239695 -1923.344095042351455 -1921.9374145371393752 -1947.5233053425426988 -1942.8401941502806949 -1933.2283765559029689 -1930.3537600757340442 -1967.3350182334288547 -1942.8355315760150006 -1948.8187351887643217 -1943.1762668200458393 -1946.25013177202527 -1944.1702293158173234 -1947.9131741725448137 -1953.6338999701110879 -1951.9225777510321223 -1913.0711710850366671 -1940.2799547170409369 -1916.1650079827411446 -1922.2513818450715917 -1944.1344859666903631 -1955.5870934854451662 -1913.8332884275944252 -1941.5658928462212316 -1938.346305718184567 -1953.824626436995004 -1948.8520017214666495 -1959.017104928319668 -1947.0037956227631639 -1942.6504672424505316 -1912.1656718314807222 -1946.9834817784351344 -1945.36296476284042 -1919.3727441534406353 -1955.5510144926881821 -1948.4532501842302281 -1946.2233669936938441 -1940.9620263699866882 -1937.6686995816814942 -1933.1663135322146445 -1916.5432795388760496 -1927.886012278399221 -1931.8807792430927748 -1938.9568358200747298 -1941.2673142086634925 -1940.5107255234456716 -1941.7734639444183813 -1925.6682314229003623 -1942.9341751491742798 -1950.0734010382432189 -1928.3957133039070868 -1941.9207682804503747 -1932.6251360475641832 -1941.6919264324219512 -1948.3633273664868284 -1936.5616225055036921 -1913.3583982744855803 -1930.2818726803129721 -1951.4472733455177149 -1965.1318039724012579 -1953.3489967959656042 -1939.2033952681556457 -1925.4041970826469878 -1940.7745517159917199 -1930.9497647708287786 -1929.552914601582188 -1930.021272035803122 -1941.7167886051531696 -1932.5808694741331237 -1926.5351199727267613 -1960.7318859346385125 -1969.8401667593659568 -1961.7961717510770541 -1919.7050743808740663 -1939.5389220640988697 -1942.770288354833383 -1939.0515960335919772 -1959.0936651043773509 -1947.9355722064021847 -1943.0480888217723532 -1945.5771816215012677 -1920.1040489798683666 -1935.2021196911534844 -1927.5761015405082617 -1946.9101416140294987 -1936.0266206529631745 -1956.1152513968702351 -1935.5398226812214943 -1927.0842195412960791 -1937.9746221393590986 -1913.7549588377080454 -1913.4987905907244112 -1954.9803131311734887 -1959.619815225299817 -1936.2791003010927398 -1944.2529804389407673 -1934.4055124668689132 -1934.2230775268421894 -1936.9245285674176102 -1976.881551194815529 -1948.9535031830707794 -1961.2489560993185478 -1918.3854281494518546 -1923.8527898396962428 -1925.9564603581618485 -1938.1340905273384578 -1934.690088448902543 -1924.373728139168179 -1953.8513749248400018 -1936.4973770177939514 -1924.6833373071963251 -1919.5371069820000685 -1938.7569949489550254 -1942.8471953116868463 -1942.7212495094272526 -1944.2520920645667957 -1923.3746404997837089 -1945.9274406815318343 -1952.6810605288885654 -1932.3651806005732396 -1928.5262891708705411 -1940.3640600912542595 -1972.5875510282185132 -1927.6699760676137885 -1963.9109768992977934 -1948.7526103812858764 -1949.2774808373164888 -1934.3784197771080926 -1941.7753244759892368 -1950.3306556979587185 -1937.0322175038343175 -1940.6878767216953747 -1941.3101901292766343 -1930.710326141263522 -1945.7244662101388712 -1961.3371931993256112 -1944.3798760640263481 -1936.6041146295317503 -1940.8837126953662846 -1940.8963441697992494 -1955.4329324425712002 -1942.0548081638921758 -1956.5486425978772331 -1940.654578482440229 -1951.4925691420892235 -1921.0989754433664984 -1938.0799261825848134 -1931.6769782751305229 -1968.9079925290691335 -1943.0447305755089928 -1963.995307097509567 -1948.8091762407234455 -1939.4866527386925554 -1955.9959437673696812 -1926.034385839876677 -1934.2824196153705998 -1925.6262234400389843 -1935.4190933180491356 -1962.3432109139753265 -1943.1373065561367639 -1937.9243673099310854 -1930.7086059904329431 -1958.5082104600242019