97.061625999919684205 96.490039962505306903 87.561046327568973879 87.838512047417765416 87.461464103132541936 99.560400781388949554 97.305015383485923053 95.368583686441567693 94.01953100723446255 86.257197034094716059 91.454616502907853715 95.067369232730328577 91.757957428843781145 94.924121637231351656 92.627927244095886294 87.087491823413216707 86.445516942320921316 88.797712323571872162 93.466642143305605828 99.282384691434543811 97.722135410995264237 92.743372058951777603 92.681753849864136896 97.924030013952759077 93.598497819765796635 90.137991681545884148 92.973406149632722872 96.691375056730123561 89.019566708122070509 93.711118400137920048 92.851076415566140554 93.357995727141812381 78.657961499543290529 92.847077317605524627 79.872694137059298214 87.923623167122883615 98.7381432112009918 88.970586368599356319 96.644785408007891192 93.358632991383018407 92.280111985043760114 92.315444734468584898 94.824110387415259993 96.998645548142590656 96.685087421243778749 94.968293344275863888 101.33769989516532917 88.626330574035776522 98.555346396082967431 99.852609074102417708 91.903328250699317437 78.308504194880043769 92.891729373581370055 88.995917304295261374 100.5150732412758714 87.693159357930809961 92.398943728340171333 91.696664038406666464 80.113176546997507899 90.476423645186102362 89.102880827071345493 91.079265845554033376 87.736236703069451437 93.615309782309694242 90.027993007132806724 83.393041075443548493 87.931560317257577708 92.080501821492603653 92.0348929374357283 95.506512860046385072 99.949887487402250486 88.491912384975861983 99.985820883409942894 95.520928108779770582 88.593526242384811553 99.611162011219491319 95.795876982740651329 89.457115273433629454 95.044516360073728833 90.546852948065222222 89.406977556825182774 96.604922922402380436 97.02910813684168545 85.114213627527021799 95.451653861891884389 99.498818464493893998 95.787793096019754557 99.301367001425475678 103.46311921748502982 89.418925448167172476 95.872021923155870127 93.732553384246799055 89.53829112777465582 87.719401135552004689 95.285049992250080209 81.009970336343499753 94.553914882071737225 84.895398546768063852 95.205200814030348511 89.206153693659274495 87.18701674916459865 100.00499369866746235 92.331412315035294114 87.81968620814873816 95.642430844479775942 97.27501284765004641 98.681719154662744131 95.936221259257692395 93.150566879141223353 86.837415787646904164 93.941075443969253911 92.500075070854762771 100.53772089204909435 91.596052986222986192 94.479285374652249629 86.526521998246550993 94.455432965534981804 91.204807719012450207 96.382281035765004162 87.053312369107786139 96.643511784749648541 96.023849307532415764 104.85748394121762317 97.459988343149234424 89.266522198513584385 92.428706046608368752 90.948789093982199461 94.8546043299624273 93.609633985369995912 87.933807745205754713 94.601608347099485741 93.948545179305014585 95.091030790943349871 101.41528559776062934 98.875697320603748608 94.798018351069899268 100.16694587595056021 101.3337585602470341 93.790282130386145809 95.205303211348891068 87.575930443930261049 82.042046998336871866 101.93181324339752791 97.551106269272750637 95.816945752234303768 92.698992977387959513 96.800653573495736737 98.400741446110970401 95.646617169184750651 88.742611208007531332 89.390447018176587335 88.400287281363517877 95.078062728987319474 90.49904784587000961 94.424592482359031465 92.087056989826422182 81.784426337344427793 90.364545938361430899 93.776371259145307135 96.571910022648694394 88.112174325545751685 94.926193717132477445 96.824556478348483779 99.443883816039530643 87.340764160801384719 94.911082936053830394 91.181454836016030185 88.3475776786235798 86.22257708413675914 85.507893981621350576 91.299748641135948901 97.634867580575956936 93.628292297186192172 90.909326049418126559 97.098843350273469355 87.557115434668816079 89.08758653997580268 90.617913378982507311 85.453013714586944616 94.489037736552305091 91.209929128423524958 87.32745473173210371 96.691039079918539301 97.440329026826617564 98.071223923171558567 92.711858679942636741 107.29635497212764506 100.47005876163395044 92.134410542013171153 89.464041720474227759 98.792132566394712967 91.689006145313086904 101.01925298927612573 97.753389800981011604 86.751693293180522915 98.591162349670753429 94.167107095961995356 93.022194754858034571 107.34353560060662858 99.442664044820574532 99.032209494502978941 96.281887884798621258 94.953312089933689322 94.064257973208711405 101.5946762129053127 103.25634317159318698 89.030405403399498709 98.870752893307738418 89.161390925222320902 95.955432911725765166 90.39975303203576118 97.406347005387004856 88.2607703102984118 91.998841983958996593 94.78528571395717961 96.15089920017872771 97.82690014735212003 90.703813135996796291 97.617669115802740976 94.620131812060648713 89.448248477149533642 96.692260943395183403 87.021530635054176628 94.670525398861784083 93.908899173349681178 95.756488037301693339 90.618792576963826946 95.734111325893664457 80.79993155100730462 94.423990353962977906 95.729941638069945498 107.6171579763106223 95.94167533307738438 94.283189596734587212 90.911147582511958376 89.294494044718675241 89.804761282813799994 98.938225315516973524 94.498427289145880081 89.431110447067766245 89.89847007223148978 95.330577290787886113 91.557670489045605677 94.633019771519613528 93.539938559903717419 93.28970416805078969 90.214818232705454193 96.67788133544453899 97.931876221531553028 88.153626468758361057 97.321881828932077951 100.87868429109610702 107.93050935747793062 90.915809558349138797 89.848490489226634281 87.937260286877972248 100.47332988209431903 101.16128014524646517 96.341431334497329431 103.12854231342333833 90.203645968263757027 88.46895497703616229 94.502388689283606027 102.32623472527021136 97.858844764337973743 87.755193268759825287 95.335133774806450901 94.711673899172026836 90.644505889529554565 93.349845334091170912 91.567882847776587596 99.844392195711918703 92.28546311143813341 93.072017156256038106 91.348941637025816931 89.715722458342497703 91.744166684821067292 85.902761462667527326 105.05730948783200063 90.91883793279173176 99.872431763522342862 101.52828646562866766 94.520366080913021278 91.605864208301142071 91.236963915996597052 88.855259450571466573 98.31941538302679362 97.950724947681138133 85.788592033083517663 98.242987875113556129 101.36515416518606969 96.675938880085823257 94.223048916135539343 100.45849157614186709 93.006047631782138296 96.768747299387825933 86.619523545214832438 90.960591005626554306 95.120857436842513266 87.800799004105030576 84.605301039348489667 92.427392759451620918 90.790416960489494613 91.983638089786850855 89.674971657816328729 100.31006145232950644 102.21476088993135534 99.050564273438297391 92.679034759994792125 95.887478018239178823 89.502882995114688924 98.472218854314888858 89.336107936943037089 88.565292268498495787 91.578245771850092183 89.902080493591697063 86.785845183251240087 85.889168595278263751 95.927968282561835167 89.815276705975350069 89.632225038718374321 96.495518978038845148 88.072442377627822907 86.936548867486891368 108.06081334035562236 94.233689293395642039 91.527648847111606756 96.639555916514808587 84.472258608339444663 94.299995567776917937 95.934696658398550539 97.255958294392499397 93.154635535888772324 94.639563985591024675 99.10265147286310139 98.558664631802685108 91.88047684557602679 89.265457254914821306 89.96005394477685968 94.752249604827781582 93.226084560304286697 93.962698424219325943 94.012673028839415679 89.735371196780022274 88.086620006396088911 95.220892392053343656 89.613024574684047252 95.990398984357867107 91.230750361214802524 104.77367513334280602 98.946541583624934901 91.882722434168883296 91.144206390711772769 90.921160244944459805 95.306173116241438947 94.396913027730846579 94.909559894840043626 99.87398176031703656 95.019913975798019123 86.208916105808228281 88.667505775780355748 85.437108622292882387 99.35368491592210205 90.466338256717264699 82.748535743168176282 93.334476011999001344 96.627754797643675033 97.718085007719210466 93.136544923314545485 91.015092305549757157 86.35224354798810964 88.895008166791157578 99.910213940903901175 93.746995728675102555 99.847525551626475249
-1729.183921786388737 -1718.5320659428396084 -1714.4420544276424607 -1719.2302717141321864 -1743.6822593330882682 -1731.1796112383406125 -1731.6778738412151597 -1725.4642271781142426 -1750.8612098915775732 -1730.6838231068304594 -1740.0610128887910832 -1718.2160313073613906 -1727.6906172331080143 -1712.9083031598447633 -1732.4934287337207479 -1751.0406543988019621 -1737.0107816141382955 -1713.652339157252527 -1728.6310112492490134 -1740.329544712743882 -1733.1356114499158139 -1739.9159360666210432 -1731.2225142024296929 -1712.4128389393090401 -1738.5852721093842774 -1733.669067325023434 -1746.8021406134569133 -1720.1027877326196176 -1745.4125376737599709 -1743.9109034784873984 -1727.495191840840107 -1741.6552157818630349 -1722.8492483611466923 -1747.7897988238983089 -1740.2563134637764506 -1722.3722294087551745 -1736.604400059958607 -1746.8919432590789711 -1737.9912459366696567 -1755.7183296983075707 -1754.6042707853416687 -1754.3211286450830357 -1744.8642054581366665 -1731.8358304516511907 -1726.1510935814412733 -1724.346374547639698 -1741.6346355340442642 -1732.4943539679911737 -1736.1638829470887231 -1726.5668907152025895 -1724.7108789405856442 -1724.3383563386928472 -1738.2285001607933737 -1746.8112490404932942 -1744.7084059599119428 -1757.8155166631197517 -1735.4958859138623666 -1746.8199635043749822 -1733.8186453336261366 -1735.159802068285444 -1760.5381294692533629 -1722.7569030936408581 -1750.8448973233919332 -1720.0574544980418068 -1736.0301162165656024 -1723.4793486225009929 -1742.0907532330863887 -1756.1399917070350511 -1733.1892820606876739 -1731.0682604130363416 -1721.1712919827668884 -1738.2183522522861949 -1738.662218708149112 -1741.9396851407389022 -1755.1690311555860262 -1737.0855442312663399 -1743.4370838589998129 -1745.9705169424780706 -1725.6493067681306002 -1759.2399728031912218 -1736.6118379337438 -1729.7186227346912801 -1749.782802910238388 -1735.4195165422645459 -1724.6882135321227452 -1721.2956634867268804 -1722.0061937526224938 -1740.7666860644139888 -1707.2362253361991407 -1750.7835870321639504 -1754.0363052001123378 -1730.766527773093685 -1735.3542678972391968 -1712.5046952039542703 -1737.4594874682231875 -1713.2483589380249214 -1752.5408755183780158 -1734.3153283157400892 -1752.6501058972824012 -1724.415861611506898 -1703.9212618252229277 -1742.3462445874968125 -1710.2793482761480846 -1736.0861785912763935 -1733.691930881818962 -1735.5635261017141602 -1723.0721123462792548 -1745.4193533255988768 -1697.7822575413549657 -1733.2129610636616235 -1736.6222624482225001 -1732.7097043018145541 -1729.4591534191422397 -1710.9778386762216087 -1713.0252430210248349 -1746.1368590180425144 -1725.5629908491844162 -1730.9533457306076798 -1722.156907968659425 -1746.1683087191809136 -1727.9193489506344577 -1736.7064512818635649 -1741.3848782902500716 -1702.5055939255271369 -1736.336935672501113 -1730.3018586975972539 -1742.1604886593108859 -1737.8055704593664359 -1727.3316845638491941 -1737.5534462038301626 -1736.0689727981887245 -1735.245943237203619 -1735.42448329219269 -1739.7421252294573151 -1738.4116504370879284 -1739.2962478634851777 -1744.4835757608620952 -1747.5683897916578644 -1707.0342690445932021 -1736.1006878565488023 -1730.1853299273304856 -1761.4894518343153322 -1726.3940702378793048 -1743.6296077298859473 -1742.2523773656971571 -1732.0118133473151829 -1735.1553548601182229 -1716.3593499751507352 -1730.3065571549595916 -1721.2843315199963854 -1727.4467508703583007 -1736.0494452444811486 -1724.3750451610792425 -1724.8644336154968641 -1746.4145708451526389 -1752.137243957802184 -1742.1697479952122194 -1716.4128035711553366 -1745.9820290358932198 -1744.4525701051538817 -1738.1279298626577656 -1747.8663734900683266 -1740.4829917564634343 -1722.1320774063933641 -1727.0819576316678194 -1723.5515332782808855 -1734.8180057227502857 -1753.1872921027768371 -1723.3233282919668454 -1724.4600440884171348 -1732.6806626599536685 -1738.2956863305082607 -1719.1359417308756292 -1745.9509398071122632 -1737.5659534135270405 -1732.5341163495647834 -1736.0729565441122304 -1729.6651457094026227 -1750.3183043300243753 -1733.5870342750768032 -1705.0214244647615942 -1739.3685271080069015 -1724.8184901816059664 -1769.4545236817307341 -1717.1957743531318101 -1729.3689559060867396 -1732.2149023485503676 -1725.6303043607663312 -1737.236180902355045 -1749.1980183192570166 -1744.5594879191085056 -1751.38584764737152 -1738.6151050504126943 -1742.0840527178020238 -1697.1538967429764853 -1746.2693330816882735 -1748.494029848297032 -1745.9093278656794155 -1723.0479191207546137 -1731.3974852336359618 -1742.5852318265888243 -1755.1788474019299429 -1719.412458096548562 -1737.9766319744371685 -1740.4576141324184846 -1717.3917825387009088 -1711.6112253688847886 -1701.5649221555097483 -1746.8456293731255755 -1745.3152810653905362 -1720.111108714558668 -1731.6687234167254701 -1713.6363222077768569 -1733.487249352293702 -1727.0391080051654171 -1717.0040390188066795 -1723.9493020989632441 -1735.4620896876108418 -1738.0623791827290461 -1718.6125856509170262 -1747.6746397105516735 -1745.9547663201358318 -1721.2966522533790794 -1738.4555002604101901 -1716.8205148688857662 -1728.032470350499807 -1737.7354014334011936 -1750.8358963538844364 -1731.3720076958243226 -1773.5532606810816105 -1745.5071687800593736 -1716.1569003068993879 -1755.7361115609644457 -1760.4485667151775488 -1747.9540587234346276 -1747.1231550121431155 -1745.1322089974819392 -1729.497204249025117 -1757.7697236419544424 -1744.9333242904401686 -1748.6022637663390924 -1734.362648445782952 -1725.2034947054530676 -1737.583059419777328 -1738.9266850811341101 -1732.0762847371038333 -1735.1884925924348408 -1734.9400975034639032 -1716.5696953778976876 -1716.9866016265552844 -1722.3482593495791662 -1695.7415656782829956 -1723.9802465202585608 -1721.2409074842328209 -1729.6882058205917474 -1727.4702835676262112 -1723.2474699623680863 -1730.0028447351337491 -1728.5735064934658567 -1732.1295944685186896 -1753.8068545527680726 -1711.2705581717571022 -1713.2425136708809532 -1746.4553363269681086 -1742.7899887426169698 -1718.2249485062079657 -1726.7788495520851484 -1729.7340962863429468 -1743.4409897935354365 -1751.8627308812249339 -1719.8270224721943578 -1743.0631515808495351 -1742.3125754809311729 -1742.4774376122577451 -1714.5875435379273313 -1733.1437928283255587 -1730.6770348256741272 -1737.4389668548114969 -1731.595389566480435 -1747.8248083556627535 -1747.5524287435223414 -1722.6268545854693457 -1733.2390966429184118 -1728.5431488240101316 -1710.456984144523858 -1747.0156602930919689 -1752.5876715734968911 -1750.6011900846735898 -1746.885970297930271 -1722.1992852652874717 -1725.5176690692082957 -1707.0526980022241332 -1738.8350610784389119 -1734.5750505964253989 -1740.6966761703270095 -1722.9398320997029259 -1742.5744580310440597 -1730.166967179234689 -1755.137700313022151 -1724.4725434594747639 -1761.3492211483114716 -1721.7446012891734881 -1735.4377818109342115 -1752.6638186047464387 -1736.8125574792038606 -1760.0158899949014994 -1733.4381959198578897 -1752.6206273992572733 -1719.6602123939640023 -1748.4874392154449652 -1692.3260403218901047 -1737.4580118885248794 -1705.7369114552943756 -1705.1622899586309359 -1729.8051190300141116 -1728.3751305629220951 -1731.629148770954771 -1725.0056211778362467 -1720.627128338328248 -1738.6591670525390327 -1750.6311644913323562 -1716.9702026816823945 -1733.1885198207064605 -1749.9389245001029849 -1713.6005631917712435 -1714.1409792455522165 -1739.8823696533136172 -1746.6349738806413825 -1718.5684810855243541 -1733.1182873301399923 -1720.066317529105163 -1739.2617920154029889 -1719.6026708235515343 -1736.1369848298202214 -1748.117572541797017 -1723.0238510635449529 -1728.5579103455279437 -1727.7922969879857646 -1754.333206532115355 -1742.2235596765722221 -1730.9914400786981332 -1752.9765894288245818 -1736.5114615776926712 -1728.493010896751457 -1740.3889358200913193 -1740.1907309392947809 -1715.8021422775852898 -1730.3723187827670245 -1731.6368966250263384 -1716.4430032961613506 -1751.8005400535460012 -1732.8398861123916959 -1709.6160653786073453 -1761.0314969313997153 -1735.2848105112420853 -1737.878494680159065 -1744.3013780640860659 -1735.1934636116384354 -1747.3003750870893782 -1735.850435978268024 -1757.3877675687117517 -1746.255479546622837 -1742.8072412773797168 -1722.2128011253064415 -1742.9475652183821239 -1746.4450842840569749 -1746.4846129142513291 -1741.304831271994999 -1723.6556159289768857 -1726.7499046465807169 -1734.9641880391975519 -1705.3102294178631837 -1753.786748716501279 -1734.7363649914334474 -1725.4030839120516703
434.69582977685581682 432.07919902916415822 436.87817319627561119 435.92908671962413791 442.12213830378630064 444.52242409349128138 424.32736430612521872 431.74686215996166538 436.57090050892787758 446.01512527890531601 436.46885149608567644 439.11194860413530705 426.83402188736903327 428.95281141635126687 451.36792943731347805 443.75176357765474222 449.41851804735392761 442.74536906351016796 441.57289512009134569 445.4369689972961055 456.056001562244262 437.52387398555822529 434.88098246641231981 437.27647861838113386 437.14081729567243428 435.05827149132335308 442.92847778581636931 443.58101459174923775 440.18960101099992244 434.40536875200353961 440.88363324782409336 430.20471799665546087 438.14693700376392371 426.57861777686076721 433.05470372905028853 439.04945338890377116 439.786392695266386 428.31645910787000275 431.07294366356376258 428.96670619463895946 441.6305230930464063 442.10085539579517899 443.39341987100550568 440.09948102584178287 421.61682750960090971 430.13801894421669658 428.56742039042808301 425.67611320717628587 432.15124414935598907 436.77950657982637495 426.79458104472365676 438.758226675516255 439.07577656269671706 419.98454823439431038 437.24293979248318465 434.35246236301281897 439.32403962252629981 432.99316205157884951 444.05426535914256192 444.3403944986280294 447.09954116353037534 439.38782847237894202 437.69905408495674237 440.14050033690546115 437.53305272313571095 447.19985661080693262 434.51656748627323168 442.8320850709927754 427.92587771598812196 436.76694964655570175 428.60377351595292339 437.21341248186280382 441.85391997483054638 437.85138393268016443 435.44703872657021293 436.49710960586861574 439.42219562619237649 432.64989849599669469 443.82508370180249813 427.9948348718863258 445.95619487064794839 439.71807987680904262 432.12208998578853425 432.09308756311520483 434.86964236034572195 436.88148939140251059 435.03926947750187537 428.22754565789671233 430.68741160854733607 439.84845580438258139 434.11650014103395279 425.72323487419191679 424.58559832045966687 444.0847111779544889 435.22319205405165121 432.88900513391081404 444.76512821062141256 428.51241187037391001 442.79246864346754364 432.60520884023299004 435.60163668527439995 437.87751525777184725 446.99808231001816239 426.54843336745318538 435.45234704405680759 433.76141858935426399 429.71639427269570888 440.88026775926698519 429.00442465497002331 423.91211541088915737 436.47462119501528832 439.80747799597298808 437.54406199095552665 438.44780999519508669 426.06405935228139015 443.38750954196126486 438.94393013458198993 442.70495485853740547 441.8197382780841167 426.82922291292959471 432.8020139760920415 442.33992786933595198 439.84477899716614502 438.84234685617832383 434.31401366495765615 440.78285820267950612 428.4713211938132531 419.36029977188979956 420.22131196579334755 425.25893206932386192 434.03967917960437717 454.18305696239218605 421.82169807047296217 438.58902122038546167 434.8171645580545146 443.71696946217952018 436.43099363169159233 443.29629376408058761 431.21166809143898035 436.43938090619411696 435.99817075802855015 428.7604843285583911 442.61580185634755935 455.05625343885361644 441.09090395890575564 442.91612506833092766 431.65879643324586823 433.56624220256384206 429.40687302585502039 440.7900185760373688 439.05461808366294463 438.87167134336817753 435.39134469786353066 427.33558418686334335 434.45013022302674699 423.57663626129158274 448.60922715452915099 414.27759179077440876 434.07186342924029532 429.96968046882665249 444.67943708385615764 426.13748381638487217 430.06735976667192745 440.52823846816062314 427.91439508450906715 438.77858099610318732 424.06390862323132751 423.70981682008283542 435.87963843435045419 425.43855958694621222 427.34998500666046084 431.11596958545482039 436.86103405063948912 436.71478035252738437 434.34822275038231965 442.95958983344041826 432.10389832301291335 437.67214815912313952 435.90874657220444988 438.35951497029941493 435.87970766853669602 432.48912702487865545 434.85148545509332507 426.95323055661958733 428.78281097976378078 410.88127983073377436 438.82607647626201697 448.54114719170843273 445.44975443891945588 440.01815565353939519 436.402482531889234 435.87828073434900489 418.61617084070610417 448.16318814298017514 443.3593399072055945 441.29309468052150578 440.72091376220248549 434.33865995683532901 447.68693399223764118 439.99893727692477796 425.84801604922063234 431.26298066584178059 432.86242403589204741 430.9744876131271667 432.98654536210295873 440.52980965524807289 441.47040426828482396 428.16795681572125432 414.1804807192492035 424.36742728809042546 441.06394195092940436 423.51785520147120678 428.49788320558525356 435.28038565079708633 438.13647094180947761 429.65855860082660911 423.4796693713036575 444.68558741872624296 435.18360708775759349 461.46159379233500886 432.80165586891092744 444.00726762898091238 434.16770191856198835 423.26669486997002423 437.82993610293056008 437.74900708600392818 443.13771328150374984 436.05267241650500409 430.08684592847401973 431.2183426553703498 431.84607489287401449 440.72202739868777144 436.97859940241062304 435.55538577149098955 447.02052438803991663 451.93692689934141526 424.05577803924273894 445.20982999817431391 443.70297279335750318 430.82415841841577731 432.7906902799898603 435.28684818100549592 422.96172679846557685 431.52003153983758921 435.28786006163829825 444.27734000174615403 439.15485595869881763 433.13664644305544016 442.30865140327472318 431.30385025271800714 431.21984466748824616 430.15616592915796446 442.93276105791437658 442.67434559395957194 435.67495574551003301 446.61219816041204922 436.19244298881233135 433.66795097460214947 432.35994610927019721 445.34136963101707352 438.00031396235340253 437.81910512161243787 428.896396449971121 440.47762173399962649 438.6515686988503262 442.29218437768651029 434.5061190604380954 436.32496810648910923 429.494484473012335 430.06639053680402185 442.51304094439774417 437.32510066936845305 433.00164628601919503 432.17465426994664313 433.85115394971802516 438.93718495142991287 420.86289476078763983 428.64448128802990823 421.63253139131325042 425.31341180329758345 429.74334344383265716 440.6586615631555901 437.58870325785039768 430.1063034524527211 442.5053305758578972 445.16499061145196947 429.56523374816089245 437.32457729000839208 433.18823914529929198 417.17373340221053013 417.75621935947589236 434.36795343636822508 431.2880808129893353 438.34184442002390369 442.60757607327133201 432.04629489643241413 426.059519497960423 440.44058850441183495 438.91504244138928925 433.8570364074561212 423.26283080633703548 451.21028324069652626 429.24170876896863547 436.33754953168073598 423.44386944077996304 441.04813574936451914 428.8949616317629534 452.40332120434743501 435.78529567895446917 443.49391348316061112 427.9273233075195435 422.00210372177508589 438.91847743416008143 440.87607436817199869 437.56614628698076785 427.15414741720684333 435.83190024463806367 428.64755038298960699 439.19832252344951939 440.41650798420903357 434.84130257246272322 436.46449638434756935 430.84088525640174794 429.4085618231183048 437.50122901819145227 435.20377729117990384 444.25622372987737663 426.24386123143921168 448.15882256325011213 439.72376061443179651 438.13279462796225516 447.83896237540699303 437.93639430743036201 434.87349593028955042 423.3170477727984462 447.39487770531252409 435.47831452216792059 441.93967445158085638 440.97906295291505785 448.51002118143873076 443.1580193611712275 428.76056500019916484 428.95383170143628604 447.8624333982630219 432.14930656522994923 437.0469010546012214 431.35496246341512006 437.77281503064597246 433.03496967453151001 426.90087166327987234 431.42413685787312261 434.1660432098773299 442.3426047001219672 431.44393641765594793 434.73041136589358757 432.32492085309439744 430.48543577423100714 427.65244787010732352 444.32786182470783842 433.63235547256596192 442.71127575453203917 424.48306434153249711 435.11653553190552657 424.84560626087733226 437.16461481268970601 434.15950449955158774 441.52930350536422566 433.57934592041272026 435.45374046553467906 431.06343389547663492 424.94976405025778377 431.94291851525525772 439.13756245456528404 434.22187964742397526 441.25632034437143147
-21.957873850749887623 -20.029383157684183203 -20.535770476992112776 -17.686798381651460232 -17.874029850782491735 -31.966744946211314016 -21.592403229787912267 -29.733374973950141396 -18.343040455890466944 -12.455882202294537464 -19.235846229343195546 -13.275776393948728327 -28.425773781837744281 -21.398356274545442091 -23.087253105533854125 -13.833531124741035967 -20.327298899286862621 -27.003848310176536529 -17.696665063665630413 -20.663653366243202925 -16.327616572943636442 -19.943807118357710806 -20.570444119112121228 -19.9734717793841412 -11.948626627457114679 -24.811573409222901887 -29.845127726067417484 -11.774086902316454939 -23.285303470191223596 -22.761366068308674926 -19.556507545628377898 -16.848214488721556137 -10.825172944665746755 -16.84388602518152922 -16.798469474991044592 -15.25552376783017472 -18.472216973759998382 -23.250056359070825351 -16.988098000474526117 -18.765540810260446847 -18.522558728773546477 -22.335048238194119108 -16.07299017435892452 -12.716998548603697827 -19.54846296427744079 -13.908469405434033206 -22.685517476808158222 -21.529061505198782811 -18.572574237495278027 -24.356974943300407688 -20.258301723215595302 -18.238808390644884128 -16.51593808315029932 -15.211145074684850442 -14.832057959769542776 -20.863857054793761847 -23.201912845193668034 -22.810840523403985713 -23.592636158801219892 -15.264833065109025156 -13.603041217010105157 -29.819418000314541928 -20.294954346703555359 -20.151992546259329231 -20.954855463484989286 -21.468424888501594694 -29.253821373360811009 -21.140608092835257992 -18.868872103935782292 -26.802132308686587692 -19.853066549554952758 -19.70044265261783778 -13.777574209818062911 -17.528935232202670136 -20.563750563490529544 -23.59164088936708481 -25.646975153479196763 -12.881018792591710564 -13.578670001782489507 -23.957100515057831558 -25.342135793501981311 -20.621924776722728723 -7.6132782104879392904 -14.543387395426410791 -16.089062124870572745 -12.431023557998450713 -30.71489127476182901 -23.975721454100700214 -24.794342840851477661 -13.211962466707564801 -20.034770815307982872 -23.005632533233878689 -9.6422345569703757917 -19.687277821396691024 -17.540030176306800058 -26.046094809737745379 -19.414065768947384782 -12.049270634143423919 -23.002904555762814454 -26.922693040948900034 -21.048597762351320739 -30.880991230880475484 -23.340625946335791241 -21.968856981614059976 -20.515906615409292613 -10.565417647989132632 -8.1118636413943221442 -26.172294623715757211 -18.413787177432794806 -18.382455134252431606 -20.587766112140219121 -18.575107589098099226 -22.170958925806012019 -24.411586301998067228 -14.146516047910955294 -26.874121160832864064 -26.2580988451203865 -12.944696409280046723 -24.901917553377927561 -24.41396114991832178 -18.720183977607284476 -31.257235606367583358 -17.488445052866147478 -21.425851402258611955 -21.024566862583910165 -21.252794077025299657 -22.747660189004086817 -26.4511333111341429 -20.280001281411184522 -19.154742233758209835 -22.397005498687690306 -21.292123321496319477 -13.846334690335227791 -19.319354515573600395 -23.506775349152881915 -20.476356416496599877 -33.782715760294308893 -27.666344410417440969 -18.770056965272040372 -17.88692882266239792 -21.068353194529393591 -22.87373034813924022 -20.669352190770165834 -24.652769885332137534 -10.976488727934384571 -15.682444652443610522 -19.041814902646812868 -22.320888227127628767 -15.404444601595933761 -16.678164309318294301 -25.673777626630624127 -26.83825138008687361 -20.093100746043408122 -9.985941928636744791 -27.095301430710271973 -24.835103767725087209 -13.228287840850827095 -19.46319378310138859 -7.9450136486399980384 -13.834638871282844974 -14.039814284796415578 -17.938311110357297196 -23.10309450647658025 -12.99224843913854599 -15.907258422101271833 -15.618874992889583808 -27.036549488847811062 -8.5746411940330489188 -29.332362661286250471 -19.728245868361877768 -18.611606563805096926 -19.038005952699005974 -17.339223891319186066 -26.31748658171620292 -27.745327445556945634 -23.151450012348796292 -17.863599983083297218 -15.559357393895176358 -12.789285359458649083 -21.461786529546841962 -12.587334105071755985 -19.052075088268363601 -19.205044824855516339 -14.328598788142990372 -22.231699490696193777 -35.811112701271348158 -25.162350284203249373 -25.148565280847442693 -18.572849649776699721 -15.966647114171486521 -20.8502770752111104 -13.268161427830273524 -26.715199613435473225 -20.4876172951989588 -27.352648763698994117 -24.663779940670938373 -23.100009425602451074 -24.569790792825610737 -20.350542349825929023 -17.480195287396487203 -19.781605467356520478 -21.86287067887394997 -24.638263056325847344 -28.275529876752855785 -19.535428254830474515 -20.725633507798214339 -14.389123376041354163 -11.072022086568379606 -19.638895253325983958 -12.65799915621117222 -21.110484232232739288 -30.077327346521073537 -9.0014394237392245657 -19.503478733842783299 -20.234031173686226168 -25.2201707812086795 -18.510582723443363307 -20.438734896132558561 -15.50830440881317962 -22.454562606491663246 -17.265868476449025337 -26.201941772228526162 -17.330780470908791813 -26.409293438435515355 -28.750453170763911714 -18.240726947707528893 -36.59563106520197806 -15.254856900839486755 -26.424965158116314967 -21.434035401961910594 -17.899808573904923747 -11.538588309632803686 -17.022067856437605116 -21.131138564510720812 -13.095939521837525632 -28.01196514377313207 -25.379348749168055832 -12.016613204078364419 -26.489931491173642542 -21.427715668035226315 -19.628119173589084312 -28.101168471217292222 -23.11830498319712035 -27.495756287662942441 -27.575983863798612106 -25.701426164666980156 -19.413851838030183217 -13.70279450441998037 -16.60253203872658645 -21.496589591743990866 -21.788312276474247398 -23.31846258288012308 -20.968738624342954324 -26.170847953225962357 -13.203944061332849813 -19.057032001636688534 -20.689397489526665908 -13.078178818197841338 -12.348350929018904409 -23.485800942352682341 -29.897432277401122747 -26.880692398415959588 -21.217108291631902262 -28.560322258394791106 -21.254403031163050741 -22.102779137371044271 -22.846930401384888398 -24.331007179477083469 -18.646248665249498089 -24.243008545537229281 -14.410836197670015224 -24.61527701688223857 -14.652611094330262986 -18.808320954357757415 -27.750281052622298716 -12.8137368585350373 -15.19246754598654725 -15.061154836665593848 -18.058315470066265362 -17.551464826626272497 -19.532179008565144329 -11.753556571139302633 -24.136518180948410617 -5.4462040952859851473 -16.772628488600730634 -18.116665977232635498 -27.194204390733908383 -31.779856682633479181 -29.789382049461782032 -26.38123456255404875 -22.825540570800775697 -26.756067846255373155 -21.374593048153197827 -13.022119549226280455 -23.827178240476747817 -11.939214084684849126 -10.247062694342160327 -18.498644557223634877 -14.626697060564923802 -19.378635269035701327 -18.925393920193638309 -21.434955473070850474 -15.221930889016878297 -40.485274334095819881 -21.935273796916774813 -14.491609617008652577 -20.072509020765465948 -8.3887283614685888011 -14.547825070647828483 -21.53878645509871248 -22.631946989699414985 -15.33114203002338094 -19.304809647672687589 -30.49045273743729112 -24.828371986401947424 -21.428615261926935887 -19.731170508639674921 -13.635349535856168046 -13.610291890964452577 -22.499080775198585513 -17.108041937808771138 -22.197525170907582037 -24.505163652677179442 -23.974563838155333428 -28.233603902246944273 -25.892667821207048462 -25.894030289247176313 -19.130236395360483925 -23.507328631318532786 -18.728971246763698844 -23.016404124198249548 -24.596135294155686779 -28.135225650029230593 -27.117218924736231855 -13.616542122640735712 -24.903417248363361125 -27.733259617714494993 -21.477868689343107889 -31.288351781904289339 -12.006063541272268935 -22.706039273945499701 -21.867868550055653998 -16.98421746386313913 -15.524820106770604866 -21.826425493327697325 -17.251690055315066274 -22.169724339108039857 -30.688953906663172688 -22.813042758122001885 -25.953342056402028959 -23.228794378596031578 -28.024372158217232709 -28.712117548447096738 -16.138871930241723618 -18.768048347419721722 -15.507770566346199104 -17.629697672319935009 -12.981906026981487656 -21.241261933728150524 -17.450505137713026471 -16.219642529735423864 -21.897939736500209307 -22.479779976970242217 -20.10047210442037624 -26.096334416502244835 -22.776303467183378615 -28.155734940172422398 -15.014682250280230846 -16.008524918748470611 -14.820343965127271701 -19.501532711854935087 -14.290613032165797591 -19.900880748488745553 -23.176575980346470374 -11.474630480372495001
-1569.8166268165559813 -1567.3427293982558695 -1587.0509512135361092 -1579.7657028121423082 -1577.1809225133779364 -1589.2338026338140935 -1559.2069984401500733 -1582.2538230592822401 -1587.2962162208305017 -1571.7418608434898033 -1586.8670687258497765 -1592.8376384724131185 -1566.7828849436368728 -1581.0367125401737667 -1561.6013470998038883 -1572.3440336475728145 -1595.1167955036730746 -1591.1824322007216779 -1580.7847709467068853 -1579.9356604735148721 -1574.3881847130828646 -1588.5335450385957756 -1581.0457812359816216 -1580.7187944661604888 -1601.1090460898715264 -1537.2013742195576924 -1554.4991424754537093 -1585.5220975796416951 -1592.3409780449703703 -1589.7253451006722571 -1555.3440805064376491 -1567.0964814858384671 -1572.9288464815517727 -1550.9812205639318563 -1585.8605669110195322 -1559.7814915736018975 -1585.8492139444460918 -1583.6386992244938483 -1559.4680755250690254 -1567.6690401410419327 -1581.2556834718011487 -1552.8818840486974295 -1581.5395238326207163 -1596.3585106171515235 -1571.7444605227365173 -1575.8115261674388421 -1562.9471112697872286 -1583.1865836947397383 -1564.848412960036967 -1577.5313184868668941 -1564.5336838751004507 -1556.8136256802197295 -1562.5682143119240664 -1573.6184612993415612 -1586.4349034955014304 -1543.5625955928890107 -1570.4934255585922074 -1580.5557014500789137 -1570.124113973989779 -1574.8542814758864097 -1567.2201558453675716 -1571.0603191557850096 -1579.7931758963068205 -1549.6814350761792412 -1557.6814173322945862 -1579.3746704293589573 -1601.3084932683927946 -1557.9851150444114865 -1564.5246459026607226 -1564.5286019722054789 -1587.8475174101720313 -1559.2546159962860202 -1575.4559137267847291 -1575.6938447505501699 -1549.9560945492228257 -1564.5809495596654415 -1567.2822818401316454 -1561.5547514437103018 -1560.8217399422446761 -1573.5051378949578975 -1575.6691388068995821 -1547.3713970835212876 -1587.6790480772428964 -1585.6478442910943158 -1578.6821259234477566 -1569.4693075889815645 -1570.6718725451771661 -1577.7533449882630521 -1582.9952016913230182 -1584.9608540827116485 -1573.7679278504515423 -1577.2802053113291549 -1580.4413360471387477 -1586.7245338466098019 -1578.4893936372977805 -1561.5805477698736468 -1581.9549967552070484 -1567.8206931145127783 -1566.1193200506509129 -1564.1397904907855718 -1581.1643689426700803 -1577.7960112280716203 -1574.8717929148356234 -1560.4194079621981928 -1591.0552632110302511 -1565.9736340306994862 -1582.6610007576821317 -1575.0221344512119686 -1574.9064057000859975 -1578.2061644546965908 -1581.7269218470753458 -1591.5696599998684633 -1546.758855429848154 -1569.4275413021248369 -1567.9648611247289409 -1570.2443634963478871 -1582.6571221067356419 -1577.8082776613098304 -1568.2176821723746798 -1592.6526888120015428 -1562.8889494254362944 -1562.067735050998408 -1569.330168545056722 -1582.574080565253098 -1572.3230651306917025 -1570.5744579398653968 -1552.9804163672506547 -1593.5665826813751664 -1580.0522950828030844 -1555.8911138076596217 -1576.5016394433082496 -1572.5302455404921602 -1553.9956724943381232 -1582.9655856487570418 -1587.4953556092511917 -1522.3536821395375682 -1572.9807377660908969 -1577.7883879937396614 -1568.2337030973531 -1559.9288806945182841 -1562.7728544951526146 -1575.6674172703555996 -1587.1308745525070663 -1566.6250113430146484 -1583.4572327378598402 -1563.2229036374801581 -1580.0393090754128025 -1578.1489447348189969 -1585.4643809873068676 -1565.6315097570275157 -1588.9410287758969389 -1570.5998383460682817 -1556.6337762526979986 -1559.5451474394697016 -1561.1314416529774007 -1575.2681305193482331 -1564.6317176592913256 -1578.4767639935218995 -1560.9572555989757348 -1584.9073512639763521 -1573.9184471174332884 -1573.166621303032116 -1565.8307580515156587 -1594.1467558286130952 -1587.8191002422279325 -1577.1234515589806051 -1573.6765826231996925 -1549.3886595434773881 -1566.0137899370799914 -1586.5960877525258184 -1577.2688147646617836 -1574.7232985181487948 -1565.5337000860156422 -1602.9959908972339235 -1587.5388950003386981 -1556.421387400110234 -1599.1609044056185667 -1566.7683840973220413 -1560.4765207192767775 -1589.7309307976161108 -1576.6946284482462488 -1571.2322111131886686 -1587.540319712460132 -1569.7918445770988001 -1589.1883073025021531 -1568.646317001862144 -1575.8137860220201674 -1579.7246869878363214 -1567.2107980997629966 -1554.449283582244334 -1595.401783867134327 -1583.3349387419802952 -1557.7204465882966815 -1578.994750355105225 -1565.4329052992809466 -1569.5950827421206668 -1584.1238805601169588 -1569.6755543691228922 -1600.540426354447618 -1575.0729573192118096 -1589.8365324442186193 -1593.4851004668469159 -1590.0010723803443398 -1572.0939465494959677 -1611.6896846012762126 -1586.0391371455295939 -1583.372667210241616 -1560.5733749133423771 -1567.6127053941183931 -1586.4684646718981185 -1543.770459157688947 -1569.6343004268339882 -1564.2588615562865471 -1569.8831510625041119 -1557.6364665100272759 -1563.6486168525632365 -1576.5552703808414208 -1580.8294072850164866 -1579.6754371436602469 -1575.074589598336388 -1577.2384097774165639 -1575.8916513271428812 -1576.8480240150581722 -1564.3582035289134637 -1575.1975073121870992 -1583.1319653261907661 -1552.1840882312139911 -1566.4812156390335076 -1574.6593066178891149 -1575.3194397953457155 -1565.048912264051296 -1584.3066455783498441 -1579.5671368215557777 -1590.5829649043853351 -1567.6476312833938209 -1573.7080853890529397 -1579.4758271953464828 -1556.2118890431877389 -1577.7946833373864592 -1561.3272995239806278 -1601.8985626825478903 -1578.3058898149672586 -1576.7553949766584083 -1563.3029005550579313 -1573.6369442674447328 -1561.1829530053398685 -1597.8732414307621639 -1579.8634117467083797 -1583.5292376278428037 -1557.1142925930832916 -1546.8124135155603653 -1575.9424155213423546 -1596.8963148729460499 -1578.3861558290914218 -1583.1086982973781687 -1575.1792234766853653 -1569.6705216618420309 -1565.7469749216857053 -1570.7838199071356939 -1562.9617976422723586 -1555.0885388045387572 -1561.2640604700345648 -1590.0039278521828692 -1574.4683918053883644 -1565.461476081999308 -1558.7495601664095375 -1578.7152543170850549 -1578.0624504025017814 -1578.7123828758462878 -1595.6375944531914683 -1567.6458173451790117 -1560.145736937019592 -1585.5932708782761438 -1589.0017591058606286 -1563.3758504685451953 -1577.9674050222690767 -1594.1083134452248942 -1560.0755944459435796 -1565.9092089439106985 -1577.7970049528016716 -1601.8182724808950752 -1570.5086466756758909 -1569.1828269727643601 -1584.7249133817917937 -1578.7697252805114658 -1580.8691247448123249 -1568.9837871698864546 -1560.7018883757014009 -1567.4360761955733778 -1574.7435416469327265 -1576.2065176582257209 -1571.2258440585499102 -1573.4807574464550726 -1579.0622077446678304 -1558.4561033164279706 -1576.6488047100322092 -1591.2278932688259374 -1584.2150148561743208 -1570.9001108219363232 -1566.0703540501083353 -1571.4966255714189174 -1567.8587505740567849 -1578.6433167771144781 -1589.8312766733699846 -1552.7080490915450355 -1558.0257861013997172 -1566.842340446049775 -1581.460640276378399 -1577.6547669288872839 -1586.135464024175235 -1567.1579799311793977 -1572.9941550014173117 -1599.9912130235184122 -1552.6746900185639788 -1554.0574691345996143 -1584.1346514347719676 -1605.0968382350185948 -1564.7459510407586549 -1580.8676669634671725 -1569.9143379740419277 -1568.136546454492418 -1603.8657534319438582 -1557.834047905186253 -1549.2351017056307683 -1578.9118095433129838 -1595.8067818496367636 -1575.4569017691762838 -1556.9838787961016351 -1590.5036536353381962 -1591.9894802989772415 -1555.459193938333101 -1583.9983930131884335 -1580.0040424728369999 -1573.1378109820677764 -1567.1666872965010953 -1570.7177983101948939 -1570.8331525185442388 -1588.0067111001410467 -1541.3278198578020692 -1573.1106900691049759 -1574.8427018204399701 -1582.7284244202724039 -1571.9979872152593998 -1574.6465947079063881 -1570.9509354098686345 -1575.8327123846734139 -1567.4779989830417435 -1564.6481681626723912 -1595.3007882183089805 -1586.1100061850227121 -1580.6359279039804733 -1555.5997155173379269 -1547.4352665617946059 -1584.0128168800360982 -1564.2386869688148181 -1590.1270873482278603 -1600.7506841365982382 -1609.3189434257560606 -1601.0118290685909415 -1573.9468634404411205 -1560.460934843286168 -1559.5167730563719033 -1594.2312806119839479 -1568.1128168719080804 -1564.1734018933630068 -1559.7577494729114278 -1578.4534755777826831 -1577.1817890898091719 -1577.4283935597168238 -1553.0250577206340949 -1557.2722838792981292 -1585.5232619233856894 -1584.5481448087975878 -1568.3174131914202007 -1556.5887799403251393