-121.45327038542259857 -124.70414313375380289 -112.65716785334929284 -118.97367179067417453 -131.62766115668088673 -115.00118191251043243 -131.22209327196060258 -132.78383878602423351 -123.36456688692940986 -119.37052172885908874 -116.78484672714964177 -118.83670883184724687 -124.37796504215836535 -115.66795451328879096 -122.16052933944756376 -121.12821072813132162 -116.3270828197425999 -122.76397023590018875 -121.84004019464217095 -124.59391395572816919 -117.79711716671910438 -130.21638257439013842 -122.19841059281822027 -117.77071391282403567 -130.27586233537383009 -133.05936596471332223 -123.09940228110237115 -132.02553411840275999 -110.40395207951031864 -116.32107109980593407 -117.9573241846977254 -113.09594845171521627 -118.49893573240673561 -120.21550134665439202 -121.37056339848001585 -118.67410426751722241 -113.98907288936182169 -125.16679751753127903 -121.14877605053501952 -108.10172612721092378 -129.5200149934467504 -130.20735875687304883 -118.64750619443819346 -126.22605150481105341 -122.6706428465931964 -121.15499289429973828 -116.68213056343408596 -128.776705785437656 -118.36749928796498921 -129.74859849179676985 -114.50957576570198171 -110.23354822744019543 -124.69814804405122288 -118.26463537263919079 -119.36377088965150506 -120.57528054099984161 -131.60803006913550917 -119.26224127331460068 -127.57703804410117243 -125.92709640833517426 -125.9000698691857707 -127.13043470987211947 -116.19627175670926533 -119.49285862501584177 -120.55381793838432714 -128.87669448466209587 -121.67351131294586253 -115.4545404949920453 -127.38148762112592749 -125.18698785033275556 -124.23390075871043337 -104.91690708997298032 -122.90978493916011871 -119.29917163701809102 -119.1017468986701715 -113.2935691009762138 -123.36542180536157787 -122.74739885505410086 -122.14799369066743395 -124.84806935766115998 -116.71822304618997634 -117.07445892038019508 -112.09676975348986616 -125.8584987287305097 -115.2826997870269139 -117.24713854777299105 -113.21789073826924721 -128.23005349013237719 -112.74821076660977326 -134.38427352466510456 -113.62333107007438571 -110.53497386518904477 -117.15224857434630223 -122.33874973512318718 -121.55863115497797367 -117.83003695736007899 -117.0448550202853113 -122.0000921143420527 -119.65935019418972729 -113.99560129059825897 -113.30261918324421799 -117.53790910538741343 -119.93462071319488871 -120.33923413054053242 -113.88333510429588102 -117.04040019966038244 -119.12873336988627671 -121.88254948998280724 -130.55356501024860449 -116.62279617131967768 -113.71768181102231665 -116.63249203591304592 -120.02345071998020387 -118.89173709808589763 -124.688289642586426 -120.55730712358163714 -114.5315999688713049 -126.35443401545983022 -129.75405160685889427 -114.52848370197540362 -117.50830648093985076 -122.15921703714313651 -118.30654464542875814 -121.94251962890429297 -121.25182239284926311 -133.65603888130269183 -116.03592201836023889 -116.47615601307082045 -122.51823053016391896 -108.26674753144999386 -109.50210747794154997 -121.72730425510751218 -120.21928265340092423 -127.70726234524924791 -108.70759683367819548 -117.58974597706082932 -110.79842729108752053 -112.65714952701819129 -120.79394074992406161 -117.93986532853037374 -122.15845105433245976 -127.2055635478673139 -125.74294394575285594 -124.46094511251021686 -127.36522710568867467 -126.01949392485448698 -127.45904529389284221 -121.94149551043688007 -128.44648189551719497 -117.52739733165195446 -123.88316364724452967 -133.89883356899650835 -117.3913160169425538 -130.97587818756699107 -116.94195949154983794 -116.57645752127419314 -124.35198248135424137 -120.61578409979365745 -113.91407232641947189 -135.28036358659807092 -117.56806142469645238 -121.92094392246755774 -125.74639546561427039 -120.43128897394186083 -113.0320782333360512 -129.31178185407975434 -122.71465556938382235 -132.6697859339087131 -125.7155280903608201 -110.39585776886302426 -128.34938772784533967 -121.20699332950518112 -112.74356858922375579 -134.604230766735526 -118.70348734775484445 -120.49982158531304322 -118.55851834948568069 -133.25413496864373997 -116.50874357770132406 -120.5254349507112579 -123.56869226048452504 -116.92906193751338151 -122.59949333529422688 -122.38715492838414889 -119.73109411952681569 -124.79551821228982078 -130.51707519659638024 -121.4544520370979086 -126.26069516606021637 -121.99369458231322483 -112.85001545877037188 -123.20763118297863059 -119.85352263242403126 -121.33213334939956951 -129.92404342804684347 -108.50116307159855467 -131.07701877193940732 -119.97233998153299694 -109.83109244038341501 -117.24973456193272625 -126.73158591968280007 -128.2535869873495642 -116.90147831338032347 -115.72330597201674607 -122.52300303517317559 -115.14441690979676025 -121.88752920160463589 -118.18572415589262903 -113.08818665987561758 -122.14314187677142343 -118.4903655068868602 -113.26318434190123696 -119.38201173732288396 -118.23915217408760725 -112.91655983162986843 -120.62644589663895545 -120.57848385538422065 -121.9771692980101534 -123.42497152433018925 -125.75632331472216663 -132.13621835838370089 -126.90186057639679973 -115.46313508546001003 -118.00719712696339059 -123.11964591475565101 -132.42302032170817938 -116.15482496599048545 -116.09031917132659828 -135.21347152576112194 -107.16814779733866203 -123.75723633978826399 -129.18909090380483917 -121.37017314143575675 -127.1654908590034978 -119.85446787503957466 -120.8787939978208783 -119.7655317861020734 -115.41025791358745778 -114.80778466080823819 -107.98060621864095765 -119.50838875826420349 -129.89936938355498341 -118.67247040476144093 -122.97110587001338899 -121.4617789618490491 -120.1380622554856501 -126.31130138260502349 -114.91014131893889783 -130.97102346378375159 -125.61058504314074469 -125.96048282067064861 -114.5247791177431651 -123.78296877966472778 -110.53925944276596738 -116.82512988056802783 -117.67874255301404673 -130.05862007869552599 -122.75489820952140008 -126.03781225278446243 -126.92464499375778075 -127.56578160800843591 -123.68446543180590425 -122.21972984916314431 -111.37292234706291083 -127.28249488600197026 -119.65411371649467753 -122.99561973626164502 -109.86213923574700857 -117.79056938453784653 -124.81590244235125908 -118.88648395936195357 -114.60511400508113411 -115.04301761540050109 -117.18189007017538472 -121.11216219925388771 -128.46847638059381325 -122.54619531492133433 -125.83018651982911251 -120.32605722067411591 -123.5533959935038979 -124.65484359490001509 -120.14633593207365436 -115.69832310200159498 -129.88418478630777031 -134.3716858479416203 -127.72925352811087407 -112.71580102326440453 -125.67430914511585627 -123.01399473597192014 -122.36119864231746135 -112.72481422885915947 -117.00554322513751515 -120.24512284523865446 -117.29854394827665942 -134.34424280961434306 -115.95693829258148355 -115.30430601597991824 -129.54402449617685988 -129.87455391211679512 -113.7003673487998725
-20.054620536743531289 -15.790753812021693037 -15.947423873616406453 -20.599900207515119632 -16.856136460957280576 -20.913036501930630351 -24.102954373074837235 -19.303291676140258204 -26.335924952687076228 -25.094258466854377332 -22.077509407546770603 -20.144740735230556083 -23.58067836811968121 -23.384143412556852581 -21.647402848056383817 -17.971567903163787605 -20.522052066817678906 -20.310988641098706609 -25.378696490314169409 -24.339554601123289501 -17.681959239511492399 -16.926330337377756052 -16.191657452631378789 -18.123380142470445264 -22.812974576997380183 -14.865631096516183973 -17.799181759627646926 -14.907765402494504769 -18.617438449152455604 -25.735908572239576841 -21.300559219798170574 -20.637440012007363777 -12.426452114029501672 -17.346332118595380933 -19.254075137129497364 -19.504133520088451803 -17.140943765081026129 -16.948350283036020869 -22.614186475035271684 -19.237478587360431703 -22.348175560946064167 -21.065047523939384178 -16.757265938116159276 -21.284330218600882034 -23.087464347828333899 -23.516965070722804398 -23.734053000093037866 -19.001421609403230661 -21.650014324113801223 -13.517044215257048023 -27.554353547892915799 -21.954212301473319258 -20.965432030269546715 -20.627045866188236545 -21.779864302443805002 -25.34732546196750036 -21.741561812305327805 -8.176194986364011541 -19.354198373348037165 -19.933304184859082397 -13.821132105132612367 -21.338038771975561758 -22.357074443946686415 -19.046643123938704178 -23.8996007178186467 -22.285329167063352429 -15.789528960437859695 -19.624392540556517162 -19.43351750733988581 -15.457711366873198244 -20.391498060861920294 -18.508150422478269803 -16.320298611171381253 -19.08597126689042156 -17.014082044403245675 -22.60225361905742858 -22.521862778710314501 -16.89725834509961544 -17.367936244680546309 -16.207108329227938981 -23.903684832515555314 -15.808047409239277314 -20.875136463023668654 -19.673343597182810782 -21.999108618813590255 -10.315828227157648911 -21.453191042294399438 -18.551625031724654491 -16.574811927846798909 -15.14460025932075915 -21.388942169095241042 -16.308520290040423362 -12.719658555140757272 -20.815129187492161122 -16.674294757958559643 -19.879346726521323063 -26.350003146156531386 -20.314796648455995864 -19.440293736174226069 -18.94717710007910938 -26.548955844575324647 -19.0637340415922516 -21.985707448284841803 -21.077049840514586521 -22.942866821717654346 -17.850998100964460491 -20.000688223295494339 -24.220659689894624478 -20.907891097209759579 -25.762689669370288925 -25.774978277642048852 -18.821256538272724157 -20.417275322763558165 -17.111751904107830313 -25.010761311885783442 -22.395918092888880579 -27.724810174451569367 -25.110772963206954955 -18.748272354688680252 -14.794942872784135446 -23.777411888458843237 -16.549598744599762767 -19.124548809142872585 -17.892205032223774452 -20.507193242765787033 -19.71303525419669711 -22.209991660892342225 -14.524848767791251447 -19.672511426092082587 -11.798738414448528999 -13.411827126085983153 -22.538438193877787796 -19.844031725467154104 -17.865587354585255042 -20.992194428289455033 -15.287716459712690664 -24.429200601933317216 -25.498143611675821774 -20.232223235853428633 -25.131724502821857214 -26.046580156487898705 -16.944507385793222909 -23.680634340960828865 -11.619243389922566223 -23.345807197883054585 -20.336316566625171731 -17.469361592334511357 -15.169509697021307915 -14.827143376363952854 -21.17627526715672559 -23.329880662267310498 -27.767406009153841495 -23.576864895176498749 -19.637001264708043635 -24.937750962173474534 -21.479820493014791793 -21.998554737051669861 -23.528879705448296988 -21.652649254364582987 -27.840964090475576853 -18.412533029784324157 -15.82195243184515121 -22.248947493596144653 -14.284613486962358664 -18.115550109399919165 -18.549338195182478728 -25.052923342229227899 -24.683488528445387544 -19.148550868950206194 -23.984814149571388242 -20.451838302551564652 -17.497819396355723143 -19.171962914033372272 -17.218410015396862889 -21.156920787719222687 -17.767710947333647198 -19.558562469561472597 -24.269839424894325219 -21.354739469111059691 -26.048772825324558511 -20.889646803664000174 -20.464030891878309149 -16.479064813100720244 -30.153377956755420541 -21.556489993552091278 -21.5122053199535479 -21.431575728065244135 -20.541035534225528636 -10.451377267034438034 -22.376110120007744797 -20.429333887469919517 -20.857915724004772784 -15.734090586487710084 -23.446116115751749476 -21.470423596914152142 -21.074825414966877446 -19.09000346010142124 -15.726003886844356572 -15.621739560826277682 -25.942566394140332164 -16.990957354099087695 -20.080822311386871348 -19.167046911410782428 -17.918277226148511261 -19.167276954875454464 -23.737460357516127374 -14.907086137876722987 -18.834271550653294724 -24.557350998274952047 -22.104427579139382942 -22.183945371342115749 -19.020566388152058579 -21.146761496259891544 -22.92811501559455678 -22.772559090801621551 -19.910105868645516125 -17.403721762495784731 -18.803238507951988367 -16.423199161639587373 -21.134664291987490969 -23.92265503986067543 -20.934906974258662871 -20.770662321181429633 -18.361249799846262931 -13.206379528069668083 -16.869890035797176608 -16.767569893869922026 -20.083326504947773827 -16.526847854201836441 -16.511850985942650993 -14.234819353327148761 -19.2816021470393828 -20.243258692126616438 -22.919854900251330321 -15.74418519071967637 -17.028760820389717168 -26.563847673925494064 -24.607203698355721855 -19.006487546068076 -23.789689807556843704 -23.711708887789061606 -21.550587438349381841 -18.82106135974473915 -16.546191265662450576 -19.553591133489476306 -16.281783617040431977 -19.903363174828164972 -16.62984905630523258 -25.186207919297899593 -18.368810838220948511 -23.328373151133384056 -20.278823903032314746 -20.983204133027896887 -19.95413868532727264 -17.209923943494189302 -17.758960658196727422 -19.512697511765740188 -23.003911535479197426 -18.403482978119882318 -16.499144280855883693 -24.478112405084765157 -13.943248898073797193 -21.232614904323948934 -18.082801426190123095 -22.089326756123032425 -16.879058228314431034 -16.952216312852261382 -18.75815003988498475 -22.279061331275951119 -22.878190706891409434 -14.919959825756075489 -16.42262295348882617 -20.160157052109624942 -15.027697547987431292 -18.863195468085763196 -21.476094800729324419 -21.039026231175803616 -18.347563934355715531 -19.873543579165918516 -18.336405614341991566 -22.505937556137876498 -24.361393312383476939 -23.666674764839118694 -33.916473358530446092 -14.51198602264390658 -20.992664412771031124 -19.207778789243242556 -18.493827045126142394 -18.155983832828045621 -20.107277155518154643 -21.258487989368543225 -16.646944697319067785 -22.091388587357752016 -16.357720324418970392 -15.319153325598534821 -24.169366857308766328 -20.298685981251789912 -28.743116290537507496 -17.290336160319181857 -19.031765064142042831
135.3315816926503885 138.84713371997727904 140.23431850752811556 125.37062623848242993 138.96242247120153479 144.86988100039101823 146.54515916871713443 135.78675094340346163 127.89818827311113125 126.45857434936704067 137.37627587917506844 130.80291560109893112 141.8795953889388386 132.27667395379816639 137.33751779044837349 137.87480856079099567 142.60434340808683373 125.31190591429701442 126.45827200817876701 134.16201054761870637 136.64170376192583944 145.50522024457200132 134.01469836471858343 134.72660215510603621 135.75673999954494775 130.87285983630621899 130.88337487385015834 138.05792199087969152 135.0584457336791786 135.35043832149386844 122.69528038123964109 129.97081204829268586 136.36339910911030415 139.02536698481392818 118.07751966323236559 140.03732577235683721 135.67204054782666844 135.66377180841450922 134.74483093905712394 140.16112884765513513 133.86418659374652407 130.34612068357895964 135.89574665842465606 140.09842390200691398 138.40537210262002077 135.91561723993501687 122.96509134208575631 139.84934150039325118 138.25368858725741461 123.41277072535986292 130.90566721834835562 134.3020608701270362 135.69906883053499769 127.88147137017578814 143.16276425217603219 131.87276230134969524 136.77221699218750928 151.43620103833563917 136.23531914409144861 142.10880348456640832 127.0326519018409499 127.61376211309574558 136.29360638889380652 136.80191488337015926 117.79666950654917912 123.23095675176273289 135.80948217171990677 138.16122261008979422 120.81194734987276718 128.23587574341360096 128.78299857556734764 134.84243703564268912 122.56022227014611303 132.91056092068907901 131.54294732949776403 128.01460642474611973 133.05084326975023146 135.03522071388653103 133.9417818049082598 138.78470144828364141 136.50916417134845915 145.35253432360312331 141.27593122452850594 132.89345898294058657 149.76437011857979087 130.05643591595037378 148.33592690730242225 135.90945558354169975 127.70268555823527379 144.22376237131709331 124.8743223408964127 147.21552518196511983 137.92908841045775148 131.96585091894428388 136.81785837688758534 133.85943125004484955 130.68305190085999357 125.4864828754484023 144.59997349493281149 128.3471272572598707 128.06896503916195229 122.72079801669551102 127.57909198208179191 136.23182484352699362 127.18125878624111635 137.03233591100701005 116.54083054405249698 129.80541154815855975 140.12902434533927476 136.02601268626312958 119.8173141506068049 138.30724782853894794 137.91597898949950718 134.51212093413730031 129.61769001867520501 130.8588326230229768 126.53861059528678368 129.48519927416052155 131.56726067527171153 140.21280482424728575 130.97403384301492224 131.83221332500011158 132.09157800787016868 154.26955531415785572 137.56847530681585567 141.67185587189050011 132.35318413914055213 128.70520821987543059 128.7378714322750568 122.46347590113923332 130.85597039799230856 135.344169912517998 125.81097039721618103 130.1227702360294245 128.66696843942625605 139.68060992832857892 121.23568423881569345 143.56320527733589643 143.37983360352626505 126.19331267431722665 128.64022291040956247 132.52664731756692618 132.93903527995004765 131.94199675295470797 130.292615826964294 115.80331234237060301 122.7265677492622018 140.48809602641691185 126.76652177195013849 125.72408040913353489 133.34990226212619291 134.46252269919554578 141.61318296325791266 126.9058675983240505 134.28583486828023297 130.92373190815294492 143.88063085996921586 138.83875485641050318 138.40933936092392287 139.93440683080791587 125.50941303789862502 130.8264298516130566 134.43376097768256727 127.90645599076182748 136.45770758789882393 133.02913085761815637 129.76018312228379159 124.62798234000577224 124.35236788844630951 132.95682350240923597 136.60602513740849417 127.06687752748142373 138.28004903581029339 135.42823598977841471 138.80978504382656524 124.04025880232967438 134.9359413967452781 130.64915763781516489 127.0384658845841841 136.72953923179875346 146.98501866344659561 132.41505158026350841 129.78696205749761816 131.99978494636238224 131.67937481826959356 154.36815898501959055 119.84663097484963146 142.77019083355625639 121.33887850062195923 137.58114375102158533 127.10893629032698016 114.72863336308776638 130.7144294485150624 131.97988045785780287 145.00385156325458524 137.64066021189157141 138.62890598200988279 145.04613699239882862 133.5493303412744126 139.8411162081293071 132.22567301062335332 145.11136222291162312 130.92808538115167494 127.10786706095589693 121.0329423626265708 142.45908431130590088 134.30320774320119881 128.28200707144722514 125.60191832781421795 140.39359713977989941 128.91310920874295221 129.80909974740924895 135.70894432578489841 140.02357498741969266 131.87436830918386477 129.54402087820253087 142.05496855189531402 136.04705674806092475 119.69012034722646831 133.22613256190010134 130.63615817445545986 134.1048019037878305 133.51336898100302619 136.21781970470510714 142.16079950591196734 130.85635157503747905 142.75854639181576999 136.2928775368965546 120.89754449826932614 132.0881716991875976 126.4502167653155027 117.07402700392682959 135.69323528824025971 129.07161261545707021 141.17425323217977962 135.8877134127300792 130.60612459074033609 138.27265427429455258 134.50618795913953818 130.70637244891634055 134.76571930929100063 134.045467172366358 141.24823281457042867 126.75595923861911274 146.24076912474865253 137.18741850415156591 114.3222886658002011 127.6861245428320899 133.97131616787217467 135.21436056747612042 134.28323888433044431 126.09691239336298452 141.22459349544229212 139.41064761594549282 137.92561937721541199 130.42877086049495006 132.68544737585088455 133.70573977756990303 147.21488180482418784 135.29749242943464083 120.28667753688593223 127.62159381036046568 131.77655029899580086 135.47205989347011723 130.10312862901275821 131.55223349039729897 143.62273682523780849 124.2948968311818021 157.78509440691749433 142.90986274299388015 140.82460305489573216 129.5383100805316019 139.36163397109046969 125.51232953300305439 139.30112345697665432 137.29299431244794505 138.68914722424486285 133.07066840727458157 131.44044405967039779 132.14542541832400957 140.16291048183327916 125.62942953377654476 144.89510787099774802 127.76035847232890319 135.02246511238473659 130.77807589110483377 133.81460398713815607 140.42139569846739278 127.54074561504687324 142.30768431337725133 125.10386509706636105 137.33625092121465627 137.20193183922472713 124.5833444516915165 138.23096837230031042 131.93727249722894612 138.65297526817047924 128.50061350445938047 142.2716307223932688 131.33523871249218473
-139.65604033641639603 -146.41637851926319058 -138.98421158773032857 -134.07537757710690585 -134.82253933082719755 -146.59675009522177902 -134.6564284107929268 -131.36932889989446949 -128.34672057905152087 -133.98393270742769801 -129.00895247216800499 -139.56263250779872465 -127.57468318483719827 -141.12922673629327619 -135.04896079819604893 -129.88337452111969128 -140.01190107248513073 -139.26947796307712224 -138.24655267002725623 -139.55845342264905184 -141.25867199273224628 -138.43957656912451171 -133.89154163015166432 -134.5621345593874878 -139.72604780198651042 -135.08669764196747565 -128.92204717496244371 -137.48793258707797804 -135.11739355010880104 -137.4100174863997097 -136.66536618700533268 -132.31422262522877986 -131.85285445012684136 -136.4951014236850142 -136.93160000626011197 -136.50218066258997851 -143.49986839165603669 -135.94437599484186308 -138.60680543401286968 -138.02072973606092887 -130.43465551375143718 -136.34403710427855572 -131.87256441517700978 -131.17996630343091624 -131.88125161712866884 -135.37938903630654863 -136.01608139061551128 -143.11103751293561004 -129.68897124877389615 -140.65590956242971288 -138.7318786833052684 -146.95937632101276904 -135.79443321981608506 -131.12973673959461962 -141.37225637841834214 -137.89423387627172701 -141.4091614954031968 -127.40747444109824471 -136.28631383633279484 -132.05883779811424006 -138.68396697615355606 -132.84521656402137069 -129.54849857064019147 -129.39916278015149942 -138.73270702690189182 -136.66765229674706461 -134.73122218226981772 -128.93201373827599809 -132.61306465351228212 -126.95400865618290709 -134.63730856437101124 -126.95057120506275794 -138.54427304991938286 -139.33683475434102661 -142.29217304681361611 -142.0658672696743281 -143.96594685901445132 -129.99328267494195188 -136.73418415443535423 -125.21147529863718262 -126.22236982619789103 -141.03847737262549344 -146.84145831557208339 -126.38372146636811522 -130.11054395379463244 -147.26260301511592843 -115.47496023820554001 -129.38947846677314146 -130.0206163728934996 -137.51884808518568093 -123.11734110827018185 -133.09232411650603467 -133.41056270032117936 -138.52172188561300459 -134.53831689577052089 -140.4117202787175529 -127.60739049626698716 -131.34426698237300002 -136.64514049797253392 -138.87295004898012962 -127.34856405312186212 -130.11533405150248655 -127.5158343932612155 -136.30491185099242557 -137.43651998600097386 -136.53174688763672862 -145.89154909216526335 -130.56493036789882467 -128.14352784995855927 -136.46599994176182236 -136.74694199406422968 -134.68091586382885794 -133.54529860237795447 -136.0384052805464421 -143.42370922070537631 -133.08444179723343836 -131.11940783675791522 -134.42234093701000575 -132.8289125834554909 -130.34945084954441086 -147.7077540311960604 -139.29969435339930328 -136.41346466190091746 -133.70965666868724497 -135.5735287522106205 -129.55265162759187092 -130.34174914737087647 -133.50795355092591876 -131.54628469570621974 -139.95747688541462139 -140.31218466921362165 -136.70551538647185907 -124.68112419484435804 -138.52384629196558308 -145.8017872284390819 -125.02669663099538866 -148.54836812539659263 -134.97160866808252422 -135.05215498628388104 -128.42509699344927299 -129.89917764780236098 -123.48142847115133236 -148.67533250579205628 -133.51370277493447247 -133.45684692600644894 -133.87158761265320095 -141.96237218938824753 -137.50532503690038766 -132.44474524228041901 -132.99070535504083068 -130.31270342775292193 -130.4611078722948605 -140.92959494344157179 -128.68170203227234083 -130.17371845595633317 -130.74576701133409529 -138.23183518694807503 -131.83324054024467387 -131.16970106610133939 -134.6477491782021616 -143.85843963158637848 -132.31601441477397429 -128.53050757244611191 -128.29944562000440555 -136.64489619984686897 -141.14229384463209271 -134.82027267574002849 -130.48432609941917804 -122.75633733816789572 -131.32064763689314191 -142.90565085011741076 -132.74025571336483154 -130.34948153268666715 -131.80422272984759502 -140.86643614419671167 -143.71943217930464698 -133.76185302440603664 -128.17885908933737937 -146.65052952154132981 -136.50411757197574047 -135.82125077543392422 -129.70259847208745896 -136.56978641905533323 -137.27743711612242805 -138.5697797589782283 -127.7431512694953426 -139.19270018642154696 -141.09959037534619597 -130.34979696127012971 -129.74611263760894531 -135.92801989402656204 -137.28246481920339761 -135.05588439511623733 -128.3492649926034801 -140.11730428601771337 -140.20512887120361256 -140.01996057897642345 -130.689323309537059 -139.8124847100293664 -136.0595326919116701 -144.74483870144618436 -156.59360723390813064 -124.53071639177063901 -129.42048573074464457 -136.37213696640964145 -135.79288756314676334 -130.94920120346131398 -144.02318347983586477 -133.72802179214414764 -128.71031720326143954 -141.71686571312332603 -132.10067468638717969 -132.80870756292267743 -137.14290053295101757 -129.42709418050816339 -131.85681435854888832 -129.62076065964566851 -127.78506686792792379 -139.91866915934988924 -129.79016021924078927 -139.88937922130426728 -134.04164998767654993 -139.86141087654766579 -134.18003061278662358 -129.83034917081462822 -145.62855833300491781 -134.23665676981261186 -143.09611983513076439 -140.66775986571920498 -138.09986079923393731 -128.66455043445117212 -136.31936557643658148 -141.48409115816619419 -134.90502676427928463 -142.39730206568563631 -130.27931018074218628 -150.74823633020892544 -124.84717196543091688 -129.84859966097513961 -137.75390127616620362 -129.75004732353767167 -131.2491935088053765 -128.81074111082764944 -150.3888839221620799 -131.95070047498424515 -125.36463438123033143 -134.35450751973723982 -138.8710496733355626 -130.56777764324453983 -141.71444863809264803 -139.2060818669619664 -132.00120649656113869 -136.31785527375254219 -147.60028346584053338 -131.18439907319165627 -132.99203080557660428 -127.04589884872065397 -135.86365478451389777 -138.25370968910942793 -141.70065923138474773 -130.69983196054678842 -134.92220914332460779 -119.72078578879302313 -134.53026912525899661 -134.93653916013133198 -141.07494865023130615 -128.64691237613055819 -140.70355692363918365 -140.48534039494316517 -134.86921569990755643 -131.69829005856880144 -136.87574863210932108 -133.08374935030946062 -140.15786810337866086 -142.08786372698469336 -130.11812816833813145 -135.36991694132933617 -127.18404114033404539 -136.95904573100412449 -134.68765743553490211 -139.00935740568800725 -146.1372437328209628 -135.68359751608397801 -138.92175840162099121 -134.0066419610358821 -145.34053016922237589 -130.91442693971669087 -143.57230142480563018 -132.18647557197576248 -134.33847448350982745 -131.16485963412011984 -155.47000422627996841 -130.04184486900194884 -136.65327460867885634 -134.64216948836676124 -133.37094572244444635 -145.16239722704179371 -132.18969528539651037 -139.22906697037839763 -141.80058771609256496
-33.737158292241268498 -35.288188737903119829 -38.439113540361404375 -36.555130642929647422 -34.197721137985382711 -34.343274297323816313 -38.585680411359469133 -41.710023831884136314 -30.357543663892101904 -36.257708781037294443 -36.20511688571869513 -33.222924678377587782 -43.226752507355172384 -31.614508909527778258 -35.501227845146502204 -37.799240229866107654 -32.154391341361836965 -28.680140784507916152 -34.738736627851565686 -34.71231467965557016 -36.686840136023164405 -34.017094946314635706 -30.315577131019981749 -29.783827214388121973 -30.44847181404796288 -28.411909045438896726 -32.141711321801594181 -25.294806215960903728 -39.220728966289790662 -32.390008966312400673 -32.47231462443937744 -33.779851102577353572 -34.225199967193958628 -34.178794712321867166 -37.6103543801055622 -40.080564315112567897 -43.058749190203130297 -34.776073908660443124 -30.896065367668580137 -35.9422495251717109 -36.597421172990003413 -36.495671865499105024 -34.230952131197824428 -39.45829927005179627 -30.163006052215898478 -38.816162797368633619 -29.032815580666056832 -41.313230698134589147 -32.355518459375225859 -39.351558528510494739 -28.118458601798732133 -33.897542171377892828 -37.8068790275772173 -32.246431057168180701 -35.17118274822315982 -29.664909247759204902 -31.753299256286432239 -38.34852256128297654 -38.356771603847505503 -37.907852806618656416 -32.753577193857339012 -41.0609632190939422 -37.246850438258192639 -33.357945094692169619 -31.026082719796907128 -32.722524326998382094 -35.976966378539813718 -31.815092329141492655 -38.406910331233909517 -30.793957545923777985 -34.215060278429106688 -37.253692626892480178 -37.092885647575855046 -35.530855037335264512 -34.248909645321305106 -29.811201259118760731 -33.581699385067921071 -39.068951706080497388 -36.613319763832713249 -31.116240222549052419 -38.403311763254315281 -40.37989755212000631 -43.594526631917233317 -28.948762149994344384 -35.480156339014087052 -41.75571488575138801 -34.840766193672720874 -36.192041242090851938 -38.378933486873563652 -31.151323674476415704 -36.35581468367468716 -41.126903474005395367 -37.002343905466588581 -42.66853858442080849 -37.97257297793186126 -32.927575246673129072 -37.916782409607179716 -34.976392176226468678 -33.502301381436524252 -40.251016140965859336 -34.903514668913310004 -33.224678856605173394 -33.976339553114598857 -34.874495653248743565 -34.144401647774806463 -31.71442862611443303 -34.837430154999779575 -45.457227079006244708 -34.714204219125754491 -34.841148785957585687 -33.554384587077379365 -39.420068829604140603 -30.722850401038606094 -31.922847349685376628 -33.837742217682119872 -42.217019531076658723 -28.557138650031120619 -28.741555866843505385 -32.811892883124556874 -35.237393771051131353 -30.641815853947473869 -38.096074205834625559 -34.453904742722343713 -39.492561412340101867 -35.946346379091480117 -39.755494187058140199 -37.153088094515496209 -37.267541617524074127 -42.260602014143429983 -36.286719907603924185 -32.237561000336022232 -33.39901331372875859 -33.098301976459119089 -38.183651991835716899 -35.495983162864312987 -35.921469256342774656 -36.07177185330445468 -29.467484203619765282 -35.862311963415791638 -39.352445733599502375 -32.568047014853299004 -37.170945342396045419 -39.192724746336892849 -39.411137161700104059 -34.847394284443119261 -35.661842414941183677 -36.491530903655004181 -35.653507090502159826 -40.403608210349148067 -34.947004678240240594 -26.61966059025733955 -35.466191000408855416 -34.942612277283487288 -32.931249026898527177 -34.128305296795161894 -31.951137276949538091 -31.718890779888809561 -37.885224169033286046 -35.288637799703018061 -30.423775194736105476 -36.949238276163157479 -37.389439901826293067 -26.738793681647159417 -35.191999013400582896 -44.501594604534695065 -30.339269959800979848 -35.210356097873500403 -36.366871635806653273 -39.807532937758402625 -45.064569415128090668 -30.737180850043635871 -29.159855212117680168 -39.557005511390805452 -37.829999074833779105 -35.082058009371742457 -31.670308625954270099 -33.558920564031438971 -34.547217691800078399 -45.891872581490147809 -36.427183218237985329 -41.241320185454711122 -36.381615841463279537 -43.056782993156524242 -30.501086140103623734 -35.666840895954713631 -34.531932309690290595 -36.78913073781058074 -29.503242934554950949 -36.350945181642970283 -33.713539882677721948 -37.34982838828539542 -36.025748106242801327 -35.164054070667965846 -39.035684602349896011 -39.460799449933965377 -34.652490865178421586 -37.076319610162016716 -37.534633774358212577 -36.852535213255393387 -39.565889731778263183 -28.865809232616577162 -36.186099551979239664 -41.265848995580185488 -35.465083207247594999 -29.147430943088025401 -35.858144070546394744 -42.17396646181013864 -39.864554379477233681 -35.91591803379229475 -31.926985646165380928 -34.897202481193872359 -41.82071524745615676 -36.17547293215905313 -39.508671822388016892 -25.523006795927681623 -33.86642226316946136 -27.45132017426974258 -35.40549529683296015 -32.647685037991465151 -37.065928869990010242 -33.061801264580019222 -40.503982792540220714 -32.91615646550680907 -42.021269172403080461 -34.213937474148693241 -36.429510860798686167 -33.076291010011921401 -30.914804548486024771 -33.646646253485258171 -34.855993694363711199 -37.32351074435082694 -37.751083210766189779 -35.042952976434925461 -41.051770415627679256 -40.33638192325263816 -37.253288118032614307 -39.17520846147961322 -37.051132676269673993 -34.364689188294128996 -30.7282525488413647 -34.189437048642396633 -41.527913062583607484 -34.132150803099278846 -34.499644850795547768 -36.556255144563920112 -35.74346995055728371 -30.848286327646093241 -31.634614807892734945 -42.966911843894216361 -33.391416076310591166 -37.756156104598289858 -37.571178794870725426 -37.941436838089920514 -42.361810727743069549 -35.047484193425432863 -40.552537242276045504 -30.062834282918583284 -28.987596095594447831 -37.242982424405177255 -37.181375615288594361 -36.412669267230711512 -37.570640995732759393 -29.167097859804609783 -35.68530598649860508 -28.062008090824139828 -38.081711758870135043 -32.530540016668609837 -35.653647982276382322 -34.957156752479903616 -29.204909952213437663 -34.615204723845508283 -32.12779097178145804 -32.353412603415307558 -26.805646271321698748 -41.17359151587540822 -26.422210217629434226 -36.571295620564988837 -35.448620399814451787 -40.720678029281671684 -39.448682691231496733 -33.073399818975545372 -30.987083874993025745 -29.337282088662533397 -31.98855395359458953 -36.972939512074404433 -30.531764785025963249 -32.601940020203116433 -36.529608118664064875 -27.68071689855436901 -27.641761441580882774 -36.80911586084792475 -32.996386718053642539 -34.778961188628670698 -34.335544862907994457 -39.688634009313062734 -39.195998615624567663 -36.273099529785170603 -34.228008574159282773 -32.173051196595416457 -39.084859636128001625