111.28158354969474431 110.21327775347378974 92.862519493279208405 113.28910634376521216 101.808496798039954 98.262184616320979558 115.99710978467673783 105.21917776375258313 114.38656166324688002 107.58075050974218811 113.2762040594351447 109.41911020984679226 107.7197090615755144 95.022385405958502247 112.82577623608827366 112.95440117859577356 108.58454232585710031 117.5787430230927697 109.55528241813669865 115.03436996310959728 109.98114055406459499 109.06816448929762942 109.91220106203638807 110.44269073026660521 115.39793822776719878 113.94276263384122672 115.88547435756306925 110.45062452610935111 116.19144931995995762 117.12309759252671881 115.31722894242462019 111.061792146289946 117.69342434427534272 102.46637864716021227 99.937727767553710123 109.41878251942515021 112.70103538501896878 109.57810343722246671 103.53846574342851738 113.03204709843225828 100.53702564848009615 107.55318902161631911 112.10066307694714283 105.14013677537620595 110.29899952582678679 112.19690765478891592 103.17288437369730048 107.55868058280793775 113.85206768093294727 113.55314473580958179 111.21003218245282085 102.01037265178821656 108.71113001684538801 106.90438757767766731 117.2400096510995553 106.08655871681663996 108.6167281569268539 108.2082109872805944 111.33494346337512582 120.60926375734919702 104.16241797238161837 110.10279750914209274 106.8844816553789201 106.67102722202241694 108.89584638081016976 97.193216574932307594 111.64899334465359004 116.5010873971228591 110.24526630767302038 108.95742055709106921 105.44807406762015489 108.90038501348182365 106.64451092386119058 108.36322044513563867 110.10631520378217374 115.89148937033904474 109.06189775781604112 106.59373757931263071 111.89556321499449609 117.44191618375992903 102.51619524587098908 104.37141302007429999 110.0982506968573631 110.59436040213006436 103.54778826130841196 112.64501813794149143 112.66992812598303431 118.33452916229035168 107.61929292538147251 100.38321772422511913 100.57860530198752258 113.29315282654330588 113.99712464490984587 105.26320364973310006 105.86646984452383435 116.47744224323774631 105.27850960613729114 110.79309367285303267 114.57110035840966589 118.00156194284365085 111.18162853952986779 103.08396909335155556 114.12494879008961846 97.899019199915102263 102.43737878474124159 111.16954837211092411 109.89508774144941583 112.3859915764547992 115.88774679119482869 108.09752375043071027 111.74000745058478401 108.62845769215330449 112.75037231297685025 103.85910427154075819 108.4343605690696819 105.41121707229059723 109.64138892342447207 110.17758414670070977 122.45300152727151044 107.61653475628716592 107.48702624589152776 106.36032390381735979 100.41593729616703001 102.6725169398321782 108.90918714902704778 113.40280038091640336 100.02412304974016877 108.92154229070962401 109.43294013470496395 98.395312419940296422 106.25187697712578938 114.17961144168684484 114.31503330593007206 113.69471652170410891 114.14124689933886714 105.70325496835395995 126.01370203907643486 115.76128890529788862 120.07127089766437678 105.11964295686533433 105.56149927567695102 109.66704279028891733 107.16712098085653793 102.66577001051587104 110.6158348881765221 105.07387353215996484 103.01980977570067921 105.6206556992627128 105.27037131843708551 121.87011367368808124 106.85154119250748295 116.00099789722230526 108.70715979791917505 115.47423040806933159 111.69315875546784866 103.33567598843654878 114.95562786356347829 111.96343241448595052 113.31708718826803306 109.31404647756602344 106.20614854991806908 107.88553807015135533 105.96354727740670398 114.45743979108954136 109.01871085618891755 117.18312399206014618 115.58633665104069621 107.01053064255843594 119.2721396983126283 96.338023723764024453 107.19823626807389871 109.07517487290381553 114.72590518669427695 115.88655121708188744 104.67360336091101658 109.00939801215358216 101.06070147793299441 116.02288773415394019 119.87233074015317413 104.30850780903449504 115.48322393694374455 112.13622281408169101 115.20796613227366834 104.05808592824973857 102.36621503305663339 104.83939617531660815 112.58656072480965804 113.03646120879498937 110.4534358906712157 110.31758219484338213 110.78346001109812846 115.34014152432560252 108.4146401911192612 112.88019818076436707 114.02294916845113448 108.90662403079406317 114.75658074434853972 113.57375807812475443 107.37003093797355291 101.37920230331903326 104.76194411762442371 106.80739465997253035 111.88925562445984951 110.87291516959626847 120.30401695607346824 99.585682449442515463 111.59141816693065152 110.26621467750429417 114.44553075590786761 102.7411773278724354 119.179958273664937 107.32177352398190351 109.03263306085199247 107.08489017884295436 116.7063822195405578 107.81761777091166721 111.78388107555322506 107.75786023778529454 103.71801736994491705 105.87900449444001083 120.38035837383037574 111.73431852608881343 110.25599917300304753 107.28463948619142343 105.09726831156038429 105.85762697780445762 105.83984569814575138 105.39286580971229057 110.71068516814101201 105.2529285682076079 123.5373206250969389 111.38741491339433765 112.90178570177806705 109.57928282937905351 116.96563281900979803 109.60473958396323724 110.04888944818024754 104.64000424458603788 109.7848217313323147 116.84407191295488815 112.42619288041662173 108.8329233275398451 117.37487106565124861 101.21631761695384455 109.46624184312739203 106.04481289110579212 102.94174608885093392 110.19224120241629805 107.94048813762742611 114.72702717320677834 105.33450797967053347 110.28968196399820556 115.10927808645351433 111.84721622553452391 120.34426815433300817 106.65939683487799527 110.54964629445528601 117.31189660291481403 116.12500872316125822 109.04042093680095604 107.71869482680581598 113.00398493252501453 113.49243769649591229 109.22060041511468853 108.38693634872434757 110.86466850881218704 101.7195844915510321 111.61164844202397717 102.37283895312495474 103.6542528204986553 117.21542031028718611 107.28507905572705283 106.38381755832537578 111.11828005052134927 112.15365214540385352 117.39365027497738936 111.00373120240736569 102.57776994550992811 110.41681096287035757 111.64335508909985606 111.25649724191795542 117.36765226348404667 104.23746083534459217 113.03733124045407976 105.88325149816516557 114.79906617707429461 103.71753391043939985 108.35466216681444962 107.04785706893571273 111.12846470418240585 115.16948008561756467 116.98773372296898287 111.36396215903818074 115.79060302573782337 107.53800113101651448 115.80595013058665188 106.8728387729254905 111.20843908907792752 106.56280379210591036 118.08766205198722332 108.9318142155113236 116.31278549990516069 111.26169858113587452 111.9660563932342825 100.70813791326506248 104.62511465222030438 108.13695661234368117 109.04690047758114702 116.84017792063396257 104.75445544194465697 96.155060007945351686 109.09694027569031505 112.44263399548259486 111.42736462042770995 107.59380750888757916 120.03874274497532326 118.09361375821826812 105.78885338158335117 104.22760916646636531 115.05511135079758844 105.37612580532682216 105.36295684978429676 103.49618739062229622 107.95002139137048403 99.10440394386215246 102.25008885198626274 104.54885961831755026 109.06877894045713617 109.64630715445186127 108.6413395601682339 106.27354650308657824 106.03225587286212317 111.91350169743408571 108.4453247154910116 98.344192123572071296 103.52972070101191093 115.57094337504598514 118.82886673514241238 93.99561002737277704 112.89904859050363939 110.27922854197679214 108.17687997318375892 111.61772261606084555 113.57267415489177154 106.27594627971247121 105.85966860845095994 109.2261636641952407 121.66304403450963889 111.84550868378559585 111.18076407977467568 104.33935406734724438 114.61916729692147499 114.66856060252104044 106.928064064364861 122.04241573823027522 101.67302307952382989 104.11118212619565782 114.50875108459217699 112.06985140335582685 112.93540659487487687 108.85838698772444388 115.4707610059674181 106.48774002941648575 105.69373699724644666 113.88133629207372621 93.607255140271746541 115.26926784001247484 110.39761808784609798 114.77481073161226277 103.02600321799168626 102.37149862839785897 102.24436812540974984 114.5149135810174954 108.76581334644825461 112.33943447920712799
-1089.7311616174467872 -1091.8080460687683626 -1091.5217221988179972 -1113.2896299646963598 -1101.7386204502317923 -1118.5540011091004544 -1090.9152207637166612 -1087.4212587270255881 -1098.1273465524554922 -1123.8752459426630139 -1115.5843106057170644 -1123.3470171674759968 -1101.8262419909710843 -1109.2212512256689934 -1101.5297513901614366 -1106.5460588580995136 -1096.8338177994928628 -1101.2469483664719974 -1091.577162077281173 -1120.5971419781442364 -1093.3393551114284037 -1076.112656045625954 -1086.2518955744255891 -1094.3276964560964188 -1099.1211200818086127 -1081.4015100844853805 -1111.4700740514467725 -1104.1801144436383311 -1091.2398366395711946 -1096.782960727794034 -1114.9658025124501819 -1102.768618876595383 -1109.5334333679468273 -1106.1411795835817884 -1087.6665731945402058 -1084.173710267287106 -1108.0466022982002414 -1101.2253155892562972 -1100.4650646209679508 -1090.0021675116067854 -1101.4673191276694979 -1115.4848723205959686 -1095.4597968795442284 -1098.9135789739152642 -1086.2845429589108335 -1066.5197736276968499 -1089.505081585395601 -1081.0282905416027006 -1070.3343716277836393 -1099.231490885644007 -1101.6344772331817694 -1100.9791847791398141 -1101.3162106106026386 -1114.8427575513287593 -1107.2858123336056906 -1095.5210544584531362 -1094.2925645508926209 -1097.3665015498686444 -1080.1212361471611985 -1098.9624235606033835 -1080.8092292677249588 -1086.5996526663811892 -1113.1536610314483369 -1090.2374175602456035 -1100.7106625668779998 -1101.1814529567368481 -1100.4606140027024139 -1113.6636830453912808 -1093.5628059917926294 -1091.3043542449790948 -1104.4390896531792805 -1085.8315000493710158 -1100.0832187007813445 -1106.241291792805896 -1102.6972627117756929 -1081.0423498480913622 -1105.6744118645854087 -1120.3309301132157998 -1104.3107131970382397 -1096.7238188089834239 -1102.1535982542122838 -1102.3451220434747029 -1096.300558278840299 -1081.7012243131805462 -1107.4435639078999429 -1095.7922711668643387 -1106.3821083320528942 -1098.8679054116300904 -1114.9463885145189579 -1098.2186661257069318 -1103.421859424662216 -1097.1847909645312029 -1093.120745660386774 -1119.7220675714074787 -1076.6235833045627714 -1080.0506531456994708 -1108.1557953694020853 -1107.4468589903290194 -1095.0162048731581308 -1111.502188052084648 -1104.1436485684462241 -1117.2648123594094614 -1098.5396416374928776 -1079.1887634705387882 -1110.2536438852018819 -1094.4443168669483839 -1102.0156703523155102 -1088.0604012296223573 -1111.137910770526787 -1098.1626265907013931 -1085.3206224831999407 -1096.2173222779867956 -1102.9521318536183117 -1104.5604792528442886 -1097.2118429744348305 -1112.9879355626480901 -1090.0861742911640704 -1076.4345480377778586 -1100.1709937313203227 -1089.0202482398071879 -1091.2405076352688411 -1105.9474234013916885 -1101.5058784695486338 -1123.6494182948888465 -1102.3101871200801725 -1092.4392604192853469 -1105.2292713661468042 -1096.2048700205386922 -1112.4140951553843024 -1113.0201091923950116 -1093.9929952712368504 -1097.33291643965822 -1101.8492314910233745 -1114.5705974815871286 -1090.2773408747768826 -1116.9517956565418899 -1073.8555940970454685 -1097.4788345882072917 -1108.4762090595768314 -1076.7332360073987729 -1093.8627785718556424 -1118.2520537883622183 -1103.3877026887912507 -1127.440747217025546 -1108.0751763344212577 -1105.8436099743144041 -1088.3690508809665971 -1099.5914931456143222 -1106.3792048971488384 -1093.0345550723357064 -1098.1428700580397617 -1101.0580539829654754 -1086.3094209846224203 -1116.9631027373261531 -1105.1269070365815423 -1124.9999088415481765 -1103.5079285997526313 -1121.7342826703015817 -1078.2804896988036489 -1105.0376372438479393 -1086.8760512544417907 -1100.9671191751144761 -1097.7131776524054203 -1112.0014474245613201 -1104.5595297462880353 -1074.3398161608201917 -1109.3538941077858908 -1101.2271043859245765 -1105.1844000186063113 -1111.2324435364541841 -1107.425789944138387 -1116.2368953924556081 -1119.6853589445545367 -1106.511183494796569 -1100.1191108423745391 -1129.9163140176854085 -1115.0914728078089411 -1092.3568429085125899 -1104.549386680164389 -1114.46541276424432 -1096.0675381677954192 -1117.3764082106749811 -1116.1162415424355459 -1085.0747270825677333 -1104.7155568761174891 -1115.6130104424426008 -1081.8614153801797784 -1088.0171863936325281 -1088.7513232433213943 -1110.9515877611972883 -1087.055085445118948 -1084.7655348935888924 -1111.064160362227085 -1117.2526187832459073 -1098.8191538924525048 -1106.541363003432707 -1108.6624972844292643 -1085.567821799737203 -1089.4486007189236716 -1116.5490748204715601 -1098.4451340490866187 -1107.3254242218254149 -1133.9710012884638672 -1079.320070044078193 -1077.7213279559471175 -1102.3864032734143166 -1076.7322132377353228 -1103.8894660252879021 -1110.8037753541466373 -1109.3697500049529481 -1126.8762320196904057 -1092.2242439267840837 -1100.7206964385129595 -1086.4565659246084124 -1097.7498263298034544 -1086.4885651628771939 -1110.3001657133404478 -1121.4688791202738685 -1088.8643924905595668 -1095.3970242093359957 -1083.5553413425195686 -1100.8198523943751752 -1096.2360415650084633 -1106.9109177497746259 -1088.1756591456535261 -1099.7629652094947232 -1083.2848074410060235 -1110.135914881473127 -1096.1375910608030608 -1111.5957596556520457 -1095.6518100988937476 -1102.886836463912914 -1097.4100505553183211 -1087.3317031503052021 -1104.0013431147096981 -1108.4222753573731097 -1098.5371337559472522 -1102.7472454377964368 -1083.9508441870154911 -1094.8164371524999297 -1092.4381312330035598 -1096.9488293911790606 -1109.0246168348846822 -1103.6079803131224253 -1089.0994131952381849 -1115.3935679234730287 -1110.404208295331955 -1086.0274191374796828 -1092.6293322041888132 -1097.4283780974219553 -1105.2981325489081428 -1087.3376100470336496 -1105.5580005380934381 -1079.0702471188378695 -1100.6578710432900152 -1106.896073335301935 -1082.7454532680333159 -1103.6820581042056801 -1095.6016581940191372 -1109.7555168263068026 -1103.7714498473426374 -1112.8795772010448673 -1117.0642922730023656 -1082.3350935723929069 -1098.2316034936341111 -1099.5775760823953533 -1096.6541753173871712 -1096.4405550953424608 -1089.6972239851463655 -1085.0499534940886406 -1101.8688059828591577 -1077.085215813557852 -1087.4277175670797533 -1092.9541160977837535 -1104.4563067658007185 -1111.6011164557912707 -1098.4599811474870421 -1094.820883610453393 -1088.7325268707913892 -1103.3836604500343128 -1109.534054101806305 -1107.748315410999794 -1107.5500362624163699 -1107.7878621186898727 -1093.6546577642395732 -1123.9903230762665771 -1094.3412345994179304 -1098.0944891021572403 -1100.2143204452761438 -1117.5785971303450879 -1109.5085668668580183 -1095.0179243392810804 -1092.9871057414454754 -1078.6435535841319506 -1098.5145689461978691 -1104.5858752211124738 -1082.1985021299512937 -1107.2595533472792795 -1084.4126840736312261 -1103.0672083820288663 -1099.188344583172011 -1101.5149855551039764 -1127.9191973312154005 -1105.0173201900097411 -1103.168652774402517 -1121.9942728734974935 -1094.8218271620814903 -1083.3730513171121856 -1102.2117944431201977 -1115.8837687213201662 -1085.0374457549166891 -1053.1946212892789845 -1120.5260569652953109 -1106.7603009746228508 -1105.039618770924335 -1106.3232003573914426 -1127.2258015261447781 -1102.1537139778806704 -1099.7006244783829061 -1078.0231629968161542 -1107.786089389602239 -1103.1761035563101814 -1123.5793844176243965 -1081.498274759357173 -1104.4790203489565101 -1093.9631768260308036 -1115.3947964440117175 -1115.9809854875925339 -1112.7335943554296591 -1125.7635096628116571 -1082.2183081932130335 -1101.669398258758747 -1113.0560461926972948 -1107.7696331353799906 -1073.7696707513496222 -1088.2988196436785984 -1104.7340379223842319 -1083.5268044736437787 -1122.3219941839524836 -1079.6192262065565046 -1093.4634258192029392 -1103.7510390553595698 -1104.6136798706254467 -1091.4276545624534265 -1101.7087206675512334 -1103.6215301224915493 -1111.8433762126153397 -1119.3848718273566192 -1116.3083879740725024 -1108.5134069137491224 -1090.1110415830014517 -1115.9861666613221587 -1097.6644243604405347 -1122.4292256986755092 -1104.10463674180005 -1087.7093555611875217 -1101.7950364880871348 -1107.5621920537391816 -1080.4192564757520358 -1082.5567851194882678 -1087.685247080408999 -1103.0801402481056357 -1108.2037756941138014 -1103.5171118576201934 -1100.118661271224255 -1100.0096759959171777 -1099.9846310925931903 -1106.2692733800481619 -1098.4138068173331249 -1094.1585649184312388 -1095.3616971162825848 -1095.3399861511973086 -1099.4809321505945263 -1109.7712461757453184 -1087.3078485081589406
674.55847202468532942 683.24117855204883654 682.40608297872392995 671.95908201434190232 670.72769506851909682 694.16804714475676974 678.05622660408550928 674.9825322255875335 673.33969659070544367 681.51288121054494695 663.08166947183917728 683.37611335291546766 695.81370248094719955 675.34180658012473941 670.46215617773532358 690.00099167253813448 681.32481876151700817 697.0332743808791065 674.22268511134370783 670.79500892114174349 682.1784034548929867 693.490262884260801 679.24805147353526991 678.95113236730617245 684.49227426504319283 688.39219971717943736 683.54276349205554197 686.5396607411222476 687.70637871748454018 670.10053337610440849 679.22751915980211379 692.13068787777001489 682.45565749915351716 687.16768934821061521 685.14659551987494979 684.26647941704152345 665.47554460572973767 674.45939003452667748 684.85829027890542875 690.13755968169004973 675.93041484328705337 695.99182932822736802 672.59212870025669417 681.49317917760822638 681.39364250786081811 690.05941444891095671 659.291182662859228 693.72216237131419803 680.05802767895750094 688.97394410452307056 677.04044777485682971 662.05317614894408962 674.6897826160815157 686.09448075524096566 681.72061063211879173 669.88385965845463943 667.88631867946151033 677.69887329013886301 690.61894763241048167 675.02913000152784662 689.20657859920584087 680.87276353264360296 683.62754991214114852 675.32882987431855781 678.46708584725104174 685.59232411075231539 672.59330064245307312 693.46872321180660492 683.63520490652354056 680.45959224293778789 677.62293291542061979 676.80574035403799371 684.311499005436076 684.08165021174488629 684.11180511260226922 671.1247740711996812 684.67873381202889504 686.8033902098291037 684.82870356759178776 678.60718717150166412 673.06743868844193912 681.75998909094050759 687.83863899207801751 694.15528173374502785 684.35400368210036959 688.49774390683080583 670.41688035225740805 669.81956745009904353 679.57382016943836334 678.02549907421644093 686.39032141046391189 683.73717897406754673 695.70015277320453606 682.08647124927131244 683.5095454042404981 683.08049131772600049 685.54200263336872467 675.89322017947301902 680.05138175922627397 676.21548776245549561 676.6988887406791946 678.94569388373838592 694.50619471785716996 690.98844298436506506 683.86926629875085837 689.24536807465290167 687.651006499601408 688.62214485942229203 672.89103585486077463 682.25404327471028409 678.64050214147619045 687.85484832677479972 674.59035200077278205 677.96189565526776732 676.86637590715929491 672.12591681960259393 680.27877917495925431 691.64028544655627684 667.31579907881166491 682.24700762879092508 685.11612462512812272 677.58583298027906494 680.80179933308613727 692.03609899619152657 677.56999848303144063 671.86813338279466734 686.99858980309534218 673.08311158249819073 676.1872302974103377 669.3190018031478985 678.74537950349895254 689.2814105671869811 674.55727619029585185 674.37921159838720087 680.23364214232356062 672.57140312928356707 682.31457404859099825 691.93859974416534442 684.49192515017386995 681.08527237352575412 687.42319960382292265 676.51898589864993028 684.51771865867556244 682.6033100757417742 702.5987740213164443 687.68972735648026173 689.66038956567092555 685.48870405311856757 667.26470670393609907 676.33534404905128667 683.28915195453259912 675.40301143735609912 693.18615191181027058 674.85032052664291768 696.22783283255830611 690.85007246307839068 680.98149321934272393 668.15620028407397513 680.74057819362781174 681.35842882151393951 678.98058068075931715 689.90066181859856442 677.2128421161676215 680.59185850800997741 680.4972639740926752 685.88738124078645342 681.26181677637237044 686.17924837635723634 673.52206517429965515 679.00163521399917954 679.79685415134395043 687.16020837205428506 671.05933175849020245 682.69051719997264627 682.92202748159434122 689.27691065429189621 675.42604919263794727 693.36632622065815212 686.40979761141727522 680.41609771342962176 681.08696832975317648 682.09475025601182097 675.4848941645271907 681.98208827353369088 678.06674749093144783 688.16031060768852967 682.03167132490318636 674.08245896321579949 680.9159509379398969 681.45081451753299007 681.33120672365021164 676.58285335028722329 676.07537757487943963 679.95600098843920023 684.77260329052273846 691.00242671363241698 672.79962978595540335 662.23388419206355593 684.07293287533730108 690.38425629021901386 676.70369905080133321 685.28618354471916518 683.98392990299134908 687.53974004763620087 681.0589614552477542 675.76021420116683203 685.46523972742454589 693.90844523782232045 671.8797827086474399 681.38603169272062132 670.04950189368912561 668.16428582165985972 684.76819253676239896 677.80182882386100118 682.97297901030265166 673.51416467800254395 698.95366349656262628 659.45355602132531203 694.92788580520539199 681.39970256909498403 673.34026922678992833 678.09613859535761549 681.61870773465591355 690.60045674321349907 682.68040862813199965 677.5036658483793417 681.77806126550558474 680.84733254994569052 679.29405305896909795 690.73159577093304051 663.08067806861129156 688.62929492589614711 669.74642587925882253 684.08150438886752909 679.16893820095197043 682.70108403680467291 666.73129631409267404 689.95553303637655063 664.14101778385816033 681.55540745546534254 670.65593432584751099 676.77404903438446127 688.02642458243747114 686.97369300203376952 677.94814394396951229 674.24132783961749738 674.2962785582063816 673.53413535273773505 682.03149622806574826 686.07516041011695052 667.04087474765219667 670.93601178905180404 684.92203420943394576 691.16242303325986995 675.7269138223293794 674.10303419500780819 684.59901861350181207 677.98212446029640432 672.55114430757373611 679.24710846849256995 687.52633768709688411 672.81661186667201946 679.86091338535243267 677.97673920741522124 678.85375485606107304 690.37838214990256347 682.72650771737232844 693.37299284576124592 683.58793536694020077 684.1227945095602081 687.92788548764076495 675.29012583857740992 675.96736551490755573 691.05809405198533568 684.47449908341161517 677.32551881657013837 692.35032754798180576 680.60057467848093893 666.31508965498028374 687.22994432156190214 688.51731781977582614 673.7559544331734287 680.6093222415049695 679.07063215773746379 692.22776408867878217 688.62353583868991791 682.36283789548303957 679.57634499435584985 677.23660204244197303 680.28554066613696705 697.88256456512954173 679.35319720444363156 681.2312711901683997 680.75058826018653235 693.07623942176303444 672.33839334094125206 672.49743144562489761 687.16520206231996326 673.20479111422343976 675.68049751117905544 680.97223029388487703 665.84534811570904367 692.96999060508665025 675.19748200255855863 657.42637168689918781 683.80438464311293956 676.93700264571464231 683.8663210581516978 673.45962028706298952 668.83592584176517448 681.86399429507287095 672.83472879214582463 682.41705476156027999 677.02596042954780842 671.17172110090530168 677.59798015826856954 667.96792391077440243 679.32741645314138168 683.26795003219388036 683.20754073022408193 678.09959579384201334 674.33982945530010511 681.8537252418772141 675.72711930110540379 679.12838867087293693 677.57929870021450824 682.89748789733312151 681.20689211733622415 677.03707567512526566 683.09788105277607428 677.30250642997532395 672.48772276480156052 676.29213550407473576 691.39685476313047729 678.9641973645627786 674.82228180376330329 685.97183134376882663 694.47464188446190292 692.36592945414611222 689.3423390281382126 691.57311808695260424 681.74956257197516152 682.52691804344487991 696.63517393912150055 689.21531479197676617 686.41840752858149699 674.85095012401757231 685.903382202149146 676.29016424287590326 680.1545089709484273 672.30084383205860377 678.90603871014263859 683.44992704360583957 680.32989172800648703 680.31500941029003116 689.13340124899059447 683.30398598559247603 679.18079000490001818 681.22668480823813297 691.73905231607318456 685.71255652964396177 674.07779275258246798 693.52099416233363627 681.26176049351840902 680.53243795757703083 674.23005257060310669 678.26741153961415876 688.8754802837116813 674.24342955503334451 681.1449082840246092 695.03921612266731245 672.99462353400997472 690.29683653495419549 689.50132651770252323 673.52479480443844295
134.91200053858096908 136.92666114810842259 129.5161672887173836 140.5482084455917402 129.55103217993163867 130.84911298842945371 125.87685975504004432 133.80188850073736262 134.23223696621926138 126.49736278831787217 132.99070670753482659 142.9205846132139186 120.89999863165520821 129.17877464227819928 134.62333825470852844 142.55219804895682501 131.20352682965665281 126.49922761452404529 134.42654019042583968 131.79294419821070505 143.41363280741714448 137.30335057811461752 123.55776958784123565 124.13421991976076697 135.40389466512655758 138.94544002902335933 121.04187674387330276 131.43313541264748778 132.36699356293712526 126.43804122807404156 128.34069595356734794 138.13097989853812919 123.33768192781812445 131.77415613565872832 127.09764781632810582 121.60391763110121133 141.97553206009425253 129.38811199134676144 142.70467179375316391 128.43543332650881439 132.41223338012272848 127.35101172412164772 139.44644330806252697 127.21254742975068552 130.24070069229469482 130.79830497706856818 126.56589293036286392 126.72416483463746317 132.01455709389227877 127.15609484358188297 132.23805431836606772 129.78156286027751776 136.80883590934203653 132.8067764015470118 127.09805011032995026 134.99038153413465579 123.76514413268762382 136.81481949511049834 129.25278861223929994 128.36183241453625214 129.69576485943733246 120.43011087730425857 134.138352022114276 135.12071832058006748 131.19299289949310605 132.71623830668946198 124.46820612629682046 138.91030072720454314 122.98318933069100467 139.84032855652981198 124.83441044354674432 137.67065829406104172 130.8390646383318483 125.23794767491651214 130.54603682150116128 131.59950354988518484 140.10690304622937674 136.24150360930829606 122.16260679485696983 130.04178805300028898 126.92165453782803297 123.34851814150067639 139.28795673250388631 134.80881386704581359 117.93357807416614946 134.40484029328490578 121.07080869311100457 126.66786772597475874 125.96821419994925861 129.68062378480283314 138.57291735780142972 128.20963065632184907 125.14925333443439115 130.18451147985683747 126.15328895085787053 132.60624117355757789 129.43647161926560329 128.34533718475137221 134.32267101840994883 138.03104872925484869 131.78726272910870421 128.89690479685424407 129.17110948456894448 131.43692658147057273 116.69299351675731202 126.72975115004143731 135.16713187444238997 127.45127543046994845 143.28776600122009199 123.83031221317945381 135.49409100677829088 133.52607538463320225 133.22687261283300586 126.15200016369657021 130.22669308348287132 128.10434720287628352 128.27832292615340748 136.35521353714247539 131.12228166262764262 124.12616216843647976 129.35886776237305185 126.15511120993633654 133.2109332491112923 128.04882497652758389 133.9877964043664349 128.45953951782334457 135.21976522392563425 132.62027535523378674 141.71204822295021586 131.9602034021548036 128.42685764049235786 136.72195493988746762 133.61315996266873185 128.11673946573438343 128.86644908659778253 128.59923207595448957 126.0072205147851605 129.89213228542263323 123.95088307715222697 131.71828819793933008 145.64201782727542422 126.19910297681036582 128.53060231144854697 131.74975670795956262 129.43747602157802135 134.41243942483382057 126.43585996178535424 128.68548496241376711 137.94102535073486138 129.83000674777466088 130.85133114877757521 131.12613433165313381 135.24753734811568506 133.22193993791191247 129.93841876306240124 133.1751362279904356 130.93965842996072979 140.19365794824406635 129.13684162619458107 129.31952431256723912 136.33446781340069265 137.13708619411923451 128.92145759344711564 127.39947924702768489 131.25267115665081974 129.99786167761658362 122.55768816047542202 128.65595243817290338 131.74965728774935769 136.68981600092502049 129.89868824698888261 136.4445224060983719 125.91122630845526942 139.65458980679414935 130.7164373607180039 137.97827985226936676 137.09020597520881779 133.86004328836517629 127.99841410501467465 134.94403465380293028 129.68059277938002083 131.85996716619098379 133.13156055963855806 118.17915602544209719 125.21658764826980814 130.58048216320696611 127.23508906059922197 132.46900106680601539 140.61995757253592387 133.56319413989706391 132.76692221503563474 117.41481318865398009 135.9459068031520701 139.92989419139314577 144.45661559131946206 138.74270085281392539 122.62566947431469089 132.58585634323790714 128.46524385469925278 129.1961940024436899 132.00361174494511829 122.85910169921515944 128.76598433708738867 133.61609995372023718 131.942082821731276 128.73198915427616384 134.06664053094121414 130.83669253454215209 128.34311905273898446 134.21937615364629437 144.63683318098449604 122.91157083866887945 141.52549819395116515 129.86193327853959545 129.86909468815585456 128.61207344407313258 129.89050148442646559 126.74825422344770232 126.74541209928703722 126.99033677065429515 136.14681975744446163 127.79359804147728141 135.94244236854191854 138.94309809797036337 137.97137930545019913 134.36668304145226216 139.40213817109281536 135.95786703001010665 136.40802392689343492 125.82128794692016527 132.84455531585248877 131.89601794548244129 128.11797634636508292 128.34156391662077112 123.07297581437758538 125.47908122357124228 127.62923365639508688 136.74772518291504753 124.93726621486381134 136.25223761419914581 121.49991313349808308 130.17274583631132145 123.45596044430757843 128.84004015850348424 134.54785443081473773 131.86230951229009634 126.36298002793863304 124.72290929727820696 133.74222781168833762 131.9160807119700678 127.6175780951330978 131.87275771024906135 129.66588673116922337 120.07276849236026806 118.98389542027304344 129.66767053003817978 135.26010619855620121 119.83617794680995416 132.58962144684801387 136.88381847944302194 129.84394402998617579 127.35973646468849552 143.70954037068798925 129.414437087041307 130.24205345205686513 133.0896856856842021 126.77713218165709463 129.18545918739846456 129.85698421677304282 131.30672243626258933 121.92408396245946278 132.59372877135305657 120.07374350581098099 136.86138493327112542 138.29908420184762008 129.14521407692697608 130.43777887615073041 126.80156001326191983 133.30720784363671783 134.21003344130352275 123.76726318953281236 134.41483530055643314 126.18343726300196295 133.42464990360087995 134.00826285583684694 121.76075378242100555 144.10294464786716162 127.80671719512803008 129.32272472648054418 140.90211522344290529 131.90689297988751605 136.62502304460545588 143.29809613180356109 134.04208999711482875 124.18583038285073883 129.1852548489732726 125.23710697296814942 122.64246259052491439 122.59709514874070635 130.93573334964821697 132.12477983722041586 127.53732141820626111 128.83440725337774779 139.68529387748202453 132.91378497567845329 135.36486806957120166 138.85517165924190408 135.85058676439351188 123.34848224715072718 132.48950333114328259 138.78287168293118725 130.66983541739887187 129.82709228221526132 130.69011623979849901 131.57499955654225232 123.00207916570505517 128.60728780300289031 135.8992765012084476 128.17993563552971636 131.26855696939466611 136.6213199535493743 126.22041543840630595 128.7537667267532413 127.16741680790175906 132.03830487638830959 136.54329808434826532 132.84220098017880218 135.5013966316033418 128.23005475798041175 131.10721707636528777 126.66271090554882051 134.28128993981937356 127.09193886056372946 124.87567211246113175 122.92790083864120732 132.61309494909750128 138.0669329126002367 122.579089003499206 132.60460843310505652 134.9303594047428021 128.10828553875828106 126.47622333007767281 135.94623832701492461 119.75326597083332558 135.61886509302016179 126.72342998442442763 132.91789015426442688 130.66279994505720197 126.59152083679509815 131.18977362889626193 124.56135344894343575 138.28760809652141006 131.97772158004363519 134.12419891780919556 126.15435482198843431 123.71118912256240208 124.7455054206042746 132.62514769043173146 127.27639679105099901 137.65029371181228157 122.44142475091356914 136.97278807595850481 123.61191025736621896 128.3710554562520656 133.14728931730897443 127.49956738259267297 130.92642117450657224 128.81347734569479258 120.53508810107540228 141.04025932650327491 117.09023701461872236 138.74618328695927971 130.99205564604733354 125.3250572559560112 131.12339803583356002
-1179.2317188959336818 -1176.1606393970125737 -1193.7324034882856267 -1145.253471061818118 -1151.9750023724875518 -1168.5911110818797169 -1191.4125029457584333 -1158.0303033730745028 -1183.2429855617390331 -1171.6748146216173154 -1167.3575544008313045 -1184.2536332568804482 -1163.7422483522586845 -1186.4874456699726579 -1177.7143054480818591 -1163.8738057993280108 -1162.5327545355260099 -1167.1373692044608106 -1182.0246509715482262 -1177.4787300948369193 -1165.7584864829730122 -1177.5453036062469891 -1141.1546659807968354 -1147.6115374120252 -1181.6187484851147929 -1159.2225227124952198 -1178.2389843530836515 -1150.7910959516887033 -1169.2584613024819191 -1158.411562587707067 -1176.2381746857929556 -1167.9854854165614597 -1176.0452656536394898 -1183.8242713697302406 -1192.551380170258426 -1182.6824343570835936 -1175.8751966917361642 -1156.08015420499828 -1164.5615877051270672 -1163.5147741264815977 -1180.9110657126534534 -1173.3406944949206263 -1166.9999491876612865 -1180.4232453833537875 -1165.3040731017440521 -1178.4726002418663029 -1159.8159451023557267 -1164.006683623555773 -1181.0422732118777276 -1187.7162699090233673 -1169.7203533551585224 -1178.6119831522696586 -1172.5573224601121183 -1168.6545898667302481 -1178.9650397174916634 -1165.7407734760563471 -1165.3908598622124373 -1168.2453463185788678 -1185.6572837986975628 -1189.6058498600971234 -1163.769151382768996 -1177.1781911815917283 -1191.1467210152345615 -1158.9951380470256481 -1176.180838124654656 -1166.0864892813797269 -1173.2154427452585423 -1166.3923527953022585 -1181.2255796378560717 -1175.7066432773062843 -1181.2140966161809956 -1166.3672024694053562 -1148.9431279889322468 -1150.7350996687857787 -1175.8260143545830942 -1174.0556542272827301 -1189.5109565842351458 -1189.3453318284830402 -1190.8215215559334865 -1154.5342908023912969 -1158.8560372622105206 -1169.7744041719706729 -1197.1247199740100768 -1162.3034356009691237 -1153.4324296201216384 -1186.2775964349837068 -1156.7369626033937493 -1184.5741217613976914 -1139.8093181884787555 -1162.8193603740962772 -1177.8051722296504522 -1156.7962848207703246 -1167.3264956815660298 -1162.4390502960977756 -1164.2518088496731252 -1177.8942670936733066 -1174.2832008534719535 -1165.7783551356940279 -1186.4313794387164762 -1175.6750693197736837 -1173.271447511619499 -1154.6025336378384054 -1152.6446719202060649 -1184.0676388695926562 -1157.5542084985841029 -1184.073451622834682 -1164.1678766060845192 -1171.8887480932321523 -1165.3854227829126557 -1152.1554084394529127 -1184.2104829444356255 -1167.210615940246953 -1172.2420316026602904 -1177.5743514191854047 -1179.0833492916140131 -1139.6541125647222543 -1176.0427502923114389 -1170.620531342771983 -1193.7557146273791204 -1181.4675424950687557 -1164.8911307817477336 -1155.2383694205893789 -1182.3004474268650483 -1164.7013529048942928 -1161.933776269158443 -1160.100644098866951 -1179.6679206082205837 -1190.4443182999921191 -1160.8185111828342997 -1170.7382979280794189 -1185.5520428067748071 -1202.8608007491668559 -1179.0116872391179186 -1171.5884018756482874 -1187.451118520837781 -1198.1497193849602354 -1166.9768905741575509 -1159.0441821348845224 -1144.8534207972197692 -1172.4822718767770766 -1177.4562052132769168 -1141.1732804279465654 -1163.4623475198272899 -1177.197016157223743 -1142.4744394629208273 -1189.6580492180423789 -1174.257101712645408 -1169.9739991322926471 -1191.7186648047359085 -1192.7705562855403514 -1198.5300992256634345 -1194.0687827401741288 -1190.5371206929764867 -1183.3347270897479575 -1163.3161847448116077 -1166.5744280759161029 -1165.8863057962691983 -1165.4879892407457191 -1170.0174426863732151 -1166.1405873813214384 -1191.0671123325466851 -1156.1267787908498121 -1196.5315605086893811 -1180.6148636772811642 -1169.5944359000716304 -1165.4305744868329384 -1171.3429748168507558 -1202.4493362243301817 -1192.7506748042098934 -1185.2020493817153692 -1204.571827474105703 -1163.7796447680248093 -1169.947420103303557 -1187.8784031342429444 -1157.9737158058328532 -1172.3016991605577459 -1189.2514056143318157 -1176.6857281836064431 -1174.9363567798100121 -1201.3350742533157245 -1182.8271043455370091 -1181.4509641143877161 -1152.0506802659376717 -1159.4434949058770599 -1182.9746821795922642 -1195.7252118644973962 -1166.2960655117863098 -1175.4047189132777476 -1171.6645243508053227 -1171.0393808178528161 -1165.7112095867535118 -1174.6782190181563692 -1180.4937829912182679 -1168.6618327242670148 -1181.6479715815505642 -1160.2441498701259661 -1173.7604994073437865 -1191.3996810152439139 -1166.9314249025728714 -1159.7574462973020673 -1190.7096703032211735 -1193.2281565001992476 -1174.0636098389968538 -1169.7468950517099984 -1176.7883628862855403 -1183.7680095694599913 -1158.4826279486603653 -1165.3862647709734119 -1166.834914384503918 -1143.0792972432934675 -1180.6740376129064316 -1184.8368488860285197 -1179.5443166405011652 -1180.5654037297820196 -1168.1395106260667944 -1179.9835855739972885 -1164.1354470264241172 -1159.5793461324321925 -1168.6518869124988669 -1161.9495224820957446 -1157.4435918230149127 -1153.4714316113772838 -1197.9942422326084852 -1183.5070971997429297 -1193.3009905352316764 -1202.8186686178933087 -1154.7936381758834159 -1205.2650387314222371 -1187.2249634830568539 -1175.625262209463699 -1197.1927897906628004 -1161.6336424159594571 -1191.359245745599992 -1184.4210181154944621 -1181.0535944347982422 -1168.3774256879573841 -1165.1946747251079159 -1176.4183727530949 -1181.8123624689696953 -1181.1462598056862134 -1163.0292845761007356 -1197.5886876928198035 -1194.7233487808048267 -1174.4705677602617016 -1171.9412137914612231 -1171.2098302120496101 -1143.7723273297608557 -1158.5197191111151369 -1153.0234314226402148 -1186.5085743701113188 -1205.0767285908837039 -1154.6699492248803836 -1181.8444718206117159 -1193.5464479584193214 -1181.5438012658089519 -1179.6012574378562476 -1181.5760512539288811 -1143.6089617531770273 -1188.3969998475238299 -1184.7068535180392246 -1190.2883357906873698 -1177.5301434584746403 -1201.1254590868663854 -1139.3445998683955622 -1167.1712067231690071 -1171.3870499579741136 -1193.0150155497606193 -1189.5099169183265531 -1148.8931212852824046 -1158.7766192653580219 -1160.4257322458486215 -1178.7673278459205903 -1171.7576880457870629 -1182.551068935693138 -1184.5506301341058588 -1175.8657039374757005 -1165.4873720022430916 -1141.5332945752252272 -1197.1071854043764233 -1168.3126641357655444 -1177.0920790390734965 -1173.0801706738027406 -1183.2974954738003817 -1191.9116195224573858 -1186.6280033972057026 -1165.2374170753319049 -1181.9600581001834598 -1163.6822537238567747 -1158.502847481046274 -1174.9945778992100713 -1168.0502935682925454 -1187.5573746785830735 -1181.9633462091153433 -1174.8498888034407628 -1171.9221660623802563 -1182.6811197224856187 -1184.4879716141176687 -1186.2097180348284837 -1170.7908066401305405 -1154.6496742746339805 -1178.2490613591155579 -1175.1534652541417927 -1176.3634267080763038 -1156.1745676889333936 -1188.8136154248215917 -1167.2551549215811519 -1189.5461072716316266 -1180.9971187133553485 -1148.7223447885419318 -1183.0155626485570792 -1194.9206208461478127 -1173.6885355646770677 -1165.6771469305867868 -1155.1918651688156388 -1166.4701106161105599 -1169.4048175298171373 -1175.4093566200106125 -1188.4651893788252437 -1160.3215478163087937 -1181.7199888768495839 -1168.6441672349235432 -1179.5044880156763156 -1162.0135707495812767 -1192.1764715483545842 -1175.3301576192600351 -1171.5532424127127342 -1190.1938106243928814 -1186.3896585250290627 -1169.4886689272229887 -1145.21558617367441 -1202.5187935148699125 -1175.3571596000933823 -1142.0425812300038615 -1175.5806275493914654 -1184.1347206665516296 -1191.5114685929513598 -1187.0472458163219471 -1186.9613786112231537 -1165.3035845770473315 -1169.6126933342093253 -1165.1423734068152953 -1183.7695987305523886 -1169.1157436139728816 -1169.9167177606809673 -1166.9164932245673754 -1170.6405215704160128 -1190.9329794907332598 -1181.2446611321404362 -1167.9658303911949133 -1192.0882083133162723 -1164.2381002219945003 -1171.6822599880806592 -1167.3043041235337114 -1163.5340054164312278 -1153.1677323822630115 -1178.5598828297572709 -1174.867318384777036 -1171.3188466898236584 -1204.8113288425167866 -1165.7254639815107566 -1161.2076855788791363 -1175.170490595729234 -1170.1373723311075992 -1184.2466077191124896 -1155.7489101522517103 -1178.5706472589654368 -1182.6775133044902759 -1165.9760241888930068 -1171.8022459313312993 -1188.5093167806578549 -1174.8587840134671296 -1180.1624799575808993 -1173.1959328309305874 -1184.8137757038928157 -1161.8277528518626696