30.000132051927181465 29.598241930445098546 26.550508329732544155 29.03177837383986315 25.71576603905150904 31.399477014513095696 35.002031697262665944 26.99334905732468215 36.674405873188170801 27.13960153866501912 32.331357929410842189 36.312080125627602456 26.191145587107605763 31.803854957406752391 27.679736807483749317 33.017602233389574451 33.245553731124459773 34.347920410441105332 23.842394653150222439 32.666533359110260903 25.785258399612036584 44.891256078249540451 24.858712000653255814 39.556651021830141701 43.719971966223084792 42.122721988184125053 36.842928646418648952 35.612468763396506688 35.184664360386662452 28.126643873582978017 36.402499448218414102 32.797145551182403267 41.485299402643761368 35.994308624029855537 22.276329957831467965 30.547480626966162731 33.041459832354028947 38.706689844077772023 24.218448274335916182 44.917861129813154264 37.721428068949471424 30.742297422246672056 36.636734658608091308 28.476451054958779707 30.173644253466044063 33.701862562860007699 33.038305295393925576 38.549671220502347069 28.946425134599504503 26.897038870097532026 25.287009742755671482 35.791308923951049792 37.223839406560934151 35.061701750791442578 33.898126021384911155 21.835437974588217003 31.791891338128614564 32.094454775709216676 26.679015574402626498 28.2086215817056285 30.959662330244171358 37.358207426244192106 25.051054075877150495 29.433240522024963326 35.680240782761764251 34.792153520477832274 24.978532816339267697 43.729542225527978871 37.350350826421532702 30.776414669730456808 34.622355911003666051 34.056988722170046913 36.785750424141220094 30.115969662329675316 23.848094345387661264 24.994499483387031091 25.124878678501879392 38.383151487318826867 42.763667192373659987 31.951808275903282208 31.837997953538533125 31.150092520971174537 37.010398789019816945 39.486491102714964541 31.986909426101945542 33.290976962745951084 33.659661787464870031 29.626074756221534301 32.540094815466090949 35.456009776211175222 31.477577329128195061 27.588547708736918196 33.267756078331508718 27.630066197765380309 33.491146749749688638 38.969318091037386864 35.77233182780479126 28.501155685979231436 34.71822970435621869 31.566282521031688191 28.755674060691362115 35.122830846101095403 31.394403192063936814 36.043861669595756325 37.600277036284126098 32.86215318047354117 38.700027422165106827 32.918955833610937134 31.51779227677658568 28.85592681199044307 30.245254273180130156 31.532902422286447575 35.396505997203341565 36.876615615141254523 35.415544412657474993 31.444281221834220474 39.545217723448224945 21.975604797797842593 35.405841228329897774 27.828390954818353009 36.357581169641420615 33.888299022559721152 34.737866213001254323 34.25844048991952917 30.310886656802800587 31.996366715898638233 23.941930665852506621 26.861378665950553568 31.516682494816659954 27.436478078244711298 24.748724565946844223 43.145382663921544975 39.177025312233716647 31.137026675761575234 32.82978330287944857 38.786888081975064324 37.499640308440113756 29.557863800900616269 24.27079598290487894 43.55704769065290094 27.727537199616637764 34.651625297003946002 36.198472215586200207 33.488037582581064555 40.174404931255153883 34.418564148376496803 30.243895042433695863 30.028915337350028381 36.399315116547484195 40.801028635347407203 35.104164861631751648 33.502300295633418159 36.191964641152765125 45.168450707038978464 34.447528689054671247 35.064141457613203556 27.671315302997548713 35.549092816975502274 26.665277017587939667 31.39542754977438932 33.477676100113626489 33.94297896759765365 37.714177533722413216 23.73366100859185579 37.758162824755487463 31.00208158322952201 30.605510966275307538 28.717808460185715091 24.666348537930606 36.29977002350931059 29.6257689047381092 30.861850249695667259 34.502685852788786747 33.679087002874652512 39.617662767321448314 31.074107704390030449 28.566442695689460152 35.74542042662659469 36.348828341565713629 32.693110813833193617 32.420490509025661652 36.778153441316071337 29.085356069521612454 30.411319604699954766 31.360724661783184075 27.639576137277543921 40.139255492540648618 34.959469494763176556 36.744936197709364478 37.307941154126474714 31.159160633609687352 30.869583520640809127 34.006229835378967152 26.165338878264016387 32.75816379961178626 30.585677235060707346 28.698171264611993081 41.251068788919091901 38.852258674579857711 38.623161116310932073 34.858668176889651136 33.048357594886653033 25.305703315120371855 28.731477128104742746 25.677515683674698721 37.338747681758768238 36.296821203578630843 32.73529901813561338 36.553993478525285354 36.17128331074503933 32.674066320987954271 29.651411233166513171 33.534552407387288042 39.752848103270977731 32.667085835151922879 30.76097508974883965 28.770588863673239644 42.286962305847751509 32.249653256574447369 28.986308358789997897 26.090898589009075437 29.65771974174371195 28.040512477676944769 24.211896246748015216 24.206904008598904454 33.957140035728784255 29.918233184393130841 31.524005527092139545 34.715434597260568239 27.743602836628074471 30.300725754509272747 40.501488500594533093 32.898997967123648323 26.482911270428939332 38.261423420183668043 40.596840272545250627 45.103453435390903792 26.163048669692862802 33.859666649748959344 33.06874727509627121 28.822352812652511034 24.792329032748114059 41.004230057171483281 36.645407753931280581 36.994392685353730599 36.905465530268770635 40.780010988701384633 25.783613999584932941 34.512285352830673446 34.471902776872056506 28.416781647852488391 32.915241983772844492 34.800558098893979775 26.77693124480607878 25.357407950174561506 33.889618092235828328 17.368326922232444787 42.06002491313122249 31.135459719730469885 26.705397645385485106 34.677326403478254235 28.012998886205231486 38.942223728490382939 30.432642465555556299 35.667189757221194668 32.097333996117967558 34.044606641358157617 32.409294011785739542 23.333445916920179997 30.69234553249377484 30.011517026637282157 30.764587090078968856 35.050057016350223194 35.575707470174066316 24.665205549265600382 38.280190051676470375 36.062879395899017254 42.872907977543320612 37.804010453952031412 30.206570181165027122 37.388874744363796765 27.381267039391374851 41.251059966619592956 31.877504774328361492 24.027206754019726276 30.311576325519659747 29.987820212572788847 40.982911628254619529 38.481660755008718411 32.983468529946961212 44.927848363445278324 28.844939710660177923 23.627480012118873276 25.945434590472359559 37.343364943839851833 29.898410909963409665 32.881917382283688767 32.285421468503379572 32.09800153753114671 23.227587463492412212 32.445102694680038269 33.953783014128298134 30.803353367585231126 37.576945969581714735 32.706286993794549289 35.105202163018127237 25.162228709302119967 38.386768837347240435 36.35408644405681855 37.1149888894688047 33.463456023338096657 31.194233274560865254 28.731816044801149701 39.8326561989013328 29.268328550499116858 34.125315299734076291 35.484595771874012371 34.625565771150959904 32.100391295339726128 26.418115002838327143 34.372002217539815661 28.793635163181363623 31.738644006036413003 35.274436504279393034 24.114513967403009786 39.644929964196876426 32.853369948185950022 31.235124266219902012 41.59530174149253412 24.445948920664140047 21.252322617889532808 27.520043975220765731 26.264996427522319777 32.327341051645035463 23.655774695073503722 24.811802474841584853 35.129505173646876415 26.770276988836542387 41.003108239316887307 35.342918402240464104 25.6805151688185056 27.638585500221861224 44.169922536626408771 35.008911950332610274 32.685551733227313775 32.569413178525806529 27.408103570235031299 29.440944561736380081 31.656255222183787623 28.896448518545042816 37.591451657837239964 38.09848425335094646 37.327283154256235775 30.6061574447390079 28.978507518859011327 31.893178923013113746 22.012813588135426102 36.702637883983825873 31.162888503164367648 35.755035368954978026 24.780846404949649298 25.397039598598681209 38.039463844925258229 33.110436747770158661 28.681443397043466348 23.516324315647889165 34.276629454983861933 27.971671824710725218 32.423102555329670338 27.956607703164984002 37.714075152363470522 31.972813931461029568 38.357544401638222098 34.923717760257012799 29.347464612255038219
-998.22352572734928344 -1027.4923753855298401 -1016.2328242868144343 -999.63660691189659246 -1047.7880921914572809 -1014.3891719791878359 -1028.8122724429940718 -1028.1168547903612307 -1005.9552054553216749 -1014.4577879853420654 -1037.5164643702028116 -1028.1028431901256681 -1020.4963017251061501 -1033.5889394538946817 -1027.1469677520447021 -1041.4801048320055088 -1025.0990929586571383 -1042.9411187209602758 -1025.5342494066997006 -1020.3575898321266777 -1022.5085967048928524 -1002.8369294306694428 -1036.2225630754746817 -1005.235105293661718 -1003.3062488650784871 -1016.8564695894709757 -1002.6293220564422199 -1020.9359910564294296 -1013.5821082356876559 -1022.4754177376953521 -1035.9554359510170798 -1022.9130858573048499 -1015.8781924997165333 -1024.3602447240646143 -1032.0561457419851195 -997.62694282382153688 -984.76820268775475142 -1015.7790547147956204 -1022.9069289625963393 -1029.7032489262790023 -1030.4434639925082138 -1021.5804797217837177 -1034.1973702630687058 -1015.796154079661278 -1021.3015139222658263 -1014.4030515760574644 -1039.5911233025310594 -1017.7496368894538818 -1018.5087827270989465 -1008.354695943353363 -1032.5127961550463169 -1004.1216711864806257 -1022.75589576347204 -1019.7094826461088815 -1006.9061814034964755 -1003.0102786874839467 -1011.3163698912439941 -1035.8806964440648244 -1038.6058584798856828 -1023.9712056951036629 -1021.1710819614683032 -1012.7848704481324376 -1004.9077755317479159 -1003.7839388269485426 -1015.5727716045653324 -1014.2534064153081772 -1018.945279072412859 -1021.3291548000114517 -1020.0758519283825763 -1020.7291879349977535 -1016.0510181512044028 -998.3128374324323886 -984.7772968857647129 -1021.4730023510510364 -1047.4086657412042314 -1023.5995690979208348 -1015.4608362009228131 -1013.2383953681288631 -1017.0627562759920011 -1006.2938048516925846 -1022.5149650835439843 -1015.5535504474972868 -1038.8855757061328404 -992.61699597896426894 -1021.1095097290427702 -1011.6090619131318817 -1004.3954851925003595 -1027.6643718998120676 -988.1259254200642772 -992.39451686085396886 -1004.5240079645096785 -1031.1841400035962124 -1024.9719387777454358 -1017.6816932373915279 -1015.0173209929836275 -1012.1247600509969971 -1008.7614918006064499 -1026.8601875577530791 -1016.0554396119991907 -1013.0508367042795044 -999.93536968652119867 -1030.9315581712655785 -1012.6311465576898172 -1020.436755650111877 -1019.953423286461657 -1013.9328092161451877 -1029.8502819777652348 -1017.7215639635078333 -1013.8436354389903045 -1017.9268842915540745 -1002.7801648837591983 -1019.328941500692963 -1008.8317398349842051 -1015.6600678072310302 -1041.5783628874817168 -1021.0988783669753275 -1009.1740242082815939 -1019.2490504179262416 -1022.9994883262164649 -1030.5376783467493169 -1012.5373612103244341 -1058.9774921711823481 -1018.8891157493995934 -989.61765241241118929 -1000.7185470872664155 -1009.5896399373945087 -990.89597654020064965 -1014.1082819594367948 -1030.2423077402506806 -1023.9174756783198745 -1015.4047718158969928 -1003.567438026644254 -996.73242690073789163 -1029.5616297094998117 -1028.0273458374333586 -1013.613277011292098 -1019.160417682495904 -1003.4525153160309401 -991.47900575903884146 -1022.4285497643865028 -1026.0211261279466726 -1000.2512759670527203 -1006.4912372652323711 -1018.3005035950163801 -1023.8616995488659995 -983.68122587768800713 -1025.6848928405981951 -1031.4331872599007056 -992.11266115456101033 -1006.8053464289359908 -1026.1036003681051625 -1014.0308816739824351 -1049.3045235536915243 -1003.7329752502347446 -1024.2421570079125104 -992.00109882966319219 -1018.9009405634143377 -1007.3379826748085861 -1020.8914907135495014 -1002.6794962680617118 -1017.678091352507181 -1010.8902204867130195 -1015.6688983910868274 -1010.0948698435440747 -996.21177862297349748 -1008.9647374105861672 -1020.6300328978263678 -1028.8285149566959262 -1024.1766364563447951 -1006.1260271740709413 -1019.7194987256680179 -1044.1899668817902693 -1024.9104536689544602 -1031.1343370108661475 -1023.9122479508744163 -1019.3240724314523504 -1000.297297859936748 -991.36728519865482667 -1016.1050537283232416 -985.74659702528504113 -1034.6481493471605972 -1026.0751779512884241 -1005.4355356752120088 -1010.5456764451624849 -998.81146411771533167 -1005.4696713411234441 -998.00151515496906995 -1011.9086256853435088 -1036.7159222709958613 -1009.0812456857646566 -1038.8590809119345977 -1019.8538738768204439 -1010.8836815518401409 -1007.8388329719393823 -1044.6349249600227722 -1013.3093016899922532 -1029.2214468966740242 -1029.3299201853947125 -998.07195881396580717 -1047.6384527273364711 -1005.5460831874769383 -1041.4066902087267863 -1029.2332296482916263 -1026.6980538183718181 -1029.0428379969448542 -1013.7406771105592043 -1029.0249343619175306 -1017.0268161463592378 -1013.2889260654552572 -1018.5032245836573566 -1010.2811518832487536 -1020.0947199626684778 -1012.2279821665719055 -1031.7545617039545505 -1007.4944507224778363 -1035.4614154662156125 -1039.1141213136363604 -1010.2671407712844029 -1021.1904488523296095 -1011.3415442560495876 -1009.0964270376126706 -1008.908965085771797 -1026.9883668527961618 -1027.6764189786592851 -1001.3843131127715651 -1004.924833160308026 -1019.7901683323561883 -1004.0417781507200061 -1018.8723281261715101 -1016.0939159024885612 -997.36034436177669704 -1012.0355595344859694 -1009.3039482049352955 -1002.4894763338154462 -1023.6687546977327656 -993.10393528890858761 -1036.5915535455071677 -1041.7532328557990695 -1014.9476320519070214 -999.30955852101135406 -1026.8076355870070984 -997.15333804410693119 -990.57962692506248459 -1037.3446000536935117 -999.21643676196333672 -1029.3018098289417139 -1029.1184146825264634 -1028.5520976060181511 -1017.7061793404343462 -989.8367816557979495 -1022.0670964029420702 -999.74850174385710488 -1023.496529446031218 -1021.6465165358204104 -1012.5688349971514981 -978.3184643502373774 -1029.9221268674793919 -1021.3496298202554726 -1023.6146897693755591 -1013.9197464237244048 -1026.1443081635843555 -1020.7207959704971927 -1007.4727850177922619 -998.28768603779883506 -1021.1458682588767033 -1034.7658083516287206 -1006.4027599648119349 -1006.5855092987113721 -1016.3315620271089301 -1015.8698241214412974 -999.26670636586959517 -1006.953119800011109 -1007.0749850031947972 -1001.8235482072785771 -1038.9808505489588697 -1013.7164984828056049 -998.52813515019329316 -1035.701836743416834 -1026.0714826048920258 -1035.9911146409883713 -1036.4263762140510607 -1003.7029400471785721 -1010.3229249653251145 -1016.9202503564758899 -1026.8399984012287405 -1018.5060350939560294 -1037.3542237351184667 -1019.2550008518931008 -1019.0693564627370051 -987.09077120309393649 -1008.9367889607948428 -1015.2100256536559755 -979.57005171084529138 -1017.8773717711125073 -1026.7780097770501015 -1012.453026017874322 -1007.7209768122623927 -1001.361290256915936 -1013.8392401838165142 -1008.0561340738963736 -1032.8050871836953775 -991.46058173267090297 -1009.4785069957254109 -1020.9270095815491004 -1035.9303812608759472 -1039.8466630551340586 -1019.4460131278691506 -1010.1429437312485788 -1027.146902013168301 -998.59415214660896254 -1013.8378526939668518 -1040.973320174590981 -988.25191835173075106 -1004.035061647317093 -1034.201465794298656 -1015.9876188274707829 -1018.9564359956281123 -1031.6456428920637336 -1008.9543973502752578 -1035.009537386565853 -1000.2616489893356402 -1003.4558019355698661 -1025.2063360714678311 -1006.8098231369726818 -1031.7013344451324883 -1007.7592891951509273 -992.25337191262303804 -999.32839157479838832 -1027.6731161181148764 -1009.8619438165488873 -1041.2407150207370705 -1008.9668526543831604 -1013.8166525613617068 -1026.2915169403288473 -1010.9011732729014739 -985.19056470765906397 -1024.2617645859706954 -1022.3323762551747222 -1012.9432578434596053 -1000.0923226541684699 -1002.3069172330484662 -1006.8429179560164357 -1021.5059802875159676 -1029.8615814159948059 -1018.0659194524890836 -1034.1648334527185398 -1031.7961765045010907 -1018.2311155406422358 -1018.5469670898007735 -1030.4639608646996294 -994.60149691956712559 -1009.4578143931111072 -1015.7826557783898807 -991.64236989170888137 -1003.492661137738196 -1002.7023562032053405 -1008.1184154644516866 -1032.0247193131376662 -1003.6229046039860577 -1000.9281624259978116 -1014.3285966005477121 -1025.2785665640624302 -1041.1440923219045089 -1010.9640837409734786 -1009.9702340545615016 -1003.083118248838673 -997.52950104898377504 -1013.3225475167364493 -1018.755718441709746 -1031.1547457200986173 -990.99077921707112182 -1018.6774240776303486 -992.55975440504994367 -1029.1527260000618753 -1009.3748169244686324
759.90218501940216811 764.96430146096884073 769.00021191799271492 781.55043255431792204 769.14335587911762104 775.83356705677419995 761.9688105606485351 769.81547079888116514 768.04900160419674648 770.07108953254987682 757.41834420573377429 759.23122338564780875 766.48706329733045095 765.04489739177097363 759.99501645506359182 772.50115666381509527 765.19991625425700477 748.79049459715622561 776.3780741875413014 775.34293429712283796 771.31178217432670863 761.31030390420448839 762.55147334859464081 783.22086563067989573 768.75641287474820729 771.98207174913136441 742.74490035199607973 759.14517566475774402 781.33937422116946436 767.09466078719219695 758.96331024748394611 771.08115735562887494 767.91650772855098239 761.51381444175194702 755.58707914599608557 757.89228207080645916 784.0662116337102816 772.5910187121457966 754.4370863835641785 762.59098936537759528 762.99826915633161661 767.6198315857623129 755.93110583172801853 776.5792523421732767 764.74133808690135083 772.5680235093882402 775.94951228866716519 762.95814175443979366 772.79487108352532232 765.58350614914036214 767.63215613368129198 765.96301566395050031 771.52260077402695515 761.32915804138713156 768.10707087917251101 771.82052468531173872 768.89892702137740343 763.52031507860135662 774.3589061323552869 759.50310289478784398 756.67296211920279347 756.69543205991385548 765.57178262977242866 764.84164777808234703 785.60207520760093303 768.52539256489046693 768.48114394209346756 778.69742338317621488 762.80654630789967996 765.74016656639082612 778.98323728979210046 764.98758919843248805 764.39086571456334696 759.5295420851820154 767.19761169216360486 763.26278145071921699 770.88422144414869308 763.92514745156631761 773.62124186875405485 763.20999708327497046 747.38979855615048109 765.24365360174340367 749.66206279688685754 745.77530012140732651 772.32864361926431229 774.26184131652451015 765.15968497619371647 765.53612176848639592 764.71099728213175695 769.42761609875537943 772.87997832913129059 769.07290435183415411 759.31617261670965036 767.90566443135867303 767.80138148346429716 773.93297169294032756 760.42244559609787302 771.19526256845506396 776.07511621094079146 771.95601227446468329 773.17596452399573081 766.27482205023727602 769.69630966503791569 764.54823754950825787 761.9987726875158387 770.46770205237260143 759.68007740658094917 777.96532010069279295 762.25278043540254203 767.90799846349216295 769.30409288591727091 781.83963744286984365 763.14900497136363811 780.54925931036245856 770.85176165768280043 777.1806815376025952 758.6518704580001895 771.98565344622920747 764.19674620700300238 774.49101395511547707 768.7593872885397559 758.88918128186548984 773.4627927811355903 775.3293975621552363 772.22482947996923031 766.37378486534112199 771.9945007020093044 754.97362023230527939 768.37458316745176035 766.31370014086792253 767.82767466182838234 776.21639319545067792 768.69804324246683791 787.8019938603912351 770.37498205995416356 767.48503265303486387 755.63770297483381455 785.86573355916573291 761.59310800948549058 765.67592028042486163 764.29816407217197138 768.27197955778285632 760.81016679998970176 777.74568389852356631 766.9883379984515841 758.38237422584006708 774.03935408033567001 756.68595088045537977 770.24509404561740666 773.52986954370840067 758.70000051167255606 775.33487988196236529 765.55004027896097796 762.05818142665793857 759.54253766780493606 759.32449076406192034 769.32723590904538469 762.89040370264808644 760.21368567039144182 770.55568651266696634 760.46456157574903045 782.62865215140789132 750.59431170446509896 765.39399167891906473 760.2566827350751737 761.72353285359076835 767.45606247827367952 769.41101248134498292 768.0527683841490898 773.71147477831630113 780.48377739800582731 759.78404188284866905 767.45603891479004233 763.06110302359422803 768.05407496155817171 769.73224749952873935 761.14781395068894199 767.86679931162768753 761.3907392901833191 769.06324969267745928 784.88152147974938089 762.27725544851955419 767.37492511811524309 770.01733354057637371 769.6507821579210713 765.36872155266291884 768.42911268235468469 756.75536933783257609 762.89027460634065392 773.25774230968818301 761.24962134650706957 760.67577587605535427 764.12489069162529631 763.97485003434258033 770.20778845765960341 767.72360818115373604 760.02466483750197312 772.29099266780042399 750.94553076259251156 772.79235037634975924 774.67261762142288717 774.4891238769331494 773.04130046496663908 774.93761657718880542 775.7237456093965875 757.32339369469502799 763.48339404272280717 752.20497118396883707 778.363153144383773 776.52639175158606122 756.25480908156623627 764.85178105682928162 769.35275069827309835 763.43120610970208872 767.64657076181049433 764.40888707194551444 763.24988797140895258 775.52022727665007551 767.7075340701692312 748.55017587092754638 773.26780159613986143 763.8102460908547755 769.81317762111359571 773.12230856765268072 778.97764053279274776 763.90153726996629757 782.02353798850128896 769.77961566350893463 755.05498548628122535 756.21074234008631265 769.40477982608149432 760.26488999268963198 760.39532309457672454 759.4771391027595655 764.37318735856899821 756.22046090350909253 763.04905049005731144 758.87360862714854193 764.38137925218768487 772.47923183601187702 781.81812853923088369 765.23713553298739498 782.9876528091928094 775.3005136343739423 763.27274727678229738 770.35943260668148014 762.45516587564713973 766.72565827214907586 764.49194474934620303 771.53672297846412675 762.48793784383065031 753.10902330038732089 767.5894795740026666 765.04252180498281177 764.72152407124622187 771.58022757436594929 777.54803342671857536 769.8438663283391179 775.55841197930692488 766.70079232435352878 770.35943571494385651 768.92964127660673057 756.60400360124685903 765.99672713146469505 765.05639415849145735 765.54209076242943866 757.8592597212103783 765.85224321482564847 750.45718575193700417 765.89773329341699082 768.37696532149277573 755.38233353004795845 766.04397864546399433 758.54429826581667839 764.77038737975442473 774.67154356575360907 775.801483375105704 770.31583358438535925 760.19008070182121628 771.68519366134262327 764.56036181823037623 771.08314999923300093 770.42576767937521254 773.88711841953909243 773.97397843372016268 763.443103093578884 753.36348904557110018 772.87062479579503815 781.46945618964684854 769.78565915688182031 766.46552422341233068 761.34836697651746817 763.99057419418682002 765.48983681074685137 781.05148810674256765 777.39537067003004722 759.2893696724494248 771.54742808538071586 766.68036911991805482 761.3654359143529291 765.91949649887203577 758.10415469940846833 767.05563332876647564 759.44235565974634028 756.16544675958152766 765.90814422763355651 770.16801427882876396 774.57811977507617485 768.09582494538778974 760.33857879055801732 769.9947116684759294 772.98527799470275568 755.90126034641957631 759.75742542817147296 764.10923241498210245 768.80563787187509206 773.02603962540774774 769.0054381157399348 762.07981561837470963 773.59555068365602892 776.8771775723544124 767.47093277986459725 745.74747185505270863 772.12772228914525385 761.77848362620557054 766.85320772457066596 761.50822336350506703 764.20055505912148419 772.63064112998199562 759.64293012260100113 757.47286988053258483 765.18364503581312874 774.73935045730729598 766.99462793567113295 772.01763097851414841 764.93986459036625547 762.49675941646489719 757.94818300027827718 766.08713173266812646 759.37713301982876146 758.69987488852552815 770.47179503225788721 754.78378684074516514 770.21982821510687245 768.54190979633290226 775.53941931899373685 779.36812584189192421 772.40357182390403068 757.12176668431027338 776.94508398406117067 762.48490767607938778 781.58476983805098826 764.31528582139765149 766.34793596101360436 778.13109231342912153 750.73731801275027919 765.63240502439111879 768.57684763129918792 751.94459283062519717 769.58208161209097398 774.17966064324525632 760.12988988305028215 763.51391999339966787 759.04897965973577811 757.0843854615110331 763.18237123383596554 770.38529528151423165 771.66293744163840529 757.34856300277965602 765.59085712859575779 766.45659823339326522 770.67643896698609751 761.77067747415003396 771.18821595571478156 774.15162511683809043
78.955661177772483938 85.247053180451104026 75.645619564556966452 73.793347816183356258 75.885468898151344774 77.846316502252506098 84.002665334731204894 90.304401280181835432 76.153789936150928952 77.093135211225387593 71.102668575019905006 74.291338588548427424 74.149259912225161884 91.542306960065815247 89.86689877362964296 88.805533668357611532 83.88895194955186696 89.272712213042268559 76.486000764510649219 76.316167449762872366 79.290862378035328106 88.669901071745897525 83.993651941067852817 78.226623634330636037 71.610182828460267501 81.59121910088585139 77.2847357750850108 88.284271535078815418 77.742343932715996857 84.751261614074280715 74.809322532019109531 79.169549146499576864 77.57501664760727067 87.948703114145317272 82.5784043714231899 81.939657888961633603 84.368920085395174624 89.354853307796616946 82.719518322735325455 79.772119433522505005 75.466901759120247561 78.333898594518089453 79.823485011999082417 78.383329149991965323 81.697968693302527754 88.956687232912301511 93.253771655956555264 82.665719494950920421 81.078043595707157465 90.639537685522867605 74.6967083434150112 85.154755740633703454 85.688320049767355613 88.421175886297959323 77.511423111354545767 81.573355199786220737 75.521784082537223526 80.469186872609540728 84.504101312656217715 83.302857785374442301 79.244737027434155152 73.740187290037965795 82.474334986267152203 95.394022187960999304 81.65650207617478884 81.340574340355502159 79.635346228882454511 93.521562398297135132 88.205227338815532789 78.507213491664899152 74.536291510208855016 70.42936567708214568 70.57338244737934474 91.454355134523368065 84.782982321529132719 81.767431029148042398 85.662895806756964134 77.89723588330906523 79.716144995715126242 85.909451652062784888 81.101004919325674791 82.324235718765493175 90.649977454956754741 77.368454125957413225 83.285854657918804378 71.641166722120487975 87.250420670038039361 86.605322350131274334 82.492861833299571117 78.986551361161062346 80.843561006351961851 75.972377483438833679 79.659740698781547508 86.693082408553038931 75.705576500819773855 73.410262290720297074 79.293296747428541948 90.276626999823690767 81.957070649897659109 83.023553986259287285 78.815890129998152247 79.504840534660147 81.58437914857772455 89.22876383229659325 78.042309855040045363 79.835405447748797769 82.398628774452248535 88.276566784520326792 80.325528829028741029 82.820754040848385102 73.032226736530319045 83.071169275485146954 72.698776185106225967 78.150278604764267243 83.39779858886983277 74.144233795450020352 75.435950997467642765 87.403429485768569407 87.628562780041320934 67.423706637568997735 86.214149625692186873 90.688373343912346058 75.96486684306782422 80.027907253038549129 77.899830386833230023 82.075815487125808545 79.020574866006555226 81.208171659655960184 81.543851646976918346 78.560781179485346115 77.685357002166227858 90.3522348648766922 75.13248746871411754 89.257774763138201024 82.057536839739057655 79.02899626130331967 76.830526787209009854 80.321473734575036474 85.080720309817891689 79.565904515877917902 83.797129950432903911 80.388917808719412506 71.699799778476119627 80.823748050892334049 78.524214544749696643 84.129516517714648671 63.46233900745128409 79.655669455308867555 79.095409611987932408 72.729069471425972893 91.482105180909584874 74.812866599772974041 82.833068912141925466 88.588073091312537599 89.358188857578454645 78.737312237553965133 84.325636263073235455 80.743879388664822727 77.574727043614615241 88.609934584627154663 85.558010825228762997 72.338126601857695164 80.177498943262264675 81.760390801124614768 86.095900821335305864 71.075705434874777211 70.859151466313619494 77.346426569055097389 84.47906078160940524 88.407048879805572028 78.075906742311616426 90.487669073427483113 71.559838990723037 76.422027332981372183 76.129528539261485776 78.057605864049662614 92.070629399350480071 79.369051194601212273 79.992240349292941914 73.287082931313435097 78.068473486065116163 84.962341786677626487 74.676682045746929361 75.550300159278563683 75.356644646671981036 88.480499977446754656 77.794307166212135485 80.1024528842985859 86.195438878503793489 84.216138635522057143 82.395709391084025697 82.237835656409075114 86.959347834021144763 83.626132427022184856 73.872247886840796127 86.468374016211299704 72.347889690998897549 77.348839236556983678 72.497204987610274429 83.945125499585543594 76.565128296911765915 86.192769859115756503 78.768242565426263013 78.65510490921603548 87.730359437285230229 79.030148154519892501 84.561071492575436537 78.450476047442464278 99.283109616939398734 84.917534199466686573 76.147366900819804414 89.23455555233451264 80.056595958295247328 84.141547837981789826 81.206730221259618929 78.688493286024510098 83.218824915864431091 81.244921886848089798 86.931413145944659959 88.006123654140850476 82.25168257388580173 88.430960290563689341 71.259380963554917798 79.280590604992951853 86.513994417857432495 89.3059522783537858 83.059420803077387063 90.551942801691936324 77.266134764151999548 92.406412674720826317 82.973666694944199662 89.505178961425485795 79.295952897684983895 79.736513597120591612 81.498131105632722893 82.91167901412569563 96.780602432764183618 84.784062388895250706 84.906049854426669299 86.735679575281821485 77.147450971726669877 80.138439867488827417 66.639516426621327128 80.128771705747098508 77.838225629665686256 84.115748900726458714 73.526203836118057211 81.999911797869629027 67.255048818336987893 84.044287836793699853 87.500043053547059912 80.30589778617365937 81.437467813393595861 83.424138813949525684 85.544144141951321103 87.297993614403353035 88.13904502049661005 81.128607908646344526 83.724927088053860302 84.960187463285691933 84.972077209594559122 87.019872555015481908 74.063318841809788751 86.167045768877045475 76.655457914706047973 83.868328103734583578 80.268992870358061964 77.473798788199445653 93.219892138144132332 74.70816158169849075 84.866644681330001276 81.694231293129050187 78.346481129487045791 83.763174927436494954 76.053100568919276725 82.349762318426201091 89.374010584033484861 72.449331188141840698 77.668290641271198638 81.358724678093437888 73.362238369906251023 78.272821967157412359 86.634460994027449487 83.825518569054580098 81.996010054377165943 82.249462293661835588 78.585209731248582443 91.681208411993310392 86.837106619800309204 86.201346911789102023 84.734115796329646741 73.883431927860698352 75.063564105059100484 80.031486053734568031 90.211158779804037522 78.572494270937880856 83.87631484757922351 74.575675178184340552 73.693352533786807612 87.504986302726678105 88.368686850044952052 77.853668753271563219 81.355852163620568263 76.650232769616451378 75.200189744334650754 77.579546992565568075 79.355882041957400475 93.584548711428965362 79.834577638306555514 76.329144711630192432 81.580773136488517139 74.456907912837706931 89.586720806518655991 77.719908475362842637 90.748533138797270681 90.405595422855398624 81.951741760002519754 88.057312178288043469 74.827400154760837836 85.820267431167408745 78.779949074083219784 82.276657889969499138 81.888981051675798994 71.947186779153682323 77.446656887088551002 77.94171165489299824 81.54873043216595363 78.729459395043619452 82.030318930111619125 77.613470986595714862 87.054974119730715643 80.293131884419111088 90.598450924905236548 85.863251246149303597 89.992162738334542382 86.454912287101024049 73.982835351506153643 75.924179034568155089 81.597266911849303028 79.165909133249911633 85.332853127867025478 83.216477761602050123 79.282403863768280416 84.393920409643797598 79.449664185833881902 92.41601745554500269 82.897949707951767095 84.203713233939240013 83.950131011985931195 80.808943195097683088 92.035996444012639017 72.755046472500112031 84.784494466211555164 86.29124943596021069 84.466537302697517475 78.65969438853321094 85.132204112130253293 79.721815439277719406 76.961786903615973188 82.500782783050880198 85.820179131986776611 78.694531676147391863 80.397173435414941878 78.159744078262633593 82.424955675600202198 71.939818981779751539 75.774835679252774412 95.970127138623155361 79.095106223224817654 77.781711215882751276 80.587337544220645213 97.054567897248475106 75.548689437726466167 81.347569694879894087 83.006535224271829065
-1248.5970410589404764 -1245.4302717445234521 -1251.9129362213905097 -1273.5787232788193251 -1265.9400851767552467 -1251.4876920054998664 -1262.5141185705942917 -1288.9604379916556809 -1293.4672920860878094 -1263.8503192964446953 -1272.8356212166347632 -1259.9117564382797809 -1279.1647168200206579 -1270.0513221624712514 -1293.8174997703533791 -1265.8383880919527655 -1256.3601363748664426 -1257.8318489711223265 -1255.9136989395942692 -1265.5652411163096076 -1255.6763912631554376 -1264.658276777252695 -1270.5363384107370166 -1272.2876562068668136 -1262.872339711641871 -1252.2008303211712246 -1266.6196596301758746 -1252.6375738225528949 -1262.6624645862195848 -1258.5334474671064982 -1273.1590301576190996 -1305.8884510408411188 -1263.0966740300602851 -1241.0801943187591405 -1264.8720670672469168 -1271.1826214455054469 -1259.3348469041038697 -1265.213492749761599 -1254.0542913749006857 -1287.2395555484197303 -1262.1494615420779155 -1303.1195529826366055 -1265.1123290165605795 -1234.9452320525581399 -1250.2670520951908202 -1258.0873020733638441 -1260.9444498191880939 -1238.2823076152594695 -1256.7272288691733593 -1257.0774665455699051 -1285.4167349603289949 -1255.5881546835646532 -1284.1830654727377805 -1273.96024898067094 -1269.4149637112086566 -1250.6154263515932143 -1266.0374122508146684 -1260.5071026956911737 -1283.3050640658539123 -1277.1942255716728596 -1259.3056830853215615 -1277.8763170080912914 -1290.3309183778619627 -1280.6387329402264186 -1263.2842528706808025 -1280.8678949821301103 -1252.0297533369330267 -1233.5969710741758263 -1281.3040601132749998 -1251.6972918859189576 -1254.3111477751942857 -1272.2839312597270691 -1260.2394985608773368 -1279.8607504411800164 -1264.2180006653427426 -1269.7919299660625256 -1265.3920840269965993 -1258.2943748680681892 -1267.2098550885264103 -1271.5438767706925773 -1253.8814603541432007 -1250.8852454759978627 -1263.0250103897485587 -1253.6830079322792244 -1260.6491177953075749 -1285.5996092268844677 -1257.8502692570505133 -1295.9946237595625007 -1269.0598316522732603 -1274.890533389050006 -1280.5696352785528234 -1273.9080821186337289 -1277.5690620649259017 -1288.9519362086014098 -1282.0068112742148969 -1265.9790836241368197 -1261.5219565690606487 -1262.5817671869335754 -1272.4465460626815911 -1237.1145057804710632 -1282.590886762139462 -1256.8713286057827645 -1259.3620689245392441 -1275.7668324284843493 -1254.6791504850675665 -1259.6767169627610201 -1267.5846990520776671 -1282.382701397473511 -1240.8096065253730558 -1246.2687719103093968 -1245.681492782141504 -1262.1797360807022415 -1287.6643968275270709 -1264.792144337404352 -1252.7673746198897788 -1273.9985115738190871 -1280.2293111205262903 -1254.6485876763995293 -1257.2286645759172643 -1261.9174675906090215 -1253.8312056747151928 -1269.2221016073203828 -1245.8367967629262694 -1255.395390953343167 -1259.9015357929461061 -1262.6252389759006292 -1287.7209524756337942 -1266.1222326830263682 -1242.4280171696905199 -1252.8372927640223224 -1268.3109599534809604 -1281.8971841580648743 -1261.4119010711963256 -1255.0479503023329926 -1285.0583674332058308 -1259.7801887773478029 -1254.4965454309217421 -1255.5414863623939254 -1269.9842514602328265 -1276.2892591328616163 -1252.909331461831016 -1252.6653994791815876 -1290.0011959959281285 -1247.4015892894333319 -1271.9345541777404378 -1256.4293297304909629 -1268.3604179321841912 -1265.5421707325799616 -1248.6204907747721791 -1260.3419449165407968 -1260.7478998553394831 -1263.0907942371366062 -1249.4363042294671686 -1270.879881862249249 -1259.0208130469000025 -1272.9745115515315774 -1268.3893334836434406 -1247.3025628623520333 -1261.9295647861122234 -1276.770930329273142 -1257.8580458326973712 -1265.9959372787818666 -1256.886958326356762 -1252.5019785915503689 -1260.1098477827893021 -1264.3646377098825724 -1257.6159869234481903 -1264.4432687283326686 -1281.528577917070379 -1252.2578182963172821 -1259.7086288554539806 -1239.5646638225525749 -1256.0187049342441696 -1275.814244905553096 -1269.6521554091391408 -1260.5379267349176189 -1279.3199423424641736 -1281.4164881845056243 -1261.1390221050030505 -1265.6801170093840483 -1277.6535022646255584 -1277.7602387889164675 -1264.0489107379362395 -1236.8878447249728652 -1252.8416244462737268 -1260.2137707013894214 -1273.1538506563886131 -1265.9739321301610744 -1265.1085301624871136 -1301.7831111921479987 -1252.0021349034461764 -1261.3338859926791429 -1263.0278460341294249 -1266.5158466592292825 -1248.8334023113641251 -1272.7139697805439482 -1263.9450985955136275 -1282.5088927358260662 -1284.5396495568695627 -1244.9747831203537771 -1255.3487265985488648 -1261.8998761525956525 -1242.4229773604529328 -1259.0411507603014343 -1242.782522306052897 -1269.7133864442237154 -1260.9648932750660606 -1264.0218188112307871 -1248.5379398297238822 -1269.2508082887120509 -1264.4740559093345382 -1250.3271984761611293 -1261.4615918179799792 -1274.7527515750150542 -1251.2697597277035584 -1278.1798376452045432 -1269.6127395288747266 -1261.9012212486823046 -1271.8445992266524627 -1278.4705941144443386 -1248.0440373186568195 -1265.7026498757149966 -1263.648858985572133 -1255.8066379773140397 -1250.6286250350124192 -1264.1663016157640413 -1266.6142675930429959 -1286.2658032539784472 -1263.6655712704987309 -1274.2503387123306311 -1253.0588139106782819 -1256.6745630119266934 -1276.9317206767520929 -1283.2667985678581317 -1269.9141410889792496 -1252.0412150590034344 -1249.4567913815171778 -1263.9118125491950195 -1286.7579214170943942 -1268.0481240279557369 -1277.8638937197874839 -1247.4875413097729506 -1281.9800241967473085 -1235.8440843963724092 -1254.6942086112974266 -1300.3215601835072448 -1270.6441417299290606 -1285.8416651699371869 -1256.561109569706332 -1251.5323335521572972 -1262.4285557791160954 -1248.2376830945490838 -1257.7124932765900667 -1287.8321047079905384 -1270.3927330782510126 -1249.0580554917396512 -1248.0175559520180286 -1280.3448042166344294 -1251.987159877635122 -1245.7672959530741537 -1254.3472717830031797 -1269.465635724556023 -1285.2951867230635798 -1260.1271693558753668 -1269.3796712802027287 -1272.5530111381010556 -1274.3938310024857401 -1282.8795565514715236 -1254.598377569584045 -1262.9425629207303245 -1244.7530811363408247 -1249.9024235836102434 -1270.4656462426121379 -1262.2312200191156535 -1272.2345035902353629 -1271.0737259898969569 -1259.9309151923573609 -1273.3588677170596384 -1282.1625340328346283 -1265.576104767572815 -1267.422643055724393 -1258.9669508055685583 -1277.2040496890597296 -1238.8326435443304945 -1249.7663077590618741 -1272.1791892442834069 -1239.059857292894776 -1254.915784268087009 -1255.3520685352900728 -1249.4753291032554898 -1267.2063623490396367 -1268.6764677854273486 -1264.7466929229665311 -1269.3655440866434674 -1278.6424380349851617 -1247.0484212786300304 -1258.855708551077214 -1260.7814628887006165 -1278.0142874676091651 -1265.8634711453482851 -1271.3342878709615889 -1271.9452849213098489 -1253.9650045154742202 -1288.4264147983124076 -1275.2640965175212386 -1258.0610407234405557 -1245.1681865112700507 -1275.5493026207416278 -1283.7561076559882167 -1274.9997534375647774 -1256.5059517179797695 -1269.2250782992746281 -1266.4444659474027048 -1248.1620976613589846 -1255.9126126024550558 -1267.8988610833653183 -1268.6522027933349364 -1267.0945598932883058 -1257.0265447519996087 -1262.5480946643092466 -1262.1468416123323095 -1252.9231468347006739 -1269.932635783732394 -1266.4249829379411949 -1270.6599244566029938 -1290.6874841344508695 -1235.8000866403383498 -1264.9392365326148138 -1276.0425288154806367 -1253.1750514342095357 -1248.5694940112427958 -1254.0653283784349696 -1272.8349225942049543 -1276.2836781896317007 -1262.6826105777718112 -1269.7728289934127588 -1277.5129291689995625 -1257.5749567663538073 -1276.4656566575301895 -1280.9981586729074934 -1275.1322041089331378 -1284.5029722936230883 -1242.259585067040689 -1277.79096371511082 -1259.1234906559236606 -1239.8628903072449248 -1267.8674322659785503 -1257.1191159570271338 -1295.0210835049263096 -1275.5005948416737738 -1251.9239334998148934 -1269.4306315366113722 -1290.4285738335618134 -1263.6590360026061717 -1249.2412142274351936 -1263.4586365653715347 -1264.820616175582245 -1253.0799324280606015 -1271.0407127410899193 -1278.4231918569096251 -1240.3038404426470152 -1263.9785343190249023 -1275.1025612341320539 -1247.034286440186861 -1234.7672480664666637 -1242.0093211334922216 -1255.6390845841826831 -1267.5013392492815001 -1267.3230765280236483 -1271.3642282634391449 -1260.5399841251930866 -1257.5434137332426872 -1245.9278964167970116 -1230.6288086799595476 -1264.4579328085446832