87.900341268792345772 84.64927467735478217 84.604932391916094048 79.015231645565194185 80.210046274638131081 81.550074657815045498 80.531566926493397318 82.648175952967676494 75.731913183463916539 79.680948670936402323 79.260294659243953674 78.544700670589676861 76.656251579950804853 85.630498060891696355 77.426170685561132245 83.222684428133220536 73.836169623665838913 83.116528674454229986 73.47983054263596614 70.810819172607622818 76.507237113732969647 78.806335644330658852 75.824640146997694501 83.990953576053954066 74.113542898627002842 86.586905540652793434 71.049215867494154963 69.575943368081098583 80.132321937836721304 82.941523769200856009 74.386935499576964048 82.106788925812850266 71.573270196084607164 71.417209957657689756 76.226052488914177729 80.038618477164277465 73.091775342374262436 77.708941365402822044 80.604121787283943945 84.247032106904285342 76.179482891837892566 79.407027571986418479 72.957954434542926947 76.667081482183817798 76.573636250727446395 81.458792683141325597 73.251959186241535349 76.886657646879797312 81.689362549386856927 77.336476544328931482 77.469356948514899841 69.63843118000853849 81.033272417811701871 82.407546486925866702 71.571894626704619213 75.630192423324047013 82.916282303028452816 76.55428554358613269 77.445811233461398615 70.160685602914469428 79.208783698536493034 88.709082991815066066 85.660918197893295201 80.380708444130618773 74.97204894550563381 78.434254677495545138 76.534291575997201562 74.707310279373444928 84.900107271448476354 70.907335789464113418 78.560477133051023202 72.541460862035094692 75.947665518680651076 87.66014517348868651 81.689634865735072822 75.771482003723008347 71.434078743763834041 85.78578219348018763 76.809999455344652119 75.280007752193881743 82.156331531063855778 85.353668681648912298 68.750563676056145823 78.505840157505787147 81.830176436113987393 73.802027330348437317 80.388739071046458662 76.842193802083272658 83.890007540272975461 76.310590929113146785 83.194680794374789912 76.339432707050860927 77.464873312127366489 80.82620684440574621 77.888233186415675391 79.070778986720341663 85.610414529240273396 84.947426246656092985 80.348949969936853677 78.353771394633639602 80.398788944205492157 74.034473526208770977 73.939661162507931635 77.265259164112066514 77.739904670460546754 89.180414378226998906 83.297863932354403005 74.79450533717393057 74.220701645279774539 69.39773681984314635 72.804733654996937275 69.85948624678150054 81.666662699026744576 82.648837904347075778 86.626703064508348007 76.359984574038605842 76.233230410825683521 83.629543755259192039 80.875115133977473647 81.086748735924857101 77.899179877404321815 78.318806103250011574 76.950852297311541861 76.093969592617753506 78.350384738725580291 82.033566396210829907 81.269534567501040101 76.504501375005773411 78.345794230801146796 78.172770179404523105 82.517864486445517969 79.58206882287430517 82.530157890901222117 78.872354358893488779 80.496446077610542602 79.083278894325502506 70.736578585210594383 79.88229300912652775 73.192999663271422151 81.738095646969298969 78.5278502037498356 85.16520128951060542 69.135187550959628311 67.625390291159391154 83.64215677759344203 73.503226717938403567 74.062945286131679268 75.899548107658517893 79.913113548434338895 86.308850056102443205 75.364600387167740791 79.545266414183885217 74.145931374859941343 78.777633271369509771 74.674623920379474384 78.820700113785761687 71.484147152574593065 77.802224467895399584 74.066390173941954345 84.50710613460029208 81.900984914300636319 76.757701090055093118 79.22223204910507377 67.729323262522697746 78.245020708574202217 73.487444423330018139 80.693915042693589612 77.28086666691602602 82.931025236326888717 87.144698016378001171 81.618084368888929703 71.402090011306668771 77.441604260958769146 82.822729567280688912 72.179825301663413484 77.99182123663440791 81.243862902896950118 72.411296191006599088 73.920685263966660727 74.214587605816802807 83.960614534527650221 78.062059538835868011 73.613981114180958798 76.180418254598265548 85.195729750316985474 70.642064097191621386 84.100844026703754253 83.99624991526842166 75.640923718365883133 69.49111845196156878 79.497249820173465196 66.515809709081850087 92.26924054812835152 71.803834650804148509 72.426744960956412456 82.114896617890821062 75.643867894484458247 71.116729529904148421 81.409543817286532885 73.580720678886962105 74.409640183595669782 75.438236889273554198 83.134627850006992844 82.628839751324989038 77.133050313011580101 78.174745604846663127 75.354234698867472275 83.024651037369096684 83.373709897031531568 85.645875940248430425 82.297908701881112847 81.81047322834419333 78.356728407081504884 82.788430133159266688 79.444395095293089071 76.989269532822930842 88.285137891511624275 75.417911026721014878 76.576660163517814794 73.015872055713231248 69.294374056642311643 74.802586417747278347 79.863054418633112164 84.705062559647430476 68.502051908526624402 85.683089200945289576 74.311683687352754646 79.248672482415926765 84.528878085967605216 79.776256963391986687 87.345166296712150711 74.990126231294013337 80.156598158228149487 77.376301727465360614 76.87227306251020309 76.720094251744725966 67.370261543391450232 71.968964056536307794 78.789754924690271309 79.063511190132800266 75.069089734287473448 80.81676468934517743 77.106156453862709554 87.98054300676781736 85.257909025703796146 70.655939808697638682 72.904834084923166415 88.260544662302976349 79.955412491339131975 75.355557869536568205 81.916947968972138483 85.619181785339449675 79.692488806488924524 79.103031325594628242 88.664552752322293827 79.232133177448915262 81.518571783639004025 77.232531473803192057 74.513786429652384413 70.125616806019522187 71.15991188266909262 80.672991715490908859 75.05367884839722592 77.821694430726495284 79.386451909030199658 83.862653987366826414 70.310078306684033578 71.665615550861559768 80.054056625525191748 80.99279006537267378 86.473113187395966861 81.367411864183907255 74.571427132210772015 87.741346859074965892 86.103829515656883586 82.64729128922556356 83.632942474409361466 76.193638518305988327 80.228651352893962212 77.627394732358638407 81.511514882080120969 67.532653489102358435 78.436530646443898718 82.244151216190061859 71.359814323665972324 82.530321112451957788 86.787105540302192708 75.071674729760999867 78.563582743737086389 87.889529195459161315 74.431223187377341333 79.558471445721110626 87.22171138452665673 69.305891883362221506 68.360145101389946376 76.855562118840424546 87.890733263550060883 82.649309850632732832 73.889020380856365477 85.020442532203247765 77.158136745265551326 87.585779934538663838 83.614859430779276295 85.126838732359146888 81.814245024037248299 74.419080730602445328 77.388838094329770456 85.009073144612614215 82.562591378755371352 76.521166071307803236 76.122187639647478363 80.431068624034352865 81.009600752859853401 82.082302217913706954 77.883257696712036022 74.684925880713095125 84.828076283679649805 83.127786110153351729 81.675893800324232075 72.745790818172039849 75.043607056032982427 78.894492769295382573 75.436690878437616448 76.099588625482709858 73.685774787928252749 79.065518102236040932 80.564882057149034722 75.417639551460425196 82.155722685553286055 80.605780162748999373 82.851825432280634232 75.03100602627483795 84.966123043925051661 77.274324282960535015 80.421471235846070158 81.344434562505085751 84.378410066499753839 78.267766623435790052 80.333767319048575928 75.911963490641682029 68.506389256374205843 80.330484798063110929 79.245422242385131995 84.123365212289698434 70.152250894692386396 79.444836645093715788 81.073542266443297422 78.235819984744651379 67.299490921163609869 85.847183591471917907 83.878653747738042057 78.57935985514443189 72.217153985053258225 75.843762916381535888 78.879731392484529806 76.025991409686042743 87.967897166804306153 82.639136228393908823 79.958313190116783176 78.60141356474002805 67.715036458219728388 89.142098531301570574 84.97106627362327913 78.214369850301565634 77.900524881963519874 84.120758392302676043 76.951165276478178612 78.230498276161995364 74.224123203029648721 81.47839829423766389 80.677207712572851506 87.924508547776881073 76.959232443803870183 72.638630269461529565 68.091746674600400979
-1585.5285824712668727 -1585.2719216207283353 -1583.9346020442005738 -1585.7468382513357028 -1590.8508430926135588 -1595.1015619861539108 -1576.7324114498735526 -1563.5555485606289494 -1575.0214174508043925 -1583.4791019463948487 -1562.5665139548204934 -1552.2012881990021924 -1582.9852641094596493 -1582.3033578234578727 -1581.6222111762651821 -1563.8725191593489399 -1585.0161272805821682 -1552.2665434001112317 -1562.2843125515464635 -1575.9284022672022729 -1584.1877420908772365 -1592.5208068060840105 -1594.9987267916155815 -1563.1025934197036804 -1565.1709043656710492 -1582.5447029297081372 -1592.5226777818752453 -1576.2390395176566926 -1564.7197311277873268 -1550.1640725984138953 -1570.9161412070941424 -1597.9129421268917213 -1579.460820965473431 -1558.9458272753188339 -1550.1812263925708066 -1585.0853671356035193 -1578.9427999391771209 -1561.58977634515918 -1576.0657238801120457 -1564.4359358138153766 -1574.7353827225458645 -1593.6970321944666011 -1582.4209730000845866 -1571.2697254745369264 -1555.0143161117875934 -1555.7716173044109382 -1589.462261827285829 -1565.5846391495199441 -1588.0769564155325497 -1566.7819236024070051 -1570.6316633228614137 -1554.2881157278254705 -1571.642121263575973 -1575.8413898972198695 -1579.5888832664772963 -1587.9755224770033237 -1574.440018188462318 -1591.5732703074581877 -1568.8887658848148021 -1556.8334050488672347 -1567.9292256106305103 -1576.4785139894970598 -1576.1839870055987376 -1563.0218379216289577 -1577.3189110991934285 -1606.2751776493698799 -1590.5952562978754941 -1582.2201236314424477 -1585.1218320125724404 -1566.6320241647849798 -1580.1020603262866189 -1569.8815669874766172 -1560.1445746770432379 -1580.2420645108370536 -1570.156725983322076 -1576.7456092008917494 -1580.7723128026987069 -1582.4275320944841496 -1572.0395085568718514 -1569.3169630497909566 -1563.9157921236990205 -1560.8523814304382995 -1582.6575052892983422 -1574.1806875606162066 -1575.5380288881410706 -1565.7196049691356166 -1565.5988803132006524 -1573.979735883446665 -1580.7015793634127476 -1580.6247679449288626 -1569.4198289770106385 -1582.4689614605933912 -1562.2323178342219308 -1599.2184772126943244 -1574.0607006807799735 -1557.3900999709251209 -1602.9091933903637255 -1563.6117014980618478 -1576.4645542366090467 -1558.0770445813841434 -1578.663894528691344 -1572.7916279659445991 -1580.5914280960810174 -1563.2474935607956468 -1576.3610031287018955 -1590.0361805962904782 -1550.8403648312155383 -1600.0392811175668157 -1564.4118413359447004 -1577.3737520066695197 -1566.4259256380387342 -1580.8226188077292136 -1585.9880349820566607 -1580.0063514749072056 -1562.7239923466397613 -1563.6843064158713332 -1590.2963601211044988 -1559.6263402481538378 -1569.5513272009466164 -1565.4109880462851834 -1572.1868837569447805 -1561.2669638183283496 -1584.145601256376267 -1586.5666186441931131 -1565.7836048720321287 -1587.7508866205764662 -1596.9339863223358407 -1591.6127852982463082 -1583.0063630401921273 -1574.5572056611674725 -1567.9643455829018421 -1554.1563334075540297 -1562.170118039468889 -1578.1710921029573456 -1581.4859233599029267 -1586.5843087880496114 -1562.4748456504223668 -1576.1412470418615612 -1575.0100475287615609 -1581.1368355987995074 -1566.9763172728662539 -1578.8606522336626767 -1580.8236143627573256 -1588.2672628841846745 -1578.7488440756469572 -1584.6304613992679151 -1584.0569769624048604 -1585.4125506514208155 -1583.4214725635472405 -1580.1071511614306928 -1573.4204407877496124 -1574.0269945299528445 -1584.0860036012854835 -1572.9230529417598063 -1567.2673857062438856 -1594.8128926789581783 -1573.2643903626424162 -1553.2539320462267369 -1574.5043408732440184 -1587.3293608545293409 -1587.7248490438041699 -1611.7071060302546357 -1594.3262823900572585 -1592.9228155386740582 -1585.7037681114652514 -1589.8531888654215436 -1561.1849822379131183 -1558.6171937806161623 -1581.8878445247171385 -1587.5302810963262345 -1579.4966913041348562 -1595.9145232885189216 -1562.6597757775007267 -1571.5610340302162058 -1578.0061655528963911 -1587.5490001511177525 -1576.5321779269047511 -1572.5883103317310088 -1563.9735581336030918 -1589.9237213309340859 -1591.9606609810018654 -1580.1645546411318719 -1587.7211017110348621 -1582.0139707804003137 -1593.409857651299717 -1593.0292191035018732 -1576.0469250971655129 -1580.6837472898650958 -1567.2797146165610229 -1587.7859630972022842 -1578.8932485129687393 -1585.7963388492009926 -1560.1795025422634353 -1561.0144609782366842 -1546.7136152128782669 -1589.020756322619718 -1598.2207042127981822 -1584.0742470999614397 -1574.0892054424116395 -1582.4813970482000514 -1565.2211239082266729 -1600.4395977494370982 -1587.0998875090647289 -1583.2218068784704883 -1594.8403961785804768 -1589.258760574288317 -1567.2083966127145231 -1586.5003915559746019 -1579.4149033083567701 -1582.6358193108130763 -1556.6374144390536003 -1609.7942982457127528 -1576.7995900139890182 -1586.4659103164099179 -1591.4618199618719245 -1581.9149295222134697 -1567.214069084933044 -1573.338197845203922 -1569.2858746985928065 -1588.5679662599234234 -1558.6170312394617667 -1565.4835098110959279 -1577.5033349162199556 -1569.9649059906853381 -1599.7206434351442113 -1584.0046464761749121 -1584.6046304882693221 -1607.1410383094785175 -1594.9956174449127957 -1600.265612495821415 -1571.4075710977513154 -1594.6143474928551313 -1567.7097735497438862 -1566.572577913834948 -1561.6297559889562763 -1585.8346186915257476 -1571.8684027495419286 -1568.1248529685810809 -1584.3580159887615082 -1582.7498748446116679 -1593.0310652502744233 -1600.4987669682577689 -1609.2729089704075705 -1603.3943756331723307 -1582.226282659887147 -1599.1862778023614737 -1581.04593453239886 -1584.5837151264756812 -1552.1135301130530024 -1571.849554848259686 -1555.9880454921192268 -1548.6679749255620209 -1557.1074464379630626 -1584.7442132273729385 -1578.8407345554246604 -1592.1917216185354391 -1576.4967609202865333 -1575.1667818851835818 -1590.7396932940355327 -1589.8130691837420727 -1581.2982580486370807 -1589.2173005070374074 -1588.6258976088331565 -1569.6232198687903292 -1572.9985807989753539 -1575.9447901230880689 -1577.8121343069660725 -1571.0129067291750289 -1580.6171291451084926 -1600.4162374128043211 -1575.977156014522734 -1564.5812201976584674 -1582.1131844683359304 -1558.4779421539265059 -1601.5522894542791619 -1591.5236329140707312 -1555.1959613710612302 -1576.2600896599892621 -1578.1621186016077445 -1573.8081150199795957 -1598.2529081111615596 -1578.449324410238205 -1587.5501422872287094 -1579.5709395425562889 -1573.6817912171520675 -1591.5644895459602139 -1580.7928148527098529 -1562.5549556001101337 -1588.8309893637610912 -1586.9928363518681635 -1565.2239715298610463 -1575.2089043827481873 -1587.6306050928601508 -1599.4277502827524131 -1604.2228732870041767 -1595.1825186257099176 -1577.5240451426172967 -1590.3067531236845298 -1572.3813401870495454 -1584.5795495088686948 -1579.6907547813334531 -1579.5676358835489737 -1597.6736871029677332 -1569.8520505282028807 -1573.8310393512813334 -1587.8948526800561467 -1568.9998562944124387 -1583.0070497192139101 -1566.3631470719371919 -1587.2576678881771386 -1572.878089191479603 -1600.629535595320931 -1585.2643401548989459 -1565.4863771714428822 -1573.6822801869404884 -1583.5358613927342049 -1587.8673876382090384 -1559.6579079079108396 -1591.0659215101090922 -1570.0822231036850098 -1595.4932482509705096 -1577.9048756152412807 -1557.7797570367965818 -1604.7584987962306968 -1575.8007753996353131 -1564.4645470108184782 -1577.5578497857334241 -1573.3209617657901163 -1600.4741196429440606 -1573.937319616484956 -1561.5095002313755685 -1597.4951763090052737 -1544.620085552696537 -1562.1856453172545116 -1580.8306478329525362 -1601.7861209288532791 -1580.5375211141963518 -1577.8857846492155659 -1584.2792136345217386 -1590.6647985884083027 -1550.9671601364318576 -1575.8546523171876288 -1574.5707156748626403 -1568.7257081505838414 -1586.7331566761115482 -1583.2611803860306736 -1579.6488700175113991 -1568.3204551768965302 -1560.1209765202581821 -1599.2999976045550738 -1567.5055729676216743 -1594.6820238768582385 -1587.5366447568255808 -1582.7205987222598651 -1583.0636581929420572 -1581.794731493018844 -1566.8176750710322267 -1597.8487446531567002 -1584.3701204687383779 -1583.7238005708948094 -1577.1554006346786991 -1590.1090197385497049 -1590.8461117069859938 -1591.9626195360676775 -1598.7427085909744164 -1575.0271039965571163 -1580.3230425845533773 -1588.8322407400000884 -1587.8199496126076156 -1562.8400603242725992 -1576.0153200558031585 -1575.5673664510222807 -1569.9926346842883049 -1579.469670733349858 -1570.294259701453484
692.633724283306492 691.1917749636344297 699.53949809277628447 708.50200131799374503 696.24199061417164103 693.45144360708457043 706.5614965102545284 693.68605074507854624 699.11712476801142202 696.30575660375495772 693.0898435945696292 711.96250308120477257 687.89723689057359479 690.21389764959883451 702.2420812136067525 686.64165056556112177 693.36395570212118855 712.05095915421486552 692.08741938598495835 691.23470784548680967 696.17750773155603383 684.16155959844968493 697.23434662867441602 684.35188847122697098 704.52937860755662314 698.50921193946146559 703.78191299895092925 706.6784687086244503 701.60585127155968621 708.24573081770893168 709.48300746860456911 703.41832492503613139 679.21291647414568615 696.74610929553580263 699.72960532459319438 697.50107253654766737 713.35356752349525777 700.02090334099830216 692.90602512483008013 706.60736061463717306 691.67338671373045145 693.11750695197974892 703.96445768215937733 684.0083106631955161 695.03892660070414422 699.21138032906196713 687.64098246227035816 700.61695645246254571 693.28592346513812572 697.43052788207637605 693.93314741856318051 710.27567686645249978 692.48280713639940132 686.13301830105513091 702.1007508898320566 704.13930324254158677 693.55464829609741173 698.28159488683297695 683.97513550177507113 688.43504659755194552 684.15732884755084342 697.57740103173716761 694.23292899246337129 694.46581909816757161 688.8293280644004426 687.62675058422564689 698.11026054387548356 689.60659193557080471 699.70642168981760278 702.62095173801697001 692.04956866132056348 690.85175653339638302 706.68699395606131475 708.41789415940536401 713.68411775184006274 697.06132901316368589 707.24092580197509506 699.02731795907470769 708.08745997005507888 695.69182295610767142 703.54090432198051985 691.86855842250690785 699.72808056618964656 694.72550750983759826 702.49162774829790123 690.11562133888639892 695.70351289178836396 697.32917232884813075 693.25980052810950838 701.26040886514647354 702.81640855049170113 692.39744766987064395 684.94987919061827597 689.95924039762576285 679.96038822626144338 706.38636618928603639 705.6244351288822827 704.33286885644838549 702.60043239584877028 706.10018255459351622 687.69722635762263963 688.12820032079434895 697.76276335742329593 702.28564712409558979 709.91209896170209959 694.32873345391635667 698.32044985397863002 705.56144471322761547 701.98959654242810302 702.9688344887860012 692.15603779085313363 695.66210811562473282 698.34419934139134511 697.42167288467840081 701.93342243112363121 691.97605766433491681 680.62017439052578993 709.4265665961816012 695.23410125201587562 713.116989208300879 687.2310083707384365 690.52800265933444734 691.23480621743703978 705.47217317513036505 709.4719816398292096 694.83079436602724854 703.88818679736630202 703.91985246466060744 700.6013855227726026 688.19969957626199175 697.48855552912175426 693.8873727426843061 693.85449605660676298 692.48731576203294935 694.54836945405145343 696.33035968181491171 706.081191492608923 699.42325814324817657 702.38554071490136721 701.14424346930491083 701.02722245338259199 694.31924954256464844 691.84983223576762157 711.27391474028138418 695.01581423829145479 701.73573303008458879 694.92279052998026145 679.49707320029460789 708.9727548838562825 689.71151303464375815 704.07590243623155857 693.72048271456503699 701.26646284369485329 709.0542795819260391 700.4385347867071232 696.78815898165669296 697.4216598109574079 692.211983196949177 702.40809581912139947 692.9320398077485379 693.93906182863725007 693.91613651291459064 696.81195858815885913 703.27380912931607782 706.17985286153441393 693.16816270213075768 692.87980810491512784 708.48435499322590658 705.255149557049549 700.39408506971835777 697.05196913884071819 712.55916587487263314 699.66275222308627235 703.72439009599122528 689.21774388066739903 698.5958254604333888 701.79557993222408641 703.98586911024369783 687.86732790075041066 708.16965128143760921 694.21931997836588835 690.52796374318370454 689.64121865475010509 705.9547121198233981 698.54902895213274405 706.93270024704577281 698.13183438460032448 699.14349513836782535 700.15173379963619027 697.6853705421565337 683.83296613905508821 704.76285129127381879 698.10499827373689641 689.05863084946793151 704.19423202845905507 699.03621802617783487 696.15805227550674772 696.58725954983140127 697.72866279741992912 701.5670370630675734 702.50593825373346135 697.47851749311473668 698.79054013295058212 703.68760394747482678 709.38928423137269874 682.92488494102860841 709.17430037929580067 702.14511768412546644 692.45978829150931233 715.91898489993070598 700.10586382957978913 710.46190737334768528 700.62355312445549771 700.04512498252938713 686.21181697700569657 695.78875470125308311 700.77103692294667781 693.02523484353241656 695.3561795798464118 692.68663630741480119 697.97019416864304731 697.57825353818418535 686.42919809820421051 696.01251893434050544 700.13250723103521977 709.53167325464994519 705.16835365819292747 701.09303991419881186 694.53248260952636883 697.64173447656128246 693.38046861515738328 699.38900479106405328 700.4329268876954302 710.47660596036052993 705.97709601313158601 707.13285435573652649 680.87938953091406802 701.6871642676327383 699.76888802738653794 700.12847107814093306 709.22164453406867324 694.533741637768685 705.23240862151419606 690.6404880276915037 703.95776254955535478 710.62033994392868408 690.01467137970121257 696.04561278107837552 710.47916030888791283 708.51325979312855452 688.76730734569173364 687.27294320169210096 686.72939602915607793 699.16921262963205663 689.08659647484864763 702.76244854685785413 693.47068056398745739 700.10408139943126571 700.99287651635438579 692.95899528356198971 707.53489557418083677 708.66810884092978995 703.89540201306624567 677.66083147915310292 704.89293186187728679 678.66241230415141672 694.71761672462741899 698.5276276163563125 692.81338954405816821 697.8477159421606757 698.85371174385306858 717.15615344541356535 709.8250552322066369 706.9374544435451071 686.30141295274518143 687.33867838536173167 700.12726065054653191 699.95501960855142443 698.30593565596245753 708.68888007012219532 702.3900400436889413 690.56768268545010869 709.94655639498307664 691.47356212905026496 701.9160360109975727 702.57284019721782897 700.37723470825312688 707.80086226222852019 703.86678642976937681 702.88426399888805918 698.76343202360033047 692.45187484338850936 706.36534357363814252 710.29775207620662059 698.13852244801955749 693.661305169046841 707.98929871105485745 708.52205163610597083 693.78522785908353399 701.15559718291467561 698.55659839553845813 703.41038459170067654 701.80590341667675602 702.8457310199943322 705.69474715633714368 699.00900605790604914 694.80775220315581464 694.25004312369992476 699.86389747458008515 690.92325240035256684 701.4261261254373494 698.49974801405926428 702.84915946869602976 703.79996968761099652 701.5362085798234375 693.13845289708683595 684.32877728323285282 696.38557457066565348 698.91755522979462967 705.43560581959707179 706.57768172481951297 701.90980088706749029 696.56929219466690029 690.95682235582148678 705.43810012676397037 708.27675491849811351 704.8038609770264884 692.77953846776711089 699.72712931362138988 697.92995582300716251 696.74696069172182433 694.54007854472661165 686.32577431071126739 699.05623421280768071 694.04520526554847493 710.0436663006011031 691.0552378220833134 703.45590034533881862 704.03123269685124797 690.83633246187116583 697.60702848709411228 691.17390457282976968 702.47595631473905087 692.98104085947250041 711.7880400215390182 692.25323152899034085 678.32387827606839892 690.20837041643756038 684.35565919800365009 691.64182454121441879 700.6515397234734337 709.68395035100263613 702.68380712224075069 705.02859565748190107 705.29383093083424683 694.43885499781765702 706.6818092756545866 698.61953491596034382 702.96905997631301943 704.78094813145412445 707.26790562024632436 712.02423307961657883 693.71921198150630516 693.9400162521827724 692.92317747563276953 694.80283806436909799 696.49361841069912771 682.06970122758207253 683.9831347962064001 696.46069335511879217 688.90912826568558103 694.43803774847981458 697.92718517751143281 702.03946484851383047 701.26191725326270898
85.626820761569263141 83.505466316878980138 77.600298090074446122 92.444393267201377284 89.24735321213317718 74.586254884621851602 80.409899505777460149 78.883731060662896084 84.784831484912416499 91.874776292426744817 83.1366689322576633 88.966834318553935645 80.260996239925106011 84.841755461879671429 90.632720636110377654 92.622814993735374856 94.831835137633731847 87.609553445180750941 103.28554841061880154 85.151057693208912269 87.072606942343952596 95.597902690712558638 85.713967716861077406 80.450731940934389286 76.821648040006223823 85.330323223523379284 103.73935149676543688 90.676218705176381718 81.02245879921390781 81.54518155260799972 86.67220373245703513 80.455489078022907279 80.25167586798968955 89.396462450626700047 89.944119148226747029 83.932187383849480966 86.862676148716815305 91.159109824128861987 94.929147385786365021 89.045087218819986674 86.489989715586006014 90.205971747549341444 76.439841198511487619 96.077577616364166602 81.529185212983378506 91.97276126589342482 84.144479827309424991 98.187059238927020033 99.682675395361954429 93.605558915982442159 96.283177766163419165 91.426673765466532018 92.79026407733817905 84.945598829877752678 91.435397399862040402 94.655678931024539224 93.499644919304344626 85.976531053996154697 83.600964480169182025 87.860422795553404285 86.296435377706671943 80.824402766258359065 82.744450347916469468 91.387508479975778641 90.726995200025342569 90.591736474872064377 79.922494082778214874 92.401451631542556697 86.050530447084753405 93.309975743808877269 93.342233722762856019 86.426398316267977862 83.578161303631915757 85.265902289638560774 98.27470125477427132 93.413469704136048222 85.336560978608872574 86.117454684682471111 81.700685619621779665 90.464083417689408861 86.730793257007263719 92.529735220423731334 96.150375296741628972 84.904419886468119216 92.82531565692084996 88.759862704985920345 85.216400963443092564 88.244289167740120661 99.943436010353480015 99.177415404773128671 90.218795480398057407 90.105227058520682704 93.582050911475576527 90.228456733905673559 91.769189780891167629 85.772942157496601112 98.225680187947119748 90.505691658101682151 94.144736269477235169 94.63908505761183676 84.402065233590974458 86.590651122336140588 89.066314184317164404 88.942192021159854676 95.636680375100908691 81.457992889320095742 88.108984458048794863 85.6031873445357121 89.758283465814258761 82.583598107701789104 91.017926557033518975 87.669114475101409312 84.777282958619707642 85.455448838210060103 87.997574449684236697 86.553260708127112366 94.059690585057268208 93.407153035271946351 93.63394853778756044 86.807302554652324034 93.127167282255015834 79.643012053523136728 82.97679920016663857 81.932070483040575937 91.471182105677641516 84.320076138131753396 81.980337122415434692 90.356663914990804187 88.917043788915407276 81.354396762490466699 89.296837155861879864 82.023152217535397313 79.873064377251509427 79.60389933458711198 80.09093954614357358 91.479102620620452058 85.674129486445394832 90.058013114510501396 95.704007201667153026 89.838448961982479091 88.052221159004233186 83.718399431187933146 82.722860180050560075 79.586470150955236136 76.816148932815224271 86.625113013513612259 84.234240568880807132 75.542242301984146025 91.019512113251948904 73.186570947650878338 92.414583279418195616 92.225659598450036469 75.238761356332830132 84.207863937553284472 83.766859624892646252 85.336960700194239848 84.741759426977822045 93.225968190236642386 97.439726478213827932 89.765818915452314286 92.590762241504194208 82.581585217083656403 86.598005405184906635 83.333774773503378697 81.871973966649164822 91.795466349169643649 91.333146946737201688 100.80721183949242459 91.092555635693543081 94.719773074153181369 83.918135591606670687 91.456154186975027187 83.670605173149212419 81.459949982150803294 99.454813181320943727 86.659540560181383739 94.930511784785807095 76.378239305075496191 88.09801453531268578 79.978725321139094717 79.912908759267708092 80.67906117520065834 92.452412203959298154 88.798772878535132236 88.347538586529367421 82.133927263600924107 93.570146308640914867 87.419913362488415487 90.243778884599038292 84.646275046847719636 85.07438471239510136 82.08120163818549031 80.450734988902993905 87.311711451160505248 90.605725283910715007 90.869531001102501477 84.916340269523018947 85.179669803416558693 88.412393745126522049 84.418959451494615109 84.422379067482864912 86.876395447457667842 85.297516776524105353 85.435788124666473209 87.320425469222087145 87.843114743972066094 87.667207622448984239 93.858933066691491831 88.825267034652938491 90.652824199178596132 99.645398428372601529 96.866129399680431789 100.32334065815314261 73.58025503437661996 92.341245663963988477 93.874305740981526469 89.69752069460525945 81.646587963574475566 85.717498615315321331 87.649674451377848072 93.928287424963613716 101.9623284917647652 86.249639134485860836 97.130305113901101777 88.397932105820871129 91.603698985604879113 90.176405320638011176 89.090159912998331038 92.86025147120265899 89.885272586309611142 87.866598399387697782 85.025874337599560704 86.609928760514506507 88.648916328864615366 78.053677063796030211 91.706245172073366234 92.875521016897849336 85.023853440278742255 85.98668648022861305 87.513132588977271098 90.794747683710568253 80.505933711747928783 86.0222644310972413 86.268461167713425652 89.149626465013582788 86.361480347856485196 72.471274341441059619 85.820900066580605881 85.529239440383392434 83.321152923252711275 86.677889935343273464 83.659453611817966134 83.173158810691148801 94.024152321265887622 90.660127338559760801 96.625471119497831296 85.569790118284942082 92.297345329284610216 93.57865577177352634 84.523415711563828268 91.710763327759977415 90.856106156174107014 80.135819194160916368 83.382433926418286774 88.818485668758327733 80.699861137183518167 83.582743144876189945 88.885566112432513819 91.93189798818626457 75.126230735970395358 86.630992304564657047 84.529563207102512479 90.02917253468623926 78.144202796704789193 87.645722693006447912 95.95943609388399409 93.247505807364390762 87.260800319871606234 94.93489202111636871 87.614081225246366103 88.415798577630624777 98.592583343069691182 70.503836824322632992 91.122756529768253131 96.984136398964778891 79.890250070888541245 88.049508800855051049 84.827017861194448756 80.781326626370358213 89.036474792493535801 90.986417017696609832 81.419407102527841857 90.964839193113235183 83.574894272386586636 85.883966992696016973 84.749360614040426753 73.093009107345721986 75.459063534548405983 92.602652100648626288 92.268604027625102049 92.928830448853418034 88.415996533722235995 87.272900472234624658 87.366484286066778964 83.045910767461265323 87.240972594894472536 90.657817705057084368 86.7887864271014422 74.15188551523245053 78.914272088278238471 86.706899373695478062 85.957013242940476516 85.991483093795125114 86.617705863354444773 88.375685594156053071 89.902024983566036553 87.924129916630590742 86.196862815147937908 91.189410371391474541 81.723457777328803786 95.333151076045396621 96.726976641225192566 93.471394249867771009 91.214917397703956681 76.003325189851693722 88.059363158093589163 81.295696894522336606 95.83528064503616406 97.708471093513367123 93.523544143571157861 83.616620104534604252 97.970167593421905394 90.198350993940138665 85.621442592524232396 83.389645531496199737 86.476305930593369453 83.57732864127672201 83.097323906722806441 85.71031682439294741 100.49267132532537516 76.399728066123785197 91.324094027430888332 79.716328874823901174 84.470852342973500981 94.838475622481524852 88.629001666510546897 94.122880155716231343 89.270917069113821185 82.771700194507459969 82.914388533547494831 82.484838137116042844 78.796413969884540052 81.501235899416542452 95.202679612733362546 77.632590972136753749 87.463381307980696988 78.276314555732227518 80.320659005206735515 80.659467893962926155 90.313096022621010661 78.62823747326039836 84.642087378310691292 85.177532085952137209 78.696346934223669223 99.589610620121646889 90.867792376520625908 78.348662084947108042 90.058489829100565771 84.491368698428345851 81.986385334470099906 90.004554841801180487 78.4283070161960012 79.075383977004094049 82.585991285087246183 91.07276220541345424
-1784.6582494614531242 -1766.8669967828836889 -1796.8033268142257839 -1782.429124676939864 -1752.983873162913369 -1794.0961345654779961 -1779.7699956350422781 -1793.8688579411580122 -1774.6488475269636638 -1791.0207034217573892 -1786.3543240717522167 -1776.5505186649311327 -1786.3724844642506469 -1797.3455765119297212 -1773.7085928096855696 -1780.4122216019206917 -1785.2410844644875851 -1785.2410564722902109 -1752.0106016405122773 -1797.0649003907847145 -1770.5498177109259359 -1784.3290171430849114 -1794.5026284975151611 -1801.7980851295160392 -1795.0999023160361503 -1782.6859121714005596 -1779.8589694956112908 -1768.8413000009991265 -1775.6214515271144592 -1766.7200908863110271 -1773.8088296115713547 -1774.1814199061554973 -1789.0768017835603132 -1792.7125839603756958 -1786.8536478017265381 -1792.9422077168210308 -1787.7158529593773437 -1782.0938358331138716 -1796.6431771139668854 -1777.2913063214232352 -1788.9743936708243837 -1777.9772043338530239 -1787.2762466121457692 -1768.2017876679278743 -1773.3033910261201527 -1779.6070722332665355 -1777.7162246358579978 -1802.852608522223818 -1779.4304680882098637 -1788.8608018958261709 -1786.4935607978720782 -1768.9666037590054657 -1804.6616588055530883 -1769.6364422063907114 -1779.3173077968360758 -1786.6821094472268214 -1811.3850026910886299 -1782.1304275993129522 -1799.3507111137223546 -1775.0121316953384394 -1781.8809161727847368 -1788.0654317041910417 -1770.1989502738815645 -1786.0459571253245485 -1784.2622073379500307 -1802.9899149030147782 -1807.399697653107296 -1779.7898459152568194 -1807.1027759782257363 -1801.0320260349185446 -1788.1513136790790668 -1807.7212561676135465 -1803.8271482354050477 -1789.1823478552018969 -1769.002866458721428 -1782.5164968688170575 -1803.4288421990702318 -1787.1457930633723663 -1779.2266148576691194 -1753.5342172616203698 -1779.9634550653497627 -1817.1261783494348947 -1788.184478316907871 -1759.8774588634762495 -1794.2825165655372075 -1782.216538590350865 -1815.8365536298415464 -1779.6953673543173409 -1768.9345406657694184 -1782.6247386945801736 -1769.0985429677300544 -1801.7763633251727242 -1795.9357089908842227 -1767.6341475476815503 -1787.5587554822636775 -1777.4406385326883537 -1780.9092761407421222 -1799.3735175589552 -1794.7525531165872508 -1778.5932700786850091 -1793.6175945071058777 -1780.5024195832224905 -1805.7236304398870743 -1780.2736471607831845 -1779.282387387207109 -1794.6981695009640134 -1784.850658105616958 -1794.5241428050385366 -1796.093658648363089 -1774.0202803954080082 -1788.710113254515818 -1793.5380172142311039 -1791.489387221089828 -1772.1256548372773523 -1791.0274904916968808 -1807.1374549667082192 -1808.4731345065742971 -1787.3155214066648568 -1807.8310436014564857 -1786.6925677055776305 -1788.3160447554123493 -1804.4595537022514691 -1788.7852435049023825 -1795.2375643826349005 -1768.5707341616871418 -1780.7782567803269558 -1783.3469737416355656 -1777.7384097035555897 -1759.7638079748121527 -1768.9238443250235377 -1795.9868348129384685 -1781.799174467685134 -1807.9440604001060819 -1793.1432748644804178 -1760.9668738022744492 -1777.545476819870828 -1794.2077201232987136 -1765.857087501616661 -1772.9965627445217251 -1794.8216712809039564 -1783.6879361821470411 -1770.1979386992313721 -1792.8638127772260304 -1783.800359430108756 -1783.7885046193034668 -1775.7836103908125551 -1802.7236382796691032 -1794.4191731476655605 -1787.3496647144718281 -1798.7410004109763122 -1779.5456675450084276 -1763.4018498472696592 -1796.3449074367013054 -1779.7514631417966484 -1806.6820953133276362 -1798.1748388410255757 -1796.8619385799486281 -1789.8191316109584932 -1784.8550637871269373 -1786.5159567876564779 -1796.1222546726703513 -1800.8243483108140026 -1774.7446843755610644 -1801.0500515660539804 -1782.9230319187024634 -1755.9452576022501944 -1765.8422716218144615 -1756.0903386166212385 -1793.0964184433826176 -1795.863606253970147 -1778.1859396256209038 -1789.463261935818764 -1796.3528268736502014 -1784.6852941932563681 -1782.0524911043376051 -1826.0790378299241183 -1788.2125229832029163 -1781.1898865202656452 -1788.397372171157258 -1789.96354036611433 -1791.3468194927129389 -1803.3981386551438391 -1805.0674378463468202 -1756.5280352919235156 -1772.727550784738014 -1788.0007396095325021 -1813.2002254524477394 -1767.9495007434691161 -1814.1099298923275001 -1756.9414754877161613 -1784.6967691070644833 -1793.4769875057954778 -1785.438156463138057 -1776.0411243391581593 -1786.1848876678598117 -1781.0060930942331652 -1784.5481592125802308 -1774.9355188398214977 -1787.8950052658080949 -1791.6968774981737624 -1804.7552447877174018 -1772.6301137353609647 -1794.1363095568858625 -1761.5582614282348004 -1758.9842120723837979 -1793.706499991777946 -1795.1272415757455292 -1761.282832103664532 -1789.012439602893437 -1772.1389389271460004 -1791.6955988336139853 -1778.849755728300579 -1803.1541455877638782 -1788.6503136949834243 -1787.9337646676983695 -1781.392029208205031 -1782.6826063117180183 -1807.5798570293652574 -1764.5898895494924545 -1768.2816943934117262 -1798.9761907685440292 -1800.0617864388336784 -1779.1214051588176517 -1789.2396840343710664 -1763.7220645192892334 -1775.8735793408488917 -1785.295097798632014 -1792.4948429395064977 -1778.3720850269316998 -1789.2573726030675516 -1775.3238486119678328 -1779.2262862005306943 -1763.1916828917785551 -1796.3203005799966832 -1799.3740826810483213 -1784.0702109498383834 -1785.0436315215908962 -1764.1253600121212912 -1787.85548584229673 -1797.6289051119167652 -1785.7477620669305907 -1766.5245113030412085 -1780.0895941470375874 -1782.6218747455984612 -1801.2066938414093329 -1788.0309107436369231 -1793.5645161947127235 -1789.0099828159357003 -1782.9118115059848151 -1769.6408320875029858 -1806.2433899324805679 -1786.9441122536625244 -1799.760880834269301 -1790.3470463798810215 -1792.6277473040722725 -1785.8164812829834318 -1785.5306570156940325 -1798.0017250958817385 -1784.8075088299037816 -1782.1986087659915938 -1785.8812495158342699 -1803.5674539295796421 -1805.8449338330417504 -1803.4226449376542405 -1788.8223259735286774 -1785.3582815595468674 -1809.6422629152561967 -1788.747691039787469 -1800.005887483683864 -1796.9393904610255959 -1786.826964681799609 -1800.705652433953901 -1789.0362531741241128 -1760.2644936518938721 -1803.891678946322827 -1789.289492007753779 -1763.1917428693395777 -1784.0122587329876751 -1781.1792769852788751 -1794.4099757738606513 -1776.7406838151164266 -1786.5608724339326727 -1776.7276774114347972 -1780.9048510531879401 -1770.269901505739881 -1786.2043508287624718 -1785.9501829047621868 -1770.8941260011101804 -1773.2472091835948049 -1766.5032671270814717 -1777.5399775699856946 -1786.0586917020996225 -1780.5966003493381322 -1786.2264003464749749 -1778.8430197988741384 -1790.4558695471478131 -1792.0556157995351896 -1793.2014145303116948 -1810.1677494566213227 -1781.5398524091485797 -1771.2553285330757262 -1766.3138669019519966 -1788.5008780944547198 -1764.4022481006772978 -1793.9475316335706339 -1773.3923711426994032 -1800.7257878232696839 -1793.6585334222813799 -1806.865596325616707 -1808.2711753642984149 -1769.0483184558934227 -1776.72702175380482 -1788.343434901167484 -1800.3500562030801575 -1760.9765790626483977 -1770.6354763223143891 -1783.9245583393576453 -1810.8499198017834715 -1770.2912510770822792 -1797.2066934502001914 -1787.8852310439363009 -1780.0513355234675146 -1786.8883123273074034 -1798.7842172895643671 -1786.9470963622952695 -1777.3175388070690133 -1782.8047800899071262 -1799.8732625635668683 -1794.5950841772191779 -1780.5214330368214632 -1783.8232409966874457 -1784.1074952300202767 -1800.7515122490287922 -1808.7359271767631981 -1754.4856565709303595 -1777.2840053080408325 -1778.5210299578814102 -1801.0764723940512795 -1794.6090720050510754 -1785.6289863361071184 -1803.5903256988617613 -1760.9188197479286373 -1752.8043798740836792 -1805.94690291182701 -1801.2881108723934176 -1769.0364849549237078 -1777.901032315878183 -1786.1700709668368745 -1804.8479010651731187 -1784.5389560293131126 -1790.2048552778510384 -1804.6137550301639294 -1782.145387087310155 -1762.7007973629915796 -1790.4297520146994884 -1769.1272301309475097 -1769.0855726656645857 -1780.210584671945071 -1773.3260061331548059 -1781.6708552671602774 -1779.9566289802364736 -1789.8095433796850102 -1761.6559200599247106 -1801.4376640680395667 -1776.5936056130551606 -1763.775377936433415 -1795.5748171859299873 -1786.1766235998268257 -1782.0600408466789304 -1763.7601038530208371 -1788.8393843498295155 -1796.0924524926729191 -1793.2805872307371828 -1803.5468587694408598 -1785.3791978349590863