-355.38789347158910914 -356.41865015120322369 -358.17210877613536013 -360.01496637413987401 -364.24423343753801419 -358.30554355653885068 -352.96888162030938929 -369.5711057288060033 -360.21267804376674349 -353.42962107759257151 -357.31864226065471257 -358.65771495929641333 -356.29761048678284396 -357.59233621058592689 -353.50870668701548993 -365.96517224145060254 -361.27517098907401305 -359.59642492397546221 -366.47107176602941081 -353.50550612011807061 -361.73004659749653911 -364.4194327911112623 -369.64705226256540982 -370.24316565680493341 -352.98349615050102557 -368.08792931011009841 -357.26447961574837109 -352.90018772685971271 -350.94606787385021107 -366.01281517376031616 -354.35494431917470592 -356.77388015013195854 -349.19893735317566552 -356.40986824441915815 -365.83772692678309113 -351.64934274670793002 -361.73688234559097054 -359.28634895455024889 -354.11476478962816827 -360.13085148728117701 -350.1311069593015759 -366.5739500878491981 -363.9357745968111999 -358.89127936954008646 -364.94007232659640749 -361.24542803522399481 -358.82051354755168404 -346.90956234484514198 -349.78465051994294299 -351.81810557529053085 -353.04562228519330347 -353.68851370435243098 -364.62251477036761571 -366.05899300282749209 -357.69827561141937622 -361.40544996661299137 -362.36585993794329852 -365.94313928444069006 -359.47382267020913105 -359.78066726568943068 -353.06082340452593371 -362.67808160260551631 -355.95921253244858917 -364.50101341716441539 -363.82638281952603165 -355.12498934799896233 -360.83770275369749925 -353.77326003910638974 -360.7822262905698949 -353.16436995497087992 -357.3470343198105752 -355.43112414704580715 -365.39203365680458546 -362.12781322118757998 -360.37654890593159962 -356.64938031424742348 -357.02894832792401303 -356.80517434676067978 -354.91843554394182547 -359.85287545386938746 -360.1889901174185411 -353.29296981554290369 -361.40916875468491298 -355.09174920437544642 -360.17031498050209848 -356.24095354524342838 -365.92249304728579773 -352.40205171861828148 -354.5934105160162062 -350.92114773271066497 -363.77869252657740162 -359.51717583297761394 -352.2089979364213832 -365.08203332870340319 -358.76102406716228188 -364.60346956858717249 -361.9326783116914612 -366.23978545710605204 -365.60533182334683033 -359.62386412818909776 -368.59170526600667017 -352.85260848132986666 -368.06488116937867972 -366.50242478829102311 -366.38547637199746987 -358.10523194218899334 -353.9402146055195999 -358.94654987723350814 -353.66741532878410226 -357.75163978256762221 -359.12262680599462783 -361.36394327413233896 -360.47596233460177473 -358.69467577600215691 -354.07232826000330306 -363.98379232683117834 -354.05588283570892827 -362.62987977252350902 -360.79939386386064371 -359.99208405594373517 -362.12168172576633651 -357.40174248610492214 -359.45669148262544468 -353.45832992143573392 -363.35890603542003419 -362.92321563229046433 -369.57663320969652432 -360.34230504824523678 -349.95303681097203707 -368.45583998765351907 -361.42298475003190106 -362.26857299708893834 -353.10139708955637161 -352.53563867758219885 -369.27148064632183377 -372.52948481296897398 -360.83241178880768985 -350.18363758810772879 -369.54772721830983073 -358.97006157282726235 -356.5689555972933249 -363.30471365497191982 -357.05806699369799162 -354.9968793296298486 -366.25970940395137632 -371.0715444659878699 -362.3546599814739011 -363.13297510519362277 -366.57806203823798796 -360.90741184625659344 -355.81210400534905602 -362.03470141499383317 -362.34275577712321592 -358.13727124184117656 -357.88485766357007378 -357.61512758043323856 -357.21862625154108173 -363.03295604229998617 -361.30842674448547314 -367.91009089931219478 -351.05648311284301144 -358.41344643952038496 -353.45411473965879168 -359.36618505738886142 -354.19058954678445161 -361.94866888967686691 -359.86528225155194605 -362.89937087646779901 -344.79238026428555486 -353.84900935988287074 -362.83255327814089242 -358.8130364978170519 -356.24104702318896898 -354.06509964788904199 -355.80796951737710287 -350.3551850255392992 -361.04977769617761396 -367.88548418548953123 -357.84808745482143877 -356.65016868260687488 -368.96374505356561713 -376.03029726892634699 -358.43509340090355408 -361.67955850935726403 -352.87404847812319986 -361.5142130667533138 -362.42807937734102097 -358.54554849140617989 -350.77885626163919142 -358.78666912220955965 -366.62437799337089928 -362.5420424526031411 -361.26682750836317837 -363.96099573254815596 -361.58190679649766253 -352.47775408385393803 -355.33026716386370936 -354.62034473104256449 -360.16703533737376119 -358.7975181661841475 -353.1942705851678852 -359.31178461129564994 -363.26511903610082754 -356.95601072951052402 -355.91080088884666566 -355.51531221156733409 -358.13032541963650601 -366.31717066424778295 -354.89340160609464192 -357.65908860515168044 -354.64992594487779343 -368.08967140366712556 -357.58003717834162671 -360.38953486260271575 -359.80609338709996337 -366.35395311178638167 -343.49282102298434438 -361.9445670269275297 -370.55621493168661118 -355.93066501619870223 -357.32592583289334698 -355.70687333044219258 -359.5904204597358671 -365.58552869626441861 -355.41267943182026556 -356.34291659059618951 -352.52137513746544073 -371.00064617624354923 -365.20888873311224643 -363.22530487697207491 -356.84508703447073685 -367.17073202020498002 -365.88570582123071517 -359.78523986272915636 -358.30270540045847838 -363.07059014525424345 -348.45575188730788341 -351.92615665964984828 -355.95593576641573463 -361.56103191467587976 -358.79475139566534381 -362.05200246595251201 -361.33963755655133809 -360.10692705705264416 -354.33653540363161483 -355.63076314761497088 -366.6068264237276253 -358.12114752102314696 -359.93912302522340951 -357.89560391864279154 -359.00484084804054419 -362.97114954170456258 -361.34803328033081016 -363.56073390401405732 -365.99703794902438858 -354.56132603772533685 -339.54359831574589634 -359.04330376072272202 -362.44704058524598622 -364.14512380366522848 -350.63059176047653409 -366.63287761746482829 -360.6479658809695934 -362.01658933389194317 -359.94136350833542792 -354.75109143927284094 -363.51947621896425744 -355.86098218200038446 -366.73506442325430044 -353.11429154964883992 -365.76744213007464168 -362.13392204715182743 -357.13184751612885748 -357.63456142434222329 -352.75565453711919872 -359.09922726444551699 -352.24474420689062981 -362.90798441217759773 -364.57251658702591612 -357.89525635588171326 -357.15508657684313221 -362.56502478652538457 -357.75602022318787476 -360.15307422660259817 -370.77553518606367788 -362.98178056413701142 -356.48027648543421719 -364.58122564104064622 -371.20910309319037879 -364.64826693892302956 -359.96333529358253145 -360.04148101808891624 -358.31891476982639233 -363.92102330144473399 -359.50256079744610815 -354.95948927196440081 -367.21672147954916454 -355.65194556867777465 -359.50817107574312104 -356.83022584007130718
-51.183862154987352255 -52.699435067985135106 -44.064901233555303861 -48.661513881138404258 -51.163894269423650485 -46.434967221582645891 -41.523614463389947105 -46.830130217421086058 -51.244557169972978272 -44.38703670186725958 -49.402159286115356451 -48.040466222446490008 -45.703202176212329277 -48.774327387133425304 -47.572133378801957804 -43.164260458658041841 -44.462018439686701754 -49.111048093067523723 -45.524949281917464816 -47.43528661545038716 -49.830378062489245394 -44.442214347577291278 -48.720251407627159779 -48.574013733050627195 -50.573167696162784068 -47.386494213044407786 -49.223053109733726274 -53.945896289470354645 -46.374589865401439681 -50.16376388640912154 -47.446995973500619925 -46.178740250592646532 -51.585011256232675692 -47.737995978915854778 -48.638061827628419564 -45.982445772206418155 -46.929027556887753292 -49.381824962924127931 -51.347540135313089138 -49.495768989589308262 -53.003432894620431171 -54.822321092864655157 -37.486304593285929343 -47.081359336949631711 -49.780539131485852522 -48.194517300053071551 -50.038547954738078261 -46.513370004774429844 -51.825147094660692915 -50.93725608771993052 -48.223912601286897939 -52.317584429206476671 -47.532910771710895403 -45.517970011814043119 -48.585895943455227552 -43.901982180201279959 -53.057675655352404931 -48.807309126264499355 -49.219310482203432855 -43.978965084180202894 -52.840584017323713795 -50.66401693669092765 -47.478243928524349826 -53.389765079506105394 -47.840067625967691356 -50.384083211325524587 -45.775248609824046753 -49.444236601151985155 -49.157316181932628751 -48.237128202062606874 -41.739573978134039578 -48.341171925841813106 -48.271702744437206434 -42.571692709964786161 -44.070962279023241592 -45.342519815864157806 -47.268964259231665892 -55.315680622669049171 -48.598918458047208446 -46.38786962413926318 -53.605664765178339337 -49.478096816827118687 -51.459320827673280974 -48.500541209302710399 -43.860673722951652564 -49.285934641477929574 -42.975986685306338586 -51.594459561522782565 -49.178235400046141024 -49.623962795514202639 -49.207621038945617897 -51.495060724716701372 -45.248007547273012108 -48.273460899263014312 -45.76433722921713354 -44.236584140643635976 -44.001920083358562863 -50.84697139127204224 -49.766655786672693296 -53.491240028268656204 -49.818411069373723876 -48.782046726710326823 -52.077219835669787074 -44.217013927000515139 -46.659650349189377039 -45.490173711069381568 -47.413842855044570967 -48.371201702851720938 -47.737970228666483763 -48.389898277399510107 -47.098420821578457662 -46.154489775703815724 -44.615362138275372672 -44.797924917637431008 -47.370108135069145305 -50.254260725583471014 -52.341216902595391502 -48.439684877986842082 -48.478491166562335479 -46.343451510055970743 -54.080866748675902045 -51.739787005762536864 -44.803726121541053828 -57.458689089863000277 -49.582859390282145284 -47.316585740786152314 -46.11592282490935446 -42.717348881021038665 -50.800562744156010808 -49.651281555545764945 -52.194664372141595265 -47.276801922250562882 -50.109927010628439348 -48.321564852516395661 -53.512984604318539539 -49.808962796087776326 -50.163085814589990719 -48.686038026828107661 -51.953895499248567091 -48.236727396573108706 -48.082813250886452749 -54.863110745485720088 -41.562091909943184476 -52.229889492706433884 -45.199786312038327196 -53.895591338065997888 -51.156352108997545258 -48.692043891440377479 -55.563060139110007185 -47.462530128609934366 -51.007682449935344948 -50.395645122360029688 -50.559874791761288293 -56.136827919998985692 -49.095082775157607102 -49.349226365848807063 -50.337686452868432241 -49.134236370621991341 -45.044301408552996691 -51.297304820512643175 -53.198335383813095234 -48.129135288297526074 -51.570302241980044755 -51.506286126125388591 -42.122324648210117459 -47.249412755939850683 -54.684038907528247364 -53.662709812149984145 -49.683977260166095391 -57.572707643813700429 -56.263772055042267084 -49.621007597510143228 -43.940831306810473222 -51.830314216071769806 -48.815873295882077798 -49.775144830715355226 -53.252386337611262945 -51.32381095974738372 -47.784909812765448578 -51.044962742317338211 -45.024374687593407884 -47.013285135894570033 -50.939855948988203238 -43.437772204893640549 -58.408858934237592564 -51.62280094813284137 -49.427324205149730574 -51.876245305576652811 -44.272022384979159426 -47.825033379509882536 -41.314593974836519408 -50.010771711773429615 -46.982667062089362275 -52.983331047928118096 -47.943139538431324809 -50.322561026723619193 -44.163585989348945304 -52.386508406862049014 -46.249686845528998447 -46.562896821990570118 -42.954631898366322673 -49.015739063586636348 -50.251689523386708913 -48.979519786679382776 -50.087077103945333079 -54.283621351473648531 -47.73080190279819135 -49.5404181859397994 -46.071434503923711645 -47.477831996917274182 -49.119233140177328778 -43.479459217722990161 -48.152788136937893171 -47.3612251726381146 -50.387527806615530324 -52.210423850877681673 -48.002184779396984027 -51.734135661711711407 -52.472939619677447354 -45.30037968941908133 -49.347095269401037854 -52.482580957055972704 -45.245629146996002135 -53.570246691535878369 -48.8803348119183525 -44.590961372060654355 -44.899488618375784199 -51.629525889442739128 -47.412440662861385476 -48.681147399851539603 -50.122778942065309593 -44.236200370269706639 -56.551389829833802025 -42.592948055871758584 -46.574567243512980497 -49.793402508202895262 -48.791382708704190918 -51.522117165577938636 -43.195858778736869965 -50.527702472211338147 -54.667796908583540016 -47.498426163045095905 -45.599923246249801423 -52.310813557620193137 -43.87376833431652301 -48.689880328512103347 -48.301005475180922133 -48.432884157171635309 -49.709205188052862923 -49.997784754651711125 -52.065661129448336908 -50.519543018992983718 -50.668044579834301544 -50.411920254208901326 -48.893040958127691908 -46.069461821202189356 -44.909192908809920652 -46.317838572885314363 -49.144561359536702128 -49.84252853753837087 -51.17549005605221879 -52.806631502823321966 -48.693769776321630616 -48.811152500331573378 -47.325006002564322216 -54.632437126421102391 -49.984671660513392055 -51.328154760680270385 -46.844173101310396135 -46.037790051838712202 -42.77108482522464783 -47.71520073034348286 -48.817334769608436318 -52.037632465425488704 -44.748985247724490932 -40.019612365433914647 -43.47742255372413922 -48.046905114080587396 -54.373322818512534127 -49.66719974353403444 -46.903542102481459608 -48.686579911037291879 -51.749063834028177666 -42.497856468384242135 -52.298233652131735028 -52.046488648473946625 -51.09339320023565989 -45.624417753108723161 -46.023690629963681431 -42.796110306548058588 -48.336029713444787603 -44.767785224142379263 -45.785182569657642659 -54.600681308107752443 -51.340312397604826344 -46.586101617106066897 -49.520384793983588168 -45.672069425259095965 -47.538887875520387638 -45.090865341448861159
357.1798316059764602 334.82412439675715632 359.05954571574369538 340.48552590894360037 348.84738923455648774 346.00023810690072423 349.03719285858460353 349.87069994091768876 349.07533346397184459 335.78833450607436362 348.93291749800852131 344.77026596639092304 357.20723625448920302 350.36298081665472637 339.27037434731238363 348.52245573092864106 347.97795373761283599 341.51982789356168269 355.50821570663612192 348.45023759155895959 345.34435510827745475 336.70009254113188035 351.11945332062407488 338.17134166475932489 342.82386365581430709 340.29394783547360248 335.83781653999966466 343.48769970073948343 352.44227326091817076 340.16902457663496762 348.80261904352249758 345.66129564775042127 337.01053193479083347 354.06321531110609158 339.38875880674333985 353.02149996138484767 364.41916322077906898 344.16570178062852392 349.88856393245964682 343.1244818329928421 350.90652398362976783 345.92275602536284396 335.79786773717017923 342.8901569181279001 353.82557027336542887 338.99157764268665005 339.52770750765813546 347.67019604197804483 340.87665001615619076 337.23313506782523064 347.5553956465270744 343.66867994054177871 331.66784829535981771 351.67669515385955492 339.24387658521925459 350.84721976316131986 351.74263730803363615 357.4835921998841286 346.56995718537575613 340.75395856842419562 350.26747905538547911 344.88787321471500036 351.35656849422963433 340.70705003709872472 341.24877237529096874 358.50570577026479668 349.02873192288052451 342.06254623175715324 341.95667508046369676 339.92885724728500918 339.46272826940764844 353.13471562893062128 338.97683753035903464 327.73575156949812026 360.67360118917866885 345.34090189878554611 324.44243518024700279 345.74321568175673747 355.98668121371918005 331.16705428280573642 348.27006512463191257 345.49630150273782192 346.28068237669469909 346.36306791897078483 341.15991995738818332 346.81208237208494438 335.1090446676248007 345.43588120007837006 350.32538822660148981 339.34809306051158728 360.94641374463282091 354.60859317864094464 342.75836707392829794 336.28143491435599799 337.46552784407413128 349.29473098068348236 348.36683393006597953 347.08256769315579504 347.1885263486847748 352.85716034798258534 323.3251573533800638 350.94974321988860311 358.95535038642975678 351.4741927363064633 337.9591243769766038 345.98755265622719435 338.87156441688432551 353.25563639108548841 340.18512166689720289 334.74552617510801156 355.40245683364213392 345.24681594514476046 350.33775961064236526 334.90832750035195886 346.40808198420688768 348.48615532165842978 360.55477588459933713 347.79108424817161449 334.58304481656784901 332.87372711970431283 350.26025015534440854 345.73507967313105382 341.66456941452145202 333.16248141170723329 344.35307839762606363 343.44923036118160553 342.76206890287534179 332.73808604392553434 341.53415286952304086 342.86798677989202133 344.38249128307779756 347.93731103180880382 343.9239266781332276 339.08659310367721673 341.04878493486279467 341.57394440260338797 339.79700849305555721 339.6564709741970205 342.27581923074683345 333.8508345222323328 346.17234496166628333 352.40634305702866413 345.36714558335438596 344.58413107638790507 345.72878276336945191 354.66537178434140287 346.92402317372210518 338.22718865424604928 338.70813628875600898 338.47456991616189725 348.58327863051835038 340.48486429131747855 342.00938526428984687 346.62255725441929144 346.72691217101703387 334.81605872838423466 322.31019741996709627 345.12954884043307402 339.3631862447876415 350.23386008115983259 341.89561224507974657 341.04489904217905405 356.21515744115095004 359.31390774757267081 340.40311112892680967 343.2991647518318814 355.31816808701574928 355.70819611594350818 348.18985014050446125 339.79631712704264146 360.56428571535258243 347.86959855039424383 347.63882167467613726 349.4783939559239343 348.15031880570717249 348.58416630579182538 354.62788765854281792 353.37331459220894203 335.37498113723950155 340.57403550496479738 339.9773233774233745 344.136203339185613 340.53345209955858763 337.55284871611979725 338.95418652598772269 348.70004225995006664 349.22612926166618763 328.49118444776360093 346.99828940716292891 342.48369793520612347 342.80450538296315699 351.14816122109647267 334.77065103838407367 345.32335479158052749 343.33171086513095815 336.23035205146550197 358.03974811989507998 343.87444525405629747 351.77435001888295574 357.49524702929278419 368.7424985337634098 353.52879518528857261 339.67160950312813839 350.00437679196892304 341.38458910744617469 355.70461767945840847 355.77366934768082274 349.11176459070384226 335.1114570093382099 350.6507926906516559 341.04208737485220126 349.44638719661878667 355.22496699375670914 343.84422908357851156 347.2858738855888987 338.60412410022144059 340.21716948770927047 349.06325153551961193 336.89369808670693374 356.85172680824587133 353.0390043669230522 345.79738499938702034 344.57316294393098133 350.60978392064481568 353.96723943038381321 346.21293550797446414 338.02984036459639583 354.76959517900996843 341.37574684045080176 334.19577859801984232 353.84796303392255368 354.27977093184455271 348.52883227284917211 356.81077952339416015 345.94546033183348754 339.6516040354383108 350.41758774699752621 335.20492210736671268 335.61745867927800191 349.73699036151731434 342.89099169198573236 339.56534043128107214 338.93595526585181688 333.36713663290885279 347.54634965315432282 344.27837467572317109 333.92953958941438941 351.11900367820328484 348.74067602028674173 356.92427280249125943 338.96731655643873182 347.98636518287861463 347.12948240712495362 327.91629802724224874 339.69849628885941684 335.93389520527728109 328.25629766361237216 334.15156238339022821 348.06167406984343415 364.07231653570966046 353.89227366991673307 360.99935169237664923 340.38815092397692297 358.26310082229571208 344.04519882973011136 345.99784441940829538 334.81435033909099275 351.39631671479105535 348.30817897600678634 354.41974071356503373 339.98985324320193513 348.85793040639038054 348.28072385599989502 333.68668448321824371 353.42377812802379822 342.55411453670171795 350.02964873164182791 340.01057772638387178 343.51050298666308436 346.57881249669833323 351.14518397086698087 351.47737223164222087 332.79853148248673733 347.21858654888916362 337.92804419630698476 339.23392107113738803 351.26869491011768787 345.58394533251515668 346.81073948533611429 336.42440473388114697 345.96637411548761065 340.71180953316115847 347.4029833354941843 334.5163428174580531 338.87029874156189635 348.8755953776720844 356.4454401907350416 354.71534069815993462 343.66902406791683688 341.4383915263526319
-406.66869389094648568 -418.23877396868329015 -410.2764591745793723 -412.64869400053777326 -417.1319990993630995 -409.09605083143662796 -409.65576200094915293 -405.42818744038265777 -405.1846509899592661 -411.02739170949166692 -401.42919955997751913 -414.72590268627965315 -407.76039462076136033 -412.96949343067603877 -419.78880861083274567 -414.23833519586196417 -403.77138456976354064 -410.12380465346348046 -412.22174026826763793 -415.99168843016860819 -406.85496755470370545 -420.5403185238566266 -410.18401484693362136 -401.11591723356923467 -418.6209384338371251 -411.5581223343655779 -414.58392185789057294 -419.42740500538354809 -406.27436716145786022 -416.40000316376631417 -407.09271866140198881 -408.35189081732323757 -406.71246393397530028 -408.00089740995503007 -405.49782675301628387 -423.39769858846801753 -421.35079853423104623 -413.92698481458467086 -413.15396990524834564 -405.25310547471337941 -417.14811300510820047 -404.87052933044986958 -411.83881821521686106 -409.62723757920684875 -412.22850738011476324 -417.25659939963685474 -400.46361643713640888 -417.15605766439853141 -407.63791857618696213 -400.22026722647444785 -409.87354572546598774 -410.64978567005340437 -405.71056497310127043 -410.52071278527427012 -413.74440923784499091 -405.50675569128384268 -408.6907427608205694 -397.7912732485573315 -410.63107433701736682 -415.46934030414371364 -413.34335190029344176 -405.73865990413975169 -399.92168102886347469 -411.64858849812651442 -417.22925599001149521 -413.42386422740457874 -406.16199037373041847 -409.34020219030037424 -412.914915783276399 -402.37791705782518648 -407.22407487587042851 -412.03044815323613648 -412.47544977175783742 -407.78037121514319097 -412.81275591215484155 -416.89314100434853572 -406.39923823990818619 -415.22806998316116278 -419.488391265008147 -421.94434729491234748 -398.01670113531520201 -411.0533762926639838 -408.61152456612370543 -409.29619040002677366 -407.23053713588546998 -407.58449136837231208 -408.02039664299928745 -406.94269958701346468 -410.93480930919605498 -414.00057165505796775 -418.21910496582472661 -398.3412890134694635 -409.39983660770855067 -398.72310632855186441 -417.13551461501754147 -416.34525234003723426 -409.36791814751245511 -411.25288538434375596 -405.16357699631117839 -410.62079439740995213 -401.66958535195726654 -408.22462642797984245 -400.95552896292269907 -400.08550676732755846 -418.31452515756262756 -415.81525887476198022 -413.13030402629908622 -410.4686045576510196 -410.76936344996346406 -418.17790685837780984 -409.8046547903696819 -415.91434611023510115 -411.50220934601236422 -422.40448023877638661 -417.05101241448056726 -407.98736090961898526 -412.85072124572025132 -408.40495236354968256 -403.26920620405905993 -418.06313115073652398 -410.17892191350284747 -412.08719863094995617 -403.67723656991466896 -419.75274342038562736 -405.62174112345968524 -425.98549881379108228 -413.76498951406824744 -405.79754669929502597 -416.13338437558803662 -417.03169131700241223 -411.68739741761976347 -410.54923046572412204 -408.43175854752445275 -409.21664917582529597 -413.24896225323709587 -409.08208360978949258 -409.82646157702197343 -411.34791111314189038 -404.52229242941041321 -410.97044477817036068 -406.67493662086195627 -418.97277541031400006 -404.47662742172605022 -414.03139213564253396 -409.04018327931350996 -415.21680644059438237 -413.93488345111632043 -417.39629703798777882 -413.30106175438606897 -417.26287511041397238 -409.09370582440647013 -408.54287382950315077 -413.71080359701653606 -412.62909800810308525 -394.91561300445204097 -417.76741475124686076 -406.29536625601605238 -414.01096466929425333 -414.53093579485670261 -406.30944260091467868 -411.49086027779770802 -404.54226386118904202 -408.22781091376162976 -407.21972385795669425 -414.7565626316544467 -411.84763173212650145 -412.8880899330145553 -409.13332259738871244 -411.13736406547951674 -409.66955444730331237 -410.20863703194874006 -412.66364246713840203 -418.28914778819239473 -416.77156727001801073 -409.19296888154082126 -417.84493400641002836 -405.27969079452157075 -402.79039464066988785 -413.9828116247852563 -407.39832588548784997 -407.63232816042540207 -400.35541354092930533 -427.18441730746650364 -402.05834334267359509 -406.78942589850544209 -402.57640641382135982 -419.4758058155413778 -407.79299135924100028 -404.37052770311385075 -409.3840887476807211 -411.96258406568449573 -411.96901612012669602 -404.30655732912259737 -415.48279552331808873 -404.28946633642544839 -402.0488683676707069 -410.43731638570523046 -416.1142820310398065 -410.95623425175767807 -406.33000113747448268 -411.86805655353174416 -406.20636867202762232 -403.68500594692352479 -403.79849005422880737 -407.69407184554984269 -420.176093161609856 -411.7357576132496888 -410.89968160280653819 -409.35245410443906167 -412.82290606406354527 -422.35321145297893963 -410.30167585795027207 -406.43832192810936021 -413.08678553538015876 -421.28594581834357768 -419.95396278955695379 -415.87499399239561626 -408.48936630725842178 -397.54741962025337898 -407.55161027967659493 -421.00186952253386607 -415.11046516211916924 -419.41625650412299819 -415.19240603148642776 -412.55326599762162232 -410.14177794253544107 -418.07748510050259938 -403.30571151241048256 -416.50067383558973688 -423.41303938958157005 -418.92856405411220067 -407.86567313724725636 -412.85847731659640658 -416.49801027794575248 -413.17220180439858268 -402.43531891793219302 -402.48061846844251477 -422.10284659743905422 -419.44318086085297637 -411.13534747959226934 -403.85726792267985275 -392.96027352562128954 -411.9416845320831726 -405.10657045876769189 -402.76824257289933939 -412.90309637014343025 -406.00286701862393102 -413.41254408680242705 -403.87159532610439783 -413.68449301504676896 -407.64804048843842565 -409.05833347840751912 -410.76012213477514479 -409.16348388604262709 -401.8572740288985301 -409.96153852793275973 -416.02657118059556751 -423.6875507459498067 -422.33709526660595657 -408.8595749255574674 -415.3497595544674823 -411.42173584678346288 -404.93504274062934201 -416.16788598513835495 -407.42296039790744544 -415.92518281456841578 -404.8244248036618842 -405.94792470581899124 -400.11419435435254854 -408.22670438412791327 -425.33277390961825404 -409.13491167485034339 -415.92771816324381007 -411.10259282185290886 -403.25183848518389595 -409.64699073832264276 -400.27102014313555856 -405.19394935174500461 -404.89639924051095932 -414.47405098611824315 -401.06939949057164085 -413.02158436002866893 -414.13259320434997335 -419.52422443837031096 -406.59535212134579751 -405.59410797123626935 -414.71038198948605213 -419.71719347888085849 -412.97660499477348139 -409.69222229830899096 -419.38483986337331544 -412.40092707976452857 -404.09663812324100718 -410.45528112745085991 -412.29374293692393394 -413.64894060206773929 -412.75408291025229346 -414.15780014813259413 -405.44030526819432225 -401.62793843430102925
-21.725748206124833928 -26.52878718061658958 -33.142063353812396542 -27.376708673665792304 -32.929538856374115596 -30.164952512584431332 -25.639481178190578703 -31.044821811584014881 -25.130531449159342117 -30.334134577085492879 -30.054262920590606001 -32.85590500602715025 -32.799888437403950547 -24.381263297168295878 -30.64220397113519212 -37.901939450240135443 -25.127597551158089573 -30.4434683365647345 -23.184716807251106729 -31.225545037630343614 -27.012287103335069105 -28.163237118094997413 -25.547056829655375054 -27.890271603150363688 -34.901790300168997305 -35.68686198097674378 -24.000464950686058785 -26.957738049183795681 -32.606457305328746088 -28.461010034938414748 -42.27564811078799778 -25.434616201626717213 -31.513816681808069831 -34.571689379602375425 -28.366440941429324596 -28.752221563063795173 -32.006534087874136674 -24.991749052981901968 -30.800293838886112496 -25.32227491227572358 -26.760877319402393226 -31.201239775638626384 -35.128622256330366724 -29.039542760574420299 -22.727465578000696667 -31.305370970039824385 -35.5131339097474239 -33.120093659099666183 -34.358544430863013019 -31.914610385310382412 -37.408827661140655607 -25.33115389899614911 -35.45854430169899274 -37.810896465575794423 -33.503075077431816453 -28.793942928154898198 -31.687163257460877475 -34.060424924456803808 -27.505874201892151376 -29.244415220165372205 -33.075663741178153998 -27.885105247745237023 -31.476692292909746129 -28.454342335144911402 -29.610320904680165199 -28.99443739766928374 -28.410421802256408341 -25.28081524346121256 -34.785817234557264044 -26.466158373826857542 -27.015607108151531435 -26.245214596759861791 -32.525385942036322717 -30.02168153059523803 -25.421626582140206096 -24.699445933368231465 -24.512436275726873447 -32.098419740507097231 -28.174615041079697164 -26.644045795242199404 -31.877887430388692991 -29.645644599734019664 -34.123053648299659812 -24.317076043001005559 -25.962073681466833364 -30.1609229577216027 -27.391415360883932806 -25.141028793193036961 -25.66960071985294789 -31.803119325887074353 -32.626354178782783322 -28.69759775380964939 -25.556509146495685059 -31.217483920631092786 -29.60800191670552195 -28.650208997992145044 -28.49552075006818086 -32.595686252627501744 -33.31353168744527693 -30.655461329499509304 -28.501971396422700167 -32.880552163517151598 -36.996467080311155939 -26.001861767448417595 -31.604174119823134959 -31.275274113013207256 -25.945497451636875041 -33.000719547087548733 -31.529896265434466329 -35.03296406354998993 -36.075851187691199584 -26.551250339626516705 -29.420747425263186869 -35.545670679311228923 -29.635743202927368856 -35.718332670114683935 -29.351689747712018885 -24.617799684677216021 -28.534251686995069974 -32.283604541992431791 -32.160539164877349094 -23.827723092338406019 -38.818244709023623784 -21.807407866537907637 -25.6430682809048065 -30.622370893530053593 -27.306833333877726488 -36.057576877783205305 -25.832271042689278318 -33.863715823657813075 -33.381593528761399625 -28.034746295652798409 -28.876493009772403298 -32.572848498662409611 -26.878773487270539277 -27.099302771067328877 -29.017400238700464143 -30.428102254436801388 -31.796912758600807791 -29.657425680474787555 -28.589870845202657534 -34.236051314854613281 -24.784630652408786489 -29.308374936821206092 -34.47748500735209376 -23.539756998559610679 -32.260649235632250509 -34.175540281713992385 -25.539461759823083753 -29.984913805074047133 -32.086097503399770403 -33.964899481889091248 -32.359648126840987459 -23.017301539290524914 -37.161588016250014732 -26.29919692055524294 -34.679886323044868845 -24.59611836757709824 -24.802879614975584133 -38.879893396328981225 -28.434060868016196366 -29.4632130018798577 -29.002048081264089063 -31.443089298955275268 -30.251035659746399631 -30.058902418597803319 -30.635277062050310093 -30.22972848889676456 -27.515881199176504879 -28.280518483769160554 -35.561514585595247695 -25.717001514218221558 -34.186508617284765421 -38.501192013486658539 -29.764321221216555102 -28.533553889652878865 -32.109772310170257015 -27.276929852499623763 -27.16173934835156345 -26.106768586516629682 -24.409919810810116303 -30.051337476522203218 -30.157961996106962488 -29.692374918600613398 -24.841670209784911805 -28.371518071980183606 -29.912673668050729248 -32.23515397647232561 -26.571556486887633497 -37.948420856280350222 -39.72341001292706153 -24.846655903141524391 -31.685150611169031976 -29.214941734858726363 -27.135547744004327342 -22.690077955324333914 -33.160364378524697315 -31.215970379077148777 -28.897406311042988847 -25.068139654900832625 -25.74411831034637288 -26.656400609697541881 -32.107773876689051917 -34.127977747422953314 -27.147377583800363254 -27.494639212963136288 -30.522491348092028574 -28.083044892000497583 -32.29121388714090557 -26.467366536090665363 -28.396199557824271409 -32.564222817962374279 -27.088966675228817849 -21.431234850195750141 -31.609465395529682041 -35.063210211369955971 -39.230608364116328346 -38.436456881829521137 -29.695580683038837577 -22.883838671602347858 -23.214593362819208267 -28.694223351271254785 -33.190001172520261719 -30.708890430080451495 -31.671131173023578498 -30.76547065286382221 -31.720909453296005864 -29.776532154351635029 -26.800206431108005489 -30.887889966278841314 -32.655022841452073123 -31.134402745858480444 -28.197586715959896964 -28.09953077708631497 -31.492437983557579173 -32.456640860999556253 -30.355962671847603218 -32.784871675477134545 -30.822351460548681246 -32.675908468033966869 -28.293089281946098623 -29.084338696859354911 -24.021121662532671337 -36.336490755525687746 -32.16143927292715432 -25.687830468394146521 -33.548146741392102399 -26.116542007821657023 -31.207704431771009723 -32.381165822401406729 -30.511952198156762961 -33.352035280161643982 -30.193789129898611634 -37.28941246467853432 -24.787408643896796434 -32.901023398322209346 -25.047180249717868605 -30.699538986310955124 -30.594291690248258675 -32.88894216172409557 -32.878807341864416003 -31.063869225091160331 -27.720224603888272696 -27.863434130654628262 -28.260478473190154602 -24.342168628969957922 -23.620063058282340762 -31.70697901773825933 -23.943710398250743765 -32.2836923567247851 -39.842303117619657371 -24.097950823432324086 -23.643019358573830857 -34.448104398242350044 -27.004759792593922896 -32.262145872914814504 -26.787215254917612128 -32.676132569017518392 -25.440827995498285219 -35.368553931753623942 -32.251929086759332677 -31.987224614469901951 -32.06716320743014137 -26.964269632066347526 -31.294754337100975761 -30.498206284861502979 -29.291580189358036534 -31.037237242375859125 -33.887009715488844108 -31.881049354002481522 -24.239570158584815118 -36.274764303846872338 -29.005956868714410035 -27.461884777363792409 -37.46169539270822213 -28.367819851075545046 -30.560430155774469085 -27.095381536048499527 -29.328447438868181507 -31.053495587966839508