53.838671306540206274 61.010459674480102876 57.778411910233344884 64.745785665180221713 70.624711112531471713 54.572890272695694591 59.888287968983526355 63.035742901899290302 64.381020011292207528 49.422580697126591076 60.535681746363515288 58.285196210719639964 54.481299040501532716 59.511172804852783713 56.67651795277686233 53.722226468325914084 58.323474503615507558 52.182651247557600982 59.844094489407574144 58.536251634378189124 64.713518052592206686 54.355297230038722489 65.894937563460132424 53.204181887421377439 58.744257287645297083 59.187490004346855699 63.462538100052590551 64.611939378711127802 54.554100189276304889 61.506845344220906213 49.171330339641940554 60.934738649350563833 48.966328869898575249 59.422504012409454788 55.446667056433874166 62.539723428591024401 57.745259822811092931 67.224065524024211982 61.452019805351667969 60.707400039146520498 55.290929899667645486 58.890515186461151131 61.750755078850396274 53.069631701074719388 56.965639333757664531 59.236197970851101502 48.458825634638287738 53.094367840676092385 63.785860111342785217 61.168244816804417496 58.035034852198734256 62.996894309962698344 61.918121834860947672 53.977667964323970295 54.972486349082103629 47.103114272945219909 57.880432472418689827 61.931846288127502476 58.257988424443617248 56.972311824472711805 60.042159622751590575 59.075034919514088472 46.198632293389863435 63.085342245242379988 46.338103959810574395 55.854741049129934538 65.106468000764323278 62.746881415424240913 59.700835665207620195 60.344206661868270203 58.881294372381276503 54.476147059115938021 59.885127695425367733 63.025028572504837143 49.526405750490241076 68.513737948319459292 66.859163347342601469 51.411201757789875444 61.182519821119370818 62.718099789464631044 60.231978761335035699 52.837871478602195907 56.259140862099009439 59.203939416228422488 52.736543329042376627 58.394130450940053834 49.917229058592361923 65.113041442018072757 57.450157119544286388 63.135604228860934484 63.341776203741197548 57.772671979742206361 69.155598919543862735 57.824347613123265432 54.360802848979147939 73.977683375420255629 46.391897621519980532 53.04255322370359238 57.895504313272581953 48.257173335868060349 49.895693223588281739 53.185056482671193123 49.387024853544673419 58.852720264502750069 59.230461778317241794 56.435102781050154874 60.091960140465964457 55.779406350660856617 57.748833836668993058 57.23192087870175726 66.217100107850512813 41.81450168725851313 62.219746616274143491 49.615855647982499477 53.143363751279217411 64.66264871760107269 65.165318187383547865 60.981614472775930835 56.207229869682734602 57.010229045999111008 51.07335925643944563 63.06988923080797349 59.703577890070725687 65.656963608718569958 58.371572259502777058 47.075175337775803541 61.953072663806203479 56.524923689978905372 61.614152361318048179 50.577805111432937224 53.93365180583371199 57.186192871179095221 66.873147773944822347 62.161070900223876379 60.418925812773480288 58.062466254926206943 50.629402109257782172 58.289192826104816447 55.224035127094701636 56.258855911020290819 60.513833232147902663 50.997317589615605016 53.809104411989210348 55.966071143066074001 53.746092464080902573 57.485242670106799778 46.933624023832479111 59.937026353387587108 53.757983389975066757 59.8617983510359295 59.37031690795642902 66.12046878176978737 55.00970404543162573 61.15584263043225377 55.07291612700524297 48.896413947044798931 67.453014481687432635 48.034346316334477933 55.096988544284904776 68.481704717574459096 64.670417701886890427 62.096333930208956531 51.194175982182187568 57.158577095930205303 52.931407065295559278 65.743886366299733481 59.59859006048134944 58.552155767105901418 57.45992174760782234 59.976712415666625589 57.908897619074330976 63.526736211357189177 61.209230951426931711 65.900345399833156534 66.57135803217420289 61.38579664064651098 53.721906443269908493 54.714076133039441174 52.621300351369754367 51.997882304434320133 51.31198190683242899 55.500620758604554794 61.239624079274186386 55.016413745411270497 54.015286772788826397 60.714054555574541894 53.516435284213308421 51.438490092190704672 63.783941745430702497 53.947227294131110398 58.320882132795553332 57.526243588156148689 68.306108761163130794 53.736974202975012815 54.041723627813176734 55.503575837055286968 47.684831511793944969 55.054427473910415358 58.917285636618643707 61.750989562295700352 54.375737034067171294 58.203085384688073134 65.481365115972977264 59.014353841229116426 57.219959540883344573 71.199861281316700001 51.44469993821337539 54.62505463078909429 55.286717193698599715 69.350621512932377755 60.795076025787025742 49.767215571043024624 66.054416702783697701 57.783883174133606531 64.207593236908834911 52.870574569577108548 53.461711980498101582 59.231713849203586619 62.785838338836676087 49.49776222099660572 55.309918414467205139 66.572936245436693525 55.396843498504971137 56.650035058149612155 65.397920529747153751 64.807102392535725244 57.420661177701688871 60.726329189067243419 61.39945350550466685 58.519451408034584006 63.984643582962782205 60.726048726111848453 54.862779467379233722 56.375959508315077073 58.73151880270052061 64.185253841715834255 54.817646464877917367 52.515870086580100917 49.78766395238948661 60.322274820614957491 60.977037209925590844 49.049464389029751032 64.677839027319791398 62.070531784719783275 60.765764209169702781 53.230819320804926065 53.245143135084276764 57.800864577887779205 55.513726967674173807 57.096351013010462339 59.545383012828906999 60.681579852301695155 58.660448208901541989 51.11473670002087033 67.554351787844240107 61.165054762553978662 66.925992668074343328 60.184916955006492856 66.499197767466569076 57.21097874247038817 62.174439325402609313 57.729450434417302063 56.43451407475419046 57.615610361581232723 50.693037049807855965 59.942554973629519566 60.130183921430784721 53.383518475260721914 61.0295054577003242 56.747139546805946964 57.871657100494047654 56.167140619315816252 62.164870454844297853 62.974593852526723481 57.607407713066841382 62.855877159682030708 67.630029866663051052 52.518969829739859279 64.265543688841404446 54.874839277621418887 64.859566220811018411 58.147077643296391614 52.087799427588429069 62.23714400098731403 52.327856220126875542 63.108187079753868431 63.441409505444795514 55.521753010070277412 61.430024658531138471 53.479525877755307306 52.126609170101822599 56.66487288045391324 63.955780660285000749 65.12805803060746257 58.37900259690098892 57.313739674544521563 57.086557471516599094 66.351861107525238026 62.746500588350151872 57.915523185135150186 63.125381227506657922 47.891543202233982868 55.228121591505484389 62.369016085952424078 56.721461486435281074 57.814172108513623982 61.557145702977557278 55.05075976497968071 51.450427355295687448 59.145409784074857384 55.253881927461577561 55.73346694936611101 53.924125406493125467 62.959297944068943309 57.852834269288635483 65.27834663296478368 63.943961729944973627 64.258206757818683741 60.64044468005288735 50.391698701330135179 67.181544789218719416 62.904222022614604271 48.245704601462080063 53.357472096324109145 62.911083011681192545 63.317780561981955145 56.472775050789870477 56.16142905471076574 67.582724766823744744 65.04118265839565538 55.128000565099050334 56.148879122732608948 64.259882800919783108 52.602307977120368321 55.58975481474494984 59.016610988571962082 61.398819771350233054 61.783681369008363049 59.169183689223402212 51.304781845032209731 64.917679091046124995 60.876365343091627835 53.117192828068397148 59.497049852323208086 53.559137872098233402 55.1195452912098105 54.564826229634867616 58.869663697591199991 52.181054353759570574 52.473533181807702874 61.804063045537681376 58.521644081974315554 62.171021801666391582 58.654850003880973475 64.569833810532472285 55.822375606664792258 66.525322056568796825 74.169563766775127078 56.038739174169883484 63.514849862330450492 50.848952272395223417 54.849543668545422292 58.711004280685926915 66.774284544487983339 52.164986947742356449 64.529786169677919361 44.868662302326633551 64.678127693788994179 54.415299946340283554 63.574969185824514284 57.991937929025162646 55.898348080597024534 56.882696407773160274 56.98983636187579549 63.834930631953277214
-1839.8958791875393217 -1824.2078906886392815 -1854.6684507188854241 -1830.6286820777734192 -1855.799033907287594 -1833.905546853165788 -1839.8795331414085013 -1839.7432596195608312 -1816.5925754331469761 -1829.8124884911453591 -1823.0919464913520187 -1839.6403377915787587 -1846.9894766436038935 -1826.2202935085276749 -1839.997256385721812 -1854.7998265000708216 -1814.7772531740638442 -1854.284786437281582 -1833.6494486112296727 -1832.7425247200615104 -1822.9639068286167003 -1845.8835140013106866 -1840.9109845574805604 -1850.9721428981613371 -1842.2218674386992916 -1812.2844094568970377 -1833.1842524470289391 -1838.2141010581913179 -1845.752001955863534 -1832.1733083545466343 -1851.5944441997221475 -1850.0533405006933663 -1847.1179699072872609 -1841.4136098963549557 -1835.5877462823241331 -1844.4084068869728981 -1853.1788043792560075 -1842.6097994017491146 -1819.7923796349193708 -1836.8574935417607321 -1830.5782398567737346 -1842.9334934715502641 -1849.1601418601542264 -1836.4923779042674141 -1816.8620133046006231 -1842.7011923438428767 -1829.2564070445171183 -1845.3615913857988744 -1842.1661985546327287 -1839.2428047730174967 -1857.4037744027712051 -1829.985605616185012 -1841.5333988156482974 -1864.4936501293100264 -1844.2553880441651017 -1838.9929462673658236 -1837.9543797325270589 -1827.2800025554142849 -1810.4562868393002191 -1827.2549120834473797 -1861.6080191481885322 -1848.8048354868046772 -1844.0438596488813801 -1842.3914040469908286 -1850.0193300554942653 -1833.8707337380801619 -1869.3430938225683349 -1833.8221437640625027 -1830.4116492630248558 -1848.1827403065656199 -1843.9202095964647015 -1829.4884371773307521 -1840.6642358250799134 -1863.6870224810793388 -1811.2200143151612792 -1836.1025367644954258 -1840.25097823985584 -1810.3535882076075723 -1836.763438919648479 -1833.1058091030363357 -1840.2092899556389511 -1851.5708641746600733 -1848.6309719772932567 -1827.8165864314200917 -1842.9483469085125762 -1849.6941735144334871 -1844.3621476749522117 -1830.0060945938555506 -1818.8902652529848183 -1854.4351733268895259 -1832.1391112322651225 -1840.7582606466228299 -1841.3795034056402073 -1851.1289535862101729 -1851.8366492436491626 -1848.4421922828908009 -1825.7193932773263896 -1847.1492414513893436 -1837.8918764969823769 -1846.7986071786015145 -1837.8193704296124906 -1837.7029182665808094 -1814.9104669093014763 -1833.3198629747694213 -1850.3161561054221238 -1840.6617194884354376 -1848.195455450465488 -1845.4988151561988161 -1831.3302042670022729 -1848.0813694700525502 -1835.2290528413407174 -1846.3225999262663208 -1854.9745344629741339 -1845.1585134586641743 -1823.2174444522329395 -1853.2734412011288896 -1841.8582457587410772 -1834.1180505893498776 -1851.1644120635157833 -1827.6211828888865512 -1844.8743969315028153 -1852.8745798882180225 -1836.8925698940579423 -1848.005305463982495 -1860.1432604609312875 -1835.4241186457641106 -1841.6697970315026396 -1832.7186731315775887 -1856.8050570929572132 -1840.937539333181121 -1829.3227538693556653 -1807.8363028249602849 -1832.8907285334039443 -1830.2480584697643735 -1825.5161316658045507 -1834.1053094884032362 -1843.7376011026685774 -1850.9645123393634094 -1840.0099570371123718 -1855.7990398856074989 -1824.3712318805005452 -1826.5543129226418841 -1811.8779341630690851 -1844.7531630849243811 -1843.2461588813189337 -1817.4867464580058822 -1816.0401630173473677 -1818.1766717005689316 -1854.8632542567677319 -1821.9551735125660343 -1819.7471444795844491 -1829.0634655926837695 -1831.9770885283342068 -1826.9171251887541985 -1847.3956438853394957 -1845.3617511107479459 -1831.617540737154286 -1831.8095415337134 -1827.1411010002248076 -1818.2895122148324845 -1863.5460297783577062 -1826.1229850499091754 -1821.7277570751032272 -1825.7840893926822901 -1858.7966646921809115 -1820.3536223615267318 -1830.3128913682626262 -1830.682919263156009 -1852.1356177301913704 -1829.6294136477779375 -1822.7717530429974886 -1845.3719488747547075 -1844.0541600147057579 -1845.7677787032896504 -1844.245908932454995 -1842.6467993702740387 -1868.9268418700598886 -1829.2137035196235502 -1825.9629851959557527 -1821.6688888207515902 -1852.2297775722274764 -1838.6514461770786966 -1854.368888780932366 -1827.6119804686488806 -1833.0550311568522375 -1820.1645096553488656 -1821.6537333602609579 -1838.8045124700793167 -1851.6375135008051984 -1832.2719480125194877 -1835.3100420899288565 -1826.6165484855496288 -1830.9274567618317633 -1827.9643201720875823 -1835.9753275567084074 -1841.9720123791976221 -1861.0637478550750075 -1856.2318326694080497 -1831.361929640786002 -1832.7765858193708937 -1837.4350910816735905 -1867.0059902129776219 -1862.8762709066370462 -1848.543865538473483 -1856.3297448790442559 -1823.4351240112516734 -1831.3485870616775628 -1832.327063805573971 -1835.279980452236714 -1847.3457599454752653 -1836.5749761719537219 -1825.3736185182378904 -1827.0232761013780873 -1828.4665782236854739 -1837.2363662972247766 -1829.5562456422503601 -1835.9086534956079504 -1864.6882507198795338 -1826.6218355843441259 -1824.0746847568236717 -1837.9484533874533554 -1823.9633267548094864 -1846.8850796511574117 -1856.6351642788815752 -1823.0391423907967692 -1830.5492763704735353 -1832.5002855778225239 -1837.4533762970040698 -1812.9037549069278157 -1825.6532655692728895 -1832.9283943585132874 -1816.1314741175679046 -1850.9695276279649079 -1862.1601325637632272 -1845.6868221740428453 -1842.317265440308347 -1828.1097585031629933 -1823.6394010387357412 -1828.5062899755680519 -1831.3581928689281995 -1823.109579065164553 -1818.0089135701009582 -1796.0649884720724003 -1834.5247431318632607 -1843.1303606714379839 -1834.5694734425019305 -1855.6898497427739585 -1862.1310776153241022 -1842.4673553025277215 -1851.5530251479583512 -1849.4098957244434587 -1864.2889006927366609 -1832.0021467743974881 -1819.6438588651712962 -1875.9049061061671182 -1837.4234742872995412 -1837.5416399645489491 -1818.6161520440346067 -1825.4226185500585871 -1807.398249702792782 -1866.0479472065121627 -1833.2872559646659738 -1832.4435730833845355 -1843.7450936824409382 -1838.4515267264755494 -1834.8727709824672729 -1859.1615448529437344 -1847.5877459144596742 -1849.5899696173776192 -1840.0932912063485674 -1840.1627712674728627 -1845.916895097970837 -1807.4557671909642522 -1842.1024393325424171 -1831.0733575899876087 -1860.2706359565131606 -1811.3514148069946259 -1851.7986419408427992 -1821.9846766714758814 -1825.5343089817104101 -1845.3511358988184838 -1824.3069866997868758 -1836.297521321956765 -1854.1323499601983258 -1834.3716074288824984 -1863.5417537296227692 -1851.5667522096464381 -1836.3495756500956304 -1820.3041250215947002 -1821.5052733055331373 -1819.819069845292006 -1818.0079293936287286 -1835.0673432491059884 -1862.8534590863619087 -1843.3848544664654128 -1830.505014249648184 -1813.6639293617574822 -1843.6107602234274054 -1813.8517294938924351 -1844.5360668391033414 -1837.3817694937924898 -1850.4022404678623843 -1850.3383470836031393 -1835.4224538537432636 -1847.8286734789758157 -1841.7517517761584713 -1841.6878364906528986 -1830.9285631905322589 -1828.854707285350969 -1839.3041592428060085 -1827.2146224670807442 -1843.4525550743626354 -1847.5367283089124157 -1809.1022782274374094 -1845.9753916696979559 -1827.3813172267441587 -1828.2536676558997897 -1846.7885501698985991 -1837.2039205033247526 -1824.290777673907769 -1807.3181758157304557 -1827.0487400021593203 -1819.0883343435491497 -1846.6854333564670014 -1832.1710448896142225 -1860.3941595897379102 -1842.7577631540571019 -1827.486044671510399 -1818.7750704713141658 -1846.5524906007508434 -1827.5430297757945937 -1818.747388424172641 -1821.3175580465008352 -1834.6751745406459122 -1812.0962631473732927 -1832.0238421695403304 -1823.1322516886009453 -1829.7512400370869727 -1825.9128317826473449 -1832.8483625092278544 -1850.2433368398501443 -1832.3436112793938264 -1822.0618931732694818 -1867.3496578702311126 -1855.9531139267692197 -1851.8551426594326585 -1846.843640116076358 -1836.7366884349489737 -1850.6967141638838257 -1820.6930038328366663 -1836.9088971760186269 -1844.2664276946202335 -1836.4748423951527911 -1849.728968498724953 -1842.0285971692783278 -1809.5719284832416633 -1845.2995380316710907 -1837.6114459653726954 -1846.2164319309051734 -1831.1748235114382624 -1834.662377273052698 -1836.2799680062405514 -1813.1875257095568941 -1842.0747070720499323 -1847.2778529632698792 -1809.1202417164827239 -1833.9418626195829347 -1829.1115234976264219 -1826.7808547352624373 -1879.6039547129705625 -1855.4672060315056115 -1828.1714281887745983 -1818.6003428388444263 -1853.0303568593853925 -1845.4072004106337772
466.39177102076467918 453.88171154644930994 451.01572445025271918 468.3015538925326382 458.99481654969497413 462.63045355866239561 460.72553921084755757 451.48588116670185855 467.27398473741982343 462.36346491460579955 461.92443559173426593 462.067397920572148 456.32235361910284155 454.27249207931527053 461.46932998506389367 449.67200316751308264 470.32161060026714949 459.51025419852265941 459.20352853042857078 455.06465514361229907 471.65456978398225374 451.34435173734351565 464.68537160161457678 470.44495332187261738 454.03781076783599246 449.01713712528817268 464.07066683460959666 468.78523245179309242 462.06829667185871813 457.08944113491520511 451.48777180113097529 451.53756397596026773 454.24402759281690578 455.74367376885186331 469.57187995471690556 452.62104763598222235 461.85340466235425083 454.23206740906317691 462.25788347879529283 452.643444284785744 452.67603397893407191 460.22502815189500325 452.38539254539546164 461.31651821631697885 463.47460287541292701 465.23283048996933076 463.4536962079495197 461.9467572066157004 464.00860054083341311 463.81192316447157964 453.5954916463104496 467.14690696799880243 466.30444528090390577 467.35497014654515624 460.08244848293679752 454.8299699996341019 466.31604626157388793 453.2631386835494709 460.84327350700567649 454.37610788576438381 477.37732354779717525 457.77807973499517402 458.81962949987689626 452.71218280684104229 455.08049408194369789 465.36659878533896517 466.57365215402705871 450.50481850017490615 468.67672328126769798 459.87400155116574751 463.9640147505550658 467.84292867455195619 457.47888723533293387 470.41008004133936993 461.03307698584899299 464.66858844080047675 461.87818659145972333 468.25619561931284807 455.71485818873355811 454.79351897957883466 458.86139656839770851 460.5367559422161321 454.80620725569337992 463.74388979214865003 461.59103460039608535 467.82527469194377545 442.22931859891326667 460.25247709291659248 469.39550843026745497 472.39540149272721692 463.86669530725913546 462.4073518905365745 461.71140663341122945 464.44284494868401225 474.77983667785531452 446.26389529477427232 464.76712757039371127 462.48978430251077043 460.79465667914178084 470.33499370557319708 457.48790913333874641 478.48470245248961419 469.60251116644923286 454.34027795200853461 472.45749538112619348 469.01759316673462763 467.09106487145015763 454.85858201530277256 467.62721535522206295 472.19101584812705141 458.78601766460434419 461.87973678103753628 471.01043599895655234 459.97331456565126473 461.49615726697913942 462.76191776458159666 463.62976560889859456 455.39806072420049077 451.41795256150891191 454.24180230915766288 447.04159578847122702 447.60109612576394511 460.57262301058102594 451.59988647662879657 458.08666215565909852 466.89602205659087986 471.06057142823584627 464.0127181164100989 458.41029897102453106 456.07024429890645933 457.64794392189651262 458.93797142804595524 446.78203749466075578 465.59967109801254992 466.53417650469401678 461.31467657057436327 458.75893093092145136 457.64623419051218889 459.78978218288784774 471.55527281957313335 455.22977700469579077 457.36482266396512841 457.75988265825924373 456.30879355095800065 453.88648653781706344 454.53565264781980204 467.72881110479420386 456.93200651313981098 464.51329940783904249 458.21073445351578357 453.34966602220788445 462.8349967266810836 450.65527481640481255 461.68352477646061516 471.77542077016897792 463.37444342102463679 471.32904749527040167 459.90576457581943259 471.4114950355487963 459.35662246714821322 456.08018085405865349 460.6118300043588647 452.79237774410876227 453.75576621213753015 458.60308579974162058 450.67362890268481124 467.75302866089759846 452.76345291476837929 479.10189997724000932 460.07036751199325408 467.63471364830729726 447.11242605542429374 451.19879784649077692 471.78947282732474378 471.07158659845725879 466.59356979939025223 452.55678092927348644 464.48045212727237185 469.55770092333494858 453.70133370338123768 467.76636444766478462 463.41745660868377854 456.18291642140127351 463.19949661015152742 459.01582407536574237 461.51908562348063469 458.89748035908871771 459.25943831175737841 473.19962817884555761 462.73152801552771507 450.26796393255085604 455.97912541779373896 464.34168585714570554 457.00492472136158995 456.76018969587346419 460.86593103269410676 472.37944739660946425 467.12831669315096406 466.82213010323323488 455.53191756530475232 462.25974468247420646 453.69103906303422491 474.08208181668277348 456.41965688360829745 467.84686142129106656 462.09069060678450569 471.37643835639408962 468.4445655058959801 469.87797201557970084 465.86289814098199713 454.42791478341285938 462.01447621097270257 460.97108190045912579 462.80169393883278417 472.49900493716324945 471.73496713298180794 447.73605485082077848 450.41436417562982797 459.8455168794483825 466.25744116163338049 443.22866815980484034 435.94309307377989171 464.99601410300641646 458.98475038709813134 457.86593962607832964 453.1668247111416008 449.46497913452100192 477.16228238885327073 453.80355687399253384 462.66352646569959006 457.08315322228258992 474.10363791782100407 457.89700336803895198 459.64739780484427456 468.87710630939858447 466.59911325156360817 464.49534460330954744 464.65711389503337614 464.61474497157149699 459.47411026054243166 467.01587971784664433 468.07201079908355723 463.9489898295349235 461.71687566797754698 464.18700943553471916 458.3201272904860275 466.08124068245433591 460.72906301285757991 469.50367970713597288 463.16320391423954561 467.07993542125041131 461.93255540079348975 464.33765085996174093 476.22277249206712213 455.85990828669923758 458.92416660249296001 468.9650442630331213 464.98914947792178509 466.49394716554979823 459.14039259730316189 452.02852882212494023 454.72991127382829291 461.11066808733710332 457.49232364509811077 467.06942594267923141 452.81610045856643865 464.79114378070903513 456.50032256372634265 448.92301345467853935 470.5027475198060074 456.38040811160482235 448.40713010848952536 462.93038128538125875 466.41214057141905869 467.75856140080185241 453.61611578837698744 455.73789723003739027 468.24872510879362153 462.36231699338145518 459.66722070085586438 466.43342932503884413 460.86960028682756274 444.17727410437453273 448.31226723080936836 457.49760785199998736 448.17867914143448616 457.23112426414979836 461.58795071026565893 459.013831622713667 466.28203592121064958 452.59540655973393086 474.23104258963280699 466.39701348070462927 445.16508405944108517 471.77428192479857216 469.01102156203234017 458.62907742628641472 466.58353227058870516 460.65365983273198935 456.80934091206455605 461.09286993337371996 467.00707360961848735 462.0571388873152614 460.86357486644874371 459.68215435738500219 464.25128062501789827 464.96321920764683 468.77093799392179108 442.44265552226005411 469.43809167014893546 460.00462042504477722 458.65201114447859254 475.38677581540872552 451.8155987440111403 452.85347550957294516 457.39377037861493136 469.10201542897920035 465.88389747442755606 465.50368366386851449 453.39467607850463082 471.61105392559102256 465.66201063299774887 460.41208529146723549 472.83059212337434474 463.32758920778718448 467.90666777449951041 459.60951978426686537 468.30259513777559732 459.34372121270314437 460.2664562478767607 480.40600630101909019 457.98329388033033638 455.63114892858351368 474.49509156371289009 454.38458820176009567 452.92087657833343428 462.9055348370980596 469.81415245531331948 469.87243675418608291 457.57216866333959615 474.89486772901994982 471.46928673540287491 468.73830469509078966 451.39022679346362565 454.15171870983010649 455.68782045224537569 465.30578266839000889 458.32511515536953084 463.18967793974741198 451.44169917853690777 462.65173237926779848 468.77784225153448006 468.6671637168963116 458.80069114821907306 460.23887206804209882 457.32253178446347874 462.9143339437463851 459.69966608214275539 460.43090335687622883 463.62266578801677497 467.29931022667926754 457.13264946077975992 458.18604089026621295 470.60716611316712488 456.63933676263735606 436.29830450380995899 461.03961752091413473 457.71414617311188522 461.15411267112830274 465.58071201773657322 456.59328739481077264 482.56530937513247181 470.89496425473106456 461.13923361806740786 461.86105042820526023
46.861437243436924405 40.768543123481691737 35.66762971442667407 48.844864052600236448 48.59071242017274983 50.81925933387703509 49.064243353872896591 43.837569622329603192 54.656311416694947525 44.952189264088289633 43.197542712829473999 47.734765809259151581 45.337194026120542389 46.797100367435469082 49.261253918699736687 57.186254768055555076 52.338871897930303589 52.049543484335018206 45.705885426452397269 45.633530119894025745 58.289414302838075344 51.655040281751851694 51.396808371457623821 47.826366020420820746 37.154119696585787835 58.001860337726668604 40.263605388591557244 41.650265664580246039 50.954704652998799475 54.350055903687689352 44.384442729916329995 50.730937876006777287 57.908580773768164818 37.627370698356017442 49.951440402949685904 45.971881720653684056 50.731439604703609803 51.92823413659645837 54.160168225438468426 44.55111718340241822 52.029157218656891359 52.107346098301349002 43.572621147034809042 47.927534049775935898 53.301527596385831487 49.590161258837198943 51.555646204082222539 53.572608974367597057 52.26843169648272891 48.84093615216027473 43.365210320812167311 42.986328641028961783 61.414682434533567346 42.906569108617148345 46.262136812499647931 44.826738148818598972 45.345261655876569762 41.733858687619935779 46.930000144116689853 51.187679959887958603 51.037146812011641828 40.586525319795413225 55.577834335702995361 43.691252414559443196 42.403228647206560709 49.001500437830088686 56.898377816465782075 36.695594960817295771 41.545573882079608552 51.268645150168751456 52.59938693529080922 49.166952873941362157 43.458578866631114579 50.761124617355207533 48.736208557447383782 51.238489568399671725 59.880242707671030189 50.621351015968855336 54.168979765268659321 50.265143141786722936 51.621701935360505331 36.186254163659924643 38.930071662058949755 49.49770096731798219 45.253868744289519555 40.367456622156076662 52.86927869229810284 52.625914019739852279 53.490928028707536157 47.190589077461730483 49.676259951155380179 48.581349580482019235 44.272704613174646227 36.776641255381953499 45.607017760430245801 47.939257409222506112 49.02957071334690653 40.190066513718861074 51.846092773221911898 44.447674544349382586 58.455700328434559765 53.115202045467171388 46.090579593212495979 58.227403537253920263 48.495977912593623671 51.23555603391289992 39.548280567349408443 48.169593759814716805 50.720813837007938218 49.348384565471732799 51.372383463130397274 64.239559664857139865 51.2399475420619126 47.858586135526394401 40.760357372914377549 53.759055231523056761 47.590874153101836441 54.757932118263994425 44.889852757127187033 37.981212025168900936 52.045856907168015937 35.170493768800454859 66.145665634048995685 47.700207391558670622 54.071958399721800959 55.286954151470297347 51.061295654310285386 35.643493836022763332 44.838833956890155719 39.866083122669920158 52.389320316950218626 39.435704814171806731 51.265179448774432558 53.448358858142185568 48.202681123683895237 51.421546889336923414 50.683174418253116755 52.804006536460143195 39.769363997607030115 49.941870655056746386 51.708815603463492039 49.181836142235056286 60.071194159328605622 45.215172934319340925 50.266734665547744498 37.92976239169125563 50.436409208018304184 40.1080079532313718 48.03822160920503137 39.704189219640923625 40.346471583729609733 53.226126983237300294 51.988396006042059128 36.886422304047826515 43.467704038727170257 44.012233810963252267 42.114466880297683815 44.125412634153491354 47.029301928091527429 44.937658374651732629 53.406107392600262074 54.912420797151540341 43.122803236963534346 43.765144876591449474 41.395874623481311971 47.236682993635113803 37.975051639494587619 56.382866684736157481 56.659284961787747648 54.303884289635881544 55.620066111501117234 47.887963092567879642 50.008500357432353667 39.325569605115290983 39.904228279619815112 49.211603560644121558 52.425371264424711626 39.942997553043888104 40.159462970783948776 49.734925476446427695 45.412439591916957227 51.899449189015570028 38.589695087109539884 46.72556335387478299 47.607700917356069681 51.300726267490077248 49.208836227448202294 57.604723842717078242 48.0193660909415172 46.241875316191553225 47.193481040389031023 45.238413577371154872 64.990913785692413285 49.950006180363111241 49.170998759503440567 50.250780376724826226 48.764288361613424172 43.152491651986466081 46.514484371706899424 51.80321172608344682 49.378257423988642927 51.726241518108167838 44.525179043325167072 49.850851207565895606 36.465410181486276997 58.927269197971384074 50.152349925091833427 48.390187294341046709 49.320422615836761793 39.545192950194355319 48.391431547663287915 50.580967835785642706 49.275659700922609829 41.233771297227768571 50.93067382743410576 38.249280936155962252 51.400329222317537869 43.407828883617128213 46.902234922605899214 54.04215630836353057 48.173142666396756795 44.748299525595200521 52.488306424685944762 38.402348627016543503 49.102702588545987794 43.308459070581960759 41.864693807730816388 57.248336488726842219 47.541026012762443997 51.160790264279341955 46.261751576905410843 53.4275202180876434 54.404424657146904565 45.32590005268767186 43.719638232196473382 51.499070183169536108 54.210043673882921667 52.490629269639242693 41.862630483932562697 36.647667108497607558 52.735921828637479791 42.481590362155387197 48.847882071495099865 39.125517392717767962 53.051408678281624987 58.555946087286571355 54.400266856334745569 38.407646502700849567 43.504606798448868688 49.195127602029991465 45.656546900689605195 56.005982228573067516 51.257753586361133102 53.049114330439465448 42.614879319859369389 48.654807183219858757 58.337265311024225412 46.905361019850474236 35.926262643270362673 44.146631146413682245 49.032127547640243392 51.696373810299114382 46.381473872038952777 52.759558742567669753 54.212726273371288244 46.501502887907399497 48.053178802661321356 53.371204370576151632 47.264688276913453535 50.416514320406925265 49.559845629254219546 54.850560782348168232 45.621988966432404311 40.116592620712310691 51.474933688290782641 51.782325208325090671 59.293483764960257076 55.49229949723603994 48.614159990953830004 38.516741290700522882 50.516132926845145334 50.168731849076706908 50.479814736720648227 52.41717858950501352 45.656157442763216636 45.209538744277310229 53.800457343793198106 53.579223829050548034 49.430750427070663022 48.858277554891643035 52.509515503288113791 46.543084404519049713 48.250314159519930968 44.915666821049043733 55.446144768649027412 50.347108488448029107 46.142443374059169514 56.283936385304954797 51.349056647698773759 60.061780651228282579 46.870652842255687176 45.973803254577561006 51.223037768547428072 45.239492177972380205 46.777521812543184865 50.482491658673460222 48.441762142997980334 41.181722566731600921 46.802649540223214331 57.019691717325713398 46.005891010278844533 38.846664361317742475 42.745708977694498287 55.39887922996016556 45.358618345932150362 60.887734326426155462 51.135412064380389552 60.722182564316213416 56.828020495154760283 36.629164582010716344 55.66727598269346089 49.970207980025492134 52.967090179449762388 46.487931342987415917 43.925375883431740931 56.050459232968876222 50.794890975162914515 45.672648955617475508 44.465529428373145038 51.604896269671954201 54.215988535616020272 46.509147152463825137 43.879858960718621574 53.847279448170276339 58.784467593084357873 50.425096930643888982 38.162464356317855163 44.995198748014999524 49.995573018112388297 56.770979192781503286 51.915896156427635333 53.85727522536745937 45.627139500490798696 45.509758469559479011 42.023528690880212366 41.278692608599399705 45.449919238748123007 43.626383193781947512 50.60761118178473339 47.880723761620608059 43.76575780059637566 40.011853649075405315 46.801283125487216807 58.268918906830059257 45.263443686386253262 45.476481980644074099 51.060256524027337832 55.795084929910771621 50.003698456071774103 46.767657941559434676 49.209115346564587412 55.683285385992178362 59.336238790529733933 62.093367776752174336 51.436815313370438218 44.217451239381652783 47.80473329320344078 43.558068026303807585 52.297858650485999021 50.006382703048586791 43.481959146224141932 46.619255775846404788 43.014299039311211459 55.492951659829294897 48.999663322632763141
-1555.1601563842220912 -1543.4705807827135686 -1530.5874430015605867 -1546.3622990991038932 -1546.2477053294842335 -1547.834586229431352 -1550.2748667946707428 -1544.2661799284587687 -1564.084512413651737 -1531.2580322511505528 -1570.9492403705892229 -1534.1577720917050556 -1533.0337826984346066 -1532.8994861070650586 -1578.3214158009197945 -1540.0297677868297797 -1574.7086067639047542 -1553.3350156956516912 -1564.7743631432610982 -1543.3669874864808662 -1535.7084916944972974 -1551.3613034716190668 -1539.5244385354180849 -1567.1767535122153276 -1527.8790445540103065 -1520.8847704376405545 -1552.0032853217871889 -1551.0816442163654756 -1544.1816980071635044 -1566.6684134711451861 -1556.2614851144583099 -1540.0110793603498678 -1540.2854713303570406 -1561.7254520922731444 -1561.8340726502879079 -1551.7568993599973055 -1545.062311319654782 -1543.4834188088850624 -1538.4255206248071772 -1514.4410591053128883 -1556.2504598678608545 -1539.3284967523054547 -1556.1715057599903957 -1562.9969546334446022 -1555.8742354202684055 -1549.6348916079425635 -1542.8280330706757013 -1548.6981249077839493 -1546.172075129606128 -1558.0770762932413618 -1553.6294792548048918 -1525.2184087056159569 -1556.6995509689447772 -1570.4368655404605306 -1546.9588481832749949 -1540.1110376011879453 -1549.3254980214771876 -1563.6797764003849807 -1553.1523951360263709 -1572.1773723156923097 -1548.3819141192198003 -1536.6053623828177024 -1553.2087943966439525 -1556.357632078130564 -1549.7157903780585002 -1538.8421512245733993 -1539.9567334243679397 -1524.5028516628462967 -1550.2600053149415089 -1556.7681321577988456 -1580.7228152489528838 -1540.7101516519469442 -1523.8974207503449634 -1522.4244777108433482 -1549.7647516904719396 -1539.3539218093487762 -1547.3199450970062117 -1541.0704765004713863 -1552.0253582281402487 -1539.2493478159601636 -1549.263689045576939 -1549.2171406873824253 -1548.6669762233825622 -1556.3022747883583179 -1557.8193677103924983 -1558.8286542262078456 -1552.3816154174287476 -1541.7608765385371044 -1559.4822109324111352 -1560.6424937772676458 -1536.5773268204648048 -1559.2680444783093208 -1532.3270394250598656 -1545.776048805833625 -1543.6218821154345733 -1558.6507329761138863 -1556.5207480303361081 -1561.1551904705368088 -1555.5376555064244712 -1545.873231393433116 -1524.6780044834188175 -1546.0678078096555055 -1558.0514522884295729 -1554.788713958020935 -1527.2338348099863197 -1521.2667369610041987 -1559.582066120682839 -1552.0004389726152567 -1551.4853409450508934 -1545.5552473659568022 -1555.2059132393185337 -1551.4146121783553554 -1569.953584528662077 -1546.9024565903414441 -1560.2578236539970931 -1541.6123685965367258 -1543.9577869561699117 -1532.9201477331603201 -1529.8464059479556454 -1536.5127931395327323 -1539.2374137945878374 -1548.3016660863227116 -1568.7004544644648831 -1562.0557524977398316 -1548.0378744232486952 -1539.672641619242313 -1572.6194967814162737 -1553.1127521566431824 -1547.8315181086077246 -1556.8435173784628205 -1544.4978105095135561 -1539.9361199045958983 -1544.5940992716625715 -1563.0489292213790122 -1565.2720375383833016 -1548.5901243478028846 -1550.8493167099788934 -1570.6224499606660174 -1562.3517837475560555 -1540.4106706204245256 -1532.3457321207986297 -1529.2042073209433966 -1566.9355106010912095 -1550.2563997681218098 -1539.3134013301121286 -1569.642003828563702 -1577.6057148726224568 -1559.9703454000698457 -1556.0017798236929139 -1550.8769672017726862 -1544.3329410776868826 -1553.4357244498385171 -1556.156558194584477 -1554.8645880678109279 -1519.2609104940336238 -1571.1807235614885485 -1546.0468789136079977 -1553.7040657031247974 -1557.2045388971580451 -1556.1834017639409922 -1551.4728996476217162 -1503.9122792472273886 -1530.9422865216440641 -1525.6881303198563273 -1588.8530095719418114 -1538.0924548069538105 -1558.950194336722916 -1521.7523324737881012 -1578.7056071342988162 -1560.1001719597527426 -1550.5826676977646912 -1551.4499651937571798 -1555.1911577568998837 -1541.5599746609423164 -1552.6623736698936682 -1554.4573552000965719 -1545.9413116027812976 -1538.2633314893305396 -1551.4481046838652674 -1530.0918683075831268 -1562.0522910672307262 -1529.2285697879083273 -1579.2718952695290682 -1556.6155537728341187 -1531.1309861944578188 -1566.7783002642734118 -1542.8964549387824263 -1545.8940213246778512 -1553.0495324029684525 -1532.1674301266907605 -1534.9447996126993985 -1529.3252972212771965 -1544.31433216947039 -1551.5743132190877986 -1548.9012504111422004 -1550.1449035634368556 -1552.3420117306907287 -1537.2991445224033669 -1582.1172606512300263 -1513.2379798515153198 -1536.8821805239545029 -1533.9453063010371352 -1545.6107555092758048 -1536.4491765309448965 -1549.6162094074200013 -1537.3524451653040614 -1547.5247997184080759 -1525.0244435179342872 -1541.2694177176722405 -1551.5383152060071552 -1546.7916206681686617 -1536.4723124483577976 -1554.8502941370554709 -1549.1979195716271533 -1549.3045574968341498 -1519.9732604465048098 -1535.8894260355129973 -1558.0978874765203273 -1546.7872578213682573 -1542.2854759937640665 -1527.9911669447183158 -1543.2956590826693173 -1546.3968738470803146 -1550.7842371139120132 -1536.9198748452781729 -1548.1248804102929171 -1559.3390254585588082 -1548.5245901688053891 -1550.0447318943170103 -1549.993159655686668 -1543.0401741649520773 -1545.4519173740520728 -1544.2963616802960587 -1560.017905356747633 -1542.4584592051951404 -1547.9879670695511322 -1518.1640958416328431 -1543.9325292665807865 -1566.5493888148880615 -1535.2312219239197475 -1526.1139560906797215 -1540.0809942722114556 -1550.5491625956642565 -1566.5523935812466334 -1532.0834991544625154 -1550.5074877084985019 -1529.0872055766508311 -1543.1312651256544086 -1532.6604440173682633 -1552.1535235480773736 -1556.273777399426308 -1523.1834763560234478 -1553.1537829537257949 -1578.4922475970433879 -1558.5403464554997299 -1539.3800181678823265 -1566.607233987749396 -1539.8292904808079129 -1543.9876346199132513 -1541.8961480089242286 -1531.3117349396545706 -1552.838588359346204 -1530.9506338567171042 -1557.1774402351591107 -1550.5632588992884848 -1542.7540020367466695 -1574.1315514438324499 -1562.5707193437506248 -1551.3807783648460372 -1579.5448533248111289 -1548.0170318364462219 -1557.007915494209783 -1535.7484448518935096 -1555.7340208509697277 -1539.9888803436276703 -1553.4248476383265825 -1547.094825439951137 -1536.9173071101183723 -1553.4133064188104072 -1557.2464524528193124 -1585.927502275691495 -1542.9953376119572113 -1555.7479684248880858 -1557.5048587202043109 -1553.8584130578303757 -1522.8936131001139529 -1550.2167705202768957 -1555.2791655811836335 -1550.0866879376376346 -1550.1791078347093844 -1566.9938472656926933 -1539.6460996757218709 -1550.9276428580121774 -1544.7851158427033624 -1544.4055443240547447 -1564.7246281738955531 -1525.4016736308701638 -1565.4054278581118069 -1567.6405506400465129 -1530.2047896962410505 -1533.3054364050526601 -1545.4177230505333682 -1519.2937281431254632 -1544.2222265698749197 -1554.9401362767428054 -1566.4553620607293851 -1561.7243620412466498 -1563.5221489982309322 -1539.5217898736368625 -1543.1962996920783553 -1545.5718671868442016 -1531.1520563286617289 -1530.923446169566887 -1539.8809444289122439 -1544.2853315908735112 -1531.4366070603271055 -1549.807750327903932 -1558.567667683395257 -1531.3235248864514233 -1556.6293483232770996 -1534.5421686077606864 -1527.803704890227209 -1529.5454969333222834 -1557.1530475324066174 -1533.0509543977418616 -1545.7888926904586242 -1558.9684455357614752 -1538.4479338307139642 -1557.6710165306240015 -1569.1648138509574437 -1547.3965003668195095 -1545.8026658763837986 -1533.1077104368741857 -1571.2675925133044075 -1541.6411627352822507 -1551.7483097281540267 -1553.6711790976660268 -1566.7416246483676332 -1542.5459825541699956 -1538.2612251455586829 -1562.9247857660520822 -1529.1053811639205833 -1540.8475988820723614 -1546.066760475255478 -1559.8501597503020548 -1565.6597851007513782 -1571.3492064280858358 -1541.5766694460855888 -1550.1758694084912804 -1557.3921033464807806 -1549.57587150079803 -1571.1239219270189551 -1540.3677374974704435 -1547.8778499258046395 -1541.0737120350408986 -1523.5472526493476835 -1544.7242574467832128 -1533.5302106529384218 -1563.8538887355521183 -1551.359750029641873 -1537.557343310995293 -1540.6070454005584907 -1548.4709775818810158 -1554.8234314973258279 -1556.40106145356458 -1554.4095252077270288 -1532.3840487003644739 -1532.6664214332749907 -1561.4536359235103191 -1560.9123480347905115 -1547.0240498707737515 -1531.7446463727317223 -1563.4452776420580449 -1544.9910491672376338 -1558.9704481493804451