123.90804435296684005 117.99119911608244138 130.01281838247132328 132.12504179691336503 123.48423840376150906 125.55695566260841645 128.82077434498847879 111.42695442406656525 129.78871653509582984 129.04784746584260802 130.73835469088982109 123.9147233740941374 131.8687565037546392 135.85084477612008413 118.57936439152980768 124.35503936171083694 127.2019759472034508 125.37615998767226699 117.39956515318181118 122.39264538690287054 125.6932129092161432 131.20553168317672998 126.8383676309865109 122.83445709610388974 126.45634716305156076 119.00089035545452987 118.78965474974643257 124.90682729832336406 125.10507618390380458 116.22629210672170075 123.67710503322422255 124.94940665142762271 123.4975480484901027 124.44330344806182609 118.22974477648597258 120.28339228950073903 138.99549998332449263 118.44878525744080378 128.84342678142016325 137.305403863637423 132.06753326280033889 130.72859338444837363 122.9005132730569585 132.41931557676528541 124.41919425120438802 125.13686665777622409 131.0790956271233938 115.5825559826253226 125.73027395268132977 129.50242193905236832 130.70394533999527198 121.21099521165896817 123.40525297340013822 127.95526177790281963 125.36308777113511326 132.49102979723699036 130.85863075063917904 130.02752302351814251 113.83954293363635202 125.44521508394034015 131.18429877999932387 122.99949045805682601 119.18330347281789727 129.77485980525435139 125.07289941492405205 111.50246345232133649 126.21018780084676791 124.5053704941298065 122.98596880032322076 119.09771290748953732 125.03778146011501349 128.31705547515812782 125.81474631312630663 118.24508240636603773 113.37204071619612478 117.03332696660103807 133.41659435860509575 122.09279801425182654 116.96725785726378888 121.50116590778931425 130.94540891140786698 122.02681052400352257 132.21385684790047321 127.58222260063482167 118.55245747876517726 126.56643432639016567 115.90429107837650236 126.92339510886810672 124.79871738736603959 122.3007164815494292 121.80032780503741208 124.97562764809426028 126.02287355082209785 125.29446953215941107 127.66642563605005023 126.5297051424585959 134.60530939193233735 121.08261106504691895 128.32342077203227859 126.17299425921213185 124.43972938055473776 124.52013280006060825 130.16027991749194825 129.96654530816485362 117.33185589003143434 133.34173621440842794 126.86804107715060752 125.10751158615909162 114.83206540420331976 127.80736289497555447 126.56238277381248736 124.64116537960825326 125.17446899875253052 120.50989078265857302 130.22486832624571207 131.00231345076488765 129.91583660224051755 132.1738368676512323 123.66179760314214775 129.5681096550479765 116.08794852354056104 121.86913876105074905 125.24384077114842739 132.0893619484972703 120.13211132626221911 134.95160163789628882 123.89506698953192654 123.2133214128664207 122.84481221028596565 123.1396833895114753 127.64990464442801965 132.684746289755509 124.16463112287739534 127.66820185259314258 132.1084867636711806 122.42074770629731972 113.47736746556685716 125.08937503481062947 117.30750576494429538 124.15965786584465036 122.67619204009369582 130.23142609466304975 118.83772335188170644 118.86405044443750967 117.60668801123125604 126.50693178324175392 129.60967710825588028 122.20259159688376371 121.65774325765295316 126.38973218619719319 129.54733303503854813 124.45527481038610063 108.95718999718638997 133.64243180295630964 129.45502597812549084 132.09784662046962467 127.71110546906854211 129.58911031495082966 124.33355825814462037 126.84027008662367564 126.35720912356774193 117.98296910140327043 119.21790577128959399 127.98456642930456439 130.57596906418760341 115.79448613557720194 128.29678614869348507 125.91136177278733044 125.82926193382535018 121.81164210384717705 126.47805197177453351 130.25294515759264868 137.00263135111529778 135.05196278139962374 126.32231563721920509 126.98857965437431972 121.24838371000572579 124.36242192557678266 118.16695617785394745 123.72894639225019375 113.61863116284433772 130.50696547801456404 124.02264333945107921 129.6564258601347035 119.68830726024793876 129.41929490717311069 126.63475174808317547 123.4609355044671446 125.1609468892022079 126.04854408536289156 125.69066908299907936 114.46063038806404677 129.72379281896544967 129.93430344395744669 126.43611356275347646 121.64533420603660829 131.56376876320155134 121.81648452401313421 128.94223546771573297 128.03714966105138728 128.21374565416425639 125.02200862795348257 125.29184064161466949 120.89829828588477767 128.79289065707001782 123.06855640845975586 134.60842735905524137 137.12450334755951076 127.94905280138885928 122.49732807554353542 133.10051472703375453 119.78029412187041203 116.56167754840096507 129.8585852890463741 127.85445367461640842 130.88493225465279579 128.41733737326444498 111.7006523189675562 127.70487873716504623 122.62934670282886884 123.23331506014174863 123.81239800580766541 127.58430325135961425 119.66308970202729256 125.91237353324262926 127.48494566069697953 122.02920397809468511 127.98674735505053945 131.31008543016019985 121.86622479915565975 125.73302130528128373 129.51209460579192978 123.35165473339044695 123.65500512530688582 127.80142355323160075 115.67464164506350244 130.77027887002313378 124.0455567313235008 129.47503505218284658 126.45368120497545306 121.47358690364268341 126.41411000129259889 129.76237148724956683 128.85324381581469311 128.95548008797152306 129.45527577768643823 124.93381745880290623 121.20273796171053959 131.38655962967305868 130.11087926589749486 128.79714160323800343 109.0220839993872346 119.54053397166771333 124.12134263897584674 120.61915623508245687 124.48693541901796777 126.11154690777460985 126.23009015294090318 115.44797211320769748 123.26165434734546977 112.87376253271335713 123.60641530603163574 119.52989164894452756 134.37028080420185461 130.69993824656171455 122.51768734964328189 130.30600347454276289 128.46779452721415282 128.80000333834351522 136.67875385549029943 125.90231875584868249 134.11739215016021376 118.78153513072362557 126.34786010719089688 131.46274124853846388 135.35355373043219629 118.29999111988412608 126.74707008742753089 124.7793006440787309 126.99261068247746209 118.21211178060571001 128.34003063276767875 126.25427454697648955 124.90030997094054044 130.34200615795143108 116.5402276615013335 130.30629633764385744 125.12503596923225757 128.01572947385153611 129.09925846035869768 126.88488985146352661 125.90492588386034356 130.66217224194335245 125.43076893179431863 121.99220750870216534 131.65384244064281916 127.28933784695395559 125.70564209742457251 114.35248376549333216 134.66869231317082267 120.04272645859774116 116.70471539652376691 122.29347425342633926 113.58279211408316201 127.7696371262835271 121.09134095614955129 114.68749317747030148 126.18303395497422059 123.44650055206645334 128.54388874561766443 125.26290604328362122 114.75850307435136699 123.24243043690900379 126.92544850843005122 119.92297972150956298 128.19660871361455179 123.03902020550277996 129.89762660163515307 125.2351755662204198 118.80174475586147764 123.08371917059972134 130.95352482587856002 125.50491089621293384 131.00767337657538292 122.09671779863761287 124.37524896343930436 135.41832864280320337 125.90684826391509432 130.89683466380319032 127.97022450924372095 124.92684048795059937 132.20913715803894206 124.8376503546014078 123.69443601925894427 131.1380476052044628 128.29631549831330517 117.94031326847161267 125.55012990130720141 120.44542522923080696 122.67642004483246865 127.37406678520068226 130.68770695025173723 129.14645668705870207 126.17527659173454424 124.34633372692769626 125.37464146463169357 122.228042551753461 127.64737990221672703 127.71891053182882558 129.26488451966696402 127.8361598515704145 121.02108005606014274 122.14054294479299756 134.23096761596099213 122.58035307274337811 126.24107661241679068 126.76297248909962434 120.9341216989017056 126.80225131542340478 131.74224547075371561 115.10895452583520182 126.55342568191987596 134.26982982735057703 131.88063129580493182 129.21350118559286102 128.27908183800579422 130.32595799357130772 122.94784438256225201 131.52997368945162293 123.68741538236909605 133.48744663959854506 126.78796276213175531 132.14956542904897674 128.4501602505302742 123.16460554162394203
-1550.5995712476646986 -1569.4081572990892255 -1549.4927229719091883 -1554.5447741783659694 -1545.7941672481722435 -1571.1763886028693378 -1541.2193800545082922 -1543.2430514648515327 -1556.698816933929038 -1544.3029910529569406 -1587.3485665988264373 -1576.9711795361786244 -1545.7160201109177251 -1545.8087666213498323 -1544.0903624834863876 -1567.0519810267194316 -1556.770835156742578 -1555.0077458874270633 -1554.2459796828836716 -1541.4134074628218514 -1534.9459630389410449 -1566.7793803617882986 -1550.1850883976096611 -1521.6080612993380328 -1551.1856620311193637 -1537.4180391590771251 -1558.4271381288131124 -1554.4340619019405949 -1564.9814629152765519 -1527.9320139632836799 -1559.7907378417492055 -1550.8009290231727846 -1537.0789296999366798 -1560.0543546752733164 -1544.3979028323135481 -1548.8740988138890771 -1545.9165559893774571 -1553.1078042169185665 -1550.6476565478014891 -1556.1523129614117806 -1568.7310319083915147 -1521.1781200107548102 -1544.8321788644368553 -1555.4822041760132834 -1559.4915397541469702 -1541.3508495669248077 -1561.9647991847446065 -1569.7719963708047999 -1535.4577293796392041 -1558.7144404056948588 -1556.7908370298637237 -1529.2152977223011021 -1545.1957884634134643 -1548.5420942851530981 -1529.6391773686655142 -1567.9282775362185021 -1535.2792931615229008 -1559.2399430630027837 -1546.4847318451838873 -1565.6200271218747275 -1548.2573922418719121 -1555.587217997785956 -1529.8005965793990981 -1562.6550174017716017 -1566.9611255081515537 -1540.7681286369747795 -1541.2015526788929947 -1560.0750428700209795 -1554.0130055395673025 -1550.7081583657259216 -1551.9193067813050675 -1556.2608593570244011 -1537.2874347559038597 -1571.0137239364250945 -1525.2562516549739939 -1558.3140987416109056 -1531.9869584758148449 -1551.7365578845794971 -1549.2500592612623223 -1554.3040666432746093 -1555.8500329594035065 -1528.9805462924268795 -1519.2238116593462109 -1559.2205976181091955 -1558.5102277909822988 -1539.0866100645989718 -1541.0209729180801332 -1542.1740975216798688 -1545.0700513716765272 -1554.9988215412506634 -1526.0997843150084918 -1570.3515968768626863 -1559.2203710653159305 -1564.9769217003740778 -1556.3540975568744216 -1550.7433484045959631 -1546.4805948361251922 -1562.4268896297826359 -1548.4067784188719088 -1527.1857198594443616 -1535.8056850970428968 -1539.6630437449534838 -1539.6520294537392601 -1542.0104071693556307 -1518.6098792271147886 -1546.8061496197592533 -1552.71756732396193 -1574.1244534878394461 -1573.2397599881153383 -1562.8642634492236994 -1554.2867950908282637 -1539.4004611804414253 -1569.5636432061212417 -1555.9912869285330999 -1563.8197511873574967 -1545.9841723840715986 -1535.6127184526690144 -1561.7614476818769162 -1560.7291207863215732 -1544.9209653135546887 -1551.5602198422650417 -1559.032645878942958 -1566.309695363878518 -1553.5796029772382099 -1552.1756774656780635 -1553.0908307091667666 -1522.2703491910822322 -1552.9915085094789902 -1555.5051323336081168 -1555.3386591850162404 -1557.6407150249228835 -1554.9002678633389678 -1547.8475334055913208 -1541.8071109401594185 -1548.9059706556870424 -1546.4402131377112255 -1550.5728827821478717 -1567.24003069094897 -1544.4016688414731107 -1550.7823946988557964 -1534.681890553026733 -1541.6627268570150591 -1546.764677914756021 -1538.408833001683206 -1554.703227679786778 -1569.6438101863104748 -1553.4396456420254253 -1538.1175814401919979 -1552.4737697359860249 -1578.2213604727642178 -1545.8402592339737112 -1538.4347547643344569 -1550.6647970771741711 -1528.8578695494659314 -1540.7057273466562037 -1548.0319417857560893 -1533.0376063008923211 -1550.782935892779733 -1549.560613249404696 -1550.5677768993828067 -1551.0709107214104279 -1577.4818840525338146 -1540.4021568965167717 -1548.4488806103847764 -1522.4597606918675865 -1561.833357135351207 -1546.3289938570435424 -1565.9553903881492261 -1538.8217159533919585 -1532.0366385698525846 -1560.5814419301884755 -1538.5486126218597747 -1548.801019527227254 -1529.3412345042120251 -1554.9199815531565037 -1555.8371543437874607 -1552.3422720261460199 -1546.4798740827072834 -1538.381604017018617 -1564.0073348411965526 -1541.6203358318659866 -1549.9558250472382497 -1580.5586817229795997 -1562.4225298181288508 -1564.7108187955711855 -1538.8388160446081656 -1549.1282683259607893 -1549.2415987371650772 -1567.301282574062725 -1559.9588374443235352 -1535.1326958184326941 -1550.8836430572318932 -1556.0503552392226538 -1554.8535682473386714 -1547.0108785098320823 -1543.8259832306059707 -1538.1904895746743023 -1553.0921913158861116 -1537.7757797337501415 -1555.0935643213231288 -1551.9637939005783664 -1540.5104558238049322 -1560.8265718713391834 -1536.1010049646602056 -1535.1159124873991004 -1546.3205836491952141 -1536.0370832106298167 -1536.2284121467132536 -1542.1865048229585682 -1558.9192510883510749 -1538.9492201073326214 -1530.9268280312080606 -1534.885054349854272 -1542.2768675995100693 -1569.7807628465341168 -1558.0711851648034099 -1558.6706673788028183 -1546.365958748545836 -1535.8302972831193074 -1553.4223100988090209 -1543.3536189386934439 -1548.2626517165963378 -1553.285744584709164 -1559.1193409044176406 -1557.2323295602659528 -1574.3259526160322821 -1551.9614294653513298 -1546.4451861933296186 -1540.8376719959476304 -1558.3741863857949284 -1526.7140668568813453 -1539.4415910558259384 -1547.4793479341719831 -1555.4708656347181659 -1552.2830099846821668 -1543.414286934852953 -1562.2801007709479109 -1543.2822886331637164 -1549.2288555160228043 -1555.582809946951329 -1543.8077454254359964 -1556.6893201348700586 -1576.8207978413563524 -1562.3342961643334093 -1555.2261404987359583 -1540.2514770040634176 -1545.3441658226108757 -1562.8026873999260715 -1536.8109865256133162 -1564.2369899755638016 -1527.441480721616017 -1548.6202136510012224 -1550.199906637966933 -1565.6255624110121971 -1558.3421881767480954 -1556.2258348550758456 -1563.5742348172716447 -1544.3712634453358987 -1562.8614454138025849 -1549.355376345825789 -1544.0727173644609138 -1545.6335789582024063 -1537.4482633590989735 -1533.8682877075573288 -1547.1210503257707387 -1537.7488717972441918 -1550.7889070119992994 -1554.2702104007112212 -1567.542385214895603 -1565.8469241329814849 -1542.37255895421481 -1552.0487539028681567 -1552.3826378053195185 -1537.0898696419337739 -1566.0528984272625621 -1540.2091324566449657 -1537.5965398123250907 -1536.8475356813928556 -1531.8769200536423796 -1548.3357903861722207 -1543.3272203864278254 -1560.835487873272541 -1524.5510691534555008 -1556.2957358529749854 -1561.0035573655620738 -1559.5219713303872595 -1551.9300021396677494 -1553.2157047811112989 -1556.7119652334695274 -1532.4521389202709543 -1547.0272670363999623 -1561.4386956923224261 -1575.0182795694120159 -1550.9229097820757488 -1547.2766384546519021 -1553.6929183574811759 -1533.3430551580286192 -1558.0170276133032985 -1529.0053537411254183 -1545.6771754371798124 -1550.0191129869938322 -1558.2259603562642951 -1553.3494552652280163 -1540.7421061328127507 -1557.7185820416721072 -1549.2653335769305158 -1552.7246931913668959 -1551.1205757935849761 -1545.9102411058677262 -1556.2378894798944202 -1556.5852608165628226 -1537.9849998883184981 -1547.6065356423218873 -1544.5937041755560131 -1572.3332126238212822 -1568.7386187903728114 -1530.6797544732339702 -1552.5528479946315201 -1543.5004958692588843 -1559.507608907930944 -1552.4577853904777385 -1530.0158148182379136 -1543.2965280959756456 -1546.8003024631993867 -1537.3087706222345332 -1555.7613706705026289 -1550.8154627128290031 -1546.7792575450221193 -1525.2867350871476901 -1548.1085670763743565 -1565.8696826937912192 -1524.2493120035853735 -1548.2431304825422558 -1545.0224119187535052 -1544.3432829150901853 -1548.9603568204017847 -1572.3130342696938442 -1556.018105864893414 -1539.0808029060603985 -1559.2268514923271141 -1554.7622588373862982 -1546.5194560127185923 -1540.0720527049097655 -1564.3557703252085958 -1547.3208940764516228 -1571.7994794440817259 -1530.9562806996268591 -1551.8351805888910349 -1559.2337254146536907 -1538.9171891530472749 -1547.4159483253654344 -1559.702682279533974 -1550.4860296160886719 -1557.7056354525882398 -1531.9138058054531939 -1574.0733297876586221 -1534.4485256283453509 -1533.2517676710463093 -1544.8598014867463917 -1547.4731605161543939 -1558.022559708373592 -1540.4016593662597643 -1564.4554648638686558 -1536.3287767993879243 -1530.159805915842071 -1545.6610651755247545 -1534.6790242078166102 -1553.8541450011221059 -1541.8951928623637286 -1542.5175718253249215 -1524.696294806620017 -1575.6636436138071531 -1562.0472322227515178 -1533.6392699601344702 -1577.0074601207904834
604.57539084326663215 598.95570572587314473 614.51031010534234156 601.72997911188986109 613.13741918451728452 610.41244562682823016 591.53484091986820204 604.75879829049392811 603.4714464118496835 596.93908095350127496 597.89613520512000377 595.31416679934227432 613.76460970565267417 602.77014943741153274 602.97336777929660911 608.41094919921147266 604.62345443061678907 612.09712887744547061 604.04069791632139186 599.28262139989760726 599.22899310971502018 600.4143409667836977 599.2093031589444081 599.46480591017814277 607.77146862630888791 598.56862395727534931 597.58512639236312225 600.66402449008921849 603.01829779664228681 604.6840033996704733 605.85491596153985938 602.76485004374012533 597.39919905302190273 604.54736956482815913 599.63480079622831909 593.76766745572524542 607.10358785745063415 597.21931320636292639 611.5824018197093892 594.92905044594920128 605.51741037487715857 616.01145744573625507 603.24989660224150612 604.09753521906009155 588.65943711857062226 586.36122919394517794 600.41498232732806173 613.2300531920271851 600.53925636336089156 600.57970969547034201 595.0751424729073733 595.54840733626201654 585.27953667187853171 595.83802247940764119 586.21989745834275709 592.08070416855150597 594.99172508233937151 584.97411847036596555 587.72349665494584769 605.47071440122920194 605.60768560912231351 607.54914149862406703 601.78275476023884494 599.01390070974605351 606.4826610075199369 599.68277920677462589 591.41260006176275965 607.12885480526745141 602.58994560624023507 599.30448248992320259 601.57833062449196859 596.12526433325808739 594.01910939826609592 599.8169995674979873 593.84070380337436745 600.0715934143360073 607.11183978214171475 599.81779370688127528 600.95276517060040078 600.54624318472951927 596.87368963926883225 604.58846881330282486 604.4534147321456885 596.81478920231757002 593.75986220857669196 603.20435006008551682 595.95134219054034475 592.41586582983256903 591.34440901199923246 610.5031749586148635 588.82065300382384976 602.61867928955132356 606.76720107138339699 599.85682164352601831 593.60582733897945218 600.98183199546508604 594.21106734811689876 613.76098541616306647 589.25405011649763765 608.8781105444976447 604.54739715161997538 605.29443411857857882 608.33190690300273218 612.81620959189649511 602.43350542999928621 591.03903661208357789 608.29444277835330013 595.72701493082001889 600.17056420095207159 605.3410842079935037 612.86360113479418033 603.27111661816536525 606.40508092527068129 597.97310064253133532 606.36939329633457874 595.64961293559997557 604.07883080044769031 598.18034120306515433 598.12499295175041425 614.04842493814692261 604.11440609797966772 593.82488944411670673 595.38824048687422419 599.20222888226089708 606.2351382028033413 613.37040337440919302 613.71275188733159212 599.175171728790815 597.21284492003530886 611.31733061037948573 609.16545624787568158 603.60417587557424213 599.46914963744586657 602.70603558779100695 603.13466228931054047 607.38893234782267427 604.19437931338563885 598.03477164395712862 610.5988992195514129 602.95776178778646681 612.29302044116525394 595.01584039572924212 608.15018019781632574 592.05520589628781636 609.90919915796337136 587.57818194663025224 604.60431305103588784 598.85035140662057529 602.45576991195434857 611.43791360685258951 605.56373127077188201 603.28182679038820879 598.3413351012864041 603.30120429998930831 589.99686676901478677 602.24884828558253957 595.62922536942528495 600.42343694507474083 602.62668436850049147 599.19103436537091056 600.31144066118781666 594.71810363621841589 605.57914327311937086 595.84808312486052273 601.31291002242551258 598.745862794261825 612.79389103406708728 608.0222380450328501 611.35294342374311327 590.13103551412552861 592.1180308963864718 608.88101200786422851 613.48659031285751553 607.97057432171470737 592.08172597620750821 604.55884729098340813 598.27428711952359208 611.24692274769938649 605.15961193747648394 594.11568985989708835 609.35358503333736735 598.89028266413981783 596.61957826475509137 609.70670248026158333 618.26193292833590931 609.64304697140562439 603.94641070734439836 597.38724229014053435 617.42802390847941751 590.41788638305229142 598.86306333239429023 584.14366629920425567 608.32136585814816954 601.11726658349925856 607.14017741443376508 605.28962665594883674 599.25467032223900787 586.32822622663024958 602.94665191624164891 592.81986055030199623 603.68223316869386963 613.58616250964860228 605.50658847535294171 608.57781362579930828 603.18444934196463691 598.26557724734880139 613.20790024738482771 601.85792942934369876 612.15996201308121272 595.26413657128091472 593.11096006572506667 601.30079288655281289 596.76830981647151475 604.65616624241295085 595.02658636682747328 599.57331951794765246 598.33013389029679274 600.77954986115855718 593.19249822291772034 602.93216549223973288 605.37188243762841466 596.98731150152798364 604.02385324673389277 594.94643388711438092 599.13542518405949977 594.15897778682926855 612.01977287742295175 601.88722439470382142 603.00762961658665517 608.7995759288392037 604.41836042336194623 608.54440630876410978 619.7148464065725193 605.44022426902142797 605.38443131921269469 602.43268216147714611 588.14028454750882702 601.14416794928968102 610.32534365410583632 605.71701519302098404 588.84676612435816878 600.75897611981508817 608.01083316766676035 606.76309154979946925 606.25848341645360051 597.19022090959958859 610.5207895394642037 612.72138423231979232 591.33551610183235425 604.02853100354877824 615.60791452767148257 608.73827436622730147 595.78476213872647804 601.60331209908690653 606.69655157785905431 593.82209627028043997 610.66141494602197781 605.97935226648189655 607.05803640750661998 604.26867193416205737 602.70867488379860788 603.42628754085262699 602.03035951371293777 614.70110190669481653 610.4268527730085907 594.45700754798485832 599.06753807004690771 602.65237677321852061 598.59588682323112607 606.86421334577983089 603.77132896540206275 598.21056522428705193 596.01485299705541365 596.76743617358442862 592.98648091829386431 603.50359779822269957 601.49368766774080086 609.88892934377577149 607.1445493630776582 610.10398041529697366 599.7466459981872049 605.30458084925726325 600.3429572371338736 603.59016374225029722 601.01531301406589591 612.53862373497906901 603.25317391668659184 600.69767146759568277 613.14113709801551977 604.79643775471527078 614.4725972924842381 603.38504218998593842 601.20123192221660702 602.17150199298816915 593.90442087500878188 595.76781431968186098 607.94458798315304193 608.47000697720022799 607.66281122281213811 588.83640110134831502 603.33662209269209598 591.86564011033578936 603.92540820694341619 606.29757121406612441 604.53916601558807997 594.06834444450942101 611.46058402470259807 603.74182832301062263 607.58412396881851691 591.62750138992532811 614.30466127444299218 598.37904775559354675 598.41429940681746302 590.96063795528311857 616.48069999665938212 596.92309047797562016 598.11474378325544876 591.78816474415850735 600.75585875442027373 582.55067633465000654 601.24641469817629513 606.20438110068334936 593.4231328029082988 605.3372401619935772 597.72399330367488801 603.23438064809147363 592.94042485794795994 590.03630183589700664 602.67095939965042817 602.08039837405647177 608.3029838593254226 591.88614592229043865 589.0986285013793804 603.873237993716657 593.38674470188516352 606.35040894476651374 600.93255826420113408 599.06301133105148438 601.88113046610794754 604.97136768077712077 613.91127114315213475 607.29629378241475024 600.50836959401306103 594.57138278722311497 612.76366484431184745 613.13876904592791561 619.20086894646658493 598.60289973885130621 597.86582547727766723 601.80880417322885023 592.04910620951125111 596.48778737904638092 597.07154714150010477 601.6136709130169038 604.74256894098914472 598.39001158657799806 606.22273706785324521 606.90837726827783172 606.12359710554210324 600.47546138682173478 599.21700324822961647 602.73801924326824064 600.59149542532293253 599.25780522704133091 583.58295918853502826 603.17129924601204038 594.4979518905729492 609.36412557920152722 597.3772667650338235 605.75500408846778555 589.79728651516461468 591.706073043447077 609.0843017045376655 590.11360627659098554 585.6053777493615371
112.40083678441018833 124.86231865912118622 113.05633801018481677 121.6346239604698809 111.05337954681796475 124.84384481596204353 126.3379299133205933 119.10441764682357757 129.63227865290764385 123.11675825049859156 117.50604400243079795 124.36074590350710878 116.78997568648691185 117.01028292175705303 119.0263168789940238 120.01714237949148867 126.66266152878660023 125.94835195634321678 117.98356832515936787 118.225388440490363 119.10646330765651157 126.32093315607434647 125.72795118485629473 119.62756881742961923 133.24111574364718535 111.53927965962452618 111.68882977072595963 127.07966431719856359 115.58163751547057529 115.68928109679190186 109.23455885375874175 117.95663151457496554 123.45253685251768161 119.30738793119846264 118.20120027148458064 125.33862037382515098 118.54032718789505907 121.7784691788042295 124.95567921938018685 114.84765879874740335 116.50128327736150879 108.38724336134222881 116.55743661876802264 126.1769131404873292 111.59691573286774258 117.78984794759084309 107.10495152326521406 117.75761091665977176 125.90417670055198585 129.57364118285269683 130.82166840537269081 127.33923537045720309 111.90909203249971426 114.56626443068954302 119.14538773108790792 113.46458289186220725 129.27543456301759761 122.19267625684570078 134.52964066739477289 131.53849218697376955 122.19711648377648316 124.65556107733175395 123.6327308041347095 118.56296385547275918 117.24390955114162693 123.08179160020463883 121.66490624508399776 128.9539018660298666 118.1993825708650121 122.04783180131686038 122.41071042625630128 123.85937766101986313 123.30737622706772072 113.68726023356792609 117.92504450834562135 127.69044351255587344 109.60896092869398899 113.26213685102891304 113.40388114225545735 135.84638648374996706 127.1180660200622583 122.95056599983237788 131.53380934962501669 128.09315989495627264 119.46817986102541909 124.90763308268294907 118.36244146048231585 111.09004325640152899 118.11088604312227801 129.63360212485062561 131.56156695272960633 121.67445645218160166 122.14581941567800527 112.58764401231151453 123.84691877926934467 112.97682050684352362 121.41088879116122712 126.46351684833557272 119.9653896938600468 126.376478138878511 121.52269380720917979 125.41019637984956603 120.99891125310550422 114.59421589178532486 107.17056254369349233 120.30800152565666394 122.0171718270625405 131.12523002762060287 124.15551123526874733 105.40358363111505469 119.24566918491944989 122.58145042176589357 118.8725823023044228 112.90666821519768348 111.26573105818719966 118.08818877829936866 121.14787645365078106 118.38336229211951434 120.16279551503274092 127.68226585003074547 110.92101711994735069 128.50596324349774591 117.15198167555396935 119.93860457112397455 115.18173435757294953 119.51419090469163109 122.65764920205769783 120.18200977563829213 126.91812758562561214 113.47570531487633616 118.63834379259091634 118.25818485866557239 117.18360680782284078 120.98948628490187218 113.35771454682375747 121.29217825560645849 103.48968535643584232 122.798870660975183 130.77273856782548478 120.87617341773716362 131.81764952147048575 126.88460914492621612 127.02758355799639389 117.41411841038740249 117.2661528505763755 129.24177889313148171 135.83037582638698382 119.56671175158291476 119.33094811647498545 117.35272661354927948 112.88864994816675846 118.89198619010110747 125.73447125796378998 123.94621808453446477 128.74940372118413734 117.38135915697263556 122.41164001917320547 126.1624811041933043 121.60425838639925189 121.84049311245561853 121.4855550537791089 109.41969419656996365 117.97926404515945364 126.21648341815277661 105.75911044720710663 122.82547856033336586 123.07832250431577847 126.84188054356415876 120.89186836299226968 113.65803185846746715 120.96808762945340732 122.07723413831631376 117.2765090453110588 121.08565595001022075 124.98493842871627635 137.40289620142760896 112.18558258262267202 126.71358100159143589 129.87837725961898627 121.28142386637681227 115.59108164003492902 112.58773522901014985 126.1863638927720217 123.99266409650928722 121.65798602691018004 130.17555321093362863 123.45507702385899051 124.58959070065159835 113.52589999710359336 121.5224958297283564 122.92548354375725239 119.37519207576802671 116.73487662269829457 117.02306097432087029 118.64589814580970994 120.90878103137845301 118.00234061261464547 126.63686023772527278 116.45940412192656765 118.8359323646149619 124.89374962204335873 125.60204827207518008 120.56070901397107775 127.77879849915645138 130.09443615392268612 116.31657345631778355 122.9431387505486839 112.85525505374585009 124.80326438381207765 119.36550902403277519 117.74500752105331003 124.17438424197838742 119.99549485558132744 116.71821309619531348 133.77084032292390248 126.8522265757387828 121.26588777077360248 111.09247079372860867 126.56942706443551572 118.93258166066857484 127.96238146556622439 123.59522549630227672 120.60711531009218334 130.41224243117139281 122.48414118671605877 122.00180268102306513 123.3124004639782072 114.66504335598212094 117.67850077825785604 115.06000944913522233 125.02471840558256133 127.59389415316596228 127.16861336246975611 126.62560486948832761 128.79869219847967088 117.18410982606297921 121.23331134157936617 126.12757683986659174 116.5004780050796569 115.55242228203579202 110.67691174924162567 119.22920064551578889 122.89685416612319102 115.71499005336450239 133.58661878003431411 123.85689934109339561 116.23305760266588038 118.58625530486840205 112.16166393315617711 128.63393832535064121 126.91866632833836093 124.14031504540263029 115.459455626616176 111.80375292869400994 119.57630245309492523 120.60047623526654093 115.9729634289464002 124.30837134215869355 131.45233826386203191 125.2710615350671759 130.53656745222517088 110.06043395305262322 118.23632552241289773 118.99074877563592167 129.28348863922633427 120.45542667092213662 133.92469550354775265 112.32208512617471285 115.95367200490987614 129.20503138379555708 125.92857109465974474 108.82336912871961943 128.09118355577345483 125.37128885571176795 124.80964555110493563 124.13477447802932829 118.60405238263437866 130.58660115427289838 112.24517840409764347 120.35762086291951789 119.29699626298361181 120.67388536028978763 124.21775566605903407 122.97265659170061269 109.02781329169161495 118.28354099230574548 116.77194830486327248 120.29944815976547545 114.19156962026325175 114.72489963228971988 119.74300361877192245 117.16660002515871497 114.65709062860730683 120.72090315347398359 134.56734269328453024 110.61187580912788064 125.1809794804258047 118.5730938993232968 122.35583464097648232 125.21103064214089784 124.13319658954631564 118.57944737094203447 120.77976071940877034 117.57639712688778388 114.13189451982104572 123.97636626094168832 122.05197941312276555 119.5121109310387908 115.33914786207742509 137.92053183310824238 113.18532266467919101 120.69134302568585326 117.32967116824829645 118.33603813985629927 114.02489402171831046 118.41067384294133547 118.4339016915676126 120.72577953316918808 122.88590593246534866 111.93463847635567276 114.54571904293364071 118.49800608862194906 118.72564602570594161 124.31309725995937754 115.95071631588193384 121.12813434518162126 126.02592531314057567 123.16336886328545575 118.56612771961994213 114.18587025056910988 119.54448827589170889 119.24326218647919973 115.943852734057117 121.15013680301626664 115.53014519270668359 132.15124272626502488 121.62862477953474638 123.73880536946475672 106.57650344525252706 114.26304918023195967 110.93795166704238397 127.01401293127830172 125.41960550749001868 130.61785239813164594 128.82962393167142068 130.9535742946920891 116.46408722085141108 125.16645894401194994 113.28979336783810083 123.36037523558663054 120.29347327867593265 119.77964230954439984 118.13549773888610162 122.79691771064761951 130.73243483032496215 116.11901087110673814 118.21912325629223517 108.18034943468687459 115.18029807231350503 122.64901316505842033 126.10162313180941851 115.561444882523773 130.33602400293295887 112.12442581929595065 112.95537175475698177 124.35006789607254518 123.71591858903296668 111.95785928029519596 126.3263481904975265 120.41096283192320016 111.14558953700300492 113.48877159533384429 127.46557943605715479 116.20028505034900945 127.88821092173326122
-1492.9935654380519736 -1509.4917268497886198 -1480.559605976531202 -1503.5573271373443731 -1468.8940341746927061 -1460.9073937924010806 -1481.8296731485513646 -1483.7747375124349674 -1479.1811649144578951 -1473.7560492698319194 -1485.2389941504548005 -1474.0730022255331733 -1497.143321192868143 -1472.612837222421831 -1470.0780739085848836 -1473.3502693405146147 -1463.9195708201250454 -1493.0862970794516968 -1494.5007273497901679 -1491.0668128306347171 -1460.4130028012064031 -1478.2095370677388928 -1469.1311604171557974 -1451.6034826215427529 -1500.4610030932171867 -1477.1608625840424338 -1479.3953893555312789 -1470.912602115485015 -1482.9468944457880752 -1479.736816478484343 -1477.3887126280339999 -1479.6301939105999281 -1473.2965138749673315 -1502.9808242549120223 -1498.6814932514494103 -1456.069013978334624 -1459.1857218831141836 -1488.5530573320154417 -1481.403576288102613 -1475.2276819509750112 -1478.8765234604397847 -1461.4892776581439193 -1485.2822552912082301 -1475.5932076548715486 -1484.0131667034643215 -1484.1492842385707718 -1513.9032588641941857 -1508.4567178792640334 -1485.0068746829749671 -1485.1270090961702408 -1484.1900021991502854 -1477.3373940802468951 -1475.3185212886105546 -1490.4930687735168249 -1478.8289318224601629 -1462.757376275678098 -1483.6626950652723735 -1490.0844464131487257 -1490.1579337706834849 -1461.0310297237504074 -1481.1483248050940347 -1485.1016320056489803 -1498.0521459656968091 -1446.9897668390606214 -1464.2364935754367252 -1486.8524607825465864 -1456.0584430301794328 -1482.6300934434470946 -1472.7175867242895038 -1469.8273645745098293 -1467.3886829179004962 -1473.8948408911271599 -1483.8174175418951108 -1499.8242505000800975 -1467.6334840694901231 -1492.5949052164467048 -1462.4315746201241382 -1471.718548909676656 -1490.9354409634850072 -1485.3923182034645833 -1504.600427002916831 -1494.5098789703492912 -1458.1671148909479143 -1486.1076469859485769 -1472.7347578961266663 -1474.632042529852697 -1473.8065371691081964 -1498.0703012564247274 -1447.8849875823439106 -1482.292396721355999 -1485.627989549120457 -1489.7718377200064879 -1470.9386642462645796 -1481.0031440004840988 -1479.2175032910774917 -1476.7763961783134619 -1467.9032381462182002 -1456.9316444462178879 -1468.7028140494935542 -1483.6466030165352095 -1486.1730752305825263 -1498.5150540345955505 -1472.1355886998273945 -1490.4830496100939854 -1484.3943045587780034 -1490.1821821612097665 -1449.9951488107581099 -1500.9264060244902339 -1477.7460543553204388 -1495.7660279671979424 -1458.4951622403527836 -1490.8383269594830836 -1473.0288624041575076 -1461.039977585062843 -1475.9054553857065457 -1484.9414081587069631 -1487.8745087322515701 -1465.5224181456324004 -1474.5185136723259802 -1482.2208657833898542 -1465.7939526857346664 -1490.3666539475068475 -1439.6329446157208167 -1483.3311178997821571 -1467.568220663642478 -1508.318602232661533 -1506.4418444641944461 -1508.8743250772181455 -1455.998329611678173 -1461.7106374695381419 -1501.3764188223531164 -1481.9538502171917571 -1482.7231953188770603 -1485.7277192580213523 -1498.8138786722945497 -1475.174532118902107 -1479.3595524425431904 -1493.9161150963439013 -1479.0023825783439406 -1467.418829432417624 -1460.1165309215193702 -1467.0485334646612046 -1466.315365721073249 -1459.567962014260047 -1478.4596791550598027 -1481.7340044250847768 -1482.8392872553843063 -1479.1658032072978131 -1479.1013047165549779 -1481.2678950946581153 -1477.1177112581381152 -1468.6994409857575192 -1493.7286862627399842 -1480.6421047800713495 -1494.7083291902663404 -1482.3351475256090453 -1486.3926220889381966 -1504.3206502566181371 -1488.1208487950648305 -1486.5939427890261868 -1491.4242397717855511 -1492.2954531961784141 -1482.2510322478051421 -1455.9332483516338925 -1473.6480586434070119 -1501.0666346317750595 -1479.021822207416335 -1497.7697767490062688 -1483.5104648308297328 -1479.428179086531145 -1485.7514987158260737 -1483.0217798707869861 -1505.0690932906557009 -1451.2002104119128489 -1471.136080803044706 -1473.5553446738579169 -1504.0962669848645419 -1471.7045420692372772 -1492.1389201808815415 -1474.0124517640899739 -1487.3650919019648882 -1476.2197026150465717 -1506.515546898867342 -1486.0419914698386492 -1469.0155023598308617 -1467.961066302116933 -1491.8607399609668391 -1458.3321847306813197 -1471.8778667530209532 -1500.1074332162284009 -1458.5085809180413889 -1483.4832197435912349 -1469.9720141031398271 -1475.4667821807267956 -1484.1970048439982293 -1472.0970025064207221 -1473.8136903000474831 -1473.2910801939215162 -1480.3732086481554688 -1472.8180541119088502 -1479.3953429048967791 -1507.1542752674019994 -1492.7860548692547127 -1459.4519136691858421 -1463.3805186194563248 -1461.2757972077190516 -1492.6984649770047326 -1483.7489707658826319 -1521.5109598036647185 -1504.9739351854705092 -1475.9096110519844842 -1462.3277111474783396 -1500.0713934768155013 -1480.913850463895642 -1461.4445565715343491 -1475.1889563331044428 -1481.1598142378218199 -1471.6405856325179684 -1478.2653728506295465 -1478.6908153126546495 -1491.4167596432985192 -1473.7231384320032248 -1475.2191292297529799 -1473.711925634841009 -1476.2551574297826846 -1466.9284027530659387 -1501.365297323820414 -1471.9302281101158769 -1497.4977249734236011 -1486.619287113066548 -1497.38331065247894 -1468.6833952293650327 -1485.1754535544714599 -1484.1324031033061601 -1461.7569943962475918 -1488.5774740087749706 -1484.2332546144123171 -1471.4364201223986583 -1491.5219495013855067 -1478.8306257302779159 -1505.6757956827111684 -1490.1396523915145735 -1493.6723660713062145 -1460.112192902507104 -1498.6992364308007382 -1452.1800804660788344 -1497.8644091674032097 -1450.7823061289873294 -1483.8367844497838632 -1483.884931966345448 -1465.3815387139595714 -1484.1308888651276447 -1465.5019332779229444 -1489.0176580311233465 -1506.2824818595070155 -1491.2888811934917612 -1478.5172764793639999 -1490.1929272233110169 -1476.3365010635986891 -1493.9623614560434817 -1462.9232797609174668 -1491.0137830856401706 -1471.7136452007246135 -1482.8684844962015177 -1460.4181483938991732 -1480.0114462777546578 -1480.570695609646009 -1468.3530302175017823 -1480.2189194972861515 -1499.0430885222974666 -1497.794597861400689 -1484.2417382840026221 -1455.1739123408010528 -1460.8601196680044723 -1485.3467882179265871 -1470.901579522015254 -1471.9770967343399661 -1472.2366930729860997 -1466.0576558047512208 -1493.5747284140707052 -1489.4255396788551025 -1488.2427957226459512 -1480.8815853558626259 -1494.2131877960523525 -1487.1113673091081182 -1475.7071972011437992 -1525.9894803484107797 -1497.160856841798477 -1492.2112755790042229 -1487.535238405376731 -1489.6891520948877314 -1489.6834210285799145 -1483.1565666021601828 -1464.2658923949134078 -1494.9904342431655095 -1486.4434299070626366 -1490.3826795687605227 -1468.4785044641485001 -1474.4685071228848301 -1487.6830532519795725 -1482.7120782243457597 -1479.4553961005435667 -1478.920236149870334 -1473.0677092491803251 -1491.1138486742297573 -1494.7597387514206275 -1489.1811157623149029 -1490.9925379870660436 -1483.0547624076396005 -1491.0944788728472759 -1500.8562141213260475 -1466.0863109666333912 -1466.1378152678794322 -1481.0834505375048593 -1494.5484895772483469 -1461.9596183242915686 -1467.5378981952674167 -1472.7759008559080485 -1492.8614941798136897 -1471.8166357867924035 -1472.417492861025039 -1488.8671859302610301 -1496.5730532687500727 -1455.1064641098632819 -1470.6540944477139874 -1464.921869569081764 -1485.4423331504744965 -1448.5533303726913346 -1495.1818790769182215 -1505.9366534846581089 -1488.9472225784995771 -1483.4507820550456927 -1490.4465364070942996 -1477.5529915167414856 -1463.3371082247469985 -1494.7020109612421948 -1476.7285332221322278 -1490.813803751054138 -1468.5272448039809206 -1487.6557470700627164 -1475.2788264883142801 -1466.0447574226457164 -1485.3754661735893023 -1487.1485911377185403 -1496.7307220544187203 -1493.1722074646911551 -1481.8635692406901398 -1480.8747938387882641 -1474.4263176208824007 -1473.5774981460717754 -1476.7694508022364062 -1483.366101648938411 -1493.4109142230693124 -1479.9921670605840518 -1471.9123248481237169 -1499.0547465948791341 -1493.5762261155207398 -1487.2449167188638057 -1463.6904894606502694 -1490.5920411828878969 -1476.6535147475353824 -1473.6143091802418894 -1473.1727817439468708 -1486.9697246583523338 -1465.5140757903143367 -1463.8923237228680136 -1465.5673764871860385 -1479.628310192861818 -1496.9800131534379943 -1463.9872143979678185 -1478.0911881921995246 -1435.6770108114083087 -1470.7981021033317575 -1472.0545285537582458 -1467.3439517870444888