-246.23389446625378696 -240.88797354318847965 -236.99961263405313616 -237.00712859381479802 -242.71336253771730185 -244.25115050018112584 -238.26677341289797596 -255.89219500583857325 -243.54627962777982475 -250.40064350506116853 -241.07529749586586831 -228.26993256797749154 -240.72464254228347613 -243.35903268518831055 -244.71927041943590098 -240.75158895035386308 -248.08842708908255759 -243.77855460475328186 -244.61733746642329379 -237.72494696498631583 -241.56106532064390535 -241.01229291166652047 -241.92878426645748391 -235.38512779207442804 -230.75261387406129643 -240.18513583926852561 -248.14483066464799776 -243.58368517335642878 -243.1788606998029536 -250.48907899377084618 -235.84592433060035432 -253.13508329152918463 -237.70978597421938616 -252.62827640442722554 -240.13566236130350262 -247.52177146763847304 -244.14400276511338461 -240.73272158205446658 -234.24225939828281184 -234.23140521245937862 -235.24419834103798621 -246.69729923612374023 -247.95125266267223196 -239.83612384468082723 -236.85592700456530224 -239.69636458437952342 -250.43819499200770906 -239.42246060574103694 -242.94081658590974371 -243.23557440052596235 -242.2562541912863594 -247.45022129367890784 -237.31867546638798672 -234.93899444703339441 -238.82867687282401903 -238.84672597638012803 -239.91188558770852524 -245.94523567715464196 -239.65773987449969695 -230.87968667889069252 -240.16901338913260133 -237.66501887915967473 -246.9631899032870308 -241.28858636277524852 -245.33256342997106003 -239.74007764376094087 -236.85249723595833871 -249.59628869189123179 -235.26318941232560178 -242.81619718267006647 -237.14738342484042732 -255.10744604981752559 -246.80375431253233387 -237.08766222159917447 -238.93764104510285051 -242.45487096754470713 -244.18986271601281146 -240.11338657893645632 -238.59771277700781411 -245.64387815877591947 -250.93021602738724596 -240.62412163681085531 -246.31460451976710146 -233.81411204073813792 -238.01936270806587004 -242.81316978416592178 -237.2724660757238837 -236.0288272510901777 -240.431814738374527 -230.41323405302330229 -232.65601814193874475 -244.61371719761589816 -248.24768687886844987 -235.73090972214666294 -237.68986839324244897 -243.78469715733442058 -248.24571058996878037 -242.14303424154411459 -244.2412683514546643 -237.0754687323273231 -242.74543843407928989 -239.97787865657551265 -243.37332999280533841 -251.91380550766959345 -250.26607416548242213 -237.55031018385321318 -235.3833829699745479 -247.39617966927804105 -254.37221431409147954 -251.98092103732935243 -246.86015246946820412 -230.96166617056667292 -237.72978444651712948 -242.47525910499223301 -244.15476247850881464 -242.71746350571049788 -241.25715125229683622 -235.2672825226019313 -238.37551137398048695 -236.82686547810556021 -248.63467843953336001 -238.75300492586424639 -239.18554626249829198 -235.89096201167444633 -241.73430332678299237 -246.6360934221592629 -242.13519086737770181 -248.50525553647318588 -243.06988831502741277 -245.81657642923681806 -239.15042648049274021 -239.41066330724703448 -236.95838089611146415 -243.41406009436551017 -232.94748894791123917 -240.01754734899941468 -239.7098878114461229 -249.42810474495900053 -241.03501658656472273 -241.68720368750055627 -241.07336847587484385 -250.03063080842585464 -249.97329338031192947 -237.18504351795959906 -243.34469606735203229 -241.71883352422659641 -241.1357453320170805 -243.89519267777302503 -244.54789656032158973 -248.48506748296631486 -243.33335143756806929 -241.06690470668496573 -243.11330616118985404 -244.15737945307841983 -251.30275569551864123 -248.72879593336062953 -244.34203355859449402 -239.09935672208339952 -252.81969154197969374 -243.91584580846495101 -237.25643103420136981 -249.87422583088169858 -233.65498879845492297 -240.20581959207689238 -239.21199557545187986 -253.12823253084161479 -239.23192414697419395 -244.50352198981801166 -245.49275367921163138 -243.91192231662412837 -225.80008316089984532 -233.78873047678149533 -233.42590229610024721 -249.67540674514600596 -249.66895238585328798 -241.91139303219893009 -244.5179178448156847 -247.79381314296776395 -244.06514557810223209 -236.34899589805050368 -246.07453937153664469 -234.91783207031878078 -246.70625551315808366 -241.73440306702707403 -235.85591029738353086 -242.85651841295185704 -234.08759467568671653 -242.08806623481370934 -242.41403076944231998 -242.70486907600988502 -234.28303204612825539 -240.6302733928678208 -237.19323492722935498 -251.42861086040980467 -238.94524470104695979 -237.66352482255280165 -245.39608701482970332 -249.29957645072445871 -243.73271066734727697 -243.90007094009939692 -233.08523308037163702 -236.52450978763135936 -241.90073064049533969 -244.76296689214350977 -233.7091067602765122 -246.0642795788384376 -246.08973626933601508 -242.24590566944132775 -244.03244656488200803 -243.76309048558189829 -236.60334192301721146 -242.77783624218176328 -238.64823333510116754 -235.19188033191844056 -246.25745892119144287 -244.18638509153453242 -239.35906763727189173 -236.76781189288158203 -243.99457341946231281 -240.31329638668483994 -230.32230840556772478 -248.67256511447396861 -238.0898716381220197 -236.05202183878265032 -233.14015504501864484 -235.35869510212936007 -231.63750880828385448 -235.7192661698820757 -247.78809683304282885 -230.74176309548431618 -252.44853202661363412 -237.55900310826191912 -239.02122823514682182 -243.99094539972787743 -242.31260051740676431 -237.20374309944332936 -233.77311669221450074 -239.6356935586105692 -240.85692059203086046 -240.8984330527635791 -235.14279173541811474 -248.81349259198128721 -246.15846146919210469 -244.95514146511422382 -245.31851407172928248 -236.65905663640950252 -246.12500547241177173 -240.14010123695970833 -254.04779751797104836 -245.89962840670818878 -243.55311410094410007 -240.0883690743497425 -243.99140026413925852 -254.99774509519841104 -242.41111791529016273 -244.06344255453669234 -239.46438044087742014 -239.99944571755844436 -230.67252097508219322 -234.31977789124889 -233.14056579996778851 -245.54355219411641542 -244.54369718952617063 -234.9956429476922608 -247.64203659833813731 -242.09457406070214347 -237.35911171480702819 -249.65728004900611836 -247.09292740593070903 -233.05013128681028434 -241.74460270572163267 -247.61524171134846029 -240.908559903139178 -241.87353679782265203 -247.94867997747192589 -252.49974195400261578 -236.94576813731828224 -231.40431787844676137 -255.29902900855620373 -234.26566347128169809 -234.22568459896885429 -247.05841481447649244 -248.44780563757842629 -241.87790492415564358 -248.39727113661194835 -243.88911464615478053 -237.78512870821120373 -240.01585268991320277 -242.0882647309579454 -248.83627437581367303 -233.83554055840306773 -233.26041814473143177 -240.55677226744060704 -242.59695321803860679 -241.82059685292114182 -232.28721647902438008 -238.62798980330944687 -240.48642746798179815 -237.86123564724019275 -234.56718282867888092
-6.1483333317529451634 -5.6507546552795648864 -1.5810823175765444937 -10.909610460581353308 -5.9783391098667753027 3.6306559752843035049 -7.9127884736386437936 0.75688635182253705125 -10.377152028213417978 -6.2259778089645845256 -0.91416645648919880873 -4.3048176495317704848 -6.4707239870047326136 -3.8259494174795918298 -2.566196826667342723 -3.7270932777622212129 -11.585685849523592594 -4.2626803532484078829 -7.2284911270346565715 -7.7840877232947098818 -8.3958844218859702835 -16.679985116040878523 -1.2827747741605786125 -3.9723708716292498444 -7.4269756464498737358 -11.141658064310863807 2.3898043816878065115 -1.9970085533774155628 -8.3981248996005373186 -8.7770181117160817053 -2.2463307994270054202 -4.3118479197302850281 -10.177908106241064345 -3.0929728229125110772 -9.2064135992654847485 -8.8261345163737310315 -0.7935494949507706508 -6.969745055713984172 -5.1525589129244266928 -7.232267352253665571 -6.3356675574956469177 -3.7655714098084338559 -3.4006380991883435883 -6.2883420813289196971 -3.1169367461647823347 -5.322458962146659367 0.077011290087709127761 -4.2436732936364789381 -7.7378056921882389929 -5.7274851421353245584 -4.2253284188311539538 -7.5711178286486688904 -5.501475974185665585 -3.2107777607858909441 -14.192442610374465417 -8.0370979420848911445 -5.8568142952891673048 -2.2174593149326189412 -8.2444954071641642912 -0.88003567578716035413 -9.1061642948753060978 -6.4259968250713770388 -5.8656004933323719897 -7.614708025074066633 -4.3949453394046784638 -4.7635631187014277899 -2.7131898377717771353 -9.1425006457591990738 -7.8754630696336622719 -2.1095599788683641052 -5.552714273891140806 -9.8661998521704887821 -4.4102491932880134584 -6.9123727510803298912 -3.324955430681745483 -4.4086122254853776781 -11.797611293304790081 -5.684010602381572852 -3.7355729035986051656 -3.5299628837811853899 -11.239382205429841122 -8.4646900384878200896 -5.5975233318293984297 -6.2859734583323252366 -3.3046020021855921911 -8.1581587163583098032 -10.633813550360548206 -4.3571439326890271104 -7.8985200357859888243 -9.8264192249812438718 -9.6904576199867502595 -3.520005998544099679 -4.7606592653903021528 1.1053980647605650134 -9.8290155693884884158 -2.0673445121214513165 -4.2362130514103100154 -7.4483821791797293344 2.7954916397046063459 -1.8671524440515843146 -1.6359006148569905648 -9.0061137832917665946 -1.2212596220913560785 -0.55665032101707279111 4.9364450729133793061 -2.7091075518455962623 -1.5742394351943680419 -2.9763122393115453157 -4.0226775372268441799 -12.20104764282739751 -7.1479100587471444683 -8.1323837046896940706 -3.3663716399023564385 0.68911523045455813641 -3.3372527638983715548 -16.046380755711293631 -6.2542954842272200366 -8.786479335561981685 -6.5161455232672151894 -7.4682647339861674141 -3.4530468483608145469 -7.3088492909858793212 -3.9020564925643301812 -2.1093341136272272252 -2.6917159206850342912 -12.983630320582829398 -1.1125197609638632912 2.6484639390002850945 -2.5514909849899338745 -3.530797489680172152 -11.95072610319732398 -0.90782948613094194279 -3.8769514484584268743 -8.1064739764332482963 -9.9888444297377141368 -8.3369711678119049481 -8.4916692227999401865 -3.8618848101629286163 -8.5757286357785869058 -10.481495003642093522 0.49670665423658943993 -6.5631561526278918706 -1.7673944948686415302 -6.4681068991970889215 -4.2162507224128962235 -6.0245340212336877528 0.57995044684681262837 -1.7540107794658990059 -8.387674826874281564 -2.8845439047218954798 -4.5145864458892308591 -4.6491365173020078316 -1.5741807478099552053 -8.725222005171643147 -9.0824635894657923529 1.8587805493067892648 -4.3588280568168045193 -6.2180274958026604537 -7.6835007484697062097 -3.9488522408061932367 -2.9453309376603993286 -4.9789207065895730864 -1.1945108132600954498 -4.7245040456366425019 -9.1070809960202154798 -7.1888371816400393755 -6.335539041517066039 -8.6798092020989461304 -5.8436744310467334529 -1.520578248020824752 -9.3446553795714422108 -5.1791581530566306313 -7.4811859353866161371 -4.1289071695699055553 -8.1660662620007933299 -2.9314939154976649149 -6.3379653493135750253 -1.6012644856231208479 -0.0085119742267920628365 -5.8495770381374905256 -5.1966029539959093242 -6.4521666153255692322 -5.5147704630306417783 -6.2820812762515831906 -7.8886850783196589276 -4.5938973601953732029 -4.1797896917665866567 -6.5085461096500871747 -3.6341956239192256817 1.043460408379119464 -7.310843705146579552 -4.0550341570135177705 -12.265863195275326092 0.71643183733076731823 -3.1771105984925624988 1.3565235521566181287 -7.5670688434279407275 -4.516486544151260496 -7.9839342544983971095 -4.2199039976820547082 -5.8108368340831484389 -6.3089128274895722726 0.81234972521041992621 -5.8403249017939007359 -6.0857236627574025079 -9.9606160517794073428 -6.5337134174023221433 -5.9636459125589125208 -4.9559271167619476373 -6.2878382314813903164 -3.648924878537583627 -12.716420349918884369 -12.287773426239894548 -10.425265404103258859 -3.7561710800950889322 -2.3943020539539774383 -3.9269131783266284508 -1.9458442706419165624 -6.6609191110619807574 -8.6520849260003309666 -7.9347034743587219197 -9.4302862647726968248 -2.4617392638602026977 -7.2900843166955704433 -6.1015668178113049436 -2.8751295470761015771 -4.8854739114160379287 -6.4504906360689577838 -5.1309497231287339858 -8.7217432491169404329 -1.1227755909717060945 -2.1341517891325194611 -4.575380850839755098 8.3433501493408748217 -4.8380991438037348473 -5.2605425847859255128 -0.80597467059967708991 -7.6233442886975604225 -4.7002530814106533441 -4.8937797602879804515 -5.5544859768033596481 -12.05430471789558311 -10.251111030282100245 -9.8616954556611329252 -3.1757670842191751959 -7.40955170683181219 -7.7605782409623991214 -7.3053886225859123726 -3.0837205686628395007 -9.7256611554762582017 -4.0578456654753081168 -10.873181377611704335 1.1949724200388947004 -6.8024990230162076799 -5.1794841954643464632 -5.9422108745489774506 -3.4184384080414527141 -9.3952533301364535845 -2.6640076283949385427 1.2146429568930896536 -11.739724610310707575 1.8331351154640729284 -10.116087965077641186 -10.50770279987597533 -9.4571313021773111274 -12.330975486312928169 -3.9730223754077478304 -2.2498988250535498779 -7.3438897282735311478 -6.6315985458770025929 -0.7264519233189163927 2.7202844077762464714 -0.86088024151100484005 -1.9149381285094273508 3.0918544420959626073 -1.264779022803610431 -5.8805768362749155642 -7.9000639932600096316 -1.0050809644982496849 -7.6910309879576903569 2.1894111595152905281 -4.4472869900107045993 -9.3488139147024273967 -5.8225065394380335349 -9.73397218952838017 -7.7907953776013822988 -7.1225342436983876127 -9.4830419294755614601 -11.180220904457225828 -3.8972038265548860636 -5.9684875473496825649 -7.7248996815010952943 3.2825474838111974307 -6.3378086654152223645 -1.7779578068944550395 -16.35871160296271043 -2.9129520592016135971 -2.7062441806909633968 -7.9046441918684333672 1.9653653333931802027
169.90859665546852852 163.8437962229039897 170.41668116457552173 178.20254280587403173 169.73606094355932328 150.18008511359647628 166.99503335314651054 170.02329650967843122 156.61977646347710902 184.42160268344733254 166.75726459515698252 162.20766277938469102 178.43264168781021795 158.8800423673990565 162.69568886634249338 167.94456613305240467 178.89825344960871689 161.80337311538394829 173.89428600496501076 168.74174762526672566 169.92771059568332248 166.64739559989632767 166.96462858515849348 163.34488041000398084 160.06216066762044647 176.94748726590037791 183.13923560793088541 175.85597639152729244 164.18746033942508689 170.64703235064592945 168.12777054904580609 166.95417960244810729 161.99150362876949316 176.48923769903717584 168.27559708714062481 159.66994204569328986 177.3267176451642797 179.10549011997036928 181.07294586494620603 170.56989041088991144 167.5946101432044486 161.52007655781616791 158.97918420930659522 158.82267605628496199 176.65069578264433403 178.25463802770161692 168.92343808696224983 162.80098709918004829 175.53250336661653819 158.28725526218644859 179.91585942975706303 176.92060291031569363 170.64401302225061841 174.15712950728530473 176.58392119954291388 164.7900280689183603 152.24832479518613582 161.52817203742011998 165.40809129045550208 171.14829643887588873 165.84543253097569959 175.3752282441964212 158.87721442610785516 159.0318723089273476 162.38513789052126413 171.57502728740041675 160.60145456446343815 183.15393182819406093 164.86411530787125912 169.23502913930533964 170.43418669071780869 171.37455017235487276 166.02716193601739292 165.72368091323326666 172.35270706755269998 172.53800707228992906 165.42491110780031249 167.25981289929700324 173.3336527789294621 164.04203509139574635 179.46331471475400576 175.23372277441390565 172.21376070018209248 164.63997676787641922 168.69485704027943029 166.82571371619505385 175.53316342155940788 177.5133158858876925 167.30640110464537429 166.70096963625354647 168.8015925388483538 159.95868829159772417 173.32016423396277105 177.2774655256759786 171.06925385379093996 167.93044487699063438 176.66178269607522111 164.11736839922693321 177.00474789003524734 169.48749316013231692 170.17760686001835779 163.14365578995398209 168.10495140924484758 170.01764141466156843 168.38108068807733275 161.44650976918040897 165.04687644895099652 163.28497247243694801 173.15571332145123051 185.22337282848360474 175.47709008221383442 169.31199721312165707 161.93983442662604944 178.99108412128845202 184.58813944217854441 165.06126414934294644 174.12544443103575986 162.29728432174883324 160.5785888255105931 168.41132436630599045 166.19978159375921223 161.60034966033495607 168.21725616285746696 179.23111745674486883 179.74690183983338443 166.57326585427844634 171.7419429961751689 157.35813478704548629 169.20233381877076795 167.67567323312738381 176.80582254850025947 158.16366929421894838 174.8320527210145201 161.03228619381644648 174.7944378368834748 170.49215914468442179 173.95458397561014863 162.47819562982073194 175.01690529355929016 175.02026816328293535 177.36666468043910072 158.43807095857937384 168.24512983907868602 165.22198853977445765 168.34050153160924879 180.78374949744892319 158.14659359536122452 174.87229812262597761 171.00203912225509839 178.00831754722636902 164.10660942746295632 170.27977844046026235 173.6190863746993216 169.70361288093909025 170.14273061384636776 172.63021265238484148 171.82917458964757884 172.4368570299851342 173.82575376228570008 169.13857053741344316 164.32911918460382594 177.88827122033114847 178.96744152143855899 169.2047940046239205 160.10646809192388673 187.75608019590845288 153.78644611603613157 159.14239834625382741 163.8043511030009256 167.46965658010847733 172.62017248149771831 169.7065656039237922 165.03986298369025576 151.41817816241800188 153.803748512476119 180.09468100500384935 162.08691015520361134 164.81673424053096255 164.02773963277707026 174.50088245614773541 167.18583435076510568 162.89832361037360897 154.17548344767192248 159.16189454123434643 165.41697841703384597 160.70264329438032291 176.92869712308140606 169.58622116657593892 179.13920279865183716 175.88332047318488094 171.15040036153001779 174.14058038976483545 183.20001692857610465 176.81903608079721835 170.02991528376722385 161.27124519282531878 160.6208143285491019 163.40176433859528515 168.72026318981679083 165.30830818759491763 166.68780617127396226 166.03814313779852796 174.40289815612686652 165.25055619108673 166.40463643525487214 156.16417911953828934 168.1267454303412876 177.34341165224572023 164.28112550968842243 166.88664652969262647 170.31708529315679357 176.66103708068391143 167.83922960765227117 166.45911764548321798 166.47724668293813011 172.66973721721419111 182.71917690482226249 160.02594356056425795 163.96669546653981797 166.00730449341307349 174.32074796666594807 169.13418804296736653 171.37357905004887471 164.76105190898849173 169.98361631274451611 176.17227865453045865 168.89774781269545656 171.19354858058053992 169.07598859499819355 147.49360305655221737 170.21278005202145778 167.36816861361731412 155.23210420808544541 173.47359661729572622 166.77310991560401021 163.2561137377956868 164.86303515768798889 157.77605175658908365 171.87929338673296797 167.1258314254283448 167.40879841149498475 164.55271036779794258 175.30622479422351034 173.56251841961878313 166.8785616759967354 169.20133440145480108 172.51742274231594365 168.03385818347987879 163.91312882386790761 166.91489625101863226 177.49227065717303731 180.72040882113071802 170.76075868829346405 165.1825382064434109 172.95051538587074447 165.94969136089997619 178.31605171796144305 175.93314347750859383 158.51899419339099495 169.19574999717843866 176.53690631379788556 181.91371599761114908 160.8753371895599571 172.33691659652134831 164.11394655107179119 183.90454599339125252 161.86861840168427307 167.69693014956578736 173.28001093287574008 161.14764901629635574 166.13697811739868371 165.67192098278013646 164.38247508693478949 173.1064532506781859 176.75097189150739041 172.61461408260632311 184.42001262906126158 163.88345491374420249 170.34705131742347817 173.07168980080774645 176.11493864028622625 176.59038631993058743 181.34022189683633997 165.90016167703944916 165.10465782898785392 177.02758747393914973 170.98508790806721436 175.04572800281772516 173.15533442082193005 181.0009764440397646 177.10611110887666086 175.691284287924816 172.09372510575553861 164.85483199663178766 184.54311834641265477 168.6971155845463386 158.84580706569477115 160.61332171097308219 168.14953322204527808 160.29000936571478064
-250.9534132986441648 -239.53855742397797712 -243.18809775728348654 -248.47160237384832726 -243.37674364223096291 -248.47826584185807519 -246.94227941784583891 -231.81523173557593509 -241.79106898234496725 -266.35447194510391 -243.76474961408524678 -244.67397802071019441 -245.64099542829927714 -245.88597720458611207 -239.05321505142811134 -248.06784275607171253 -244.55590602468228667 -253.03078188050375275 -250.42531898557970749 -242.29160880205498074 -248.734792549500213 -247.43334898922893217 -244.66966064373536938 -244.7750605480530055 -249.87484253499479792 -236.25725028678519379 -255.63395999312160711 -241.60737421165748628 -230.95282618479984649 -249.78729322285488479 -248.84362139163462757 -257.6570398440704821 -247.96233860484707634 -249.86034864683648493 -249.46409897148191703 -250.47287592440002868 -244.08319353023193798 -250.95794784334512428 -249.08761322915648861 -232.37670444242135659 -235.24182151462935053 -239.04178892312492621 -236.64013655897426247 -259.23310734030047797 -244.41399415395301276 -245.87891198796393155 -247.73461945861816957 -251.9837342545197032 -252.0996217242263242 -259.58565470253290641 -249.71263121030983712 -248.22087250581688522 -244.90831304072199259 -258.29733741116308465 -246.82797773094304716 -243.17952277064981104 -249.03780169513782994 -232.73809492770004681 -253.14272504745204628 -243.68478398221850512 -252.81924898877764463 -253.66176666172020759 -241.77690315773958218 -240.15821783474328299 -241.49757019079328302 -243.82885642415885741 -243.41485277265809373 -249.2897752468123258 -251.22182309604880857 -244.31866209174407345 -240.59773085628685863 -238.3301799683699187 -243.50892321049076372 -254.77120533166507244 -246.64445540118663303 -249.68896930147249691 -255.57419437348602287 -243.52567322398351735 -249.4952007300285004 -243.17600443708312241 -245.48953603136263268 -240.01507111022914387 -243.31108218327767645 -240.15664381440257102 -257.10904346118502417 -248.07381123205195195 -240.55138010587037911 -252.42763740182945753 -247.68593246044079592 -248.8694254853350003 -239.29800090989684236 -247.42688607935539835 -238.51882848379349866 -253.94225957386851178 -250.45318237426963037 -238.83248374930511204 -241.43905486835882357 -250.26487573101994144 -240.2865974130322968 -245.48378168859639459 -253.51114074073015558 -241.48411791489715483 -232.64781333508216221 -248.09624176563639253 -244.94824913997840099 -246.298850922115804 -246.97411945162653524 -248.22565601221432985 -242.24768106573702653 -249.56920635233504413 -245.12778865145628515 -248.90063795426189586 -242.49781300900386327 -245.57763908603672576 -230.14212350012590491 -241.10279593488979799 -251.98445000644971969 -243.35221439562559453 -242.46272393135888024 -252.96310488849934472 -245.76962681032682667 -248.43296421260779994 -256.50185495637083477 -243.77574482146494006 -240.87009062781021385 -238.3118663401347419 -242.62198491532956268 -249.99667260005816161 -248.41096630477727558 -248.1789729053040503 -244.28440427030790261 -243.99886503305594943 -234.53579316115013853 -254.35811839435518777 -238.90492080815752729 -244.62379449671763609 -249.02705595152303886 -243.83297052086589929 -234.74469453182535972 -251.48572890068237484 -246.18946261551917587 -242.98364532012467976 -251.52575267754068022 -247.17594929984272767 -235.05807550253945237 -244.45024512032031794 -251.30699477529162778 -251.72990864304460956 -248.34618705561345564 -237.39327659419731731 -245.33792258521950203 -250.70037386755470266 -239.76582473139484364 -241.10486070671601055 -243.44034782809700346 -242.83345468543546986 -250.78125500375966794 -249.05836699437878679 -250.66779891840616301 -253.29951248690636589 -242.31368323232703688 -243.37590605248539077 -255.54812209041315896 -245.51352883483738765 -242.38923341121576982 -243.44534531150932821 -247.95645132337503469 -239.85640456702648748 -247.6795965047477921 -249.13519494207574212 -257.0349275045767854 -247.81781360080790932 -245.41149225602870843 -237.71411222968976062 -244.65661225423897918 -246.75813447829150959 -242.24616542591346047 -251.47511417074636597 -246.16412171748825699 -252.95631199381909937 -249.4705540427174526 -244.15711749948169995 -249.95243578277819552 -236.3535456025304029 -244.80061376308495369 -247.36666083440269404 -242.19521956799002282 -244.31491780898193156 -258.14952550018978172 -242.55056354699087251 -250.36970661671952598 -252.33448202007608074 -242.29730705293090409 -250.57783611751273156 -240.12077007090280745 -243.12620283005594501 -250.65545400035372836 -232.98106835905949197 -242.44035837793342125 -253.97721766362099061 -247.70807760828071764 -256.93903028277344447 -259.01867889158484104 -237.40990009660066562 -245.04295562954504817 -248.41044639051997933 -254.74664737135859127 -234.65220704776902494 -250.07651912657516391 -245.65174764820810083 -239.76725872890918367 -243.83181617156725451 -242.27514462535521034 -249.69479504167048844 -242.43837259490416614 -246.00438782832708284 -259.05191284880089597 -247.31891659943138961 -238.36686748089590537 -241.09227148155633813 -257.84940061012827073 -243.48621429641787017 -240.16969799237918437 -235.06561537123397443 -247.73401973808239518 -245.90999261956906707 -245.9354812419057339 -254.93652493334596443 -241.73902833695382242 -256.92308681845395313 -241.88075860465636424 -239.07691533866071154 -248.40573929302541956 -245.04937453004248482 -249.86914310993472554 -249.27657566589522276 -248.13884962142401491 -249.02793515059710217 -245.91580049623848936 -242.49395211805673966 -260.52187411230789849 -239.35633634110459411 -248.40098430367464744 -241.67496750344656675 -248.22143108472153017 -248.69779415537306022 -250.36948399660505515 -232.33613010132992827 -239.06084263709698234 -243.57173002674755935 -255.0473212778041443 -241.29427748715045254 -255.27759435174294822 -239.65994341865612682 -244.55091511039537977 -246.22517156542176053 -248.02828693673760085 -245.01381709620289939 -243.10861607616058677 -248.37942785580810323 -243.11575911842561482 -245.29006972906864803 -230.15418213904220579 -244.79775825290195712 -256.02442187372804483 -229.91950687678263421 -244.02351562376591687 -246.28294535133005638 -229.02308170348169369 -244.90192984525941711 -244.7055523300749087 -247.38217425534824656 -254.31474305406612757 -246.8262194266698657 -250.93921386682472985 -240.64692483522443922 -241.44981779851875103 -251.73433643252167258 -248.65835011842906965 -240.86559739307028849 -238.3197225714185663 -250.78999409056171999 -242.48494680527517176 -248.75671339217311129 -235.52394818209111804 -239.68809824227557215 -243.03005373559881264 -245.66645016346976149 -242.94171733655221601 -240.90889659235278941 -242.55422735330245132 -246.49412084512931642 -254.91343328816350322 -248.45522097746092527 -248.77097098908652129 -242.22502110937122666 -248.32081617289634323 -263.23462353214870291 -251.10470367459311092 -252.30017816005741338
-28.57695017143591798 -12.010881964579381176 -29.068939394961546441 -18.04049033020844206 -23.744134390078517782 -16.946399148931185152 -16.496729845752113874 -20.544807401823973692 -26.862851582948330531 -24.041139290757147506 -19.003369121158144139 -22.133886288918240837 -24.452552434231495937 -23.733067791832311855 -16.815097303473798718 -26.194830915576478247 -26.535089441198167037 -16.693132495762306178 -30.276071329196923898 -21.595586280535190582 -20.038261374217306354 -27.757011584277805127 -19.489645550493747805 -23.131596820865066633 -22.972976709925440275 -22.3645527028838913 -22.220067062778696254 -29.237840740645488324 -17.676344344540037667 -18.662058088250454091 -17.572133097567267157 -14.583534758461775382 -18.578793666395860384 -25.051679667315994493 -25.924522591027194807 -18.398346567530396101 -17.753082576397325454 -24.185469788826651438 -20.431782491335219731 -17.564534619924025094 -22.197326223676231649 -20.771479540863186486 -23.667689844009835554 -22.562305590848254155 -24.147284713167145753 -27.456633605008157417 -24.04740446354281147 -22.60770567346429516 -22.489930433442584246 -25.724978333234584937 -26.980706599872707585 -29.183301442990192243 -19.190160073133032625 -25.988069357551168537 -22.045406963277990542 -18.501428651745214893 -23.577118628546884338 -29.775058286146272479 -19.884731102231310018 -22.930458857001550399 -23.47089483967631196 -17.027552895008753353 -21.076497083727410597 -19.487325590849380319 -19.460699236695511161 -28.609031985573441403 -26.39212391187877671 -14.48214370569824716 -28.53379278834032462 -30.898474628828900279 -23.907219606922591737 -23.263810802145236778 -13.930224918171878912 -21.615132984039171049 -33.19538884007731383 -20.122204316513926159 -22.215722077505333232 -30.263029389920149015 -22.980065856236336685 -15.121237671036503514 -19.854773638637020383 -24.998034195508022748 -25.785627906896092298 -25.801243993589416448 -23.670310724209116415 -24.163371159182343462 -25.375513825556950565 -16.327702492268691969 -26.661994254542705107 -30.946354380475096235 -26.833535093709460995 -22.617825188632060929 -25.654658674559627229 -25.060562489113948459 -18.66146182875024806 -26.869613370970981236 -22.658323691013624313 -20.779933967073890955 -24.648340055632417034 -20.964070771817411298 -18.646667574984249427 -22.13181852390633253 -24.829681736555343718 -24.091869105898958026 -23.214836249171472815 -26.888832635053759645 -23.136872101212304642 -30.071740636123742263 -23.063904142923782103 -23.394550499346671302 -26.108681525399685341 -19.768700252133470485 -11.661504659260240047 -26.842655401786263525 -28.226010630272440949 -17.985690303565558423 -15.779956738402965755 -27.574365787212997247 -23.960935549021023405 -31.68468912200911447 -23.397152572288881345 -24.732131567480102774 -24.734999975558103813 -23.550540357427280469 -16.392952689189435489 -26.742609701941145062 -23.52670915813695629 -27.705469745439280871 -20.964426713357880772 -17.410396172365778966 -18.094885586552585721 -24.84449778815079668 -21.570780202592551689 -24.968060188100555052 -27.217898585962622349 -27.61784997990550039 -15.973077577611720201 -21.644608926037328445 -19.183183680289499051 -23.937436076979480504 -23.864478501356845896 -24.855017863252825805 -26.433359671820998216 -29.678638880520047394 -27.169096807490159762 -26.064287916842825865 -25.431677200834471364 -23.70554314164040477 -24.14896448093809056 -26.094340145179423018 -23.216247640011772546 -15.613560904343707136 -24.600486165215492917 -20.429309104741619763 -22.115331085794345256 -25.283337404157247619 -29.463334119416984436 -20.367985146421105469 -27.177931006368936551 -28.51968433447173723 -22.44172313623737125 -25.053682158163951499 -24.150289736446001854 -24.8211109910888581 -27.97918782441529828 -31.189683723464856513 -20.114786093972419678 -21.347118542981888822 -19.765600728376263362 -27.707773034111923494 -25.84094442323942431 -20.972452333129140811 -23.145293472922368494 -17.304964306943485752 -15.933074484502208534 -20.854912943879583054 -22.85753017729821579 -26.083545224321518674 -19.623333645771392497 -26.796864668897928397 -31.489433023564117775 -15.306180691973903407 -26.834450890349543783 -18.404293517279761261 -13.284374082177134113 -18.741392944975082457 -28.750671059418110076 -21.55005277335845193 -30.04862412160439078 -28.042242998547632027 -23.501161557358379639 -19.086701353004816184 -14.758664393501279122 -27.1509725644120401 -23.666659146772811795 -28.685945260962633085 -19.931273594659117521 -23.192714461157098782 -16.493280857046766386 -18.665732379467961266 -23.67296274254125521 -15.316506345207827167 -26.414142808284466923 -22.625919683398358018 -15.651939238209802596 -17.209970878927542515 -28.148162204395426045 -21.670233437167290447 -20.765181155961652593 -20.337502593496015635 -26.445887290817136517 -24.852295248957286589 -22.574253528837470384 -27.213497192935399482 -26.439677714422067822 -26.082256384380016812 -16.360952492712005579 -23.214425157169827685 -26.202711882752677042 -25.370064796988621936 -26.898778133148145031 -22.078380085083495032 -33.682469302101836206 -22.285064108214896805 -22.833181065194409598 -23.296217806411064544 -26.039210767608182096 -21.667203949520850159 -25.772238188407641246 -11.756188279831196297 -19.304944174719320671 -24.40181699188595843 -28.245122734995387503 -22.1511405411797071 -21.179565807429938218 -23.217522865752112438 -21.260467238209464824 -25.590870332427776646 -17.645504770670044081 -22.701792374749736325 -23.360214898490646362 -21.453740109049149964 -28.780755255978807128 -21.648077566232323932 -23.676447788619995549 -21.905665725542540656 -22.190395833512877033 -21.904367140104724854 -30.972728986902353654 -15.997718872562330716 -23.692955026042938016 -22.840917914992889592 -25.351515649467458502 -25.323336607225563455 -21.889662025328405548 -23.848598989873362797 -19.176886196632544568 -27.234668969595823285 -13.413702513973285946 -29.45807719321092577 -20.473549875452121682 -27.021348431397825607 -27.551660990659250672 -22.799969063392087065 -25.366905570064069764 -31.730369621587612983 -17.041721930421410036 -20.71437465791341026 -23.332584540421077435 -19.875598491580355187 -24.518544185621635734 -20.962762716963663223 -26.179342613305220056 -25.783961181623762826 -22.13607335587201419 -22.470315188582404176 -24.178937441168876887 -22.36170964057453503 -25.095563447881509944 -18.334727560322463091 -24.935157853981415599 -26.329705137366634204 -25.515523001105758993 -27.933077166982513972 -25.294394784971384382 -23.710288634648488681 -20.560697820507090938 -25.231439355142256886 -12.798813286370851472 -23.801049250549596081 -19.083032795193375364 -21.571394640630600747 -23.733511297493542713 -23.486027176893024659 -24.35889722089714482 -23.305840480320856756 -19.754335339125255189 -24.290157988983303028 -16.824416802615861144 -32.036355779058609983