-129.1837688189864366 -130.78798549586650779 -142.79347778651015233 -140.7837452310233175 -137.26400060073993359 -139.87248075890192922 -142.57593738282747609 -132.8935150033135244 -136.1785949922488328 -135.2447905252995497 -143.26496945167667718 -123.88324661159668949 -127.17426346285363081 -132.44477363392510938 -132.53325185664161268 -144.15153287224381984 -139.4205275589916937 -133.46288745682335275 -135.83812466932198504 -136.11471073416862509 -124.60021190483548992 -141.63102087270306129 -138.85955029092309587 -131.04697365151153576 -133.32865378822907587 -133.81077020720010751 -143.14451464506632306 -130.98583128711049994 -130.14049979007177171 -126.41401507966692463 -138.62993939487185457 -126.6228843249418361 -141.41034273220662953 -130.15996202305092311 -137.08065051080666308 -134.72070735870474323 -137.12074202661321465 -135.95392956874624701 -133.30782878236129818 -128.46700617906910225 -131.46139829504409136 -129.8502925036985971 -129.7178769242137264 -131.90644814631573922 -134.30066488673261915 -131.80942425193495637 -137.75628297237969377 -127.96917757792536463 -129.81383013504836299 -127.08874528883960409 -120.43216216861975454 -135.24295130900620165 -138.32567745267482451 -135.54923047101769384 -147.32375039683901718 -137.19081794162448773 -134.52725355141248542 -137.95319817244234173 -130.92304113105427632 -133.37909896885560102 -128.20234012030215354 -133.43871579367328195 -126.30008584521847581 -140.88609724981478166 -133.78377098326143368 -142.83153822627812701 -139.85908461302636852 -137.42244883480435647 -140.13416933758028904 -135.85047645283259499 -135.87881987882536805 -131.25912357839257538 -132.71245296971326866 -142.6379242939914036 -138.73366707637904938 -127.99123022610065448 -136.06931774600923291 -132.04159639785197555 -123.64351209986055835 -137.78152570777862707 -130.52330142488096953 -131.2310487168058728 -144.51080328127756047 -122.12678957015886283 -136.90075684563421987 -134.10590085097385327 -135.32013439294789237 -135.95655259043670071 -135.61950734513089856 -130.97144590179848933 -144.32105724312100392 -129.86260367492388923 -137.27935985871371827 -132.80694987368329407 -138.86929423148282581 -128.39185189051639213 -139.62170112752983187 -144.28002730189967906 -125.59171157794638418 -129.79913813370583853 -136.30066494982023073 -132.66136095140385009 -136.87468074856730027 -140.08474489821040265 -133.61103294613178605 -134.71522040659911568 -134.65621420086387161 -151.61695918227871971 -137.91625986539725091 -131.63198358742113214 -125.12599371062079001 -134.94484934822264677 -130.19342305339421273 -128.7249847346173226 -135.31589622820180807 -121.8921647837808564 -138.94252116674124409 -139.74708601547908415 -135.20648939052784954 -133.53431108616754841 -127.36289632263506633 -134.69749873193356393 -136.75984063356227693 -132.89278604470968048 -126.35872330710606093 -128.93389721651220725 -132.79030260053929169 -131.48151002850067925 -122.48640151656697128 -136.22546226345843934 -127.58775692833393123 -136.74478761315762654 -138.00061982240802649 -137.58156795990191767 -131.34303106199072886 -119.11451411120357591 -138.53539575988031629 -144.1776382182762859 -141.94694471224585186 -140.64439793499153097 -140.86854639557626001 -130.03081766027338517 -127.11869659750180972 -133.76171093070354345 -133.4063096333156011 -127.21889636652214506 -140.12769045819476332 -136.22379336498917723 -123.00864522131713841 -131.93196770176271571 -135.00719475588240925 -132.52038893741368497 -140.82428363086097534 -132.89106766686853689 -116.58800957308798729 -136.72790731165903821 -126.31380672360393191 -124.95600647099142577 -136.21875593075546362 -130.41363074400535993 -141.35788299337013996 -138.80210043075621229 -131.53770061051289986 -132.12400095099405917 -136.19979498839012422 -117.45409039538353113 -134.75963306685491716 -137.06292709922135487 -134.81078537482693491 -132.86035781821496471 -144.73929464771552489 -142.08416557670170732 -143.89162029794161413 -137.40106887423144144 -141.65772698657002593 -131.16821947201722764 -152.41015962732652156 -138.96594036575095288 -130.23462832245917298 -136.56097525044756935 -130.95862455288784076 -136.87339236941184595 -137.4689700695262502 -130.14893349780541598 -125.48749871063751016 -130.62217063123341632 -133.90801732960315462 -129.42838615031666905 -126.86208372550490253 -135.00003851457580595 -129.18739498584659486 -136.68669274030128236 -135.93254165969167957 -139.63334478690083529 -132.48553994771270936 -136.87180440980324647 -134.0677746400105832 -135.58739548187182322 -122.80952156070249259 -128.02048080745180414 -135.1705549432859641 -146.91521438830847046 -129.98866433583580715 -145.08370586827999205 -136.0470662081155524 -132.37258566725668629 -138.05002075635007941 -126.64712209248294528 -127.2203802052233641 -143.302491801033824 -140.80676545806983313 -131.70283523570452644 -139.7008459341085711 -133.88461199197953988 -124.58651994322559631 -135.02710075343551921 -145.4302415481087678 -132.7667200463664301 -127.46520129507463537 -142.94671100097912131 -136.24572997163997456 -130.9747650790943112 -127.73774266196640781 -128.86784062615993207 -140.54002753210687615 -135.3174960044031252 -144.07524493195836612 -129.13961613241519899 -140.04006482303341841 -136.03071408881885418 -130.738789989020745 -135.71757760170450524 -141.87528450289232751 -132.83903879933552616 -144.71573560082231324 -118.9412112288676866 -132.90164393818778876 -135.33325761439809298 -128.13325270543870715 -125.48924801816239949 -132.35223966249216687 -147.74023114612401741 -134.86619485864119383 -137.88361070610559977 -137.72156531081031972 -131.69645182593504273 -133.89813049974290493 -137.56496029413384008 -134.1031907961491072 -131.05355353426659804 -138.64704823416079194 -130.54351698567677431 -137.52350208150781441 -132.91018383111270396 -137.16689698789008389 -137.44875739724324148 -123.46468056112995271 -131.44270247670917229 -133.90951834179548996 -138.31115355738171502 -131.85006007780631876 -128.65246592174725038 -125.83381228297017174 -141.57839890139905492 -139.0166314884824601 -130.01323522637875385 -140.12141455562070291 -130.94910229814919944 -139.68457180086238623 -128.84065327504561083 -133.51696012294178217 -140.93363948716202572 -128.37449315475345202 -127.90911943185415112 -135.30523362655341657 -138.3688038246162364 -137.02918128653644203 -129.28115930938454881 -127.9141469668569755 -138.00993943648063578 -130.09080545292039233 -131.42058761360488006 -138.05682634594128899 -137.10381171222965691 -130.98569510525527448 -128.10882040975275231 -135.07105104471207824 -131.25867595215817119 -132.02211401315742023 -132.76002464123206437 -136.43139972015137573 -137.61164622063142815 -136.847362960648951 -133.68250115586218385 -132.62246011224084441 -123.65060385616084204 -142.75854332282068526 -139.43387184217999675 -136.70028644088910141 -121.94175550073154568
-25.870389879921198428 -32.458602795085226944 -32.689225968095115604 -19.288842197762175346 -24.938711296403315743 -30.286660383824120402 -32.352704377013907333 -28.991139496508328222 -26.645108405858195511 -30.339259019094821923 -25.384585071850196414 -26.152094801077158337 -30.222464291899257205 -33.096574994345374421 -27.6986757741228935 -26.190236481496189214 -28.32537568846202447 -28.615638692566214729 -33.070672953365729541 -24.022269515938837969 -29.246773243692061328 -33.171873552027456356 -27.83875003094534506 -33.084049817127500148 -23.146966266077967589 -26.453129454201839366 -26.897714802001218004 -24.475105854246354653 -30.3092060561420098 -27.054729560893580498 -29.502508174020988463 -31.252574044170501111 -27.872182110588784809 -25.399819083768353067 -31.624787105174043234 -33.411511484881870615 -25.322746344699055498 -27.163288914275593555 -27.50868989300252565 -23.313597911812621533 -25.650669679929592348 -28.343848473183076209 -32.785914033960381175 -26.05333705521859855 -26.907022086662713889 -24.20216647673121102 -25.14299196096196809 -26.813229482600466014 -26.065875029833176058 -31.726388967803181629 -32.139818949362592093 -23.781223259149765425 -32.429025606844795959 -21.316224320609837406 -21.480441460039578772 -26.536205678305869071 -26.689091736735001348 -29.207603736452973919 -30.018163147587905826 -29.355265059498851343 -21.983504808625781379 -23.896880774274602999 -21.18461782016393613 -26.524603452748959143 -27.367522933662542073 -35.216097411659703198 -25.232895400669942632 -28.580296317327864131 -30.59738294373779155 -30.085952960758024943 -23.956856450657245006 -27.608465990512140564 -26.364283570691657843 -23.518812936690011384 -27.484558300005939913 -24.23928725721196642 -26.078438627499075153 -26.103017067707845911 -26.290308995323297125 -30.91093390791019857 -32.242273382415568506 -28.448253226833077889 -30.088298759634589885 -28.251818937014199662 -27.500866330971078355 -29.409786282705514537 -26.79371461712066349 -23.757282124727090888 -35.087636219528249626 -29.723408583733132104 -27.705600794084826788 -28.165770912371268508 -27.124739505072668067 -28.812157202610833906 -29.564898428132508457 -28.591586960679833851 -30.499419821017518473 -27.166792314512989037 -29.458022448942394078 -26.819952799670833343 -23.826059441861460186 -23.728730301828168336 -32.984503912271996739 -29.153807230583524301 -24.647207017715317079 -26.358374349605799836 -25.952539884855184482 -17.477800937710256335 -27.877387605815584948 -27.108866253098661048 -27.996339108364530546 -26.108673901483562929 -24.64065036732306524 -24.945218941278113789 -23.13282766766081977 -34.773101503806920221 -22.602056902142564354 -25.729724515528232587 -28.216690090999399843 -28.022870323065795617 -24.513956673650913132 -30.528802767730766732 -31.799947026034285358 -36.046119065261571279 -27.684356181193741975 -29.082408876853520496 -30.121404660696981637 -35.097282866059913431 -23.953789685554170319 -27.04928647003405473 -25.022530387833089804 -30.530306879647575613 -25.006943429767218845 -32.819843316238689113 -24.376173898660795203 -24.733694170626485231 -35.23945074617934381 -23.423016620417993039 -26.924541544264315007 -31.030735510209648709 -22.236710418746092444 -30.498975017066562998 -27.26747766490015934 -23.969888845429196067 -35.073727592264269504 -27.068305438902100946 -27.107783930050835863 -34.949933566561611542 -23.358748954103177198 -19.833571829444423429 -26.857966960860370165 -29.5225169298164829 -23.843631928331269876 -29.464035347902417072 -27.043645263390995837 -25.614759335985546329 -32.392076309102677101 -30.663028731903157365 -30.562994849857442858 -29.983659665584820431 -28.923886136275022807 -30.475650914614714537 -26.600601536591749863 -27.904631307866829104 -25.574370231629419692 -29.252271279313823982 -28.626236829054150235 -26.536931782576047567 -28.043886265940333402 -23.350418723312561298 -26.371322727791518759 -25.437599898089768402 -30.272323426748357633 -27.317483136562948687 -28.462477655666958753 -23.458963435712121282 -24.049368300018066691 -18.918344117397332127 -31.209935264200140637 -24.331436502913167175 -26.69801495245135925 -29.823146248562174776 -31.510198249569320694 -31.700845580907849097 -25.816024333047302264 -23.450274776650012143 -31.259581706192385298 -32.715786888000224053 -29.949710276481898319 -26.049297482800113812 -24.730097983240039383 -26.401489203676224093 -28.161947564709741698 -28.670029222254253654 -34.319286005442947385 -31.133665931954556783 -29.971076767571386057 -26.779240802295415591 -28.493295780046143051 -27.393698094894151751 -29.911400731061199565 -34.25152381625325404 -26.857017972687859952 -33.223441159033107795 -24.090614237084754023 -28.455255299987019413 -30.419450151657823511 -28.935354537333509484 -32.09474566558667874 -23.204865103547987815 -27.873263964695439654 -26.149303406613924494 -27.760588818754932561 -32.303744519532187951 -25.749440700103452428 -27.180872374677054637 -26.451221453621130308 -27.426282737301875159 -28.95967483089272676 -25.383890228899062436 -23.498079832623577801 -27.736781099588711186 -29.222458263602078432 -26.629295362906130862 -23.512024665305318649 -27.014659569759196245 -32.506131117348040505 -25.853873204446149003 -23.805412859233577194 -30.800125999384746933 -30.569512338200425461 -29.216035445103763379 -29.607408785981164101 -31.419164241392490311 -30.553224779186095361 -29.017822122924265216 -29.640902897785167625 -28.426145554698173612 -22.123556575171505756 -29.03449963998778216 -31.592872464734440996 -29.122212665069532989 -22.45545761637442439 -28.445517598947247961 -37.707792056260927893 -27.851887956155898962 -23.325353475672606862 -27.654832173844447141 -32.026010703425541237 -27.131685666001246204 -21.751485465692404375 -21.901386141224978843 -30.732406701516829628 -27.118927089454388124 -27.634515112930849057 -33.747492048672022236 -26.926786520298279015 -22.442691125557075793 -27.640807815479583098 -21.048280998473451575 -31.86427747767953278 -23.452687819652325629 -25.112825636018506259 -32.332291805386965677 -34.328847364472089509 -23.780998396005472273 -27.599399532783873923 -24.661950923635323818 -26.418232293451595183 -25.643280726421163962 -25.731618850789260478 -24.471512290313668814 -25.999045984126802011 -22.249069660860747888 -25.571506342497979603 -27.057619643253634223 -28.023060335359247119 -29.710680149059463417 -36.497896886975155439 -34.481084366164765243 -30.539956450910228369 -30.941620318341172435 -23.571167612636489963 -26.377917804611687558 -28.497566645916243999 -28.518690117494287506 -27.046035283081234724 -28.366885362734961973 -31.098453834285383124 -34.160352190698276331 -24.965395366756954587 -28.965319912153017157 -28.21934100670255674 -26.217219609700244121 -34.330131850955012851 -31.559610494084573418 -28.504505072246413278 -27.103512464299345908 -31.104154608664096315 -26.680403915187135055
136.35747536179988515 150.29113752365105938 151.75298451821785761 147.98229252480916784 146.52416370800725076 144.89708350877501175 151.15177426380040515 150.63819016046886645 147.3808780110823875 142.33719559646976904 143.81547893308808739 143.59621160477286139 136.82175265914685269 148.2837783642659133 146.63471532290614618 134.78823463372822289 142.64795659738985023 146.54494799855078213 148.11364741785985188 142.00415867507052781 141.02068195669039596 144.39325747849088089 148.24904669944538682 166.65938707460665569 139.3929274488219221 148.01940022793920093 141.98048154045753222 146.06022089442970469 145.32167413109493737 150.41893847608193369 141.72533953807024432 147.04245814818753502 135.70516296773243425 152.2616193958562576 140.21964565024848071 149.6350160262213933 148.49041045877538636 139.16179632869486227 153.61322456646905721 137.85514418728195096 139.24084420405949913 145.46709210127613687 149.37697622261339347 150.84814520784175329 157.88048546706630759 151.31914308693598059 133.50482705991598209 153.94010281492953141 141.14223950794851703 150.38114853231158463 144.10244487622924225 149.97113211294720259 147.05174667617430373 146.39313075323678959 129.10671960344089371 156.92542586666229454 152.62297666160310428 144.94375788447388231 139.56071681097637338 137.63340349029402887 146.52666408068051851 133.79473796790156825 156.15759056826885853 145.75877490595081554 139.57304064344771177 142.84999570190615259 160.53117496434018108 150.05526438203153816 146.05710973802032981 127.25254425460421714 146.69990793066563128 144.21837595048430103 140.99380208791029645 160.44512305936510188 150.06247541766347808 131.48587131003660033 130.61412542399352787 152.6361215946562595 145.37307243694309022 134.35162043785720698 138.90095691442235193 142.13386007726919047 147.62341239366529067 147.87239575691074833 145.28501349797710418 141.26738740716081111 140.87508736651497543 151.99975719333212965 155.00259871750324692 146.79163746824497139 150.5542223443500518 138.13483561612412132 142.24424230311831252 146.10722916558708562 139.79718965349994164 140.66573554356705245 146.9950400742692409 155.88816379026650338 130.82058313362426816 140.03881179437848914 144.13726749030004726 129.35051896308482355 138.74901228663398456 146.63444124590256479 144.38230428210783884 145.99191397570513118 161.09250450193627557 153.64108106395534037 132.78945704353060364 158.27561511548265116 131.13628994926168048 132.99170949975754752 152.24303046949657414 151.20756149603224117 136.863128428568956 146.83878204012700053 151.31302273639352052 153.69485935845395375 143.03692665020150798 144.99951642325069656 141.95515327840351461 132.97142097995279642 135.33573772886450115 146.82470955279757163 145.92171825901056081 143.14336107212415072 157.71974981701734464 141.01090711100147246 143.96956793818421261 155.96162590890779143 152.94865823200970567 142.42218605724480085 130.25689263611863566 137.91201464058951842 146.16626557889006222 150.62764541915362315 151.44670363390957846 144.32100845367313013 140.82648944501497112 148.7071249864977176 154.07105763450664426 138.18823572452214421 134.98477305923981362 145.58394888626818897 139.74172627277383185 155.16830404538819721 154.08461069519901798 135.82356777352728727 137.11998063477460619 150.74066160642612999 155.3177809285433284 151.65375129906027496 138.36810072150120732 145.83987710492678502 148.14614835309944851 150.41869547192436585 152.67858583668737538 153.28367666373577549 151.18653189553299399 139.42673616705690165 144.95132760407031469 154.70076544624282633 157.70254531838861567 142.94132434571568524 159.52988356493713695 133.54227891533642492 151.3860593506813359 148.68788055374898249 130.39217688073847512 144.57958904311240644 158.50535559208282166 143.34162656058455809 161.44659525248226828 143.84357230943882655 160.55393926665007598 136.58576500436123524 138.61098617404448419 146.20977669048880898 146.94410621099774517 132.83685453196991944 144.28851759588013692 130.15491668988320839 144.48269904411569087 140.67821671409916462 142.03905157996160824 132.13579689534356021 148.43253754854890758 141.55219772365262543 145.20469996149759595 148.38771387374404753 161.49710888937366349 153.02012593197832757 146.4288077946120552 150.10671430408513061 147.57738154943157838 145.36579112365333799 134.05330845709761434 150.576578085756978 147.22431340200645877 149.34192849868455255 152.19428318193462246 142.72907011676673505 150.28744702933084909 130.74630953722925142 140.33662328906817152 142.45511308831305541 142.60649889978088822 147.19794031537543333 137.22715890469925171 133.79050544141367141 141.3471466566242043 153.89672982435126869 150.27180256027469341 145.53324033546104488 151.76019116651229979 153.62531604945169761 146.98174137826717356 145.62403843669460457 139.852089627220181 148.05281265964265458 141.55785079951834859 148.97753416204736254 142.9093669518803722 131.62948741001412145 145.72729576313508915 149.89103590159612622 133.22589568748659872 151.24058608729484376 136.24393050448770737 125.81399304280547824 148.34189438817833206 149.82268440537629317 148.7176253451625314 132.91169444473737826 150.83864492222934928 142.69136989168984542 136.2086314596536738 147.47074846195533837 159.47049437922265724 138.05957119345725914 161.8339298849453769 150.55329786428808347 141.60856241231425656 147.43746027506028895 142.09763026281055431 150.63890934143284994 152.41349951627495329 131.18966352954359422 149.43509916238218693 142.94315773218085042 150.21930312123981821 156.00584076962658742 139.25104577185490484 136.64321193470598814 136.51732162345314237 149.48913210273883578 145.76867531511274478 147.90430952066955683 140.28930136794963346 144.50181976925432537 149.85857702989480345 148.26424800532052473 155.20018279552022022 144.55986305143250092 147.00707869235120029 146.19186655814817755 135.65685434254879738 156.82603285991294229 145.02887360042819864 150.66334002626012989 144.59440696020348582 150.07892204081153409 147.19686447875452018 145.40207076013439291 140.44619156326308484 145.88383223459680949 147.6054040635965805 148.4168769804364274 151.8146838623967767 148.17922682753641084 157.83717912194387623 150.82264469280801222 150.40097057919209078 142.34897277902172164 148.8527178464163967 148.18634002470139421 148.13855205519209335 144.64200920077507817 165.37300483468109746 147.71873278189971757 138.46645427173245935 142.24151489058226616 140.74753338440700645 151.83219196332706247 148.02735233971003481 154.5855520640343741 147.4682985284086385 143.19237294480717537 142.92461435514340451 137.49914940919109085
-145.76026875308303943 -147.55641249712965646 -141.89415984514727143 -130.93647906094923883 -130.84995198804074334 -142.29633361913533918 -139.15160668141663791 -143.97368020333684058 -150.33139544946379829 -143.07257682732094395 -125.3851476239889422 -140.96073167919584535 -139.45587498929060644 -138.57797736391589183 -137.44723125033272026 -141.2737766272276474 -138.65925649062367597 -141.49071140172628702 -142.25636509586729517 -139.06129799112540013 -145.63199573273357146 -128.60380729284079848 -135.75397599870484555 -130.46307098377656075 -145.08133659276037974 -141.96602505421373053 -148.17099786258188487 -143.4020075093922344 -147.42042664986706768 -131.64829498897427129 -130.79387981849899347 -137.71027763048965653 -133.45657217105377867 -146.40111012222590148 -152.015931117897793 -145.46603064193308796 -134.87500777580146405 -154.19538238038734335 -146.79982216198069978 -143.85248326144966313 -139.37196372533259137 -139.98047151303256896 -128.65767794698334114 -135.45319405289407655 -141.50580659976745324 -136.51413482418533363 -148.3229418617834483 -135.67482246901116127 -137.13438449818261233 -139.42242945328621317 -118.54051929273218491 -142.37806109399670618 -135.85573740287736655 -139.0739697504451442 -129.51243998306100025 -150.93608282777310592 -128.84195661016900658 -138.89244924617534593 -147.61956962298381768 -153.2317512333507068 -136.84847984319895886 -126.2176811248131969 -130.01102174881248175 -142.98996598172061567 -143.25291897260854057 -137.30444377151613367 -137.14162281101764052 -137.09410472090726785 -138.2046451948204151 -138.18697844233309979 -131.05945422427211611 -140.49348031432745643 -139.4276523278404909 -136.55869976667756305 -134.10266960307200179 -140.12972783493481188 -139.22567092182788429 -131.54193353425318946 -132.61230645799483341 -138.6871768358167003 -143.82348791434154123 -142.67455661975688486 -146.51594504235183081 -136.56960657994974895 -145.08370366262866469 -131.38806262395610247 -139.95983346480821297 -135.98145762974624517 -136.58942717093580654 -151.29559792603799906 -139.84238891379905567 -139.43296099738040539 -145.50311449198932223 -151.89841009204326383 -131.29256702749762553 -139.13691856131950431 -135.82957991787412766 -147.63408791836988598 -134.77264137285888523 -142.22703879019550754 -144.80951399434565019 -142.11344662004302108 -134.20574906567759399 -141.09382393506336939 -135.5533012492785474 -128.98553696710214922 -126.25133082122617623 -151.53067541045459166 -139.9722553402895926 -140.21430270549831221 -138.898881220534264 -132.48626487669577045 -132.34568975726000417 -136.20159443645781039 -135.43661207969853422 -130.33901475425588501 -132.81230834708478028 -131.37575299319803435 -139.40584086337065628 -137.5847125601603409 -142.66556370181297098 -125.09070774910367163 -134.27270960462070093 -150.25096047927544873 -141.09995295275842864 -130.03386177808999946 -127.11416280895097941 -141.04361757050207871 -138.27749976326916226 -144.47857569620074969 -131.19023168015132796 -138.20082618068886404 -123.64939289613882067 -139.29251589343454043 -145.62684109339201655 -136.04524282558239179 -130.72064971460574156 -147.67967552436076062 -140.83049971642878972 -131.47031791087891861 -134.91831825625149577 -139.39731513590609779 -139.05662665834290692 -140.38888932485565419 -141.92402217226651828 -148.74510217334469075 -134.24351846578878167 -146.60622361435741823 -139.51612814539362262 -128.48594749536530912 -133.69612046131413763 -134.09490801360240653 -137.68809905199370291 -144.94755472882485492 -131.6800112715193336 -139.31929199079581849 -139.0368913182513495 -147.24654080118679644 -137.68940970599322782 -141.65807894825755398 -132.30776091033183661 -137.98322998264148964 -139.10865067356311897 -148.17723662397702356 -137.50785437511754594 -132.67933947209550638 -136.87724586554310235 -135.7958444083609777 -136.13349856763943535 -145.45462001193087076 -133.75904866405849702 -133.69400889972047253 -142.16596527773594971 -132.673852059460188 -139.65668664288378409 -129.52531366298003945 -145.73420774809068234 -141.3474872661549 -130.83193755516793999 -145.44338134340108581 -146.87249038470892515 -141.26304257347686644 -131.80281293041156232 -137.30255980882702715 -130.73856375510951011 -142.88408566107560205 -139.10449999491933681 -146.70438756590792195 -142.66706736807404354 -136.76417771796985789 -135.38093318445598356 -126.17471356180665509 -129.93902456597635364 -137.95142553300419763 -137.18304906019338318 -133.529320666843347 -147.19241272687116862 -143.56108730243485638 -127.94330791790433466 -140.84228334333684529 -136.07229044598989276 -144.01941469643068672 -134.2084577731365016 -136.21113187330394112 -139.82579851773544988 -138.58819592744308125 -131.06307535466851277 -136.96972683029395057 -135.60777415171304483 -138.19337824163818595 -132.03676688512945248 -142.85491572780412639 -139.63401274631439719 -136.75806834170697357 -134.91102354530823959 -127.6467340533989443 -133.6937815253660915 -144.87736336304857332 -140.33434328280793579 -136.53583230116208824 -132.37342743859537109 -139.60430192031876118 -132.01410553215606569 -139.34205219008001109 -129.89869178782905124 -136.87530813738473512 -134.47479162276300713 -130.59142935053841938 -143.13931898840309032 -145.35287840408707893 -144.39081979212340912 -144.91472228370420794 -140.29684393521961283 -137.35122407739956429 -133.6176489934429128 -146.97245188654565595 -148.38398445681906423 -146.47240374208183766 -131.82727431401789886 -148.23355819432001113 -144.81879313093463679 -129.88074174780845738 -138.13911656797512251 -144.13334793625338648 -151.76013642228991785 -150.30998397853531401 -136.14665026085648947 -135.72771394080709229 -137.20155128574799619 -133.74543259403171191 -140.7968446879996236 -143.82773176646762181 -140.75089835729528431 -147.89915002648649534 -145.1819812881913947 -142.96885656886652782 -140.56854712663530904 -138.67740398419473991 -129.8355317987988542 -136.24835159813576979 -155.09202469971472738 -142.34744637467903772 -143.54231289383199055 -133.15333956323553366 -133.22031111053033214 -131.88572339816883527 -134.65970658368431145 -140.47937626764451124 -136.9619043564064782 -136.54600965354967457 -136.4985269706849067 -139.83357031485854804 -140.1299138270787239 -137.27180747893658008 -147.48518913566093147 -129.36495951961020978 -143.8073905526115368 -141.07390284932600366 -140.68368080491805472 -136.81730984998205258 -136.29570968131901054 -133.99724036156069928 -150.60911870977685112 -132.47175004156790123 -145.53166794174961751 -142.21812554736297329 -130.20563313884190393 -149.81100319641515739 -129.71351973962350712 -142.5270384334820335 -137.54710558183836611 -141.64624666042550416 -145.71221829774819412 -135.88707628403545868 -141.90342561627937812 -143.12280411859973128 -145.77604756426399035 -136.74405276696052169 -136.96597958499287984 -130.800281225020683
-27.4773365274039989 -25.664765166360581361 -30.992593753595670591 -27.617854679266397255 -23.523953245000807755 -29.330421328864389352 -26.358888614464298428 -29.717815766118956589 -27.216641057396849135 -26.889443367821023401 -21.887159693405241256 -22.679962088287183519 -25.21610101481979882 -29.197509340049744964 -20.333946839150215169 -32.990509333524741464 -18.501329870189351823 -31.917549648592533629 -20.180028509373336476 -25.233434674857868174 -24.814110091365623845 -29.744170484026106749 -26.320095145282166982 -32.832015295485788897 -30.046561627199945832 -32.604507118612602312 -29.105068916440220761 -29.901138357051159744 -33.828039240544264032 -26.640721164526116382 -30.675206833970921849 -29.974330012005307111 -19.124370494109321328 -21.40070345749179026 -30.892116801655141956 -20.857325105888403272 -32.823283417133659157 -25.370592353705909261 -22.109292583861090975 -26.005282578579969055 -28.994210154567543469 -26.240212916810655486 -25.265465978167611638 -25.606799100219362231 -30.591835141822919297 -32.043201954329575187 -33.342745203760173922 -28.627873606111556626 -30.824882041302824831 -20.584555487798787965 -25.457661574776569324 -33.9698869461907762 -28.494667134615728088 -26.732545619592237074 -31.001331974581695761 -32.965359676984050452 -24.004290409847573784 -30.146983688394740852 -26.656604302687007646 -20.638421990358700953 -22.371571525997197227 -25.736762089399633169 -26.652086831793042165 -25.113939034662298155 -28.828434723012090757 -28.757604283333400019 -32.132776931243412832 -26.006479692454675501 -28.725560563562694938 -30.67905995992168755 -23.910594900173386179 -21.320796954959732261 -31.614533786130330384 -28.725804859413450743 -26.415559952451939552 -23.780884939245449772 -22.531868154716612196 -23.969578153313626956 -28.502539988036900809 -32.146909623050959226 -28.763387377448154325 -29.911700051497959407 -26.188190076667119399 -26.730196648216274724 -30.335453136543531372 -34.565596897244901697 -31.907097712609854057 -19.831852515265264714 -23.994333203642657537 -29.583551161173211597 -26.174728214377630309 -33.72176560174118265 -22.628437384513663488 -20.417221793312684497 -29.370087786326251944 -26.136851767674226465 -28.693554718129689718 -31.00622636439533153 -18.514001859055035482 -28.00501264218179287 -34.934936385597616493 -23.114815956297860566 -23.346194992931430079 -25.176433968558733056 -30.11989397812066116 -34.051273622734370861 -28.508780359029671558 -31.479041359087609919 -23.722809948011065018 -32.818230341887328905 -26.415043802415873131 -27.777732131836753382 -22.357936302589372701 -28.43936203935317053 -35.522211260414728429 -25.828373432139471788 -35.628655801367699496 -24.982845867967306219 -27.760178980585912711 -27.474057948937741003 -34.232635386728574645 -22.764440930672506624 -28.314641607573015847 -28.086978634644601982 -24.507356357994499518 -37.219016956896311399 -25.761184870447777939 -32.469836620510214686 -29.298853267320630778 -26.929925092856663582 -26.03349871614995692 -28.537357592201253453 -27.311772796856335077 -24.754197143299244033 -27.619407317022712789 -24.57051739527257439 -23.013906727584839018 -28.273246529567060747 -22.81173964537323684 -21.061892745942451199 -30.287764946716375647 -26.082833637092967649 -32.014978391682468839 -25.65361181353586062 -26.25105133956746073 -23.668515999086871204 -24.257037141227566934 -27.874437475173742484 -26.039790944118898608 -26.288297882336102873 -24.192449477069470021 -21.875516159278326711 -25.799646079710903734 -26.635109306770033299 -24.884591921621069588 -27.438179776849782598 -32.541655552425936548 -29.916874599463536555 -26.603876632991596551 -22.042117881008621794 -21.894740508414670899 -29.191283743315860733 -29.347902784764549722 -26.706187181817174547 -28.650486044628564741 -26.022461421447708574 -26.156985145655752945 -22.350300214681208644 -33.747592309256511101 -25.084501543223534981 -30.885933453352716782 -24.275542570992946878 -18.527002686044170332 -32.863389027756696237 -24.599708575368186558 -32.124779417456814201 -26.666293840063122644 -32.721703408002710489 -28.496818875639874591 -27.435614185403682797 -24.78031377424286319 -27.532853971003294902 -34.142741482885782034 -19.107380123931537952 -27.092528872178007759 -29.893557445747752865 -24.285471523766879898 -25.223496953654915842 -26.710129191635694212 -30.51919569863358106 -16.969044941975202079 -28.13046970871618413 -30.057701300717155846 -24.070487124396791501 -28.047598799546086923 -29.625988376007583724 -27.374120790899240774 -38.30666298611109255 -29.579588912849438032 -29.040052817530714435 -25.7814710741322628 -28.551146818006358785 -34.221636331243985296 -29.781460425327956898 -32.763763321236318404 -27.908198252034686959 -27.31740348896463999 -24.29475139998169908 -13.012695557666315693 -23.001052500704478376 -26.488404992582985642 -21.897441075963381962 -33.247808301337713033 -33.890694995016474422 -23.0943600851410622 -25.885438262081819971 -29.503792323923235585 -23.261731601272650494 -25.430145420213747798 -24.252668589428289181 -30.041016666508063793 -26.009635191610197325 -29.992798667237053678 -30.077253143372971067 -33.906181430769045448 -24.985166864361744388 -23.556947314656071057 -34.263895278401207634 -21.207368762278516527 -21.573941045478928658 -21.777951507915460638 -28.88082706841886349 -32.000913023217393061 -29.675438719708857604 -29.803829478514948903 -30.721891105405632061 -21.454813080800562375 -31.793013827389891901 -28.760849417503600023 -27.719859264732370718 -26.090240625094708093 -35.95106329648164234 -27.825123634653451177 -27.888293348596452148 -24.536565123597462446 -29.36960647242608502 -23.416225238564432942 -23.744997980539260141 -31.264794256262035788 -27.151731909775669749 -29.86847977141231425 -27.381078850036928429 -27.72946710143182969 -23.340330789354155172 -23.958017014068897055 -27.543442148012942994 -29.372964422202898049 -32.093946071460202063 -27.918578988621721493 -26.357323093018280247 -23.908664517439888186 -22.065796573537916458 -20.213654383127991565 -30.169214913241109599 -21.482818716026145012 -30.35418884292148789 -28.284990277588583751 -26.702611445737034046 -30.323951169554103302 -22.972953299309907038 -32.00514239030183461 -31.527457002277103015 -25.91330213651635006 -28.165088145035433342 -22.583024063534391956 -27.00458402730305707 -19.01929898174748601 -33.257676557212633384 -31.801065548776023206 -26.170317454642685107 -24.221077612670313783 -30.221276271432245153 -29.199015648102971454 -28.649232402744225112 -20.943464337450016899 -26.904552348765847114 -29.440331326035305892 -25.276833194387936743 -26.586473916549891783 -27.143935371189023442 -18.928531884063744428 -28.694050757721516476 -27.299050672575646104 -23.715743494683060533 -32.706023502213831478 -22.613019507758611581 -18.822807428834948951 -24.402755340862547939 -30.73180673676848329 -27.101623558673040293