156.61647452485422605 142.03770974384443093 138.75835825487882857 136.17772950112751573 144.88016571039881342 135.84220158519687516 136.8162614481227024 140.07700954771530633 137.40057981508351759 136.88598741078641297 144.4604402362412543 141.33923296255989044 144.93094021216748502 144.10650824716842067 139.74280588694929861 152.72398883465913855 139.16596260432552867 142.27369274631027452 145.63006541045189124 138.76422385458022291 137.18356596888497734 138.31219934504804314 142.91483393804696789 138.66796148401297728 146.15993186382451086 140.52884437225552006 137.06988966727664092 138.94595534705399587 148.3920171435594284 140.5760564707876199 138.47323310484088665 130.47831856712338094 142.85573132667369123 144.36683136814696127 146.9956236818491675 138.99486252583352552 131.84848067510731084 140.51419678140396741 143.88330589920664693 155.76450927654693146 138.50159068637563564 142.76347530500666494 140.12414273451406643 143.97647464323480904 143.36364573635950137 137.71012316254842744 139.47490256481700044 148.15005314660933777 141.40085319034986355 142.20762915025639472 143.55844585971169636 148.51180781809554787 147.44357988527562497 134.60632888291607401 134.28420208248124368 137.22240228148788788 145.40649052407977138 135.75772114527751455 142.78138620722424434 144.49189735162872239 144.47070587299964473 147.18712737557908099 140.83521020232586807 144.27882308137085943 150.96083576762114831 144.73988733893969538 146.63325656943791842 135.66505505054396963 139.88499916484579444 137.63955391678803153 146.75233787091411841 147.41128509066777497 135.97203878930531573 134.90537413226124386 154.0183635367229158 133.23132391851848411 145.0290114919655764 140.67532922152989272 144.52400870531204191 151.88043958442659687 128.35213715033643211 131.39019684128021481 140.26335766577170716 140.38739074564250586 140.4739564315073892 145.57272629290511645 146.25415601160554502 145.01894009044079326 140.80930537848058748 138.69300703235586525 133.79248636002509443 139.67673194213102761 142.59621387876921972 140.46145748130118136 153.45599044874160199 137.84391530237382995 139.45535410812178156 147.74434032382302462 137.37356912234139372 135.10881643222791126 140.85723576573681726 140.96238650029960127 138.34346870122311657 144.32371627080192411 142.49335523003307458 143.94557971844182021 138.35436677441674647 150.36871816143204228 149.51483388781872463 145.77228549210806818 136.16507322572067551 147.41040307914724394 136.8171094194192392 139.60300294386715336 146.68842109110005367 149.76037895806675238 140.37405091766055421 142.44368784038013587 139.69514476497647593 143.3627406508345814 157.76718721912169485 150.81654650312620447 141.07008970198185693 129.93394315031065389 139.2162906851510229 134.94477260033380617 145.14832364383062213 146.21545587575792524 137.80258243388954043 141.68418835154878366 138.12730864329896008 130.15780513333487534 142.04951913205064784 143.75972883370633326 151.37356800271953716 141.52928366909802094 146.95756706559029681 141.14446661031760755 139.69458387208891281 144.17160484258778297 136.07712497991653322 146.73391472488580689 144.72519927607334012 147.99026497253541379 144.25790362261781752 143.75152416754576734 140.9972788762549385 146.09114155368882848 150.46807314079089224 139.80184851840360238 136.51231533389716333 147.5844568639972465 137.48631317828724718 134.19383577418025766 146.65199959820512277 150.97000248500245334 144.51232192096244944 139.94227866143384631 157.87706668852825942 141.65170435384129632 153.88364552065510793 139.75388083739369449 151.45875133656366529 147.43002006767878242 136.07861059979535412 143.48631516913721384 138.3377623586150662 138.81375161550488428 135.098399321241601 142.37670849161420961 148.75591263703390155 146.89584531471393802 146.28356212653440593 140.15407914380708121 144.48695545502172877 148.77947554470469527 151.61351933573541828 141.76041745491258439 143.38912277974375797 142.67863703886089866 144.89626610457446532 146.19954864734390299 138.05993333513507082 141.27962101466727063 150.31186159138616176 146.84249140666685207 145.4149620139925787 134.26588656687738421 144.42442400798159952 150.31338093884548357 147.27386835334743864 139.18381210312449525 130.90494489180153437 152.53579657992801799 139.06508073838347173 148.02211201190760903 150.99206682991095363 139.65954287561936553 142.22024108793038977 136.13512017844661273 145.34657382120536795 140.36900510416467114 148.07476754442771494 139.43366184670264829 139.20159405435859412 145.7108574311255893 154.7115606018516587 133.25250562269209809 141.17969427615352629 137.56485325459070168 137.54837715251605346 144.73554728578275785 138.49582266748811321 141.43337890292769998 140.96233221447403139 147.88066721207979981 134.65945957522149001 138.37005144182390382 143.74482586284773333 143.87816052962352842 138.50568847308113618 141.49874924751122762 144.84823609799389033 139.04334424593579911 145.44401672097291112 139.90631614921286996 134.17240239998307061 148.27868290189780964 141.28020299943545979 145.99315406197885636 143.5424164662726696 147.15746395887040876 141.15198768963605858 143.78028952257909623 147.90017454766805827 141.45828680636239483 143.55080436705978286 144.29581963006043566 137.99453098059714762 145.08052723048194821 142.82125710430315735 142.40413136322689525 144.43807709781728477 150.91188097495310672 131.94110598218614427 146.76827444134656275 144.37329865796971262 136.6491844720739266 136.54284415435591882 132.6135513659356775 140.370430476799811 135.97372021064927594 144.50193850753336733 135.59460664801764551 147.89633344848414254 136.50185944690991846 153.62576059976174747 144.80747920379397442 155.28502131680858156 139.1420074229958459 146.88820864948368694 143.35270186536172332 140.48166484176337576 135.07659387966259601 149.85743561267983637 144.89635099951468078 148.34576116702905324 138.86328286832389267 150.31048730373953504 135.7011819430167634 143.23465313298208912 136.64521639031076461 146.40558057304079398 141.68176790728020364 148.27644871085314549 145.92696232788446764 132.35698557326981017 149.15638172268020867 141.3731789697118586 149.64430900797694335 139.59244278860160193 139.78832297241484639 144.47099892999005988 149.36721836619554438 140.05733360249806196 147.25302974932884581 144.95026344397885509 150.58772062350678311 146.07835611967155387 132.05581124772294288 146.50461068771775786 143.0423963239098839 137.00274249351434719 143.58170610708970116 143.81413755377002417 142.85259964489782192 149.85807684036376486 142.94018548938868207 141.94674013159672654 142.13371494506793624 137.5572971965009117 144.39164279789076772 146.3867765695169112 134.30706105184279409 144.65215513284297799 137.60072605303383853 146.01892664821335188 150.06509859288237863 139.70652475164098405 127.26161331677609212 142.92031596897547274 146.30559017498856633 140.97042161630193391 136.05676623062871045 146.54793896050460944 132.89801607597036082 143.67335352585504893 133.70261438772351426 137.84243655576241849 147.78519149164714008 137.36516548191144693 144.56424619182052993 146.13792426777706623 136.13280075918430612 145.34409714080169351 140.23819127029585729 150.08594761983351873 149.53248324579314499 146.60676405356090868 137.89498653887540058 140.02915966455887542 147.95773809703126744 139.80593818858923782 142.93920192745392228 147.64411568445791545 134.1963543356338846 147.16067420595615545 146.18478295556030844 146.05232768846019553 147.21945387949855899 142.65784542209672736 142.04942001169573018 142.77760353700941209 140.87218316318410416 149.48381458610828076 135.02707647748752606 139.45491402049296426 130.48571137209859216 148.80122621457340415 141.81666674902379555 149.51438336441790966 142.75791103252160497 145.25126360848742024 139.33634235181685312 142.30412415182166797 144.45710655736345984 134.11763307091115394 137.29971527237825057 135.00478270355858967 154.16354388213940751 147.21662736252284276 132.90990353730526863 148.26046530863837347 140.99847027740014482 154.37561387942753299 141.76510857205431648 135.71262885866269698 154.86033018123492866 146.85120531385231857 143.5270171682438729 142.3021839914176212 136.03667352994042972 137.0746850542496702 141.86480783441925269 152.01918798360776464
-1445.8208956158143792 -1410.7521381451592788 -1440.8693165291410878 -1445.4484629976261658 -1416.9049538452597972 -1440.4013628188811253 -1435.1148790474067027 -1418.6294594269131721 -1436.6846738010001445 -1446.4212608955876931 -1433.1346278489438646 -1451.6262808887688607 -1431.50187891369319 -1450.7107193061817725 -1427.0538619682552053 -1436.6471766677063897 -1437.3225127342304859 -1448.3940577724970353 -1432.0563044873656509 -1428.1023859013562287 -1429.9536353331709506 -1439.9388116640204771 -1447.3661137193510058 -1449.2557455039943761 -1447.1172158743434011 -1434.1020841801055212 -1437.0241558297591382 -1427.0590302404416434 -1441.2910441954425096 -1455.3738272857081029 -1448.0753406742005609 -1432.1871201125227344 -1422.0998840834602106 -1428.9899373182743147 -1446.6415889756397064 -1436.9108862040591248 -1437.533486473028006 -1408.8311635342683985 -1437.3348459014841865 -1437.0137761409025643 -1413.6575408276212329 -1463.3358407587634247 -1405.8035036436599512 -1443.9198201430372137 -1419.5003264018175742 -1418.9015624763728738 -1429.9281902870902741 -1439.4405183138640041 -1429.8367876441564022 -1447.0551969011505662 -1440.7678475944569527 -1422.3066476668118412 -1408.3546818344586882 -1439.0786236855190054 -1453.6660961890431736 -1440.8569743733735322 -1444.906439843016642 -1447.7605765639734727 -1459.0348817697538379 -1467.7503460636880845 -1436.059064316588092 -1429.9987777902279049 -1455.936678855792934 -1452.1105461716492755 -1428.9978080234159279 -1445.0702453941116801 -1445.1799533754108325 -1452.7179778341687779 -1418.2204083743758929 -1434.3984852091259654 -1431.1155215424510061 -1443.0389436208240568 -1419.9359094567937518 -1429.6041402275245673 -1470.4919628198617829 -1442.4992912841544239 -1449.7762937530428644 -1442.9301622440907522 -1425.6396265820806093 -1406.6399290952019783 -1415.059918661229176 -1421.8454354642831277 -1441.2889852931775749 -1462.5573221083745921 -1448.4093522024629692 -1437.1920656217189389 -1426.3847694745804802 -1417.8809038560411864 -1442.8512888691545868 -1446.4615037369446782 -1432.9120286295640199 -1427.22466750521221 -1427.8876064209625838 -1444.4487198721628829 -1443.4370355322262185 -1454.084848042443582 -1425.4838931788810896 -1427.34346080995374 -1427.0730870685968057 -1415.2117856796669457 -1415.2554112985676511 -1431.4518725284206084 -1439.490705283636089 -1428.0016698063068361 -1446.3009748106785537 -1427.754548429719307 -1438.8687815353762289 -1418.7341375767966838 -1424.1988952713993513 -1415.4853943945774972 -1431.1396026530151175 -1411.6587961260631801 -1440.3973906026183158 -1428.5083493791928504 -1425.3442229227350708 -1432.0240217433561156 -1445.4448394545488554 -1441.445243562214273 -1437.2127296160499554 -1426.0851819408715073 -1438.6482852780554822 -1419.4325184762617482 -1423.924018929145177 -1443.6192150074855363 -1459.6202761136357822 -1415.4464428253550068 -1459.6356717430703611 -1421.3990313377298662 -1435.3288092221634997 -1434.1337368350605175 -1466.2136219887604511 -1443.9916754963783205 -1458.5008997374168302 -1432.1663764828135754 -1446.1721862351489563 -1456.2307678952674905 -1438.6537440409099418 -1448.055644707615329 -1412.2673521838294164 -1422.8436597747347605 -1422.3394371165372831 -1427.4251122186965404 -1404.8229087675301798 -1433.344443775047921 -1433.6083359520964677 -1466.1453782654662064 -1454.1510320190354832 -1432.0212426228345066 -1443.6755143903897078 -1446.2632573444743684 -1440.3863751715300623 -1398.7731186885737316 -1430.2135584550665044 -1457.3046408434356636 -1418.4892861742623609 -1435.1053778625910127 -1421.3559933298595297 -1443.8210067082061414 -1445.1453384860326423 -1431.3993193094747767 -1447.5552532976350903 -1426.15698543602889 -1436.9141073444304766 -1431.371275129042715 -1399.8551907074020164 -1445.6071732323855485 -1460.2206548596411722 -1429.5518155663207835 -1429.4615628985745843 -1439.9434124037941274 -1461.0122722750531921 -1420.6970446229177014 -1415.7200826752698504 -1460.1472277101283908 -1423.7587293774438422 -1430.7913940375265156 -1409.7336476453704108 -1424.7194009401275707 -1434.0190440764426967 -1432.5976157662098558 -1446.0310816913470262 -1450.6118079335658422 -1435.9431487610056593 -1440.9354830884308285 -1436.8196654226323972 -1416.9710772948249087 -1428.3476678742504191 -1437.6783895224552907 -1423.2036174115705762 -1432.8157254794612072 -1425.0506959506546991 -1441.3307405076841405 -1438.439040747641684 -1436.5143286609409188 -1416.8008213898890517 -1445.1019032677108953 -1431.4493879933741027 -1423.9516908847112973 -1450.4381473534970155 -1429.5159776940045049 -1439.3653644232190345 -1451.9110548633775579 -1407.319281594415088 -1446.0929953840086455 -1451.6583214939116715 -1419.4163645258831821 -1438.3646474747110915 -1445.3919108512143339 -1440.6544351076727253 -1412.1570527775168102 -1423.9749727793891907 -1442.5779446579008436 -1431.2701763855366153 -1448.1072520095704022 -1430.8706599218687643 -1442.5886157917655055 -1428.5774406545951933 -1432.4121082704525634 -1411.6923125022135537 -1464.071410201361914 -1442.407175407111481 -1411.5014685808591821 -1434.6776645055015251 -1403.9577034561916662 -1440.4268003370930273 -1417.9280509510185766 -1425.6522013304868324 -1428.5866766033086606 -1417.3939586387550662 -1445.2723195002322427 -1449.5319278466963624 -1419.408659561091099 -1415.653789709518378 -1424.7351123505982287 -1419.6714388827263065 -1432.9463299839344472 -1413.9167788594284048 -1426.8041025491281744 -1428.5660003014975246 -1420.1151723974278411 -1443.4486955575366665 -1436.1225272945564484 -1429.1370679786989513 -1440.809646659645523 -1432.8454123915482796 -1454.8545678280856919 -1436.2780548202506452 -1439.7396458346720465 -1420.6251297139358485 -1453.705994232041121 -1422.8489418536812536 -1435.5723644586933005 -1440.0347141593019842 -1444.7629242604907631 -1429.2189946788776069 -1401.5516993632325011 -1428.9652448898336843 -1447.5495076590816552 -1455.7476623300883602 -1439.2208232919574584 -1434.954400767611105 -1439.1753627014893482 -1433.9817418931963857 -1438.6209456345429771 -1437.2505754123083079 -1404.922940122952923 -1449.6257057407769935 -1422.9638536467207359 -1420.8763188756358886 -1441.6012061562898907 -1391.7185292438191482 -1421.1751597800728177 -1412.8692933195352452 -1452.4413057542030856 -1428.3325325068210532 -1407.2431475848322862 -1438.8913201577204291 -1424.4257457190328751 -1429.7524169867415367 -1439.7646177563390211 -1427.460840129355347 -1433.5058158003337212 -1425.0439008224345798 -1449.726549077893651 -1449.5854431792731702 -1444.54404340273868 -1457.5923422018438487 -1427.2551024389381382 -1436.9039576969682912 -1433.9541925537778297 -1429.1090780840002026 -1432.121789894619269 -1438.629409600502413 -1420.3726747864293429 -1439.2747577757122599 -1430.6788240738903824 -1444.8481305164518744 -1436.915168704859525 -1422.3618950323516401 -1428.6998267188680529 -1424.6352541400510745 -1428.0642143469094663 -1443.2352846887588385 -1425.7090970484216541 -1443.145609489407434 -1414.2852505080938954 -1443.582417352709399 -1414.3073321189026501 -1431.1192327164262679 -1432.2738519973745497 -1450.3454131016469546 -1411.1657156104640762 -1427.0112729394288635 -1438.6388840021095348 -1442.124364214732168 -1427.2950910917361398 -1457.2407938010223916 -1425.6550151934145561 -1427.1274184629382944 -1413.1339980020670737 -1444.7177243634750994 -1438.4300746351741509 -1435.5330624169505427 -1408.6736173868782771 -1428.1631066195425319 -1438.2156972699465314 -1442.2931590620089537 -1425.2837980317897291 -1435.4767160001158572 -1441.1773786393114278 -1427.9118973937349892 -1435.2758355813730304 -1424.3253403208718737 -1438.2057467380377602 -1448.4335533333869535 -1434.766319362900731 -1418.7890037161785131 -1446.7980456653133388 -1443.5936369050268695 -1445.6710225341935256 -1417.6196349733891111 -1413.6671973676218386 -1434.1703291811463714 -1450.009006061343598 -1437.1878839835187591 -1442.539354497777822 -1431.7437452229103201 -1452.8535648112861054 -1425.0140949390879541 -1453.8816545695030982 -1441.0039065905471034 -1456.3628031551063486 -1450.1554449587858926 -1412.3634113274101765 -1458.1765449464996891 -1434.9383807834933577 -1407.0694051557738931 -1460.8587465915863959 -1426.7332835392999186 -1438.5260341870634875 -1433.7944109283153011 -1423.8718235206531517 -1450.7352948540228681 -1439.5147093817647601 -1405.6683309051911692 -1445.793988764904725 -1434.9825344905007114 -1434.6308059675673121 -1442.846949748255156 -1440.4696123455032648 -1437.6384128472748216 -1445.991469193363173 -1415.0649613388363832 -1408.2559833024633917 -1439.8935917637693365
595.22850446533436752 591.62437902718443183 577.20393266763198881 588.90570224337943728 575.17110215627235448 593.17335734928929014 582.80669765155221285 591.4688444009975683 580.79960003894927922 572.75081809885989514 575.36128697085609929 582.24124736880776254 597.73471440972662094 584.13274355930343518 585.45385369686209742 578.2206900298549499 575.14844735583710644 595.16210195522353388 591.30798608104157665 571.51060735677651792 588.52860180082927855 584.06665670039785709 571.55797669067715105 580.83760542804600391 584.97103465166833303 578.46011803430315013 580.91406026415302222 585.94748592750340777 591.33171265925250282 588.1492188132733645 576.05213341992896403 594.07413210055574382 578.88162022621258984 583.67310474567921119 577.43661334520834316 597.23054570524902829 599.6531235931838637 579.65178737879693927 586.68648072737425991 588.74938253869515847 592.52849772815045526 568.78799420221355376 595.07344104302910637 577.60559115910291439 571.20929944563511071 580.72211183365720899 591.83117490987240217 579.75468864788751944 586.38940668577367887 578.34238633873792423 561.28410048637533691 576.93153348653163448 582.29233393301876731 594.67093117275135228 575.9772555064455446 589.36231438089350831 590.67867570284465728 596.3256240394435963 597.09390872641404258 574.45944791357123904 575.49776766460888666 584.26571169856640608 584.73156749881673022 604.68104928396030573 561.45135601229060285 587.48694175894490854 579.64957110343505065 585.94917104894943805 593.48761356453462668 577.73700390887518097 584.20121573025210182 575.96239738755036797 578.40518981939817422 591.50578413159234969 585.37549397502948523 582.67104738096838901 580.18870500427397019 585.67369324259129826 572.71990453790715492 585.2930798751592647 576.73570032059910773 597.49794309670573966 585.17455256193898094 575.62868393674182244 580.94300890278270799 589.30287349997774982 586.18487649786391103 578.28434863178097203 595.74676011992528402 598.70156172630663605 594.84548406404394427 587.5964086393727257 596.08765026315006708 580.96829791266782195 583.81730955198497668 576.30444393286359173 564.9335825552411734 581.34808429316467482 582.0769525810990217 580.94100535386144202 568.07107988865311654 579.52936840091683734 569.02820532173632273 581.20432422303269959 584.82355994437614299 571.25647526375848884 584.95503559458927612 589.90261938457263113 592.92684124420168246 581.81057031836462556 576.32958908985801827 581.82738967394345764 583.80629861468435138 595.36664070419590189 582.58471040024210197 591.24838607918320577 569.31035199613791065 577.0204513334309695 579.21595121459085931 581.3897001470846817 577.29698066535866019 588.41667062470753535 593.20185005610528606 587.24119199343283526 574.08615756520600826 579.31777413351335326 584.06295699802376475 579.12287738277552762 584.61763359409383156 582.60978506398373611 571.80055244140135073 570.42349038787165227 586.48966024709136491 581.45988921638502234 587.90104071094549454 586.71701834693340061 582.55145170019795842 595.62248209531117027 576.84557592915643909 583.57890391478485981 579.80224039390122925 564.52538101581205865 580.65507547815934686 575.73183762048006429 596.50720889517572232 576.86632541184872025 579.91905072016209033 588.49003358109348483 579.68118039008959386 590.48620382504884674 583.42291282466976554 590.51622296072741847 589.23524713609106129 581.23373691972653887 583.48580969897886916 583.47844282818005013 576.89030392163499528 579.14672294200931901 577.37898112525442684 581.46065011509392662 583.57617098679702394 572.60154410699328764 581.74969870125323723 584.14348129197526305 577.81005252232205294 589.50952341739605345 584.91012265293102246 577.11471043952008131 587.65911694982901281 588.76243139495943524 576.05727837310257655 570.90966822968368888 580.48686033046976718 600.18006641655483691 585.77561850995994064 577.98691731412100125 595.18425224993040956 587.61743972296733318 587.42162788407893004 579.97678602032476647 594.51724265313669093 588.55878317112865261 582.76954756325437756 583.23050065865641045 581.29102353541134107 589.56267069018656457 586.80648911704622606 584.02098930555655443 573.46241186093436681 586.21539714494792861 581.79910180950582799 588.28236340550563455 572.56359423958235766 589.81765560079122679 585.39647685107388497 578.73089712638045512 584.52190774957091435 587.00795680236012686 583.57963648590600769 589.88365538098889829 582.30265435992521361 590.74600548169678405 595.87490748506388627 572.82502982078995046 590.65547625681267618 583.25364308571226957 592.03163000482072675 579.30120979596335928 578.34458724220849035 583.3510234356735964 585.93434350742279548 590.35578851868262973 585.77655782983777044 585.1458258696197845 573.40057570027340716 579.9574846404004802 570.76754303177165184 580.45766955553710886 594.47242458815242117 598.34846699623244604 581.88293621978993997 584.86268126164191017 590.45824173854225592 590.47182821360911475 588.07096901594286464 589.81692635394961144 572.92449540198151681 590.1607322397472899 580.01248499683481441 585.1087659752683976 583.10177292546256922 577.00088374760946408 579.9531048394097752 586.44742396052276945 585.92120387406032478 580.55239376321696909 575.22733100634150105 592.62117108420204659 593.75198393158336785 583.82240074853473288 585.75090485707801236 581.95146109603547302 577.66151050671192024 589.97718982790331665 583.99949470017645581 594.44327105765853503 587.30008757471250647 575.60384691095077869 585.8564432981054324 582.23652701896503459 578.94471892349395148 591.32613924022223273 585.37141306090234139 591.39170653824032797 586.21543414566804131 578.4627817639842533 580.69335791213018183 570.06299899085115612 587.78953760989224975 599.70345266297113085 578.66946370450671111 579.67259461645699048 589.86168226207826137 577.95931446905603934 591.11685538504661963 584.09763050983349331 584.59603371416255868 577.29255328288002147 572.6897388321847302 580.99279254148564178 582.54292436964146873 569.36756071700608572 582.62702492663197518 591.03669322566156552 588.67231119192558708 591.87905107385643078 571.49945131240701812 571.57679165922866105 581.59872736604404508 578.76705200969217913 577.97456892861907818 584.81405174428687133 568.31827566878087055 580.59717154251325155 580.88522831294665139 581.94097020914796303 597.11978248254888513 581.96614748990532462 595.76080671055137827 592.44684944304560759 584.17692582264339762 595.25866716386235566 579.85101306654132713 596.71457908538059201 576.56379561113533327 582.81296360520173039 584.03527740803008328 585.02155178688144588 588.81784300285380596 577.77205310798501614 575.33658468238115802 584.09974965513447387 596.69711282553498677 595.05082341186994199 587.78767655079172982 592.20830613497878403 590.84367661661451621 583.4645612682660385 574.36083117746602511 589.12051461495184412 567.89423897101858074 574.13547322189742772 578.71726271708757849 579.82479172931527955 578.42582450612633238 585.95687207949890762 586.42023454788420622 575.50059128802126907 588.76855833147862995 585.320968056043057 585.85209964072794264 571.99537331834471843 588.27581128526378507 584.26630545078546675 586.38292720782771994 580.76200554851675406 578.45197384641699045 573.28345737275469673 590.50320707918785956 585.82285530956119146 594.36078660338591817 577.47772601425401717 587.09616254187744744 579.32332824200375399 577.6798486997101918 573.70923547069253345 593.07134780406693153 576.88945257363309338 588.73180910479857175 577.91932497363279708 584.97801780772499569 582.76078206894078448 582.6547849192859303 577.54877445866804919 588.14845245518392858 576.22113331075149745 602.20950446991730587 591.4892679268317579 583.86938353820255543 588.76561634583822524 584.57156839159802075 577.57376724554853809 582.82069371697548377 578.10716575424726216 589.64861876071756797 596.16503153380597269 585.37500682963400322 575.2447630990466223 583.65751031912418512 586.87279483379904832 590.77007817825005986 584.67975699298722247 579.36397435895401031 574.33194121297913171 593.11730678885328416 580.55793646458243984 575.73211413793444535 589.16700193452300027 590.42689607903787419 586.36945974649904656 583.73433677299385636 583.20931184509743161 591.13339087453505272 584.80493072542060418 582.00533634766043178
141.4557037091522318 145.32350290788826896 142.44697674718915437 141.2770510194725091 136.17464933395936555 143.58692725883850017 147.16314919488414148 136.5928378275335433 143.42785968120776374 139.1797531652700286 141.69228024221669671 138.80103747355602195 153.8989768369127944 148.38315373927295582 140.83282808060755542 145.34348574600977599 137.95104883433864984 138.55988248480758784 144.21476405675181809 135.1293294642345586 153.37905580148816398 149.95730293156887569 148.70003345585243437 142.03602039885285535 139.87215624058561048 148.3681160297013264 150.4109072528007971 150.91973035857441232 145.06687844583768765 152.46544555387723108 138.44973824550186237 141.5353367756245575 144.84523137968960782 142.79186835566031277 140.74664814718460093 142.43951693111790746 145.87576757629503277 144.48677254513356161 137.91488060672841698 149.38309815715595619 144.49034508111125774 148.03893435645616705 149.69709312460688011 136.14288877063563632 139.18986213644586769 139.06546197822615341 145.35618842329569134 133.14955567996190666 145.75201160124638022 138.0360351617581216 139.90407087928971919 141.22782619611368204 140.12652453846888534 142.80826379680414107 144.82723367217570853 143.62205414441592666 143.82688895039075305 144.97689604322948753 133.03732485741372216 141.65211386443144193 151.45020907474028604 147.08013003594285806 131.4879381024611007 143.32656779524361923 138.656322080380221 150.35641058645990142 132.43930116925241691 140.68104978726836407 140.22117529096763633 145.70159008674411893 150.06350303121968182 137.36691787569344569 143.25874932572705234 144.61724168803755219 149.87603573632094367 143.02850698838707899 138.73825421855656259 138.63524020927678748 134.28266100903977076 143.66762271628425651 140.60718706713407755 138.58566244666573652 143.72233268096053393 135.58885576500142633 139.91543505954197713 146.79705292067541222 150.6724045084488921 140.35853238018597722 145.85001091640714321 146.48344280448156951 141.54320015260651644 141.89900197748505661 146.13046733277090539 137.74126807754814195 143.88636276266561254 146.61418947017475034 145.63180553123532945 144.21040805644548755 133.72539179984423185 132.35881073402080688 148.87290653886944369 141.15242950129055544 142.48928277434401934 147.28064749864455507 140.25776534278020335 144.45249005357962346 141.22117239771628761 146.16978721038580602 146.53118004971332766 144.42841257501416408 141.94127137389136806 134.13744056901364843 139.88650395029955575 137.70596256916161337 145.14713071813588385 138.24997745166871255 145.46430400188586418 142.39524092581751802 141.21756855141993015 140.40780147887187468 142.84639889989918515 134.78454162317032683 137.00783755100673034 143.44257652676770931 142.25920310689235748 143.42855746073249179 149.446727402067296 134.22796691945080738 151.32204530845979207 135.74414439907883434 131.80713990420105119 138.72523679579038003 135.8895528241583861 145.34438508066239137 138.17167172154731247 138.60679566718269484 146.57043057313777012 139.75554201640630936 141.2360291233715941 144.12135013430273034 136.34592182085992818 141.27542872277120978 152.70698516983995319 140.20859520382944652 145.05793813955725113 146.40512878490079629 137.62267280853095031 144.79449358353636512 142.12116430049053406 139.4278854240312171 131.08282702419734278 142.77235885516685698 149.94870618385368743 141.09487179315240724 144.08080560508628309 141.68993654449485575 143.11403811300291977 148.74199612232837353 139.73740688041721114 143.61833966023476705 145.54142794052518184 148.86716456847349832 134.40291987104052396 140.82159369466342014 145.76857981641930451 137.35037840203548853 149.33286721593751167 145.51701197980048619 148.76375202772629791 138.14767163843896469 147.27344425302891295 135.42793017095280561 142.14865184875387172 137.08828210360945832 141.2260904537190811 140.32443134947735075 148.04436632541873564 134.81310848768032429 142.83243770691805707 147.97722578000013982 142.73062392388342801 138.2067564820977168 137.37283210198856409 148.42436943027558982 146.22381039359271426 134.61666255566694872 139.44025599576062291 142.29007944225136839 143.41294671298339836 145.71544970321897949 142.23200202763314337 151.53431302148908344 142.82476866345814415 143.878652699727553 145.75568105192385815 144.53171014435278607 143.9951705845589629 146.01556622033859867 135.70385617985340332 135.25185686574687338 140.34284974088041054 142.72241164119429868 144.42355368790293824 138.81242985497090103 137.04841546704932398 139.55092078971117076 150.79999232747115911 140.51774672305649005 139.44413107918111905 145.61071291001337613 140.03486532543587373 142.48108889384673148 137.90586069492698584 147.15836185195388452 146.35772307571664896 150.03700063719665536 151.1915778041677072 133.00835226276132062 145.64930112513050631 142.16420926566897265 148.7263500781345158 132.27105574778587993 141.80176984938853479 137.9781910845773325 136.91950292496741781 135.62249341909569011 142.49970562366019067 147.59469640201851348 141.54135185373758077 139.52709839655017277 138.50659763633467492 137.21751480557136915 144.2614552128021046 151.99420283103148677 136.85503704319441454 145.11499413478239262 141.2307635267175101 135.78196357448211984 143.40291321972898686 135.87871567451901456 135.56411354652428258 148.06591460010102423 137.45921607917435381 141.53761101474850648 142.01958088134043123 137.62134885944911389 141.21676366940613434 151.55733976593339207 140.7697332502363281 142.56599274840513658 154.18945668846922104 149.19454856386332153 147.3833160206340267 137.96573211825506178 150.09894962570666621 136.98977613612206028 142.11004720581826177 135.35341332185515739 139.00828162069726091 137.61945581567599106 151.47826123705925738 137.12238608766267589 143.95345547875456305 143.18641479546511164 137.25547621644929563 146.67381182518076344 144.45788900028159674 132.55983324596405737 138.51126662802664669 140.08346468957617503 149.35869101992852848 140.06951948170183186 142.68489533295246474 142.25702074705304767 138.88359811424726331 138.10111967517045173 144.15640325038805258 142.6290611215973172 145.78462800827719548 144.09874554542199121 136.88556312554146643 147.24692697704014677 150.99678614803613641 143.79468859009836024 147.48218215654065943 143.11403078203954919 144.94641690411623358 141.59604445840182052 144.81214674324857583 146.31025637889774771 139.37524306476663583 141.01273006307974356 138.5003958589724391 138.58696760895867328 139.69860651260901818 135.52380754529198725 142.56176098872157354 135.85339731126180141 136.43349786417098812 146.13098940595654085 144.42614155488678307 149.51272582783153098 152.45962126920989022 153.55313792398328587 139.07830733616643215 146.73880826701196156 145.99459371551509435 133.20001790880476733 136.13576584862551044 157.00229150807982137 127.73694196772632381 143.23499408203457506 142.75534273176552347 138.74130078066079363 131.07191364862845262 141.59166331498835234 138.65748666220446239 140.53746402083638145 152.00000929223361368 145.64995374318971244 140.32284835074025864 147.16659914117087737 148.4211631945568115 134.1155412058184595 145.75935262669861459 147.4799062452403291 145.29517333797949163 136.06126938282261563 145.11146815402560151 136.14543531494274475 131.24833679029518407 137.04406412597450071 154.1253619834710662 145.27342962060043874 124.90333835024432574 148.42266550651356738 139.79175149854322058 139.78447370189559251 141.75432663895003316 140.14092573861393021 132.00167383647848851 140.92627066124595103 139.91140617323586071 143.73972785251734763 138.34292481411287667 139.69217614546917616 148.0797981780425232 145.50065106979394614 152.75421046098171018 134.38738932667777704 134.24192039460479009 140.92574200250120953 126.54243755528017346 135.48063751151681799 128.13906317069867669 131.36205101311355747 145.48719865257692163 141.13760401509881603 146.36685900993171572 132.98491156089824017 138.96389744020692092 140.80249353583946004 143.44583867770541019 143.89418344344369416 143.86862817086409905 147.741571123467196 145.81176103031128832 142.31226342847156729 135.50871627746599302 138.86232833866279179 135.23189032917377972 139.74465095303497719 135.33113904087483093 143.70826036400313797 133.86251386526825513
-1537.2480588871455893 -1529.3124719974816799 -1555.8216839663136852 -1581.5269305393110244 -1560.5230878074148677 -1571.5316394725957707 -1563.5821764418524253 -1572.8008868697218077 -1562.062739344155716 -1548.3199899459641529 -1549.0765800425153884 -1558.5905918238763661 -1555.5315642711379951 -1549.4951362583099126 -1560.603814874561067 -1562.1860706463205588 -1563.2652608927658093 -1545.9132887422931617 -1565.341758028518143 -1564.8358651062853824 -1545.8143362775579135 -1558.4525615817997277 -1566.6731419083610035 -1576.9612220971455372 -1569.7962673287029247 -1557.2399199976002819 -1578.4762082475219813 -1565.9018854406961054 -1552.819190014170772 -1572.0262999241099351 -1562.858335230944931 -1539.0362203845972999 -1559.9999739992385912 -1543.1705057970241342 -1549.0695315204432063 -1569.6092527351738681 -1561.7557017668545996 -1588.4938013895282438 -1552.6925067040083377 -1566.1791146106118049 -1562.3336519743081681 -1552.0754604106882653 -1572.309457635556555 -1551.9745071931461098 -1559.9541897123215222 -1566.9388688719780021 -1569.9354137374130005 -1568.2524838461772561 -1542.4957404379117634 -1538.3630402105200119 -1551.6327211685136263 -1553.3179232129550655 -1534.3250774969676513 -1547.7718575587305168 -1544.2994081470394576 -1557.8227614963370797 -1561.6206511894297364 -1566.8200514129594012 -1572.3478636606525924 -1548.7919554108757438 -1539.1429758785920967 -1554.9180274385521443 -1568.766719528208796 -1546.4772253795877077 -1554.4625165033203302 -1550.5086258377334616 -1549.662980193999374 -1541.862566215740344 -1554.117376033127357 -1561.8832994834510828 -1545.8379650179774671 -1525.3599776000501151 -1540.7841159428999163 -1544.509405348049313 -1558.278174812874795 -1548.0554765011570453 -1547.2064936838908125 -1552.6140395340476061 -1571.5084309057374412 -1549.9932759041782901 -1526.4386628306679086 -1540.0082211548449322 -1564.6520967405203919 -1556.7161801353993269 -1554.0656952284973613 -1553.3156721722939437 -1581.3128461485380285 -1548.5436072265233634 -1560.1569722793105939 -1569.8468351428603 -1565.3903712167234517 -1553.3411581274747277 -1567.7138040678864854 -1550.2714307859446308 -1571.3186754490998283 -1558.3791580409019844 -1539.7351504127414046 -1557.3257769050005663 -1571.8671432408973487 -1569.5743269651993614 -1550.1637635381002838 -1539.6596451081018131 -1559.2129627330587027 -1554.2934485761627457 -1534.8234687776916871 -1561.4727262681260527 -1562.7601191943863341 -1548.5016764766999131 -1564.5177317326179036 -1558.1227325954585012 -1562.0135804316378199 -1540.1806497357831631 -1557.2018401681323212 -1561.6339410202701856 -1551.9725541804484692 -1570.4214813314022194 -1543.3542134056119721 -1554.1728542316598123 -1547.785930684618279 -1560.4755421687784747 -1565.099610693861905 -1543.6971575411419053 -1540.7407196329604631 -1557.6568840814338728 -1563.5908525122290484 -1564.7062327746791652 -1551.8496720030655069 -1553.1710209327600296 -1558.6638193095516272 -1589.1347393761814146 -1562.1454003045157606 -1559.8384889446529087 -1551.5668260674158319 -1569.0101406345354462 -1563.2802981468266807 -1561.1551482701315763 -1551.0625032851455671 -1566.4001018085689338 -1591.1715356786346547 -1566.8876845471181696 -1545.5396317934898889 -1567.16071014829663 -1550.2748247597403406 -1541.3476611531573326 -1556.2226162811298309 -1577.5804988593627058 -1552.8382678449529521 -1570.0813134140589682 -1553.7462665994398776 -1543.8244798747637105 -1550.0318056200114825 -1553.9354216376466411 -1565.7975689346976651 -1537.333845474003283 -1541.1945330235391793 -1561.6650287450261203 -1530.4049091694084836 -1567.9850215369292528 -1540.9563385971689513 -1581.6687194185481076 -1549.0628389583957869 -1552.8792339635660937 -1547.4098660662184557 -1552.1396795379823743 -1536.9953426220856727 -1567.6831436502416182 -1566.0125848819814109 -1573.6924028996875222 -1558.4716582690111863 -1580.6650261089978358 -1547.5245511074838305 -1547.8055968006106013 -1541.754649538757576 -1557.8235027932175853 -1555.9156596991983861 -1566.5396073606159462 -1556.1893096415583386 -1571.8600983659764552 -1553.1661708262145112 -1564.0398708428203918 -1552.0257029952554149 -1571.8457498442496671 -1562.0687013672413741 -1571.6507312072794775 -1575.3732799698236704 -1546.2464719584224895 -1543.489466285663184 -1542.571931016623239 -1538.3821600487162868 -1582.7213464493665924 -1557.4795890419738953 -1558.613099991465333 -1543.4787714439676165 -1563.2072576907039547 -1560.5986553733384881 -1545.9402251036506186 -1577.0327414236076038 -1552.1975122365863626 -1579.5848057753869398 -1554.8255712495636089 -1551.9505849649460743 -1553.8470140951342273 -1556.8512850506888299 -1533.2476339041947995 -1557.4465354175708853 -1563.2889374061819581 -1550.6246632603076705 -1533.9918146554414307 -1571.0510259457971642 -1545.5658808986729582 -1526.9130116185076531 -1572.2918011144477077 -1574.2189198560863588 -1570.8954104281970103 -1547.3262251739945441 -1574.5292247093591413 -1566.7309422122975775 -1583.9413898521381725 -1556.1489044559384638 -1533.147389243581074 -1552.257346985763661 -1573.0404320648319754 -1557.5649711512251088 -1561.8753461935787072 -1553.3061726597998131 -1556.3196678947660985 -1533.5291230306597754 -1536.1600130850085861 -1558.5080184129128611 -1532.3900675954553208 -1549.2164787181498014 -1563.4344020684443421 -1531.8392408975532817 -1556.8850910401131387 -1562.5405592272381909 -1571.2324720498438637 -1548.9255374122969897 -1547.6061911010094718 -1542.7335676946345302 -1557.3880746337026721 -1532.6616387610235961 -1560.4061210780480451 -1540.2216002492079951 -1534.4079825977480596 -1555.7918950402504379 -1564.0796613201191576 -1572.337569177504065 -1553.918671477734506 -1548.2404933709351553 -1544.285588857420862 -1543.4421313104674027 -1563.2716868872571467 -1560.6719100848429207 -1569.8822497879077673 -1575.8762293741535814 -1575.0767736605432674 -1554.4670663318072457 -1550.821639281855596 -1543.8407971359231396 -1535.3721489263198237 -1550.0092196694636186 -1549.1294336422445213 -1584.921784526903366 -1559.2170595238983424 -1540.8778962312121621 -1556.9763797876071294 -1547.6930985581493587 -1533.3800399596775605 -1572.9306673541505006 -1555.7220190991736217 -1565.9672556336740854 -1554.6659211700005017 -1554.2129374347625799 -1538.5862480006940132 -1575.9067996401529399 -1562.7181368908832155 -1567.2942543648273386 -1570.381780882369867 -1537.219759768947597 -1554.0607195540628709 -1549.5121525778774867 -1571.3615153260491297 -1565.8196465458372586 -1556.5987842142415047 -1577.3944571612296386 -1556.2943474967228212 -1562.1603636689178529 -1554.8730332265322431 -1571.4341170416778368 -1554.4657779855240278 -1554.4695926941108155 -1559.2452113557337725 -1561.0837254373516316 -1576.4971651616176587 -1539.9068574912773784 -1546.1942595722575788 -1578.4821495909320674 -1577.7172307065068253 -1579.6482839622094616 -1547.9453977962898534 -1553.8747337950915153 -1569.9250914346746413 -1563.9757076008829699 -1542.8909193942499769 -1545.2970716979873487 -1555.915742664794152 -1552.0530882748932981 -1544.0373326366202491 -1579.8328678425173166 -1575.3770762699712122 -1530.8529581762115868 -1566.6524080246656467 -1564.7247265307908037 -1552.4445828850768976 -1567.431185174406437 -1575.0380871317638594 -1566.7804144252625065 -1557.1257219443793929 -1557.15250788860385 -1562.8103642075202515 -1555.9658677005786558 -1577.0511092436586296 -1557.6751793248629383 -1560.4877584624416613 -1555.4044273944971337 -1566.6905211347220757 -1544.4157173223666177 -1571.290094807061223 -1565.6126377203304401 -1536.1242385268576527 -1552.8286966196028516 -1555.5981006259723927 -1570.4189846834869968 -1552.3067789016374718 -1539.6472458494599778 -1565.871398596841118 -1573.8032508152423361 -1548.6155698678712724 -1566.377144734563899 -1551.2689564734525902 -1561.055262420089548 -1562.6187557293167174 -1566.5121235931392221 -1555.6995744432165338 -1543.492097211894361 -1539.0464553554090799 -1554.3916842698547498 -1556.5384986564070005 -1554.5099764256617618 -1558.1566513752607079 -1554.5986142814704181 -1553.0173195218555975 -1557.5949624330041843 -1538.5952322781231487 -1539.34279208047883 -1560.592552896640882 -1549.1930645015345362 -1537.3343503740306915 -1562.8856581473221468 -1546.0497897633440516 -1549.9657444788144858 -1543.5541386257548311 -1547.3585188164261126 -1570.4332491759582808 -1551.019841111032747 -1583.8110825049939194 -1547.6422904890607697 -1553.9502666434925686 -1549.3682595707834935 -1554.2986779717109584 -1555.1310803493074673 -1549.3288184379673567 -1550.9823107033651013 -1572.0592780376309747 -1573.6443525493618836