-235.84340135592964316 -236.15053042194585942 -238.60540086373788426 -236.22329720917667828 -237.0841677654881039 -245.81097524871680093 -236.07776419899545317 -224.24802152719652781 -227.3155513907154841 -244.21644839108168412 -243.71616976099198837 -236.44248028742725865 -237.31969386901766939 -237.14532749370604847 -238.73108810433734561 -239.5848807246301817 -236.76344276223221641 -241.68725402436319882 -240.88372535610150749 -238.13925046419242904 -233.88460020553497998 -230.39633198235833333 -226.27756348656595264 -229.40855216205034139 -246.99252328453349037 -243.30913042853876505 -233.72376335664424118 -237.20316794960044149 -227.9253776548878534 -239.56425309093390297 -236.1781838561949769 -232.18452218095288231 -232.98278852472722633 -240.26047341807833391 -239.47905037694559383 -232.37238832087737705 -233.32190430875357379 -232.0852067721724552 -229.30871086400790659 -236.88509524505104764 -224.94978587062536235 -232.28816019926188119 -236.93808390174532974 -239.0282358419333093 -243.03762185710934318 -236.26222964737763732 -252.56868456055565275 -239.95999001728907274 -235.79766094697652079 -237.00740185814021288 -250.22720533145133004 -237.69143117800982168 -233.90259153851926044 -236.43157383563493568 -245.52279392439933758 -236.93134390790055477 -243.2605298054059233 -242.7225333726234453 -238.30404292471669692 -238.74598579088083738 -235.76856437438675584 -233.12430372178715743 -240.60415646503679454 -240.06692345315153148 -242.04449819664191068 -242.9130905657727908 -240.4022028033100753 -243.17853357248915813 -235.60407421375327885 -241.96596701279074182 -242.00704234467218612 -236.09094342342376649 -235.35968613917268044 -240.26023257085040541 -242.28552598201184765 -234.09429216945110852 -239.12258895142093706 -242.45115963821436367 -239.60563838889919452 -241.93559417542797974 -235.34233700727205019 -237.92580324255013124 -242.74825017179045972 -238.54539017074469598 -236.64532437115909147 -247.34743143655680342 -231.68066983255229729 -232.98438490699771819 -236.24333826699430006 -231.74455101034098448 -233.01186179473063476 -245.89239564133831095 -234.5977988057485959 -236.42071479148179947 -239.03003306628713176 -243.34400299942174684 -233.36532697171975315 -234.97280498667171855 -229.77341175762398962 -239.90163226299426924 -245.44899752847740615 -234.52221058115046048 -245.21740032905677253 -239.52100781666845819 -237.62295645011477063 -229.01620720370056006 -241.29699557781967201 -242.56742305089687761 -242.86637447073698581 -245.05118873106445676 -233.57193419697338754 -244.32113350070545721 -225.82092185642625282 -238.787370199274676 -236.2178317389424933 -235.91494007121301024 -242.91662532242338557 -235.88179086283957986 -238.64333855324039746 -240.14863232904795609 -230.27284724096847413 -245.54493507875162095 -239.19997141331697321 -244.46741799010752061 -233.49222558521799442 -233.24730637331728644 -231.7148777277876377 -238.46107782012052212 -240.10010500878058792 -239.83797322767247806 -236.90791706705792308 -247.22506720732886265 -240.49787990026800344 -241.81915450051911876 -238.1948145398048382 -238.64315782740717964 -228.24012287953456735 -228.91213711848715207 -240.84440605080823161 -236.9557223593637616 -242.51568252900588618 -248.97136059445080036 -245.23197048563557132 -236.29600920432798716 -235.60196260259203882 -233.70171962030971713 -241.73827163111752725 -226.95186372360140581 -240.51041458800193595 -233.36597987472296722 -247.60560685492245625 -233.99764923569503594 -243.674185281944915 -246.31892836094613131 -245.80581231007653287 -229.16985124510372884 -231.31379608552200011 -233.3922044188906284 -230.91495430191059768 -232.30382330273448588 -247.03654388108807893 -239.80955097151246491 -227.80742973855447531 -244.65446081563314351 -232.61369775532367044 -233.91403896422315256 -239.52543006992146957 -237.04272228546221868 -239.29098542646434566 -231.98673946363362575 -236.37939422283406543 -245.00049249024044684 -244.13562868693344399 -231.37187934808736145 -246.49907676941046475 -238.49754645554924082 -231.04675562279371093 -235.98425831521555551 -233.55860122178529537 -240.40718404192276125 -243.81609079513421534 -233.75164277979652638 -243.0035840350502383 -242.75561442233998832 -249.82830004197413132 -244.20261555622826677 -228.12098217065783956 -235.24900572307572588 -233.42591997859682351 -226.11918313491324284 -230.67767883201929635 -232.92117678629190891 -239.24689069959612198 -237.7218490007833509 -246.66599916410328319 -230.87347920259730927 -240.30187073400796294 -234.47459597286510302 -247.92871657130402241 -239.93024413340322099 -247.06490381016226365 -234.97947937684338626 -233.18045156163393017 -241.29113162790480374 -236.08286045748806714 -235.20967571840532173 -236.3571640011151942 -235.36873667545555122 -228.51221566567721766 -242.32965739385875281 -243.83275448303675148 -238.19622397324641838 -245.15047778298097114 -226.14685798451796472 -239.79140576827001041 -245.05495128243748582 -239.08713552203110453 -239.05718945678734144 -233.67307829521118379 -248.98139875567986223 -228.23415646480810892 -235.99971836834126293 -227.87585711869323291 -241.18112344836126226 -238.54502873926281836 -244.3369239629184051 -254.51268445454959988 -236.02707391689855854 -243.44377722259631014 -238.01978352191892441 -244.61569892847884944 -240.18499108334347625 -234.90857242966791318 -230.76985298736914842 -240.49563305639543387 -231.95570104631701724 -229.97141548061634353 -228.37261615253902391 -238.55370246274449642 -241.27483931353512503 -240.59837756059167191 -242.74819309679736534 -243.43411308651690206 -242.93086676169434668 -240.17571249144177159 -230.69072715713133448 -231.08204516449151811 -240.92399426582176147 -235.78065387609171921 -244.24143913189180921 -245.14883728791329531 -242.23031790439262068 -239.27739608801061877 -239.82652802494911271 -240.70029058804544775 -236.84128601758430932 -244.32506316312196759 -231.22748760709626481 -238.38045980948106717 -233.63107790617144133 -240.10814616014673106 -229.09711641659842485 -245.31661458696751765 -234.29560491718382309 -236.22875704905300154 -237.51587147671784805 -236.69349146723399713 -238.57742360187970121 -240.89590874045123314 -235.07032152442718598 -237.87624418123635905 -232.04504495967134403 -241.56315605674936364 -229.7149124059929477 -242.81179644613879987 -237.85821778981028274 -231.35005531748223007 -235.68364609798032916 -237.70501333022554036 -239.28459965475599347 -237.57711206067455123 -231.43490880840073487 -238.39331654902741775 -234.58073063590259721 -245.99270059415727019 -235.88963124386830827 -241.53627304642168383 -236.62639866377276121 -230.8750901798065911 -239.01417203195200045 -239.50360656084274069 -253.87351260150387589 -242.12330080830838597 -232.28856015856473505 -235.11853527305416378 -244.53230895526206723 -248.69101331830665913 -234.43645963675197663 -246.07252449674075478 -243.6929000990128884
-82.92253267411867057 -80.959965081375131035 -83.226905800411330461 -78.614252987431854081 -81.053642182716757247 -74.970549216459659192 -76.476562678469122147 -81.146398033454318011 -76.652523951736526442 -77.836866317478936139 -80.239312379354885252 -89.906066471400620799 -82.135439579771698959 -79.405660550229697492 -78.608006121400478605 -77.191249350516102368 -81.265665024528161098 -80.812064056156799552 -74.849043128282986004 -71.026304050447137683 -81.265454714482586951 -72.859001981007253335 -75.162841697151918652 -75.566256754944291174 -80.026835724843877529 -77.198209260682389754 -72.697192558339068569 -81.283189515126778701 -82.981915268736315738 -80.153505521527463884 -76.369150724596806867 -84.498931609290508504 -79.189200881729618686 -78.649482468163398607 -74.843696008549855492 -87.125398158760162914 -74.455727516225522322 -83.873684972108662805 -77.536937108532583807 -73.99207981038955495 -82.717846627900371459 -77.929735646844179087 -75.563273745474418774 -75.496224788941887596 -76.011329893409779856 -76.688431582822161658 -78.84909973456815635 -81.790604288625061713 -76.979634874041323656 -70.278783889382594907 -71.780413720349130813 -77.780725871388213477 -82.209252289142341397 -80.061445930386426539 -83.509794284464135217 -79.979479420485276364 -81.027054300655805719 -76.663824369105228129 -77.665816572445180554 -84.732105346985136407 -77.564737034174996211 -86.680972376412768199 -79.014666498674657191 -81.724623397786999135 -78.784548487768688574 -79.749790739670686435 -82.672176976026250372 -72.740160103942116621 -80.141124029949182273 -80.21715184432250112 -77.340185892787232547 -76.20467287086206909 -84.523708980660913426 -76.46772796875551137 -78.196341984931947877 -82.526553139028621331 -79.474507837980254976 -77.180606374897564592 -77.426997636917732848 -75.740472581680137409 -79.947981945431109807 -75.568367360313047243 -83.850507816697060548 -79.339261497301109216 -80.984646618935201445 -76.285109065619323587 -79.472275334670399616 -76.306060527166067686 -72.278227454981887945 -69.817150287892673077 -72.611693347550016142 -82.622245889365103722 -77.149440207383236157 -75.537864705478298788 -75.978882535483990068 -79.566293868198997075 -74.577821831933974295 -81.253609863970467586 -80.245206780136186353 -87.672699713656840004 -88.486734007749930697 -79.412419393365240694 -78.276760552205558952 -72.059281368323667039 -84.949434740521596154 -82.222912126159812374 -78.715370817493848676 -92.056852790336463954 -77.6712516884534665 -85.093473730432847901 -80.221351856870569463 -82.238391405028096415 -69.058532763650404718 -70.777259517184845095 -80.814664112996766221 -80.5245544618356206 -81.898863225729002124 -80.760524545385152351 -68.401378596953335887 -76.82279342573120573 -77.179386312354822053 -82.139261404427486468 -75.877752431238860709 -77.424797683078679711 -78.470573109304950776 -77.156019425230724096 -83.613595778865203556 -78.55530360187418637 -69.310963211556028796 -79.966514884281863829 -78.643455642449794141 -73.799610623157406053 -76.160417108805091857 -83.061287968689896388 -75.953959030631452265 -74.390906631271292326 -80.720779528017473581 -79.473370966250584502 -76.254326422965760912 -79.688071167509221482 -74.927266135288277837 -82.175682676615366518 -83.128183449530766325 -80.327171449134951331 -76.947434241391562182 -79.593252798692816441 -75.911042168907499672 -72.469165975964500603 -77.310984047215313808 -78.292612126485238377 -76.624294097630595957 -83.697785666004179461 -74.359165949391183403 -75.001930607264711171 -76.22890844991081849 -73.425727964653361823 -75.150702581247628586 -82.771683078969530811 -72.965416820768723483 -75.673796940088649876 -81.511814497069991603 -75.377935282636485681 -78.071530609786776722 -78.467867628317236495 -82.849248972481348119 -78.757361772476315309 -69.863681575925212996 -81.711435810272078584 -72.629008139390577981 -76.706481905029534119 -75.192066716678255034 -80.095791975586777767 -80.928506663428890988 -83.326146509069531021 -78.036520123637004076 -76.633273275144105696 -73.391751638583443196 -73.332765439079039993 -78.338247940157330618 -77.598899028574848558 -81.974597795346937801 -83.18556366490768994 -77.467376435252830902 -71.335025050332205865 -73.064806012635543198 -83.417495369736144539 -80.292492036646436304 -81.408546618116318427 -79.55081067621736679 -74.201578794932132155 -78.942793111328001032 -77.827079759135386894 -75.610024378283213764 -84.04713642941908347 -79.695688982111818177 -79.505526704404203997 -78.916983804523781032 -85.704656451559714014 -76.205595410333884843 -81.520111721742608779 -72.389795926339687071 -78.948262098130769004 -75.568155511303260141 -80.482304092586190336 -75.22474293913998622 -76.355148750021911042 -83.204334755943577306 -71.746359450655631917 -84.580645240029838305 -78.082528845037387555 -77.009789888972065341 -73.277454241951758718 -77.262748527250323605 -80.431656780280988528 -82.581052489204211042 -78.340747367229781162 -76.460642025869745453 -73.319263572984255006 -80.95583668558340662 -80.674432406060333278 -77.411120275720890049 -80.016536998504889766 -78.290395539728677932 -82.922969777520563639 -76.532705488890314882 -82.748418828379769252 -82.346537327465284761 -76.512171763226618282 -85.521347553763717997 -84.525951596882521244 -75.358288949525046974 -75.18158320372835135 -84.098412001236255264 -80.655661845721411396 -75.979550638254252704 -80.725773351308490078 -80.378057684315152187 -76.345044624648508602 -77.160489954123178791 -82.445172734828034322 -77.683827860481997618 -73.332048550889084026 -81.693652501126919674 -77.183549157226593707 -80.43971414446508561 -75.888897094419959899 -71.380606715944551866 -78.513678973386490156 -80.628346902287503895 -77.070790534837286145 -78.651827452162436316 -81.520077510447094937 -75.572285624484877076 -76.759264165587907769 -77.922087051234683486 -73.490019339911412999 -79.558006488784329235 -75.82572839705358092 -77.526059775883098268 -79.670934865655823387 -79.214903791252524456 -71.570280017108700577 -71.95981481877235808 -74.183971096371365661 -76.129208408674159614 -79.001402374193872902 -85.982486107199306957 -72.41095171768544958 -79.333897190328741544 -79.337749095184449288 -73.308688701915798447 -74.59572096874677527 -77.17724529427519542 -79.711344317358523881 -79.39259838577862638 -84.11023464235589131 -74.537548530095733668 -76.198445540597688819 -75.125775092209551076 -82.359192626438996854 -84.633531092390100525 -75.737476951636978129 -78.650979978660188863 -75.942262277020034844 -80.065546262263936228 -77.684115799844164485 -79.613083405830366246 -81.10743177445331753 -81.748568700880326787 -80.241914703152389166 -79.182978770582877814 -76.557633833440121407 -79.902640940733206776 -77.931439499393079018 -87.925892579632957791 -77.113251622117076067 -78.130456686841782243 -83.876997822264527827 -78.902392326340745399 -85.347171977756190131
344.42595567046345195 345.70623876758401138 345.16176441975960643 341.90386467905204881 342.75633423835733993 347.83721230022996451 339.32877455900325003 329.66337371776461396 341.47905197318590353 345.57775413238027795 345.11442924720330439 339.06282891929413381 352.73735677692150148 340.66686766773148065 339.547492173081082 341.62725580894721134 340.38566744179627221 336.05665721776722421 346.18156638759489852 361.03170538385006694 345.97779637410394571 336.20444232694558195 351.99379757529709423 329.99940743259924147 347.16568563961556038 341.18235456810435835 346.36732313129249405 344.96990698560955479 348.80770378045855296 349.99444943127423358 339.59852783700006285 353.6406856040441653 338.99773296667859768 333.61592853778546441 347.30680988443771184 336.59708141388387048 335.33993168276572305 341.013783858527745 350.3425981446843025 348.39586704136303297 343.01556906724181317 339.55221148819134669 337.18922325274706964 350.99961492584037615 353.99960540310735269 331.74244027494381726 359.17947193563350083 338.52396774393707801 333.58756202760054066 358.16988734747326362 336.18609969448317543 333.98913429717271129 333.56472151886140409 354.8107184006636885 334.11662714048588896 339.34542013197022925 337.42997526691158328 338.01191918450138019 337.59211700474435247 347.60860060636804292 341.88747186672753742 346.95398301199929847 348.4039323982161136 340.66875689703920216 333.78845379713868624 343.5262653850619472 344.60640463524674715 345.78199468919331139 331.07078104485731274 332.18838486629596218 343.3107133560646389 336.69454654278456474 335.06532818577562693 338.17135797112479167 338.17569264015065755 340.08301487873183078 346.30252027459704323 348.80913220115957074 332.96558863270740858 341.81802669737419365 346.83651505157524753 349.4209740940856932 342.26145149871666717 336.29916779078268974 331.95525670440451904 349.4343795109958819 332.61005634557682242 343.9614210058612116 359.34503404498218515 346.11576196229191282 343.22267142202184687 334.28628569016808569 337.17869374114337688 345.36351818637444921 339.18488929196496429 352.91591978091776127 343.03043406118894154 346.71810192770652748 330.08528624850299593 336.38418531738773254 343.82757059450250381 345.14968738349585919 336.70080548162479772 343.08535741833270549 338.55493321397619866 352.6960996673881823 341.5091559062699389 336.17611614372185613 354.04813899676776145 347.75881754003387414 341.09449239116247554 330.40735432360207824 346.24275470094158891 342.6300030120963811 328.00683328719532028 337.16461445829844479 337.43081417771577435 344.68418625989289694 340.22693649314032882 344.31470222927589475 337.72116556444848356 347.67646839256286739 343.95550013876675166 327.94097062740331694 341.06009317523074742 342.17349565842846459 335.88293322261137064 343.63975308846630696 338.39029550260727319 340.12608767011755617 340.6024291244227129 332.56856605765403856 342.00243199219841017 348.81683453942804363 330.12360974475143394 331.79126496277621072 347.6470851629567278 337.98045721196695013 343.87579290002730659 334.44224210404991027 340.81390566889791671 336.6264193488860883 346.33238897688312363 342.65167993340901376 338.08702832267181293 338.82333968520833878 349.86236615542992467 359.73261186964191438 343.18472959477782069 340.63170324628032404 345.57610353559624627 351.22160175789770165 344.95585898887281928 342.30728011951254075 335.10177497104382383 338.11080043670199302 339.25938713808392322 354.9779475816810077 349.02070989003294699 338.92313385748059318 349.26042923843567678 355.87301349915259152 348.9381596028137551 332.66622283240712932 357.46724123135624041 348.8935926135692398 336.87430081667650938 347.80999886542605282 322.79990219615064007 343.51021593485785388 341.28563675420178924 337.00748193184517731 345.14962849804788902 339.54090239654726702 344.16762824474244553 342.8026891123729456 353.23022417357657332 343.36135386228170319 343.22149330527588518 345.31463700463297073 360.18356803068570571 337.925205994633302 343.82177224490237677 343.07020615296232791 337.87614294514719404 337.86673803851192588 360.07797030927810056 357.28495577059175048 352.29915258650220267 353.20938472945181275 353.02874565294155218 350.16297659050900393 344.03156849365615244 347.91276246420642337 345.19939630782397444 333.03608788409871977 351.41765210873614933 349.37863494279594079 341.53092018016144493 350.43022285301429974 353.28892710293530399 353.54839087777509121 343.67961026830073479 346.10341987442683376 334.53704343300040591 343.86476192989209721 333.40322558622131055 338.58405306829172332 327.06628213499823232 338.01764087599963204 345.03272973216229502 338.65872562976079507 350.28563757536301182 336.93244838359294135 356.33903049357337522 352.96759968327654633 336.34558395666715569 346.62029897366835485 345.05749412691091038 346.98897770802017249 345.07529033161523557 341.88767086303738552 344.43154253553535682 339.7578882382074994 343.11297556429212818 343.84958053421001978 348.05928401088738156 343.3274902798950734 332.04508690631450918 342.28940374394744595 342.77990758110848901 347.12551008753644055 345.80061915331049249 346.42733203121554197 350.56899617434601168 342.9945814094586467 355.82734468232604286 347.22146721377794165 341.2719977468224215 346.43784720498649676 351.87183362773095041 342.34518353370725663 343.11437093648714836 350.71824686869268817 345.60404153806257455 345.40588331708420355 340.65907236232948208 346.17831349607268976 344.34028691619550955 345.50784251934879876 345.2970716869818375 338.66667905966534136 348.69661863177628902 335.85164690547782129 345.9404597403042203 340.61131552325906569 331.70285592629431903 330.4500047528996447 351.87093868089311854 353.85363552383887509 350.20023133966117257 334.65629355302985459 355.12052462711886847 340.2600223944129425 332.8716967455430904 349.72406430927014753 354.32221249063883306 351.92218051636166365 337.57161464411609586 345.11963896880422453 341.61861208328537032 334.85880808520727214 339.40051640383165932 344.11831124200887189 342.76800296211155228 345.25296081963767847 349.71622147643978451 342.8725563932535465 346.43651176353233723 341.57525315317434433 337.17826642753675515 359.95218504592213549 337.85038432387528928 346.80694647646845397 349.90231869370961704 338.94028620622759718 338.97643700431808611 347.44964908605038545 355.65565451808407715 338.46296883024092494 351.4086310699066189 347.19489270263238723 336.98760062527895798 341.23236997211779453 340.43700276500283053 335.37380009221635646 345.18752133613304522 343.91963435880103361 342.89891705694958546 352.28711288042438809
-282.05700788949542357 -264.82964638133256585 -275.15883979986068653 -285.46625511494846705 -282.20078923276065552 -268.53244101149368817 -285.2416647156579188 -267.20828998592401149 -281.24013505101919463 -274.80606277933048887 -271.14260020871688539 -280.46875029789049449 -280.57751146412391563 -285.4246195850348613 -296.30322474705400282 -267.74666533730373885 -279.72674142389269036 -274.11784275318757409 -269.33649015828939355 -274.45735578511022368 -277.52866256029301439 -277.25998434142616134 -269.96119700093987603 -270.61612832592032873 -275.70596511432569287 -277.06407155080984239 -280.50142843124910996 -291.07690910012178165 -281.82777633043548349 -279.59047673395247102 -284.17448325885720806 -273.33900898467044271 -289.96974316267545646 -285.85752683130994001 -274.53503312495303135 -272.56455869390617863 -274.21796250629495262 -272.67165818146082756 -273.47480860748686382 -293.01304677765591578 -279.57054728915232999 -275.75980549512667039 -284.49124877196373973 -293.02622353693999457 -264.27373793832157389 -288.64849817605295357 -272.31384480523530556 -275.21089640520852981 -281.94487493451629234 -273.8114665239753549 -282.72114869504014223 -274.04440764713609724 -283.82933289408333621 -278.13280369395806702 -274.62260708931660247 -279.39373750152788034 -276.24274633597906359 -269.0717077155184711 -284.28975900878612038 -278.99888760703498747 -273.85542712315719882 -279.50413709787142125 -278.54628040166028313 -282.39808248789461231 -281.69107925827995587 -281.4476074535036787 -266.08349164838165279 -287.18232860121656813 -278.2543574713763519 -275.03850304417642292 -275.03288941616142438 -272.25931599400109917 -276.9078144141126927 -283.96976008109606937 -274.77482580858833217 -278.51827464286816394 -270.02523228261429722 -274.39461299168038977 -275.99279092691836013 -284.66337043568171339 -275.01037129890966071 -296.82568592011705277 -281.71075677574077645 -277.1387443555425989 -274.8115124571885417 -282.08225265949494087 -280.27517158180091883 -279.80733604626010447 -273.09289719258072182 -286.35218712873898994 -269.57493471201905777 -276.73635509309343661 -269.56319353664275695 -277.42117808537159362 -273.9558873463117834 -282.81855456247177472 -285.06653282226676538 -271.74501935618076232 -279.99372221015067908 -279.88168648190594467 -282.27960927058921925 -279.03391268475559173 -278.13271217891468723 -290.5119955490782786 -276.44155224649438196 -285.28090079659597222 -288.9456782709116851 -272.00126207363251751 -278.15379035126557028 -279.90648487418809509 -284.64576998821706866 -278.5521577171584795 -279.92554759113090768 -271.1792845276428352 -278.68617731077756616 -280.88231601645605906 -281.21265727572654214 -284.52891583314374202 -275.85535145985681993 -283.01088076530277249 -285.8409411247822618 -294.15442288189808551 -269.79472950240409546 -285.42444078304208688 -284.8911761578042956 -278.34237491727441238 -290.94706488493000052 -275.87116986186595113 -282.51301634285874798 -290.24514920342636515 -281.93730922525560345 -280.56180128564602683 -275.3566686620456494 -263.66830633688272201 -284.47762479297949767 -293.58703520001404286 -269.96595923367976866 -272.53675472546740366 -276.5619243174853068 -291.19220250395517269 -283.44107504660280483 -280.85881599814877063 -270.1440146411929959 -284.11655627816077185 -279.05541554132099691 -283.13810912488582971 -278.41401665649840425 -289.0607205116485261 -276.45434661356875949 -280.33735469826967801 -277.98137325388569252 -272.0555394261730271 -278.68715485651824793 -288.48549295626696676 -270.87804124362310176 -288.10910556831663598 -272.05694639515189692 -269.02407602646860596 -272.81099424449695334 -271.29225325477875685 -271.48535601118010163 -283.02559713836302535 -268.57694351961066559 -276.61705998471131807 -277.55854515009855277 -276.83955675102919258 -280.63670875971934038 -287.07653148683658628 -280.37372255589650649 -294.12180280023630985 -274.52148220087048003 -276.83808745720949673 -281.79312629033057647 -270.47817466400039166 -256.127587705063263 -277.54842196602379545 -276.8809203077940424 -276.05229877698883456 -281.38480329164190152 -270.01397427980663224 -276.42448623325526569 -278.8073361101984915 -279.49999679930226648 -282.58338041784088546 -293.59518982114934715 -268.31879339413052321 -274.31878161136131666 -279.71416235069057166 -289.29632160493599713 -278.2366765501694772 -270.47685904034835858 -281.22776645732830048 -277.642685633072972 -282.73758464021676673 -282.45528335863497205 -281.57926401788989779 -274.18169334674001902 -285.09209404556071377 -273.24466217781474597 -275.60412783223057431 -269.30643063317586439 -298.17144701524335915 -276.18014621651235529 -292.62687255107408646 -273.1567453116272759 -285.74081557867282299 -288.7745368517503266 -268.64484487450272354 -277.83044123177251095 -265.35000603088263915 -283.46658120043264262 -287.26066544675018122 -271.93403620951187349 -270.16983398155127816 -274.00771377724305466 -282.4965797021477556 -273.6194258444317029 -282.91645291368052995 -277.41629243594735499 -282.8458554285119817 -277.97973871770807364 -271.64174219420061718 -277.7071336461964961 -276.64695421444923795 -277.38843369758654944 -274.99813865789718648 -284.10114776843005302 -282.52400104360310706 -286.11866753056813195 -288.16995426342140263 -282.40021836019411694 -267.80411113755440056 -280.10861507255179959 -284.10455356421704209 -276.26298427832290372 -286.89443655907683706 -277.08467007094367318 -271.62358408766152706 -277.44668279840226432 -278.45317564871106697 -283.26913175288785851 -277.18477112785046756 -280.69948984926168123 -287.0911578654942673 -293.15568246203616809 -275.76545439284706163 -275.23930529683985924 -281.96399217155976658 -273.82988320153151562 -282.92489020773854236 -281.71426945257945818 -284.37923260107476153 -277.78423578113756776 -272.66508205547137322 -263.55589780158595659 -282.52397601938787375 -286.70307085673618985 -276.80918349905584819 -273.28475960390392174 -276.84684978947842637 -289.5312929292419426 -273.86570580068587333 -283.45993123638993438 -270.4723608741606995 -286.34486494554226965 -280.57648032763745505 -287.51185465089849913 -281.02279845326489749 -287.30487755601916433 -276.87021600018101708 -282.04167773265203323 -287.67203107017570574 -271.33857333140883838 -277.16812348255001552 -272.3098983514226461 -276.48927611039454177 -280.95267377773564021 -294.5451918749964193 -278.81219009481850435 -264.27406262991138419 -277.55857806486341133 -268.08742725300237453 -273.7082655137535312 -285.8951454047149241 -270.52684374673725642 -266.968518411866512 -278.3700661978300559 -283.22568858125191582 -277.14622440593763031 -289.68010471945768813 -273.48955291753793517 -271.00896043499574262 -274.37627924392467094 -273.52348765554086185 -289.28893171870009837 -284.15877286339718921 -272.36412354528295054 -279.75186796437549219 -283.06069408180979963 -282.47854560217899689
-112.99556040605143892 -101.30960652781129738 -109.39404360368058633 -108.38660872733925089 -109.65617174708202697 -111.73528772426254818 -110.63188534880454483 -108.3093025841372139 -114.92468833224600644 -109.73229227648583617 -104.42515415248701061 -110.9022960950225638 -112.44889334142455084 -107.55986047566482 -109.17538523269337247 -103.81095379342980323 -110.62946389451553841 -111.36897132169228541 -111.41273940091073769 -113.35809659780078107 -102.0941987792826211 -106.6977896010860718 -116.84789629720393123 -108.58088513188852176 -100.69202553004771516 -110.57676694208413437 -106.72896700789925717 -110.00250336915291882 -113.06334038432014211 -115.47270858268153404 -102.19766104693889019 -104.30448257516189869 -111.90558231210674478 -109.66487774247526943 -111.87918079298407292 -110.05973794660691567 -116.13052251154167038 -105.15392503443852945 -104.23122998056497579 -109.69006815028068047 -107.88596716681898613 -110.49443954475120222 -107.34232569445498484 -112.9865164042737149 -106.7088366405987756 -106.89839371686129255 -111.00574824448915479 -102.81715400043516695 -115.45939497272661356 -106.7544400527659576 -110.88050274835904929 -110.82991895915017722 -108.65994529507865707 -114.19042893956500961 -106.4650934489673233 -108.24457541558024332 -108.14596235080412612 -102.13368039511776431 -109.63409645415690363 -102.53460843724731433 -116.86614012072047331 -107.43453781850914197 -102.93526035705005484 -106.45945258373748743 -102.79908020929421752 -112.3558962367261671 -109.83810789533434615 -109.03513041774651526 -109.06220988006130312 -113.01390439571163427 -103.31948287847184531 -110.26367124235696338 -112.64932261903928179 -101.56918175600870313 -110.4826021661722848 -104.06310342464750818 -106.60586662800490387 -109.33643359847590659 -111.47059159173963394 -100.63603420576889391 -115.26374749428447331 -116.77362803329450003 -107.59710692236583895 -112.78327634131269974 -107.52183752556979357 -106.92292259587964054 -109.13043174776613853 -107.746338479232179 -110.04390184684540088 -102.38981139576097235 -106.49417681611134867 -109.25961846873109096 -106.43232219294814911 -105.90417438375754955 -108.64510266374044534 -96.074952781092875398 -110.02947185587743206 -110.51164332443458704 -110.91221122289621803 -108.80505498506767026 -112.6311015419250765 -105.78733629291900797 -111.23373642531582561 -103.9966643804494737 -110.35787265454834483 -111.52333976471453525 -113.14975716607513334 -110.56652208629014922 -109.17030714632400645 -109.06302857826668173 -102.71231453078539175 -103.84538495838178562 -113.70845199352420707 -108.57374352710381515 -109.43512586930367547 -110.21267112130740884 -104.2861701512454573 -111.94169816882050839 -114.99063077886941642 -108.42703885342244519 -99.191459580115605377 -107.13830112071059375 -106.42170023589380889 -95.891992843626923104 -109.66793471983363872 -111.70191054115980478 -107.41136786810085368 -109.20729822466319092 -108.10287925373050655 -109.49262582737398475 -98.028690390467104976 -105.26080023295318711 -107.00415746799433236 -109.5849587834663339 -118.02844059621561712 -106.83412913663835297 -113.49158995915162507 -113.36973745330774932 -106.75029378197717733 -103.80683800545715201 -112.49754661197295036 -110.61100136243010184 -104.2611188586120079 -113.19236979791084252 -112.8574891902156736 -107.50270286680122922 -106.39241125260133458 -103.8283083834012217 -109.31353609680085981 -112.06431305137387255 -109.95589092288150823 -110.4747991769789337 -108.36644507347656941 -113.07594324238351646 -111.55578095640228753 -101.59884310060155599 -115.17930570983511984 -100.61277468493067033 -110.67347210377027977 -113.46101781989901269 -104.59636095396582789 -108.13212247318804771 -110.12871099363380267 -111.38736305643131175 -110.16013534290738107 -105.17045628019820924 -109.89687075677846906 -113.89466602955563701 -109.08472538906295313 -106.23506214490620891 -102.43522568763874858 -105.48046219044368854 -105.6375190237006052 -112.9737853321316976 -105.14045889643722376 -106.4121748413061681 -105.27603429744569041 -113.10315201876483115 -109.59338184891784351 -111.12803496505819112 -112.11134501112533712 -109.62866876901877333 -108.90640795381970918 -106.0726603890353914 -108.55956257271034815 -105.67748987471846078 -104.92252364939204767 -113.30696767927675239 -114.02312359887467608 -103.97968664512680448 -107.2495204517038303 -111.06339497806594352 -109.44338857967900935 -112.4549214261616612 -106.38809410207208828 -110.16952710097849888 -101.8443817829705722 -105.87953815374906696 -110.75585927365521854 -102.62331333349126794 -111.36838362735545616 -110.21821298719139293 -110.5536348916642595 -111.75150144588378964 -111.0971029137777748 -105.33102797009389917 -114.03429522738669277 -100.04118493837673043 -115.22631524095301359 -108.93771775480480812 -97.099455787515296379 -110.86551295667710804 -112.4740633063642008 -110.01575967381853616 -107.79413971213728018 -102.5780848207958087 -106.86733948327558608 -104.63929383748991597 -110.37469300598698396 -111.88321554587272999 -113.49117101571719957 -108.11990282126468799 -98.783848952973642099 -107.52161091307930008 -108.9398453183318054 -117.28395553774389271 -107.1043528035279877 -101.67098530205187501 -107.10796044544434835 -109.09882359328113921 -106.98877879651251988 -103.82519478040961758 -112.89076167533332296 -114.64229165260364596 -112.7997843123215489 -103.32346927454095464 -119.44586127517864327 -108.50061623774432462 -108.75038587199280471 -110.17389809166073178 -104.51246684349536054 -107.19777939918836296 -108.07750966201656695 -113.15924360754245015 -108.61716184582309097 -94.887710284624887436 -104.46923949967045075 -109.03141660680755365 -109.554497600416056 -110.32885276033698574 -96.420401935418539097 -108.42380169206961682 -119.65346145456095428 -100.03784987524448979 -110.17643577699067237 -104.02041030721122183 -103.97531686869596967 -117.08362143204243466 -107.8109879116782821 -112.75387294761902979 -104.103507750201004 -104.39254828572505573 -115.29889879598093216 -108.56344789852029464 -116.11940354352545057 -109.96766928064668889 -110.01992072084783558 -99.882506100618002165 -104.60570335327037128 -109.43503433287889948 -107.75018045309731463 -102.1283272981787178 -106.77018085176145235 -97.445457484651967661 -109.96324598404579831 -105.91325362728130699 -120.75772870444515661 -110.09695188007012234 -113.23948461626817164 -109.2067802865497157 -112.8500707415267641 -111.07571321777371054 -109.11115030740944576 -112.35587850893081452 -107.5457816195010281 -110.38219706951582566 -115.08907579408706567 -104.47546597001159796 -109.14740810838171114 -110.14602736229402069 -101.22757817046534967 -116.217387278266159 -110.11633828250593581 -106.15329333363116859 -114.55769015428687396 -104.62693528508641805 -109.56133952475866522 -107.11625424662257444 -111.94655819470328595 -110.454667306541225