-155.06738677545922656 -164.96814650759156962 -167.74013033236164461 -163.6047635147746746 -160.76420525755102631 -167.11037108062475909 -160.6525896847414856 -171.51153789422056661 -154.31742153813766549 -176.29563873724720224 -165.67348261394681685 -174.47521267993209904 -170.38570672630015679 -167.02640061462557242 -172.51271379517743298 -160.30196077472248817 -166.67136843228325915 -162.14553895672338513 -160.14874488170326572 -163.06363925850047281 -166.94226576154386521 -165.18324206388419384 -165.42787324819022388 -164.59955808016175638 -157.38762433699412213 -163.83068998439728148 -152.46536650247585953 -156.60474805716975766 -168.6889479175893598 -167.91143624852577432 -162.08032061586848727 -161.61916461608001327 -162.18001386004041819 -174.33041503004790229 -173.65458771837325003 -177.20341895617980299 -167.38181169696758843 -158.16074877343666572 -153.39206889951020685 -170.20944194048550457 -173.48722446785811258 -169.08736301810887426 -158.42860782120922636 -163.25146472233498685 -156.45490336782876284 -172.28445540983361184 -162.62078086534532417 -154.79673640008891766 -159.02104278045993624 -166.44749938081557161 -166.15666292621878597 -157.63231735583894988 -158.77862152234843052 -165.86500309875117409 -165.00072436215515381 -166.37759512976185761 -171.08053129473671561 -160.46624308367432832 -168.91381915462613961 -156.06345573453558018 -166.82635610843121299 -156.40249702529538922 -154.61208428565967665 -160.92992243621858961 -161.73855835873433762 -171.21415274585601196 -162.46005405698292634 -158.33937342058931108 -156.04544034089295224 -166.16004330904098651 -166.19971935912252547 -163.66774640605041213 -162.19641616999675193 -165.89000334972877226 -162.40329879032313443 -155.27740157154298117 -169.67323558704933362 -163.28435168564809032 -161.87883754907250022 -171.38082638517786904 -157.01460405598407988 -164.98967895370185488 -170.63952784865307422 -162.84728204748816438 -156.56518507848926447 -170.35214133491632538 -167.77415624777418657 -162.59318996729967921 -166.44777473051064476 -163.07178969359640064 -155.50915295248248071 -160.42904566689955459 -178.36684807478201265 -162.84152443275019095 -155.97477997298545915 -166.13990792864521495 -160.62933568070590695 -154.12303554912114123 -156.20186647577725125 -157.67718985935948695 -157.57014532251710648 -163.07294515355593489 -156.53612579305985264 -161.60731903065661186 -170.87035472971376748 -163.7707928783328839 -160.23125207088881439 -159.36100667241086626 -161.07322969841891336 -162.00662862678353804 -173.19839806927475934 -153.2482059676548829 -158.61630917459692114 -159.62904620916890508 -170.69727146362589565 -155.2291449243882937 -153.92578996270330549 -164.65827226341488654 -156.40569377367330617 -165.35531136516937067 -163.45401611895709948 -163.80344329568401918 -164.09067704327821957 -152.97345936456983395 -158.18383103846892368 -165.39162415412815221 -161.28909026109255365 -151.40006262906615575 -156.44545966482044719 -166.37964313278706641 -161.12035738211895364 -172.68055798874436846 -162.81771006148514402 -167.93615346270686928 -164.69516910474524707 -167.84664547479920316 -162.37810748954106543 -157.52419251796666799 -175.37915703440472726 -159.73967141824911664 -169.46556525183444819 -157.25063860808344884 -165.34814679688093975 -163.27127994557685042 -168.53422757358322315 -161.12617602649430637 -178.50742613302580253 -167.1817149608037596 -158.59492785693035444 -158.89610132869046311 -166.24101465341232142 -159.08722927135906389 -161.00429375956821332 -159.26717534614545002 -168.92589609137277762 -163.46737611917711774 -168.28511967629802371 -158.83910809085247706 -156.92278554911032984 -159.67582405457821437 -167.01043102802603357 -163.71444014467209627 -155.74840788535249203 -160.4104774495673098 -161.50074737351175713 -153.22201766399132339 -164.29164485973677756 -159.817903068216566 -166.54601084259087429 -156.53194132049495124 -165.51852648690703518 -167.87565114165673208 -170.80382928984428759 -155.67596157873171592 -162.42585590932512218 -162.40503611905594994 -157.89234269804418886 -172.80700368095398289 -158.22163249702865073 -167.62083359939717297 -160.27177682274609083 -168.63527650238856381 -153.79786241910196054 -168.70641294631380447 -155.96408086314417574 -165.34276645118174542 -165.24130769180456468 -156.75003968138082655 -170.82224241989851521 -154.20832241667670814 -159.4112941642821113 -160.24762251353888587 -161.89079229323903064 -152.98946557517879796 -153.7578221700780432 -161.21989776410458717 -167.83066412445020887 -161.99469555054500347 -157.74775923663327148 -162.15209183957907157 -160.80100399568794955 -162.8469396945129688 -170.47228604812454478 -158.97772713514481779 -160.76147786096726122 -170.11738225363436072 -169.52355627175347763 -166.12114882615671263 -163.39307322571144709 -164.81074689110664622 -160.62125735439502705 -156.9388078016444581 -163.65040597794282462 -159.1814491271221641 -169.92333411207454219 -161.67344414645572215 -165.90572879872178191 -167.89117184192110699 -159.33678106825976784 -165.39921337029502979 -166.2312225729138504 -170.58605943252126735 -164.70766056009097156 -152.90565305310434496 -165.78976841748408333 -165.31757649728822912 -163.98407397870340674 -176.01113728845675155 -162.33351345624248552 -164.46446462935244881 -165.50915602489246226 -155.9897442460039656 -159.28031452288740866 -165.04473936393139866 -159.67433931495784805 -155.46500913637584063 -165.42026954097028124 -171.77691332613639474 -160.97724833465778715 -167.81918985869836547 -162.28830067313955965 -159.61520122632310859 -165.91736719883098772 -162.85523883656881594 -157.61408154870076714 -157.50808478906634491 -178.79467155071736784 -154.04439592535811698 -157.61877728682364364 -153.07987980236126191 -166.2424707292411199 -156.55243891046950466 -154.8031379038943669 -168.54035939744338179 -158.59395665582994184 -179.10090521640051975 -154.23844850479196111 -164.01688439124231422 -168.54660450070267075 -153.82665402616251527 -159.81185827456354787 -166.39732040982772787 -156.37422501918675266 -148.63364550734820568 -165.83181810252594346 -164.57629957754733141 -156.46362698777846845 -163.46184865403327535 -168.60232508276800445 -169.81927504567860865 -163.65886325107061339 -157.24909918529328934 -158.72598605058360022 -155.69202182100258369 -161.01406020930016894 -149.13781977545386326 -170.08196412774591977 -166.95724366160379759 -162.6363210704002995 -163.62889812081257901 -170.66482740590623735 -167.58104105440307308 -155.79368874100885023 -165.99950351325819042 -164.59487839363492867 -160.65891912463723656 -160.28934497244401314 -157.916304477723628 -163.16383437057800165 -172.04825168272182623 -159.60763524424706361 -158.14974273747486677 -164.16653338583779487 -161.76238973523260256 -170.61714964002456441 -161.34478434635838084 -152.14524761728492308 -161.16846810660797473 -168.32294488618103401 -159.21951733509385463
-13.647536539200563865 -8.8111935438427853029 -17.093501948684213687 -17.951691793181993262 -23.98092308173963616 -18.826568145574388069 -14.756731755636208092 -19.179013225160456813 -11.950084858094761842 -19.139898713129085195 -11.64079204350289487 -12.900742244138246662 -15.519925179716699049 -15.694343009819217372 -14.560357925945872637 -14.630872078436571115 -18.545059438648877403 -25.493646841056111896 -23.180022610745236733 -15.634777214579592908 -19.843248552738117496 -16.771212567136952742 -16.915536899291261363 -21.518163004425950646 -18.950628886196312806 -16.938913327680594989 -13.578496041438631536 -16.400411624053777615 -16.603672370250688317 -16.884868307071251081 -15.995003628346658786 -14.057846634429420618 -12.781276837190176821 -15.46430245180683194 -20.519931880641856026 -22.750431965795225864 -21.332645879180557102 -16.614768502897625524 -19.459607302298444154 -12.371462392107130057 -15.203207167996716009 -9.5513342092829738306 -17.206762564765952561 -23.455868546173704203 -14.819460926884827856 -16.691512591698622003 -19.247817098651538004 -17.259439121893425551 -12.59824260895321224 -16.832166203655397396 -18.936571714141486211 -21.567156337979412228 -19.260021163919265774 -18.006961629915721801 -15.525908608589510607 -18.09614971742546885 -17.778623393396149055 -12.16714834453494376 -18.475357045657606392 -15.625168088203295724 -16.520361639601976123 -20.046490002335179526 -15.169851670108426944 -17.879021340786671601 -16.171480327947264755 -17.160216026207187667 -20.773933771007065729 -12.943273555739523317 -10.316151214892695265 -11.932120023531167519 -15.025276299796690438 -11.749854615500172628 -13.755654512514727372 -9.9613894243656595506 -17.135772888744938314 -22.420128745428890227 -19.446102653457046472 -21.517010598538735877 -25.83445956344465344 -10.101372964422724365 -16.731588814606034532 -19.543746468823883333 -16.784709213407900563 -12.809204168082967357 -14.066748988088157546 -14.241532488626196695 -14.465943540372116161 -17.476037321570906613 -24.863856591375572691 -17.966690541175736939 -19.326516286838725023 -15.06059157894748779 -15.700513192225454162 -15.448657620403565716 -21.997989066295055238 -18.735837969626160771 -14.897137853545572739 -12.856448693880242473 -18.651653123384644317 -14.339355683374986228 -21.138096518822013792 -16.539937192923368059 -18.35403659511558061 -17.744377828293362853 -15.221959359484825924 -16.980844477777992552 -17.981678774328415216 -12.624671332683005787 -16.719191617380076309 -19.731553441496423318 -15.925717186052828822 -17.304065351108732784 -19.246245375026703073 -14.243336851780100005 -23.061010908058953817 -19.356075374950538759 -17.364401055005089347 -19.864156846778680432 -13.07836991832445861 -12.110518190099362812 -16.846702619735328454 -14.319480703507052155 -10.758137734969999144 -16.544949345019798415 -14.288410633481982259 -18.008548324517423822 -15.747201062767903323 -16.708426665880715234 -14.661018399352574448 -16.988419462187934528 -19.413929380162645799 -20.017117773805999548 -18.069406244448529719 -18.258648406737588488 -19.522167140230635596 -22.365930330579669061 -24.338920042137388577 -13.940478649494021823 -19.574486441653490942 -12.782306018384947066 -15.742330493254186763 -18.980916670377460775 -17.952208310099248223 -19.74146861164398814 -16.313581482584343263 -17.789696788842427111 -18.714278482449707042 -13.325510931626991962 -11.836008517262399664 -18.681639498295972146 -15.04473149652307562 -8.4564612090374442488 -13.587587159440193574 -16.406095987055053342 -12.168043895235971519 -18.74710652979003811 -13.993665504295613289 -14.596750142729481681 -22.350434776659920288 -15.252412207211868633 -20.938141413004835556 -22.072938891695464747 -25.186221777629846486 -13.341235733581992662 -15.483834253826390892 -22.669483492620535969 -17.33966909796096445 -18.108842608758617843 -16.191784164556555226 -16.480347457299295399 -14.286837873690288347 -14.910578652431741631 -18.3649490221714764 -24.533919237672574098 -17.846933481316977321 -24.062000370455589149 -10.52032467919480041 -11.127387298759558121 -18.867253034287429614 -20.058239788966186978 -15.408176600258425282 -10.256268705295648047 -21.963709046479880982 -19.40237763060045495 -15.252394958761009036 -23.800403586416710056 -18.108558361610278098 -18.867763242624342013 -21.490745172440163913 -10.651852278411777064 -16.521481738178916743 -17.714479634536999697 -25.736162329201793142 -15.768177572594172631 -18.378606734733889283 -19.067439593788769514 -14.327887689372971636 -17.835065870638342034 -19.086763173443952013 -17.973965060301999586 -17.707153305458351866 -17.674736445998920686 -15.608629154696151531 -24.367103666317486699 -18.279741770119841249 -17.099840431546347475 -14.165819337457943305 -18.941218469140800096 -11.234261454768905253 -20.941750195937480328 -18.955685249470903386 -14.679971414583755873 -22.349902699201219747 -18.171678440415512057 -16.439014551459358415 -14.694559213407339726 -20.693110318909788248 -18.853829718169460961 -20.113672960945876866 -19.963525185484936486 -18.261774671528431924 -19.841850312576060134 -18.797307342535759744 -11.900392315087263029 -11.696568557798897814 -18.813764337039575736 -7.6810704236176299275 -15.901655315319549899 -15.747589476643293338 -15.078796253131372396 -16.585663026686511046 -9.7923419880852868857 -18.78259047109402502 -15.571173075480984949 -15.269651948186151458 -19.209714687978937775 -13.519493314886368296 -11.768006000620442109 -12.40484053328332692 -19.558938057674261302 -19.584816222922842854 -26.236410931626330978 -12.895092117765987183 -17.253368414236796013 -19.592252537825611824 -21.458070449560409543 -16.756764224242868266 -18.772416996415330459 -10.715162724613499279 -20.914232855753393636 -14.726623231844511608 -13.949824149690748243 -14.606690539156277353 -19.164211204323365223 -15.144796060808511484 -17.324863751600101835 -17.14594089772215213 -5.5852282029097102267 -17.593075125558147676 -14.318724726684859405 -18.327219431501770686 -14.354946076401835953 -10.630776655353038507 -20.273342188233520744 -13.170261247533806781 -15.511562684808746226 -13.011320767955806943 -17.637712787355475541 -18.896083668107422682 -15.638452711154720021 -17.536725833962137244 -8.3265382465675976675 -13.828587513042615242 -12.114224620878804473 -15.762024694111946843 -16.718174591517115601 -16.729531037485710243 -17.74357381575266146 -14.037257267847181197 -21.395343370996346977 -22.164943372097731356 -12.883638906758054787 -20.635079073643666447 -19.647647832484850028 -18.24452197700273004 -13.104620642176971756 -19.850415165624490044 -14.337106741534139331 -17.363371034449485819 -16.730458197713218738 -13.114196358010264731 -19.402816458886288586 -18.075854820758461727 -18.24285856068776468 -15.834594444135817071 -16.856112130614555156 -18.917821129186343398 -16.438662987605063392 -17.752245900111777388 -18.328010765622806844
117.88673629197747061 128.99362411904624537 114.21704570189326944 118.81883534027920746 119.68409007045151782 121.42699727073797078 130.01912281880530031 125.36761561962740075 118.84497961359186036 120.60416904888410272 129.4217214773893545 123.03123288097265231 133.70278248723639081 125.35111853165318507 129.5627740207355032 108.51441307298181016 129.30757310143769701 129.01900134415612342 128.75324320015675994 112.3929981644122762 121.29503558646852923 115.4083648238634936 126.77237089717588958 115.91820151157432406 117.91143698478954605 114.6428110534999405 115.65644998297833013 128.21619481818237318 124.4665682811558014 118.33617954793115246 126.7412255399940193 135.06824386471777188 113.75231859556268432 119.30814941728942813 125.93383228748480462 120.79764204123010529 126.22074901954604798 111.13974066201707558 130.82629277086110164 116.40422288634030679 124.43417956008977399 123.84077531061090838 109.0463551932928965 104.07906072116448115 119.98284190456799081 119.30846659248290109 122.79996549068438583 121.812967675612839 116.73749528818872534 111.13345858929423571 122.95098229995971906 122.22159777029503402 113.34738941992148398 133.4425621125481598 117.8538010055810048 115.13105041402754125 128.83404763369179591 110.92446679013048083 128.04201135640539633 118.2171158436837004 121.54666929770478134 107.18797370928878365 116.91065950178683863 116.1535039594590728 126.00995430557958343 115.13444280832989364 113.06219799903610124 125.14849324776314177 128.51779822308614598 125.06287927541502825 113.96595905814972127 132.96347666544073718 111.35090462747450601 116.43088735678371393 137.17610514350002404 117.72927836873071783 128.55582653400014692 121.45467747994644014 135.1819790671310102 123.56829695946066749 113.43461086152250061 133.69487361487202293 128.24636354342251821 128.98572780348141009 118.08588454600686646 124.06879537448308781 130.58009431306976467 129.62187443237104389 113.05131315087778887 128.07558184817068536 116.53261056131651685 132.18384891049745988 118.35417140804750602 116.57266286542090938 115.63653217887784308 127.58015842807948559 131.37011139116842173 125.09088061686496474 126.4432765856594898 118.68328537941324896 128.27601274793588004 131.12839859872488546 121.46577482920687885 108.2790838247242533 126.50973971332705048 116.48448759297153288 116.44061377315517802 124.3941727729468596 110.53562698198565784 116.76013680190321509 143.32057162569671505 123.64844978755721172 114.84762794538923458 117.30939750592412452 124.77963487879833338 127.35534074451010156 125.73668767071649199 126.70850532173440683 125.49494073388255799 126.86196497745821432 125.27090728497284999 119.53065293964355931 119.81374429642582413 138.21474042031510976 115.5373167355626407 127.46803696203008371 116.97630392027065227 130.59767696385395652 114.32829486344712677 126.01264211732429033 124.70569950661034397 119.73673749539968014 128.1813205921934582 116.0159265421942365 127.56914865522493585 121.61704491344279688 116.41615296591618289 109.91096731637796324 131.45412282621813915 130.73623591077358697 131.52364139969222379 118.63582557503035275 118.68226936935406002 120.7660952461123145 117.61460821865100002 122.42925484760972665 119.41233833224886496 125.10738056376632699 130.40284986627301578 118.46793123068431441 121.50378896561832676 121.54669868954945855 120.80120137015479997 118.06859930884620269 120.68927150110478408 123.838802177592612 134.13852513909657205 107.78129618959508207 126.69529679731144256 135.56754683274445483 127.6854964158380028 124.26295927985908918 129.08478582233414045 121.99346063567477927 120.44990502890215112 121.67941092471616571 114.68402084414024955 126.42469587251544283 126.10860289029358228 113.90920346027644428 126.70044330832216417 124.00126100035993204 126.52818243905934992 119.6955347361488009 114.92087433096699556 124.75798391280224564 127.41413273969178022 118.04318901619765825 126.67237736898047729 130.06929835837820519 124.60450435308038664 111.31011410134837547 119.40185798085479973 111.63806158372651112 117.89756795041537885 122.0414774308627841 113.91420813328790018 117.0353499787571252 134.09765541657202448 112.21913440292017583 134.13797770268848808 122.91647843744856061 120.22929172631444317 116.10562275852758773 125.98755125354665552 124.19020396311428556 125.06172075356080597 136.06052605248828513 120.01618344312514353 117.77807853275554351 132.06816114489112124 121.12748457753653497 130.236297200053599 124.48918165323767937 122.24375516078751502 123.62053137767460953 130.67745327753553397 121.91439473893238699 126.67905594549436898 122.05487537391984176 126.66039026732291006 112.42987936183726561 129.32583378645381345 118.24808045650121358 138.68052214607587302 116.17769540764672342 120.6596916989447692 120.45609979226871644 118.64900324977024582 125.36717827688539728 127.17632122540439354 127.73059456298092584 119.02697621094493741 107.4214521814666341 117.83219555016792413 118.60996870807741743 122.91829599397591721 136.04629464935538863 109.81193799546709045 111.26156574399782073 136.97495811888023809 120.08982711266155263 128.61531993162992649 124.73806881800290114 125.4796985836988199 121.67444043551527955 120.75511927762914866 120.01987394768258355 120.69843557132179512 122.33730674973998021 125.55188190320281194 122.56272375513550799 123.71349306131376977 121.11626781061070801 112.89248515066709899 119.57400372637341945 110.24117358930779176 113.46678043689101401 127.67972005761301091 125.43940500907980606 128.09615254924588612 135.69895009810963415 121.82322238105503232 139.8370209847890635 126.74789754722944224 126.99526910011705638 118.39181588229439512 117.27599158408551716 135.61136947053762469 129.70131569963800189 113.45901573166875664 121.41960542486773988 119.08333270390617997 120.32877088637991392 115.07447220455512138 135.01005184428476014 130.77117305850251228 117.28211481271425498 135.84165132580503155 130.91834275438861823 130.15523415292233267 112.91891135228591736 122.10249244422691106 112.51944017408374066 126.12688363251542967 133.71014433812956668 119.44465524103956966 116.75233642198310235 121.78470736304750233 127.98850079216769871 131.71018912610225016 119.1472322138936164 131.91329777847349192 117.36344266109271928 127.47837587379822821 118.65065170355470059 118.06348212029698175 129.00578379026541143 118.10271741616402608 119.41378893287736673 118.33043992121352517 125.73785324078954773 127.02444696917683586 128.44417183292870277 119.5709700615729929 123.99203693839193363 116.46104622431938935 123.47892948620628317 112.01712703659624992 118.44504897741845184
-184.54848199026710631 -180.92721297321048723 -193.30220080520976467 -186.79497958913381694 -187.91812217519861861 -181.82134898464829575 -187.03347813911875619 -194.49201010650298826 -187.39886148797188525 -179.56529038954676025 -178.61361646000977998 -186.58789845556097475 -179.10291537588963706 -181.43931663141461286 -185.25845086262364703 -172.19585726443628459 -188.46875105612647872 -181.21796256056529728 -190.11207603221052409 -189.66955774461220585 -177.11933398818101182 -186.35919610293777282 -178.88306815101091729 -185.13864117450526692 -178.30127906817509142 -187.07165147564006702 -185.90258995350563964 -181.47327145789461156 -180.16039215733812284 -197.12173980111589344 -176.52578454763332161 -183.14320772025533302 -183.34123376660744498 -186.18453128431119126 -191.31846094288115978 -189.63865041780780984 -195.9763776664464956 -196.47817776004546886 -191.30566568810792205 -178.61071715084605671 -188.47984769424652995 -187.11557280169228079 -174.7823002667619221 -191.37929273566490451 -180.79081188852822493 -174.29429411612272816 -185.5739094598998804 -182.71217855277208741 -176.65205902195395993 -182.59822122882303574 -184.09510818795544651 -187.6371893492718641 -181.32550972477338291 -185.67230053085299346 -175.89676968655183487 -191.75625614416779285 -182.72532792342602193 -197.63085463345433368 -176.26495625427324399 -180.85411476544874176 -180.43837056424243315 -181.59276832873948138 -177.97930115910472182 -178.14255320782663716 -188.38951468464256322 -192.10714695844174571 -177.07685928345964044 -191.81980837882599644 -179.18559408788695464 -183.84673687560800204 -188.71182316112344779 -178.57674140646923888 -180.77363672545857298 -179.20758773039733569 -196.69674252806984782 -187.10965951218312853 -181.36807983303302194 -185.82126137859955861 -187.2358611840688809 -179.14164185951364061 -187.33192624261127435 -177.32049623023971208 -182.46865222952675367 -189.96031397661582218 -182.80382855426861965 -179.83111961779644616 -182.35202003820461414 -192.99063920829524932 -189.9935979833046531 -177.44632190584087539 -179.06853299362157372 -178.79523871632190435 -174.94664895822049289 -180.59761716003509946 -181.43198103954216549 -184.85181986192111481 -192.56647990918821733 -188.16407421927871724 -181.78642208856538787 -193.20836698487289596 -188.59248834568029451 -193.81194704646296145 -181.9689937406351703 -180.53901414195973985 -183.19980478761706877 -184.13858401375483709 -184.17071394408841911 -192.30367486037400226 -178.57300571283238355 -191.49575775842600933 -186.97146243174412916 -195.24273579034164072 -172.22975745575408268 -180.33388740849198939 -180.72430054852273429 -185.56881825243991102 -187.889319379163652 -189.38372178356362951 -181.04996927113199945 -174.02601665853080704 -175.1155616078976891 -168.35021939600918017 -187.35016980199446834 -193.68897180692582083 -199.46509856677479888 -176.98074817112220103 -187.19290849817235767 -186.80894647406100262 -172.12450366837168758 -179.90673144030898811 -181.89222571650759619 -188.57143402538119403 -185.03092421372150511 -204.64780222119776454 -183.64382271166371652 -184.7950651435888858 -188.86561023380178881 -190.19239113729992141 -179.72144774357539632 -175.80247276530403155 -188.84690450929005578 -185.17760477252249984 -183.90749104733387753 -179.64592247963679483 -189.05105241155632712 -180.97556465855672059 -197.63471054641553337 -175.06043798776690323 -190.08108556030074965 -178.87020290439042469 -186.06694104086054153 -185.60619128489955187 -185.29459061076752846 -194.7924161268662715 -179.42280970914484328 -184.88697724527526134 -191.76839190491838849 -183.18051246966987833 -186.26437911467814956 -179.39612982245324702 -186.81753647773132343 -189.60371325375041351 -184.08215230657881989 -186.54393832195754044 -181.08111118197368228 -187.35510458505316933 -180.54498277353417279 -182.78131287755891776 -191.27362229663367543 -185.70955507436150356 -178.35024443371236202 -178.70704461453814815 -186.85952601948380902 -173.26545378879450254 -182.58736428025738974 -183.36108611426251969 -184.1886291720851716 -188.13850116866294115 -170.53524891882909742 -183.02024697369986939 -183.22930448129093861 -191.30848294836380319 -172.98567250316389732 -179.0720030600776056 -176.52663118739826587 -186.81726744593171929 -186.57165081398326834 -183.91553408122950941 -180.17200471616709478 -179.83509777150459286 -186.76733511152161782 -177.63807111437398589 -181.60816767765945201 -181.89902732292679843 -194.89998412837982755 -188.88100954116191588 -176.70427003184647674 -180.54059450059418168 -179.39814355380667621 -183.60649396072710715 -192.98800065285425376 -180.82686003612658965 -189.78790091053352285 -194.84482112902429662 -183.23550003840585987 -178.7448910040172052 -181.83608522210647607 -169.41978402084166078 -192.23290183995217717 -181.61144876742585552 -172.77099870175189267 -177.34307232630843032 -187.37348877811220405 -185.83508149327332148 -178.86568569338982115 -176.57024329677400942 -185.60180751371837005 -188.07814855644599561 -177.10159073373429806 -177.96492425519110725 -175.69238221681436585 -183.90228754927539967 -172.39387445996348447 -183.16975113574503098 -182.53856247359217946 -176.43500745297080812 -180.19770631851707776 -185.09280739398596438 -192.30380796020202183 -177.202553794023828 -175.26392068746443442 -179.85441623749582618 -186.88605311351719251 -186.71192484054222405 -173.13304839960551362 -179.88141818139570205 -172.50503715255717907 -176.90048379867116068 -183.20202539945410081 -182.43535384837784363 -186.60967386705431181 -173.52616229516652879 -179.92684722830935584 -179.47790332521984169 -188.76373833909951827 -189.56283551117627439 -179.54293308522991879 -178.32495813526560369 -189.54967218799427542 -178.59675515678620172 -184.37787806141810165 -200.72736279143646243 -177.50073058164537088 -190.29240756438366589 -183.57862479273882172 -191.33802807607250429 -187.85771590227645333 -185.805126100870865 -185.35167379308697377 -192.95418697043976408 -183.70009412052596076 -184.46779960524372655 -179.00632379097768876 -191.81255040026761094 -184.34679321294848364 -180.57689819254375152 -181.45717261685669541 -178.35476942528069344 -184.15002653387233522 -196.08008891820043118 -179.62570453178233265 -176.15592344421918369 -176.99790435451791382 -171.06654888955748106 -182.99897432324891611 -198.11547438663529874 -170.27879374105998522 -177.18736331617384394 -189.05898318523594526 -194.15981469295718398 -189.37994451431825382 -183.93605899165530104 -182.9137089598866055 -180.94352818268274063 -181.79210942852336075 -191.00251567587679347 -177.46863257552874416 -185.32337428814028613 -169.18910849439208732 -179.99799862511471815 -182.39549798848835849 -187.66186481442679224 -180.10452854281788859 -184.66452970021197189 -189.85964148973022247 -186.177956864432673 -175.31473466957518781 -176.94376023931212671 -194.54400586348677393 -181.27211861135367599
-31.145501149824369236 -29.990603301135291048 -26.517239940261767117 -32.082722446116903825 -28.686850720145237403 -35.689196030168204743 -33.956129132605170184 -31.063032305983746539 -35.055280498547176649 -33.470940177937173132 -33.544553916699221929 -32.500460582293825951 -38.445074122667463712 -33.467770194947355833 -32.45309637967406502 -32.979102131079500282 -26.268870829952035706 -33.396252507292068401 -33.351506880064171412 -31.775595466984000836 -29.878032541883328577 -36.358449269496759371 -34.702473442812681981 -30.630742428505694619 -34.904127535640263602 -23.831671490489512166 -27.433853192746315841 -39.368888335952576085 -31.873052428496610133 -35.084388718387096162 -27.046092868027891143 -33.611860045148574727 -29.165043381917229226 -35.170046648938061651 -30.931427902219219561 -29.825145603125555738 -31.434549472426109418 -36.021427989904665878 -32.874387824766415633 -29.353572601964884825 -32.768769057997580774 -27.749576412522038993 -33.473825046541307415 -28.741134510041732142 -27.269039875944528717 -31.978914465248681864 -30.751567184474470906 -26.340945983167891598 -36.536859199143435717 -29.004814374840051983 -35.665110332332595533 -28.856286247719893368 -36.288934350325874334 -32.691003747819557645 -37.356701922452430153 -33.745593337915352095 -29.07361877199831568 -31.76696056305205218 -26.421902605615031234 -32.191175632306148202 -37.537080083326408442 -31.018661231194208483 -28.710923336459408972 -28.495288806846414076 -28.776152972467620828 -36.72448464982941374 -27.14595998195851223 -36.886107816199441345 -33.631203834049017587 -35.663084488242958514 -35.168602495396385166 -29.63193658556040333 -27.691893872639443686 -30.853313500300309613 -31.590449696728477136 -33.090949376603191467 -40.236299999416495154 -30.445110194260280423 -27.40519950503900759 -31.895696268906750248 -29.165341195874400881 -30.271999319790943161 -24.540484947426076445 -29.904009635251689758 -31.924336581609718877 -33.749376447714922733 -35.043884330994259813 -33.660154342943648942 -34.862804111184182432 -29.163819795241671784 -39.575723570379707894 -34.715143835305141806 -29.096663688101880751 -37.913488320296600875 -30.051795381730251222 -29.401837566852957906 -30.325356167391362305 -30.233485338057370484 -32.719696174402351119 -27.10412675829590512 -39.889287361422262279 -26.403549421170211531 -23.846831243250814936 -33.100545720556738161 -34.193424241267322827 -29.20077927394435946 -32.052855623884184411 -39.413507265724348372 -34.645773488185177769 -35.21369725113873983 -38.28828905434242813 -29.526625088688660981 -34.543308080652259662 -31.767724991837027915 -28.582691427806111051 -25.392782141410119578 -27.340018274528809172 -38.300408253056872354 -32.388025434911462241 -30.961787766693749546 -35.499665639666446282 -33.536301343399443908 -33.182206470303256651 -27.344423603870794182 -41.158932324436975136 -31.392903945158501244 -28.801490350047522782 -31.639023551114554778 -31.991957343208795805 -40.591049532518056253 -35.586127816839990601 -31.716868342371373757 -38.91941366055075946 -29.563699919846385455 -31.470772091778030699 -28.585753381908261872 -29.875000020908331066 -26.918562938636583226 -33.575573204009316441 -28.82449453024636199 -29.251935291680428719 -36.288369894183048814 -37.908822549017294534 -34.775724360137644453 -36.018088495774684077 -31.047849234442232103 -30.274883112574727306 -33.313302086462009299 -31.190876025589375331 -34.634177935208867893 -39.081416165858883005 -35.671983696520648266 -33.063962285827287246 -29.155245873237333853 -32.264446513055929699 -30.307320806098964283 -39.36572432137026567 -30.964088602647656501 -36.720071428662095059 -29.594825980036052471 -33.832097090816574791 -29.045315994080375788 -28.807432100354631643 -37.716804719935382195 -36.466398922302417418 -35.362275215003286633 -34.740394909217606312 -34.525264238899076474 -36.997725805405785593 -28.142748672085584616 -25.304967897400633348 -38.823832219764199181 -29.296331045519387715 -31.577499662362335187 -33.51232530864942305 -36.265341883972261883 -29.245954651613455866 -31.709253084607208706 -39.932859843027330271 -34.642413844815230561 -31.803753736338205016 -32.900170132378512733 -33.67343226026318348 -27.272666090909332581 -32.606067158545926077 -34.794373457794193882 -30.381241032703403704 -34.34554695192629481 -35.235405538838811879 -32.468775139500770877 -32.924133015848589423 -33.209067599837560181 -30.350572776373692108 -31.682911461359040572 -33.774595746980843103 -31.193481978953975897 -26.131159538960243793 -30.590890726076665374 -33.21725814522311282 -32.676417483995791713 -34.882320489934421914 -31.126856790070974057 -33.026573213280947527 -31.502717834228022298 -31.920598981220969392 -29.882787005390550661 -32.307179409133709669 -29.727872821775868317 -35.898748349740387198 -30.975834085658110695 -33.619214087072251118 -31.918351767894584725 -32.05986868916794208 -30.251593561818712175 -30.030793530101597355 -35.061029758800991374 -36.557607647415487406 -32.962935157290523591 -29.775194805342163562 -30.84458512608804881 -28.058151815746739999 -28.864854166496090926 -30.354899958841460972 -30.298303415493151647 -39.468816642175582388 -29.387520526213425143 -31.561535248618774574 -31.510164061395652624 -34.611466687056562819 -32.233497987971347243 -28.015323102572665448 -29.733860786270128074 -30.940938084350840143 -32.928634035696262572 -28.077797230707396636 -34.295710857187508225 -30.692475266693982405 -31.227442992011173573 -38.228401962091865585 -28.772511710708048582 -28.257687332644923828 -32.043901474786913752 -30.828314853275927021 -34.803065366444585038 -27.170511286110070159 -31.320132984905011853 -31.634538962847855714 -32.352151781480479542 -33.909890553903842658 -28.607885535598583715 -37.246518129078907577 -27.475773272396221358 -30.463622162732736598 -32.907267656389350918 -34.553617033395845226 -36.355002247487533396 -30.789908005610250541 -26.32948334898748044 -30.422646792548384553 -34.455049992163033323 -34.15390032227794137 -25.779165685591941326 -34.847565679747390277 -31.528013074393818727 -33.319815117641915947 -26.370521691643276085 -27.51765854105104836 -30.761683181902931494 -30.488934816208214329 -25.877977451075540927 -35.887460742354946319 -30.692957835490290108 -35.775116070397032786 -30.897734771663667885 -33.556348365160076241 -31.540264309551766075 -27.642218560790048798 -30.020980783838858486 -34.472686465160528257 -34.407302667831487497 -30.108193044551875062 -29.592140237427486227 -33.010360146594422304 -32.689043921877832588 -37.610982750564325272 -34.753207369429475193 -32.82134515386322704 -26.04735857009028166 -35.102952844263313636 -42.596822495771874628 -31.937425257566566472 -39.338046583416108604 -31.616300770425226574 -31.6819789211790237 -32.925428629160215621 -39.078564480588795504 -35.478779141328089963 -33.111991891080052142 -34.687009574803042256 -29.182444861651038792