-173.15984683709424985 -168.68078822062901168 -167.08994458481376455 -177.08058956074131629 -171.55566329675230008 -169.22190040291812352 -173.4360644326226577 -165.76654710640298163 -173.39880810602292627 -174.92137359652960527 -157.2997643278933424 -176.29044816249137284 -164.6589887213570762 -169.75863585916513898 -162.73249251109282909 -179.39084914644473656 -169.33971233661600309 -168.17817990920855209 -165.40944934268034672 -178.28423468203797597 -176.89110672430786053 -173.92674103006640962 -171.7649917054602895 -163.61651286017234952 -165.23841389332568497 -167.6230960351597048 -164.48197296176803661 -177.95712662741985355 -165.59244422823581999 -166.73438081499389796 -159.87134998294988009 -166.78401342730003876 -172.71599891013863726 -171.62968644464362455 -166.1158245256622763 -168.10629709382774877 -164.30708062627576282 -163.83839741073137475 -171.90866357738775605 -164.4935585935780864 -181.65517553228841052 -176.76675619818652763 -172.44192297746735676 -165.1578164245923972 -189.31672740613981887 -173.82672334917933199 -160.3508316966824907 -172.91732195985363774 -170.09495114978048491 -168.94353963508379479 -168.44005244379144415 -175.59235245802472036 -179.26659948876857698 -165.96268128763554728 -166.19925965867724926 -172.76651954171936154 -169.13010585630053129 -175.00967444089738478 -177.9008156121397235 -165.45608100065018675 -169.73495125214355994 -173.3459953963197222 -183.2325655174644794 -172.88688869213061139 -175.87959801038931573 -176.60963634188058791 -165.01755240843638717 -166.7852561708855319 -167.44436343263041067 -172.95436736643367226 -177.62273421222224101 -163.96714304765723114 -175.68786994229643028 -176.85051907669549109 -172.24483110157257215 -178.442178027342635 -177.62091820267417575 -181.45362857016610292 -173.99892561596951168 -169.65057393691034804 -179.47301480168317767 -167.7947751950154327 -163.51262379677243075 -170.5495433523845179 -169.37601850917178581 -176.82153089250917333 -173.31404170555640576 -168.4232520008635845 -174.74479262142426705 -179.48409696574032068 -170.65406829130375854 -169.53482565216498301 -166.36909109033211962 -168.01453802311715435 -175.91043103144858151 -165.88639503023696875 -171.30646779408766633 -176.62693145986199283 -167.91378186938513295 -169.87695243990430072 -177.12133570425589824 -167.34668972654429808 -179.71931031944464507 -181.91730633210426049 -185.26336852278038236 -175.36008217594726943 -190.80625241085536459 -166.87105719486723387 -163.9913965954848436 -175.50095856453157239 -168.94178895574165722 -178.17373150792997194 -167.80365583623245129 -169.2947224863026463 -168.80837207692906077 -173.86708378851349721 -171.42414772675303425 -171.64384405378223164 -169.16700885392717169 -169.50758979754479583 -170.13160870719721629 -167.98470161842877246 -172.1082241837474669 -176.77276278308079327 -180.32459884474170053 -172.02460537512914129 -182.21164545069092355 -182.15864285223423735 -175.44581892244227106 -182.89180023329697633 -172.83773447817435454 -173.30929223807402195 -167.74304300945226487 -168.77496665223702621 -177.74351708914485926 -185.13011602472755612 -171.45404581594536353 -177.30326391227544036 -161.05223171775909918 -165.31330597352950917 -176.7538071011001648 -177.18448447132294632 -180.91501830892701719 -171.85091124569771637 -178.78031412376543585 -169.94074971569017407 -162.11692459447095871 -171.43014472568063411 -167.99204758343469734 -170.93473690392136177 -162.18095978780672795 -172.11411285077076627 -178.3693256359550503 -172.23010227560385488 -173.87849771193938864 -174.74174632886604286 -172.83622023530364231 -164.48995705692786373 -166.75986913844124615 -175.60335757193419681 -175.50839771739327944 -167.29529042979680753 -162.12450670309507927 -175.17706144920114752 -183.28519177372839977 -167.86734324851516931 -173.74257565124119651 -166.10519836276151295 -175.97859126362965299 -172.09881750515066301 -167.44861018467392455 -175.17659530165050796 -175.47976583428487629 -175.11785450999019531 -176.03402079618652465 -175.29902905210516906 -165.17235623198237704 -171.00414619262707561 -169.97230965994111784 -168.78678511190591394 -163.8496285542026385 -177.37990537893904275 -170.61079067953519939 -182.11087730072728164 -180.48077223015840787 -171.02768395309564653 -179.26160832175361293 -172.51849683332224572 -174.40386864846092863 -170.90139081410879385 -165.00722829103165168 -169.75770187849968806 -181.02959766515277806 -166.89893772958143359 -177.96086414234369499 -172.8499595325066025 -165.60515470641794877 -174.15522955819091067 -170.5274112827122508 -168.65366156173149648 -165.62620033637350048 -172.65744650677177674 -180.21835800027227492 -163.66353472560984983 -183.6810303487542626 -174.35433682727176574 -180.71049288178110714 -177.00434407476984688 -177.23995150084707006 -163.25125123155453366 -177.49482212884532828 -177.23342258003060579 -170.88954163614906179 -166.75301935056216962 -176.77368209264093935 -165.9811810454933152 -174.11977549613246197 -171.76686504642577802 -167.36750536402027478 -165.58157277342542102 -156.29513220327231693 -164.56723812651489425 -180.83832434554642532 -167.96144610366195593 -174.36906957181460598 -174.13765601618169399 -181.04188169397031061 -164.00816338666777483 -174.13646992861538365 -172.88776591917272185 -168.56534743943103649 -174.2587358883234856 -180.55040191038506237 -163.28008166362261022 -177.59874338132806315 -174.26679666937974389 -182.32494859222549621 -179.88411772458840687 -170.96417795046843935 -160.22138071887857791 -178.94782999849206817 -157.16334136650888809 -165.77092023412160415 -188.38918956764689483 -169.85520851810386489 -181.23587818084962464 -182.39540827461428307 -166.17142491418553618 -180.16479825274916493 -179.83223031346568632 -167.69985799303935892 -159.91874564910142453 -174.0377138496827456 -171.90101525508291047 -169.25033374178133272 -167.18366434386754804 -169.27860144477796212 -173.4694621816758513 -168.1600252526571353 -173.17690907659488175 -170.38774845329228924 -162.42166452358216588 -169.29234027241767535 -165.49994939567835672 -177.85907272484305963 -167.41015944581911867 -171.66378685244754365 -167.12080443115840467 -160.0085809551772229 -170.83616550109911714 -170.25026472752563222 -178.68438328798575299 -165.76512918084378612 -166.37864233712207351 -159.16084750621939747 -178.46845461080715722 -170.04072854395269587 -178.6390460794335695 -167.48818254413086493 -176.70023219929959168 -173.37478989833851983 -174.1914713863664872 -166.26138823771657371 -164.92687337283220472 -163.55336823820647396 -178.07157029802749548 -172.99015455807821695 -172.6410608925465624 -166.32603413496036637 -194.20690073027336098 -162.42849913745465074 -163.61140896607619766 -165.91121244016224523 -167.53538180044589012 -180.72339510642939331 -179.11770541749851304 -160.18157175853011154 -168.79123583562395083 -171.61672632110679615 -162.0449886579568215
-8.4875185178574987788 -17.367948202128758339 -11.931747209431119217 -13.899704951076198967 -8.1032158085853183138 -5.4683755918815091235 -5.0315960162521076171 -10.913254982789460712 -13.088569130639713833 -9.4543062348692981089 -6.4095902383207468134 -9.8756492213264799318 -10.871430967783879851 -2.0993388367821266272 -11.798420565604683219 -9.4828639346642074059 -9.9152115933897473354 -8.6318367593016880335 -9.0290367194249316896 -12.376936937823717955 -3.6766508459087487992 -2.8377920601273736168 -8.9812416300999196039 -11.618795360843485298 -9.1172228853184993369 -9.153457930455616065 -11.227762737725116793 -11.26489592009262708 -4.1847719402755227946 -11.890323826541557395 -13.965924390639759878 -10.527250815099812087 -7.1620301783382984695 -7.5694337264681106348 -4.994753527559437245 -11.905573586791405205 -7.8390876282369337247 -11.7636176627644371 -4.0400527229483680358 -9.2587470322018834423 -12.374410027478718987 -10.736553523942236055 -8.579909464734221558 -13.688982477891503464 -12.557029703676931831 -8.8985053249035832579 -10.376341160531476149 -11.743386169209706793 -11.998275578989890278 -14.166461362325712514 -6.9301104137341456024 -8.6770873757360131862 -17.64773346370253293 -9.9425558924979142716 -8.8708478307239406746 -12.180716731645571116 -3.7837872159950123319 -8.4981132809612649481 -11.359819762534094423 -11.522976056997022098 -13.195559499869769837 -10.215881548524770039 -6.8981370942765316556 -12.955984458260392245 -6.8535446243253144161 -10.842686497047536065 -5.753330844728425042 -8.1528513831115851929 -10.107141682589098508 -17.977324712355851943 -9.3660597289251938946 -5.9772026008930998486 -11.785336914403721664 -3.3246353431958244329 -6.4008194695174385203 -7.3905595833798098937 -14.65003090439462774 -8.1101783019258917307 -6.3769092120835111359 -6.6544397678713602673 -7.8462293807470082641 -1.0872767692088824987 -5.1798467776555963127 -11.811410031591595526 -5.9700767159083305557 -12.06192781113698409 -4.5991486088415154398 -4.7628263069116609785 -7.3724172929840907642 -7.8726898391167203783 -5.9048187230137676451 -12.972636413711612136 -8.3621612380615033544 -5.4574667538262513489 -10.831591298037931637 -10.747420614610014411 -5.776171742582342894 -8.4095167860065842547 -7.6339206777324717379 -10.77906220701205342 -15.549898454425246541 -5.7180486894927327057 -6.834061532795437266 -10.370875213725470942 -8.0050059761252381207 -11.414248120489741467 -4.8821372139582583927 -6.6309929912103848793 -9.4009279619255714522 -8.5081491456202211765 -8.7299530740668682682 -8.2559533390839217049 -15.391820528989319072 -7.4655009061848085494 -8.9570268827527250721 -5.9414885380869133513 -2.8008087254638658337 -7.7987652516208125775 -13.174297445214827817 -13.498181612684579278 -0.94364328692137000587 -8.9268050917453383164 -13.110278355607498213 -14.697646416242516665 -8.665502178755710716 -9.6008759463509001364 -3.5955154585123363375 -12.140155686362852805 -4.0991830216240421336 -11.363653859358494813 -6.573652386250717683 -7.4099350938569115144 -14.221948960654005489 -5.9964435368633921541 -7.9928200639465893929 -7.5845801371338321673 -9.3550195564251961144 -6.0021522951608332619 -7.6650962210817290554 -9.3007843634218634321 -5.8407006859601020565 -6.7258797815611313098 -17.328609863763809074 -12.394315761929835418 -11.198457739877541783 -10.715813732039606521 -11.77797349100232438 -11.539734016038696751 -11.669652885564925526 -10.503828179671724996 -7.1835797267158740809 -8.9282481900317165469 -5.8655419218933806391 -17.619357838562251573 -15.325178886260239608 -4.826801184412353507 -7.4749884424962091956 -16.18933208528209633 -7.0178937962734746492 -9.5543765806367844107 -3.7301915200136841477 -3.5129787093138755694 -13.310309156852518697 -15.036671764943736918 -7.7979839930452499175 -10.867038901820048835 -11.11612337066976508 -10.834858677725328846 -7.6221477608119228009 -7.6808749153305519997 -11.239341004666886903 -9.6128708304624108649 -5.1174796396434976131 -10.408974719644611184 -11.707650118071871503 -14.386743893670178807 -10.774299850158602254 -5.7225667347216138126 -8.629024866281048034 -15.383882019118692241 -7.387862239651215468 -10.291051623086037381 -8.8390043272570260058 -7.0704237748847988954 -9.3691663607508388623 -11.008452274216773858 -14.235402753349271521 -8.6829624383691097478 -17.854903289748634165 -8.5776254302769032734 -7.8116547250510901534 -9.1306254354995690647 -4.159504433328208961 -13.105445039395776874 -10.376707686508297002 -1.8828209744867292486 -15.158170389527303001 -12.023506462463362965 -2.9310651890794048313 -16.02857964910767663 -4.3185502044994397153 -5.3413896565192011678 -7.5213328829897800887 -8.1206062791930886391 -16.316369854550295315 -3.354113258136971254 -12.37941372260748274 -14.015078160019047715 -15.449753652991613961 -12.974207602292137764 -13.877598876461274102 -9.2363245425395081867 -12.758226510073852111 -11.598016015959737857 -13.660350582906353623 -12.114183575555959038 -9.3457297459539425688 -6.6889245825749412688 -5.6414903070665678442 -8.1212118392627381525 -6.4452631225014895833 -6.5769635635948677788 -3.4275949934154743559 -17.135739474044243025 -14.011844235071142961 -11.882761456206361927 -12.040631189507976728 -13.980920057800457101 -12.590863734697290255 -4.9017599857295905963 -13.83566488874651057 -7.1857526340288764288 -7.6229578296740259091 -14.892167199015732493 -13.635482833649216872 -10.055798750865251989 -10.12812639646369206 -7.8535855455742247244 -9.0342486375452306646 -8.0024787851253602611 -6.3223844019118615734 -14.07702809937496724 -12.318174154763063655 -12.380656706157516567 -7.9038128274505385917 -12.408729636216998315 -10.161969680413095674 -5.8369811361184904541 -11.029800162724505697 -9.1966619171014016842 -16.738850908328213762 -12.421224916695051022 -10.988299362146944915 -16.9489766965284403 -12.032516857010886469 -7.3233867314035689944 -13.445928680825733892 -14.797314682644715944 -5.7622092830670244012 -6.0639000866024463932 -12.118858214635990223 -7.5951897243536796722 -13.369152723571303909 -9.2045579457707837889 -6.4613683372326331522 -6.9029255643560789579 -16.216960447065993378 -7.1081176490687587588 -6.3594582028096722226 -11.283793292924251261 -10.549582986916341554 -6.8637697238989865411 -4.0709259143369429523 -8.2844021210479628081 -5.4878542502687555071 -11.750393657737648212 -4.2412150169043352221 -8.7628124930328752384 -12.784369696604320765 -8.1279059363682399919 -6.6129022134519050979 -8.2492115762646953669 -12.212477413634038825 -4.7260499933807000872 -6.0641983823959622057 -6.856694933661735547 -11.775497371864782181 -7.4329866135801090365 -6.4346197341522417545 -16.502581162948946059 -4.3347091749611772471 -5.07595112168887308 -14.014315395036586409 -14.15172191083151354 -6.9267006700799385044 -9.9991848826978646514 -10.867183034145213583 -9.2084690199283123491 -6.0472491983291263296 -7.351859597012714076
163.86875163684604217 166.5643186089295682 161.20779688407171193 150.93388600434076352 169.75691466848829236 178.14731682922152345 172.22602292245159106 174.16319715619792419 156.76559397076056257 157.64233260963487737 163.2673453789969642 172.77122381148240038 161.61286431684843024 162.27140175872608552 167.37183432084481183 167.17327567229096985 166.92505754252275096 176.63473152602892924 166.62065698897680477 168.48027675337758069 162.9443560439554517 171.56901381535777773 156.79502358603303946 166.81741162986381255 179.22726994761461583 189.78232409905712075 165.45523872000353549 176.91993677835284871 175.35676754546165057 164.36078844865727433 169.79549938739469894 175.65359122662061964 167.58201154878599937 165.23865673568067791 169.62881708275284609 179.41378846227667054 165.09242930741260125 170.62224675988170475 158.96962699555112408 168.28736267037720609 173.27338395931147375 168.74351092976746713 167.87628656451005327 167.02551275630082728 173.07801552722716565 156.4589966603066955 168.10070092870324743 174.57531074447302899 165.94881380064344967 178.70542223637798429 156.13654032414123662 181.54891806129234055 157.87115034626518195 168.61920898270273028 157.75329036343939038 171.78410490449479653 178.39927647082907924 171.189770714297822 156.15256935323446896 171.61125356929736085 163.07585289748851665 156.4134178312057486 170.19285742789526239 177.41436845406377643 167.93738066868036185 171.13921701402233566 161.5277671689574106 162.90245784076984137 162.67609588366417483 154.38930225408830665 168.85747102296014077 151.87125207614050737 172.70846419387572723 169.7249953470764865 156.80867983198169213 170.24808180405290159 174.16544411456183639 171.13528293812089487 160.88355751086328382 151.37169152850543696 171.32823139675599577 166.3347612336404211 168.99168801110886307 180.04383388139478939 166.3372920650272988 160.78860181544547459 170.35083461757810142 170.86870366987074021 173.29848342891344259 170.04585961305409114 171.98261569445747909 166.40460029588666657 163.4784752669503689 171.40400964106274273 172.48411750671502318 171.97888053110506235 169.71299604702178954 158.0478252048583272 175.04797480473877158 157.19748545355963643 161.24574711748959999 164.53741436085559258 176.14630342509627781 162.10255686802906894 175.58714044631307161 168.40441022936013837 181.32198075723951547 163.49834962537588012 161.68009734644422792 174.75895324128561015 163.13633688097266372 172.68982242840567665 166.54015452705050393 164.09238757531909414 174.63859567659989125 157.53096672040297221 158.864679962762267 170.95948491109533052 171.53327314782330859 167.28522376807595151 154.62823116164540238 172.36201704028547965 165.72076957935166774 172.84310506216220915 164.70174827487957714 177.01524541025227677 164.07832137129005901 174.55372458984192008 175.63619078659974093 171.48410078707007642 168.78784813058558711 182.08675566361691267 176.1169504892947657 173.4464626299350698 164.94636744117994454 174.01954410703285703 165.88917123190810798 162.17470482876692017 172.9022910774163222 172.6884435055347069 175.6111797511216821 167.67851804291217377 168.86790790368368675 169.89807993803313479 176.55180367001685227 177.84412253406017612 164.52051282934766618 172.70734451562788081 168.41596794941091275 176.01587150769518075 177.83194851265162129 175.04291805976288288 168.7216620463662764 173.80833327089573004 177.19830475924760549 176.99218177275005814 162.3818330207726035 179.02593702393093622 164.55454748629489359 169.39356295755402471 163.10911803863183422 175.3527457032963639 169.35236237397893433 160.3593002388321338 176.21393068369823709 174.13630912219250035 153.26721571616712936 160.80959659721906974 180.11540646434309565 170.6339074847306847 175.7978896573304155 168.90218862032767788 171.51678626985952292 158.37127616346162995 175.81826040266975042 175.34885049026127035 157.70132252753725766 179.86862976212154308 163.40430502239226485 164.70892168524679278 175.70484689372290177 166.62350112511273892 175.59233961337065466 161.16090069013978336 166.2227619719375582 179.95821381426500807 164.35465166282699556 164.07615714336338897 166.58143956954896225 166.14506551427209047 163.65619982777681685 167.27332863964582543 159.66048701863462611 156.23242946395998842 160.31833856509948077 177.79443652669831977 171.95285261471340732 177.88833829295077749 160.56037916516524433 163.9534159715135786 168.05191439851623159 169.6863513558724037 169.71358654324131976 167.9306760094277422 173.5822087491615946 171.32955728883914048 168.56206788268866603 179.3179160821113669 163.1159962736165312 168.69006000463997452 166.21230295264547294 172.87181977104339126 163.8383225895622104 169.66476976759417994 170.37084354783257822 166.69658139917549988 167.67241322907233325 174.85698017722506847 184.81125450070754823 161.84288345515111018 158.47921107540258845 165.97628840861457888 158.13674444287963183 166.29926190709375078 178.20655288339278854 163.61740182542516209 182.18831670307989157 172.46400676282442532 166.4821269100996517 169.06739857373335667 167.91292281091313043 164.87365537294630258 175.71980026786539497 167.16646638706643557 177.23156964215991138 174.23599759642613094 171.6373755389409439 169.71381575996679203 165.18438697853983399 160.09234948132518639 178.32890491078467221 172.10205308506922961 157.69348593548389204 158.97770392133958239 161.33163697704134165 170.49889834611090578 174.4611025264592854 161.79308786513325913 168.69655731390705 166.57501143325029602 177.85810788500896251 163.99912478870967902 164.296838578235878 179.58771610078338199 169.40862612433508616 173.14309641702084264 161.85497953355374534 172.93358126290394239 176.56252995121695903 151.59453293492205717 171.40864247118150843 163.66041628457170987 166.16590681297239485 160.0391158100841551 169.47954795221514246 170.91494701636344189 173.18592552496281201 159.21941351751169691 177.20998366609748587 163.98008994419413398 148.4524291321496321 171.67750121350348991 172.36088211072828358 175.40786457104923102 165.12146026252045772 164.42309131052056159 167.29669846524618038 172.67522892114436672 174.34602047034525185 160.67400960508965113 172.33637150843497921 172.85059400326707646 176.86832634602671988 173.58211320629817465 160.94066986601686153 166.96278257272803103 176.69770887966976147 164.83759622513065324 154.58366234907597914 164.17959777602339955 175.20910400217204028 164.52018750656375801 188.14297258131483659 177.47058630716276184 176.14475617773709359 170.95014858674892366 154.59318172365712485 174.83451240825380069 168.79275491301200418 173.38798576419728192
-174.0805449462508534 -166.34526173059467169 -182.79066143334739536 -170.84826929112659855 -178.35301833717511499 -175.85765897902490451 -169.90672515969166056 -176.15652535802192347 -166.71603541985453489 -177.55041122723207536 -177.29311141427896814 -172.94421193823276894 -169.19533862115289935 -172.14893608524175761 -172.48832693773968572 -179.18493695594733595 -173.18775880049884108 -173.44204613401475967 -171.15710131358008539 -161.61651327927700095 -178.31183083801954581 -181.13809139317351082 -180.25326786285879166 -171.85047160890209739 -179.29513596998160097 -186.98387009234841116 -172.54584323391273415 -176.85084535637011527 -176.3647909615773699 -172.25956099492071871 -172.44453453809643406 -177.50863526172611273 -164.40384684646051028 -176.37116962552633481 -178.69953161742139969 -176.40295185468653472 -165.90898890442824154 -172.79404785327270133 -176.03993951210290447 -165.70007166270039534 -184.91559979127663382 -181.37054072229611279 -174.01714839923485556 -164.51987533101359418 -172.47054118256178867 -184.26136965066700668 -168.08544241474916703 -172.33841091944003665 -162.14234112215240202 -177.26354697908914204 -170.04548978344149646 -164.03351122741293011 -179.69916215198483656 -166.52140640472157429 -174.50707171984043953 -178.06781047361158699 -169.05457109118270864 -164.97219254200911109 -181.86282782449725914 -170.70915868791851722 -175.78758483565101756 -179.2370778151116042 -187.9083464839819726 -172.53882921130264094 -174.78581383416752715 -173.22768976874777991 -163.80734741395468745 -169.98978874819093221 -174.58945334227476565 -168.98198800506253292 -175.09450771070189035 -174.99124368555939668 -185.36659809516746122 -186.85263077064252002 -179.19103457077389407 -176.36052070337692044 -175.59819993189941556 -173.89560169844003212 -178.62689667075497368 -166.27883195099769864 -180.09068222061199549 -171.11585156397759988 -168.27635704121971116 -168.01798545710235544 -168.89958144928743877 -186.84270302838683619 -172.59985900665660097 -180.5094058230621954 -191.33398765325688373 -170.57585225610083057 -176.37174003666086719 -161.53776284439049959 -170.90508142840940309 -159.17319068618397182 -176.91309282894926014 -168.35832031751624527 -171.49387761626738325 -161.87423518492866492 -177.43518088892528795 -167.5552243256526026 -177.10261377629598201 -185.45992385495981125 -171.31801049424902317 -162.68775912809277884 -191.51910199069297391 -169.58328205777297626 -176.14670705324829214 -179.1440273474175342 -165.89288531113015779 -173.93395730911970531 -181.86062115157352537 -168.10265991730429391 -179.83806652254321534 -170.12372070275515057 -169.63422936672344576 -178.65844351072468044 -175.22491340153962369 -178.90726067254300347 -169.78946360371628543 -174.33594699676649498 -166.36867573013736887 -173.60822804555203902 -176.69075702460591515 -166.80109532358014235 -182.59190290914813204 -179.0611343889260354 -173.2842074581316183 -181.0831501274319919 -195.64766796169934082 -171.43509267342753333 -172.76050005276903221 -177.36241285240896559 -186.39265573881948512 -175.28107811660530047 -172.9555881644414228 -175.51615687124558463 -175.64599071049931922 -170.45171988637167715 -173.57441825550401404 -184.10491909615373629 -179.15914323331554669 -180.62429246020758455 -178.74931239187176857 -178.0604281944097238 -172.81100595086152794 -172.08631361568856732 -175.17787042261596753 -174.05798101800800737 -174.12800831484941 -172.93820670366383752 -173.95655197700071426 -168.24041694417206827 -162.02263889503251448 -174.94011234978529501 -176.4320761321889961 -172.8037675201965726 -164.02801708614848053 -174.02974288668806935 -175.36370653355106697 -174.92254994274031787 -170.09099463414401043 -173.53850487920323076 -163.26628992347337999 -185.85158104258721323 -183.02252474559881534 -166.88800137815150038 -171.55364405012556972 -176.31318470996225756 -177.72907880847489537 -176.87176005375982868 -179.53120415804301047 -165.03732970954493453 -170.78100541352043251 -164.72504915506203815 -177.62384084271906204 -174.5913101384782351 -168.68827387368699533 -175.73172531422633824 -173.84958320743166382 -168.34315689907788283 -171.41103024990204062 -173.55403235773866299 -192.86733197555065544 -160.11729402242551146 -174.58117874016335236 -184.60471149139945624 -174.70225686675752286 -180.37323965700022654 -174.22297951890863033 -179.20912499945424656 -174.24304189595602566 -173.6854041179748549 -167.36060154651480048 -172.36234053520220755 -174.79393397452841441 -175.28222358807428805 -165.99815804634295091 -178.28713552441175239 -165.47256039726838139 -172.80898141258504097 -172.92952709624393037 -173.72289974840705895 -181.40959951150847473 -171.88861338790712807 -180.85656857674064213 -183.12166708093042189 -173.76371202449485054 -172.72504299031788833 -175.40752304986310151 -168.25415992798619413 -168.44289645762080454 -172.68683830478821051 -174.501914300356475 -172.80540622840331366 -167.73209272756315613 -164.25137004824588871 -168.97664758277431929 -170.76217469953047612 -169.57154172374760037 -173.18895628922174978 -171.16510264660760754 -176.26562668184283211 -168.62563344068939841 -177.5985102822887427 -180.69596773902316045 -172.55335093996853857 -185.42662579389914868 -167.68103858245433457 -170.15915661297415795 -175.26144165502736882 -175.58002719204588971 -183.1727480688749381 -170.38149527527156124 -166.35216716288169891 -184.08631706851366516 -174.6961586164045741 -184.56118170985448046 -187.91673487473084947 -177.07359387636796555 -165.66247664075618218 -178.97412200418912676 -175.47589507147455379 -170.98383796113941457 -169.53794810590781594 -171.68192080834884905 -185.57247822189592057 -174.27047467430298866 -177.93630724652609842 -168.84561233843888317 -166.72656338151156774 -177.164564837132815 -176.88345314310947742 -175.88672247509205704 -166.2711132549327715 -173.20878836628099862 -174.78221477549021756 -165.88266832338715062 -165.40917511389028505 -174.31086502648707892 -175.16169302658832407 -166.75467257022265244 -188.06348050350297285 -186.79440979386035337 -170.08917226702402559 -179.54244167820522193 -163.09783441937196358 -184.86576754469493267 -185.1849862866949934 -185.03586535956608827 -172.10259718915332883 -170.49672726716039506 -177.76664194538946617 -168.03481648166916784 -165.62882483595211625 -175.44278866801718664 -182.10904684662125419 -174.78604967026612371 -165.98073482880343477 -183.08058777290264629 -174.46374143182529792 -173.21208717094216922 -168.7292426407356345 -170.18708755211810058 -172.01807162803336837 -166.24726702299042813 -161.51247543853017419 -176.9006991054237119 -167.88959267605179093 -178.19154625940430492 -174.83910029910828143 -164.74071771283126964 -177.225985971273019 -178.25511953471956872 -174.59183169661667989 -175.9601630517686317 -180.19364369356486577 -167.97630026304258877 -172.14524942867646473 -166.81739633205202722 -173.37468149845804533
-41.327091802260312647 -35.382708738586934771 -35.802634801686551214 -44.494355412743452405 -39.77890646103078609 -48.536303133742578098 -50.031311798000878355 -43.678676920320775423 -44.638585779398518127 -47.495905177205614223 -42.271144718237501081 -42.148924783061943344 -39.39026165644200006 -47.463902469658506789 -42.026815456651739566 -46.377364545984057997 -47.612258987617543937 -39.99159052646179191 -46.47542342308541663 -44.766371550161196069 -44.888416196629997046 -38.197839867363128974 -43.099415602169841577 -44.357731708983330066 -43.01891536180001907 -45.840919992178349673 -34.943774294157222471 -45.692219748663276846 -52.958538857384795051 -40.395154766504596466 -47.155802251249774315 -46.79670845322086592 -46.822347192002098382 -44.776994635635496422 -44.17263933897761774 -38.572399484340657239 -47.54940189077102275 -43.91052551527229042 -52.130738032087919009 -44.84232712844062263 -47.86810103555555429 -43.895290915571031576 -45.247941693733693569 -46.741020897503588571 -42.984646371815131261 -44.231267668908245128 -49.471124277422710236 -43.819603804028439242 -59.068699553004250902 -41.962646847808571238 -45.57531529497663314 -48.779332555259706794 -48.154425457617385575 -40.890644558727146318 -44.638241489164457221 -49.381425737323652925 -44.842202797637987999 -42.614129792314642486 -40.894523638692668044 -39.835868245042931335 -50.195546674281345645 -41.921039616683700046 -43.47084837895466336 -40.045868784815596086 -48.042363359578082793 -50.663528377691022797 -44.24285642938237828 -42.573162134436060455 -43.192902644392567879 -48.326830946398750655 -43.069854079339911834 -40.674182354823756214 -45.202192363332052594 -46.802782510160831464 -48.04204205061468258 -42.002163210508577151 -43.655035029215554232 -42.494138727036265379 -34.572657186702130616 -42.769418254094333065 -49.129328276263883879 -43.874280591380689032 -43.390072787444985636 -44.300728771191806743 -45.834726477770331599 -51.878559792171813569 -46.791820614645573073 -41.844497928599921011 -39.532126250780216026 -46.045592602758176781 -39.735443503711294966 -46.063982793108650071 -50.940281685620405483 -39.069644665384579696 -48.122453172971269453 -35.317862575563651717 -42.037003888116018402 -39.654562862331573569 -34.539067917315819045 -49.089032519439143698 -41.430839901077149534 -46.429463977939164465 -45.614694429252999441 -43.421851962931675928 -46.33036383562341598 -42.540143342974857887 -46.243763965198077415 -43.1342930213450515 -51.316423976492082204 -40.562666719786165004 -47.559938736680535953 -50.532410215219705663 -46.631167199286259972 -43.721323941887348496 -48.514778890264928179 -56.513571139652022168 -47.822685254565705293 -42.425875886268315185 -44.668052168087463372 -45.609142959725012645 -48.539886201059303517 -45.488270515533884009 -43.817479467758523981 -43.572531664630858472 -41.153478257358131032 -50.411522915533069522 -46.590096077449004497 -41.999697863109034301 -45.932265649884271852 -44.013645390917986333 -46.00914717682167776 -44.48284179945626704 -45.265917485485452687 -42.508906524954461759 -44.083737594817797856 -43.354321092110950531 -43.374609114037440349 -45.512093558644707514 -41.615379001739533749 -40.62020274401850628 -51.499474235132566946 -46.101576443051733634 -47.729726239597582094 -43.285743594051979244 -38.033956392195420904 -48.877322424960922831 -50.224700376187236373 -40.127487028042224892 -33.968384581932816957 -44.000999620812883961 -45.188106098954563095 -35.583537191153453705 -31.645645779841039769 -40.817824914678645598 -51.227017325613054766 -46.24427777632871539 -50.534750584187442257 -45.557032527405439737 -47.108554519829638707 -49.110696263639901815 -48.707464040830188878 -50.498307382105856789 -40.86238638465609796 -41.411489687674105653 -43.233894517636969113 -47.85073167999236432 -43.620628019904444272 -44.858771376664698494 -40.71326760831824032 -49.837708381530610779 -51.456618757412698528 -42.841351337079878192 -37.45442186311706223 -47.302024840655946036 -47.036503066461420985 -39.614206786746215982 -45.317690302770650135 -38.795881877318180386 -41.510957956893470566 -40.935298481158092443 -37.446237571134247446 -51.822791157878953072 -42.04589665020181144 -51.24791410393704183 -49.965748135191127233 -35.867882715289113094 -39.908417324030288853 -48.081672105036446396 -43.101872408656177527 -50.297820749976786203 -44.72280414033489393 -46.480043482499482366 -40.927660049140072829 -44.008532167577868677 -47.116047060257322698 -44.613250522688126409 -46.067211519745988824 -43.108759277244551811 -43.056285301752581063 -51.295996153534190398 -42.892195477509893919 -49.150115790478139388 -44.421024459853448718 -47.065193115742061991 -46.193707613613391061 -55.308147140545045772 -43.656701711924291942 -46.954147336027013182 -45.927225808710630872 -40.341290431361933599 -46.386443434994582447 -53.07257333966697388 -42.252824481508781673 -46.622496072616307572 -46.95228887029712439 -55.006085118812336532 -32.991606540971027073 -41.69770446202252856 -47.391968799632685716 -43.642600646477873738 -41.692583597844716792 -48.280684025511817481 -48.689216647636953894 -45.650303286621380039 -45.466981107776796023 -45.578417458189449007 -40.226793141363337725 -46.391831999995673641 -44.101462839620808154 -45.029162166851548932 -45.545405206692336719 -42.715104021511699273 -41.823802386396380371 -45.857326487990725639 -38.404417717067445892 -36.444087163110509664 -42.363327398332870644 -49.396884713190175376 -44.685693917144647003 -51.505514725868422943 -40.008875862624869058 -51.426607346042146673 -42.029622691953676394 -49.620610621158782294 -45.518754809557940177 -38.388294487153530099 -48.765662521251115891 -46.231533034378884395 -45.717303894228095373 -46.924398173800788925 -41.316973409559139441 -50.527977273292549398 -43.608180571088340116 -38.658916336346536013 -48.40558920336159332 -40.088126177035817932 -48.760763017587947843 -44.960454246808858159 -43.297026480214192645 -49.00533664101835285 -44.755547529869268431 -50.565400353336343642 -40.867140409739100448 -52.995407836333718876 -48.633129052435201345 -39.351655483011555248 -42.298189868248144307 -49.793778210368742521 -47.656229178115971479 -43.501649362391901832 -44.510014938929174377 -45.509275665871612659 -47.514608568307920677 -34.217120214643671261 -44.843306447488856747 -49.8357510073400789 -45.215594822141838449 -42.91256607694595715 -49.278064339973077779 -46.558710580319285555 -45.732283758552568997 -42.155602296392856942 -42.120564021125566967 -40.071980024460266634 -41.281060306364381063 -52.043002254408222029 -44.3807607653902636 -47.354030133529789737 -42.687759317704419004 -52.08053424179819757 -39.02544908199541851 -36.613272304685310132 -31.900643455972659268 -44.478912469693177911 -51.347136771573914871 -43.026816973074708983 -52.778800023812394215 -46.437851945004787524 -44.045298423201600713 -41.808799716640535848