-197.24195283988251504 -193.02671865712770227 -196.51455101758875799 -193.81782986708299177 -201.86523605738844367 -197.2158123541303496 -195.58720303920097194 -197.90317956116601295 -194.87746867340791823 -191.51183174835304612 -199.56686719668371666 -197.98731962242359828 -199.46350864073858133 -197.93562409029743776 -190.60730843304875748 -188.63113101865982912 -193.70562896936223751 -200.78485615164788669 -191.65770762986855402 -189.5107258748835477 -196.28639702150377389 -195.0425217681139145 -201.10809830199244175 -195.99424211686667263 -195.80583279699914101 -199.16496701253882406 -190.10748645705498916 -193.81664072863657111 -194.22257235759599325 -201.74441505485631865 -199.89976826984278091 -185.19149622681058531 -190.84577715871864712 -198.18838320746272075 -197.546478932416818 -191.81087944661283018 -196.26509179975010966 -193.98462179768117153 -189.95280181922254314 -188.11575030484144122 -190.37547479575604825 -192.69808444429619954 -189.66806804439013945 -193.8052533505721442 -192.30044013461844088 -196.48342483768277589 -193.39264705873978301 -191.16194235076631003 -200.45904723186410479 -191.6063556878076497 -186.91720431704720795 -194.83793607178478169 -190.43874552268698608 -190.39108939238028029 -199.71654985911425229 -192.13767402882589863 -199.12015785852153726 -204.81983493526826123 -194.5212396112103761 -186.54968881039147277 -192.54063577263477214 -199.45011985978339908 -201.99692357865740178 -198.25225658854890298 -207.53867060773285402 -198.60538781825141541 -196.39592625633230227 -196.81780775655212778 -190.96839106032194877 -186.6344757749494363 -197.02055452318020912 -192.35005466883558256 -199.69305796806278863 -197.20356118544205515 -199.07608085014226162 -194.73582815991804296 -210.50653014089971293 -201.98796158000135392 -202.82182620250793548 -185.92125407078000876 -191.58292604552673311 -199.99624749369064602 -191.88236088112904554 -189.12251328885025714 -194.77817899817034686 -188.57181151400456542 -197.76928725383012875 -198.12222027463909058 -191.15338207112432656 -195.65388582219236469 -189.8628334261558166 -188.94282939056660098 -188.8757046985394652 -195.11217459606990587 -204.48156563338645242 -191.08829911011414993 -190.79912644962271884 -191.07700408242965295 -187.46138623978754367 -187.89537227099606298 -196.6058353817612101 -203.88703596048912914 -198.4326279685572274 -181.9817160946743968 -199.35584239117292782 -192.4124362747734267 -189.87500371386187226 -189.34247669494524757 -193.38179548360315607 -193.78139397404214606 -192.63076603160399713 -194.24080088104236097 -196.2245765848139456 -192.9335852994347249 -206.8417240862885933 -195.69778978578423789 -190.90665499036552433 -192.56448717564222761 -193.99077527413814437 -191.36053000924280809 -202.00894991297246861 -193.07349889347628391 -184.52711015133280625 -191.13076369680615585 -187.7413986594694677 -195.50585961302780902 -199.57957884588986985 -192.49288185979224863 -195.5813218376441398 -197.21871583874894895 -213.61482047666032713 -198.80843282028138219 -195.12128645167697982 -194.91166580704120292 -187.64974975768043919 -192.75738744534271518 -189.8017968212215294 -195.59281946171572031 -193.85897386603704717 -194.70596482845792252 -198.43282928275135646 -197.83089139487361763 -202.41831503596097264 -196.24577284644487918 -192.74122865719166953 -193.37922193877389532 -191.40634262343314731 -193.19730288250858052 -185.94300258559303529 -196.16377970493360294 -203.43172378644862874 -194.91306839684096985 -195.71235028993825722 -202.35163284353873792 -199.22961845386538471 -189.88347951214834097 -196.31027307480837862 -182.54846622698457281 -195.12481321615075558 -200.70747362309083428 -191.00293624046557284 -187.3567176767871274 -201.48992843741359593 -198.9169579381050994 -203.39064582600695985 -198.17454330472216384 -189.33378335445013363 -186.80612572247849812 -196.76972848099291014 -193.61441422533403056 -195.51163749707882289 -196.07032009754502155 -196.34736799868505841 -190.23856707880204908 -189.67186578205192404 -187.0798105011475343 -198.70954807244240214 -197.79467599369382924 -189.98808335671887448 -209.90558286511810593 -187.96264254625592116 -202.45481483443438719 -201.41647971329294364 -206.07779179684527548 -192.9181149996185809 -190.96041734553483593 -187.89152660719753385 -192.87965140689348686 -189.75632374644203537 -196.04700581956944916 -183.0081527402562358 -189.82712845445144012 -193.04241115116374772 -200.32351703568326684 -200.93706530780372077 -191.28261163619291096 -193.01606001831916615 -195.32448791000635424 -193.96341725476716533 -186.74249497949065812 -198.80708066637302522 -199.09770579606558272 -196.63749736149870273 -203.10051743721973594 -189.83494852834030553 -200.63803107322326014 -189.93275222810626701 -186.75278000207299556 -201.40448959913746307 -196.77700597161629048 -194.07149273201272877 -187.14068152904735598 -200.5846874985712418 -207.18214545584913822 -186.93359927519875896 -190.6983723993449189 -203.8516392258964629 -194.76724292027608954 -186.6176499254094665 -195.66420986245950075 -193.47782703648687175 -200.32240174256705245 -201.9439096793176418 -189.73030472700034466 -195.68582232638237883 -201.58992553764721833 -197.85981178718759566 -188.58296457449313266 -190.28238632395300556 -192.64197253128341458 -200.37395082978207483 -193.92675307018723174 -203.5434130957079617 -181.925022681061904 -203.64270321913724615 -187.24264479437641739 -191.2586214819085626 -196.75576471257912203 -202.61472138012473465 -198.30283457891647458 -189.78580158715939774 -190.42435060473840736 -202.52336010841068514 -197.42508364192192971 -201.1720824896473232 -202.09598803936196987 -205.01649643324378758 -194.92795690942799069 -196.86990302458934821 -198.34948808609968296 -188.85543268647529658 -200.26661507116585881 -204.06378634170016539 -199.53884055909330186 -201.52918946580311399 -193.28401354620226016 -199.62464739008041192 -202.6744140148661586 -190.41066162365788728 -195.58963605125848062 -192.92387080158840718 -197.47162222362700845 -194.85074701343444303 -193.15515550644380482 -193.31037464904972012 -189.61929148727887195 -193.98916790426716261 -193.57585361043231842 -191.35695431030299574 -195.22830714832252852 -206.00201246079268458 -193.90332933140931004 -197.65606880780859456 -192.31390220562019522 -189.31687879055536428 -201.1591159679366001 -190.50736845545398523 -200.78200012214114167 -202.68276496154715005 -199.36762148556104535 -195.3496069873241936 -196.53948835609327261 -191.96646306080023692 -194.19908997209353174 -200.19614105726370212 -185.45426133185890194 -197.08602987350695912 -196.88588673261560302 -198.57942068092830823 -192.78794080775361408 -192.92186054948146534 -201.55327537113083736 -192.73763403921580561 -188.67422000157205275 -192.00583877866736771 -201.97038626310504128 -184.0410502007260618 -200.37152948458114565 -190.52694967857866004 -194.05005083007395683 -189.98183276253365648 -197.42104644829768745 -189.61318668878672611 -196.84933131760348601 -189.82326868256697594 -196.63694539885639756 -189.1681379986794127 -189.11123297575986157 -198.0066263536393194 -190.24414886726947316 -198.12994165543761937 -185.56610485688125323 -195.08265632090666486 -194.31251929482212404 -199.37223481221050747 -192.9711417951195358 -187.45427972046257992 -190.22991846888612599 -198.37649773535622444 -187.92738696543963783 -192.74064909148367519 -194.94390371771234527 -191.55403844628742149 -196.87438467810861198 -196.70861022188611855 -185.90093760860392536 -188.83620647939062565 -194.77171472583734158 -191.47663833644088527 -198.34003428538147773 -202.09783413908917282 -200.33985368867226384 -189.19113121133506183 -198.73189616432046023 -194.74734670071967457 -192.59988453525150476 -203.40626913501657214 -193.41888224011009356 -189.87594988560098841 -194.36753324333315618 -197.36654306516595625 -201.94175903271670336 -195.53950244527788982 -195.08905104695008959 -200.11855184690631404 -193.66486346463707946 -199.90562597769056197 -188.64654219293296933 -188.72131958487577208 -194.19239798643400263 -188.76512893539012339 -197.7469247895022022 -184.67374567752253256 -184.89066489121648829 -187.68229353779707935 -192.8931310915275219 -201.40862380597869219 -195.64705830416255594 -195.68499984338507147 -191.81038242465038479 -182.0707469757117849 -209.87995414493076396 -198.76716097248680626 -191.40785915336405765 -195.77717059456506377 -195.70414716839735547 -190.00342334593895544 -209.43352451842227424 -199.08915315551413983 -199.78770140130674804 -194.42499603950824394 -201.38535889212778329 -205.84391932353969423 -195.54257832665632577 -201.64511699385400334
-1167.9133510825954545 -1165.957771172264529 -1185.6646507575374017 -1192.1151501706563067 -1173.2660912697460844 -1167.6777419754164384 -1167.0102096890041139 -1170.9457337264548187 -1146.167870387009998 -1186.5069271692059374 -1189.6285696876907423 -1162.9732918970025821 -1175.8685802435786627 -1186.3333374404114693 -1149.2833047837311824 -1172.1809666130232017 -1184.8604435086979265 -1185.6017264705628804 -1194.424665570571733 -1166.2877006553126193 -1169.1145724982229694 -1174.4197616000969902 -1149.8917208374773509 -1174.8470134167919241 -1166.4088996865868921 -1168.8157288417248765 -1158.2210499523944236 -1154.9118459837450246 -1184.9776050890568513 -1181.2674387342719911 -1190.0634000902368825 -1187.3705431776463683 -1168.0870349977546994 -1187.3776412245954361 -1155.0682758514778925 -1182.7174762898559948 -1148.1263620418283153 -1163.223407460380713 -1167.2339852720758699 -1185.482737294287972 -1174.4053775493796365 -1163.3667933401752634 -1152.5226561925057922 -1165.9891641628717025 -1164.9755503738731477 -1176.2387564127191126 -1177.7368648023568767 -1152.6038530829073352 -1179.0363245569687933 -1144.3526107158768355 -1175.9855875993951031 -1167.7479212081229889 -1169.3357400837746809 -1166.294802673021195 -1160.5123127699828274 -1160.7899758095750258 -1173.0282768208451216 -1174.4460406528617114 -1162.6746041555261399 -1196.840889959651804 -1175.2139229694737423 -1163.8838862193538262 -1181.1704566580124265 -1182.2814241324786053 -1144.1657844285771262 -1173.4997743471233207 -1154.3511295531495762 -1160.3258382177407384 -1165.6795754942415897 -1197.5995993612266375 -1176.5737982775044657 -1156.0453032908430941 -1171.2259390943518156 -1194.2160079223319826 -1168.6159842771389776 -1166.138127735891203 -1189.4970046834494042 -1162.8555829292497492 -1188.7251415814264419 -1160.9097036990904144 -1157.4254920028429297 -1150.7920430621190917 -1156.2382949447326155 -1166.2633072783430634 -1160.6637645376608816 -1195.8926190990480336 -1175.7296643583297282 -1168.0397498550689761 -1151.8771584988865015 -1187.446967389590327 -1170.7171235763341883 -1175.151886894836025 -1163.274325857030135 -1162.3756739429090885 -1180.1838546464468891 -1181.9789865123893833 -1192.0516729563814806 -1161.4465517594394441 -1148.0649160297748494 -1186.5884466360373608 -1149.4724533952337424 -1187.4250968586100043 -1178.018489513857503 -1197.4071227802176054 -1142.8202942842185621 -1155.6793530890977308 -1156.4593328705593649 -1177.52918024363521 -1162.7298106813241247 -1176.9771318261957731 -1162.7756564404614892 -1179.7250527249973402 -1183.5179433112793959 -1173.7353212949601584 -1167.4196393502841147 -1142.7382304921700324 -1160.5685061167744152 -1188.6770375464070639 -1159.0228042828337038 -1165.8312765831185516 -1178.9108118733479387 -1160.3603232425302849 -1155.5844865172457503 -1166.4213588201057519 -1177.7148652859489175 -1161.7510502922023079 -1142.0968996642668571 -1189.8589892407610478 -1156.0128760548111586 -1174.1310126078972189 -1155.6621647343213226 -1157.4958673775465741 -1176.0497305998262618 -1165.5709604364546976 -1163.8606302016737573 -1154.9347672632786725 -1163.5566064945596736 -1145.3973574083713629 -1166.5792115265278426 -1181.7109874256577768 -1174.4809184383400407 -1165.3713101514545087 -1159.5532959666461466 -1188.8937764199081357 -1160.0514170150513564 -1136.9337822030115603 -1178.7625499095413488 -1162.9476663489654129 -1167.5018901718294728 -1158.3749607503939387 -1159.3347497612187453 -1178.7514035787241937 -1155.9578255755020564 -1164.7645716360602819 -1163.8107821711421366 -1158.0556671888607525 -1176.5929507244229626 -1149.9917988315644379 -1185.1109232013586734 -1168.3660073655209999 -1160.4889958096059672 -1163.8767040894222191 -1161.1862869086180581 -1131.1731053567766594 -1152.1605370742661307 -1164.1273622287123999 -1160.7339742730393937 -1165.7295846297402022 -1161.0180469075764904 -1188.5395741461768466 -1188.744675293812179 -1145.6399542182814457 -1153.714468153345706 -1152.2112146493002456 -1154.5827398412984621 -1168.3920324076707402 -1172.9895474352485962 -1181.485917960297229 -1170.9473511758417317 -1169.3292277386151454 -1168.0434855592598069 -1178.6690305085421642 -1148.7661133688593509 -1185.6867632613095793 -1165.9226639362727838 -1166.0978115060302116 -1165.66422609707638 -1160.1487391216489868 -1159.7771939132371699 -1159.2065368043379294 -1167.2887592182223671 -1172.6891831935504342 -1177.6610465921346531 -1168.7628980899023645 -1166.4546998820865156 -1168.073559662432217 -1152.8104190089627537 -1165.9205545502654786 -1164.7589536456277983 -1146.3700384180431229 -1152.8127320766127468 -1175.1480116824805009 -1172.2213675045934451 -1149.0456769551265097 -1202.6914907009224862 -1157.4964650657868788 -1175.9875595678709033 -1165.1354188732464081 -1157.0378406814713799 -1175.5796298157226829 -1196.7636666956202589 -1158.1803672188380006 -1190.1554579771534463 -1190.3340863752273435 -1163.5671035051241233 -1181.91049079175923 -1184.5354190366495004 -1178.3562941400675754 -1183.2613976060017649 -1169.5182767750623043 -1173.0443357415399532 -1158.6959715193449938 -1172.5269983241275895 -1156.2323379453703183 -1151.6877701935591176 -1179.2026559536418517 -1159.4642335806202027 -1171.162781427167829 -1162.8065873664663741 -1175.3621488842768485 -1156.7802193206775883 -1189.3545903906328931 -1174.3259610988588975 -1158.6906727646953641 -1171.6083013352783837 -1162.4466777635759627 -1182.3828212873672783 -1183.7405103859466635 -1182.1230611753933317 -1155.5145856052015461 -1198.9392012010821418 -1185.18758830730917 -1151.1002328744646093 -1153.1746529523320532 -1159.1840784095857089 -1181.2739399045526625 -1177.421019458155115 -1177.275409593756649 -1191.3093235406452095 -1186.7514802317834892 -1163.5977564415102279 -1171.8621171003321706 -1160.5309555665205608 -1178.3441871237525902 -1145.6889931802459159 -1154.7670132944656416 -1178.1038902216914721 -1168.2293552869587074 -1159.4212916605717965 -1177.6390686571619426 -1150.5333376821638467 -1176.2423283067739703 -1174.1128884031932103 -1185.9636871955560764 -1159.6201355212438102 -1168.9264611441692523 -1163.9284705329046119 -1169.1471935400236362 -1175.4192461597363035 -1170.6323974835077024 -1169.7222928688092907 -1177.393185309104183 -1187.2123818012948959 -1151.3930584556312624 -1158.2431717352608302 -1184.9525601464220017 -1150.7081205146837419 -1186.2663760468383316 -1164.7296400623110912 -1135.7205418838818787 -1169.0638547527112223 -1153.2818085180783783 -1159.1105949762695673 -1169.327532322451134 -1168.1801464023481003 -1182.3850676319609647 -1190.9387720758352316 -1155.7923773057282233 -1157.1061737534498661 -1170.1311454628546471 -1159.6177908686215687 -1169.2627700250222915 -1153.4175512962856374 -1158.8187554466742313 -1172.5503254281813952 -1155.2678290556034426 -1160.9614854233477672 -1185.6872381829546157 -1177.9948165721452824 -1174.5908288154289494 -1209.1597527457893193 -1168.8594100094514943 -1182.5274236333887075 -1141.4515686080233081 -1156.704530178098139 -1182.341584147208323 -1165.3372474174225317 -1173.53404604771913 -1142.7820908287758357 -1142.2818670010569804 -1190.2415551630174377 -1176.0606224155815198 -1185.23085846184199 -1134.3739031884024371 -1156.9065633157269986 -1167.8300321592696491 -1168.1647495681311284 -1152.0596898035676077 -1175.5713248568843028 -1156.6043725757094762 -1162.305344034401287 -1165.4561673117830196 -1161.6030487823547901 -1173.0610666928841965 -1197.622828906165978 -1185.0015245195947955 -1178.7595838680517772 -1164.928641750632778 -1131.8975652795268161 -1174.5490548511663746 -1161.1450385292923784 -1173.8889119722473424 -1149.6330483495028147 -1154.7613526475556682 -1146.6922002929325117 -1175.1283242875122141 -1178.6701343513798292 -1158.9937431805651613 -1157.9819920002571507 -1162.3737697501130697 -1143.0314077380744493 -1170.9205415234580414 -1184.2265905937838397 -1165.3687239668895472 -1155.5803252980160778 -1151.7764019130499946 -1182.9281763866099482 -1186.5886916877134354 -1166.2432250845170074 -1172.8225165608967018 -1175.5384716803678202 -1182.4443004881209163 -1173.6347030213141807 -1176.1823240313635779 -1163.6518514544807203 -1196.184800478748457 -1153.7336594133794279 -1174.0317920078432508 -1175.7747631023216854 -1161.2335494079848104 -1179.3625089407312316 -1153.9039503341580257 -1175.4886817876270015 -1166.5761821319931641 -1183.8228746367517488 -1174.0000189878023775 -1173.068000508420937 -1152.9160977298022317 -1159.0194087106281131 -1159.8641656185177453 -1168.4421596828135534 -1162.7588848141240305 -1192.8713249164268291 -1178.0690886962649984 -1135.2099825292168589
389.4192855450891102 374.32981972058530573 376.50200925251238004 368.48264243465393974 383.63500324835234778 382.46499915507121159 381.22655040192785236 374.9684718172300677 388.94097353606065326 388.94299080914890965 385.22395009076848282 376.61749546863160276 362.60541027622463162 374.995658886559454 370.60074141959870531 384.59348071199400465 377.3128937984224649 365.59268572111869844 373.87001577961103749 375.54223324218168045 386.78218312947490176 385.42173554903115473 379.71960655829519737 374.52559782292104273 381.4073081282494968 390.24008572832525488 381.40165989881899122 366.4161526087900711 381.97517310819216618 386.96334152792132954 388.02703272409138435 371.3960010876319302 390.03297782668539639 381.25525716620529693 370.09218944761869352 374.48271481388076154 378.51058708259540708 383.00207079532032139 374.26735821325269171 376.2011595776813806 395.28665633444870764 379.72420227726286157 383.9217815803093572 373.41834101301697046 384.89227391425043834 372.49025906480574122 378.65236480392655949 371.74422537137274958 380.37602914748703142 372.53482525152298876 366.7959521278770012 382.46547093316854671 368.95567984561301955 374.44311425361991041 379.00807796191298848 370.33762287855785189 383.48079772183092473 367.57067263625845044 392.33082785779345159 391.97672900543159358 389.66116965672023298 364.11157096936710786 378.26489277253534738 374.07354173225871818 388.76685037035070991 388.19975900611967745 389.89749248147450089 387.90389585913737847 378.36021504963952111 370.74544470935620666 372.89277375603847986 378.06339751600779664 379.51592469560870313 372.8360784781520465 388.53162295434685802 385.69217641083633907 370.67439532783572531 369.46088138086400932 375.86202676310097104 388.36727671446027443 390.8820863204252305 372.05266690857445155 381.01082041796672684 381.88670826856895246 381.76240662130948067 378.15088004867590143 376.12836659372487702 383.01331553094246374 367.03835467789014047 394.33855779702440714 385.89991353637879001 379.12493185332095891 394.47731408386368912 379.08365256386883857 384.88300689550885636 389.5103030561202786 382.17709923750032885 380.89847336812499634 385.76450478223705431 375.98579621089947977 375.6793705115613875 383.00150678317595521 380.52495525455748293 379.22752869335232617 384.30998604009676001 384.13815015745609571 376.6913072934788147 370.77731532673129777 385.51640588179668612 385.4192930634901586 374.23414349332381335 373.01832764949244847 376.21346344664823391 377.14381524236893029 372.26844965939517351 385.97593118674348034 373.08496053175241514 382.83060722589198122 373.11241921127395926 384.43663462947762355 374.66010704346740567 383.08163392990110196 376.06390348272452684 399.53032551879084622 368.4390914406813522 381.28522888200166108 364.36845000915991477 382.80818609823023735 366.23198498137128354 364.5418649241500475 392.84145721860892309 379.07614428792732042 386.31954214873053388 385.64373166435137819 395.51499945561198501 381.38157913296657853 372.67550081507522464 375.71017641987953084 371.32042342745955921 375.02309275511237274 389.09092237358987632 373.08199541729635484 371.71476102941750241 374.24426730287245846 385.77132299305964125 382.81893135187073085 363.05361680109251665 380.82495308399688838 377.73294582907743688 381.70516483783262629 380.04224479335010756 378.08266434524011856 380.1113624196885894 385.06652091559914197 388.95791073708522845 383.94948791428043933 381.59176774241308294 390.28189078251870114 379.87898648392439327 361.91526086972692156 383.61934965394112851 384.76074529342150754 376.65258211722266424 379.30708220038292211 383.18078880519817631 364.45154694473569634 385.36446302075648873 367.39484755930743631 366.91779871250247425 374.98281518159899406 389.64348113324263068 373.57987457251761043 389.14478378826891003 365.86940091812647324 379.24365096099393213 369.08510132591430875 378.13109390654341269 378.23975566250726388 383.30975817322803323 371.37482206223529602 370.26058984362634874 371.09544599933252584 383.60906486639407831 369.34893362580407938 376.24909236397655832 374.95335218404449051 382.04772331118698503 384.51532684756875824 374.61352954923739844 376.23548894762433292 365.16213524391923784 385.98315500870484129 373.414222912399282 374.27453718654641079 384.90076882357129762 375.19520085896215278 373.60825558662611456 383.7566366717061328 365.42001744426261212 372.93960393456973179 380.33693717100402409 376.99741223120253153 383.98650823384093655 368.37073510651225661 383.77260209474496833 411.33952821519960708 374.86957709703671071 375.05313275112655447 381.84054281014920207 371.96996361794577979 382.17915276563172711 372.50435789316532009 370.61723512200211417 363.96085143948528184 379.90867628251720589 374.77352160167384909 369.998505732093804 368.64633427977076963 373.97787252859046703 383.96818175532882833 370.2405385600899308 384.12152023466506989 377.4888341705478183 371.5560084348254577 387.66151025014107745 387.5699252666381085 381.42640684110381244 373.4101766584485631 367.98263321694133765 380.75217291432807087 375.83878439812559691 377.34061124880884108 371.52288224834865105 371.3655495036906018 383.58324737708545626 364.66480479129182868 381.82104541181956847 379.93909711113906269 377.15067743237989362 383.06396751822450142 388.562651816427433 379.78314986407173137 387.13290846133583045 365.75886270463593064 373.06391974741427475 371.57176257004459785 373.41325695359461179 393.93487591452804963 368.85138358565495764 368.67331161889171653 373.53476119945406708 380.37039554999131497 379.84202053698447799 374.43943552579975176 379.64526269200274555 381.27937821669132745 374.55588461349998397 387.70113993286236109 369.43383066695429306 376.25549524461058581 383.29608279158844653 373.89901561323870283 375.74364893186623249 379.41892831000677688 370.97453345378784206 364.09951506586997994 384.95125487522562935 367.30551001494956154 381.74669716277526277 378.83846693884100887 374.92005213380451778 373.34966613248622025 384.68757338869238538 382.52806776708433745 361.96477214677730672 376.15826639230488126 385.27985132553379799 376.83138665525177657 376.35918495343355517 380.7589509827718075 379.82908966042282373 375.59725418871283864 382.06984841024444677 377.82422197558372545 378.595369623032866 380.16561397772522923 390.84933597222840262 384.41975634744085255 375.93140747558447856 366.23386087764652075 379.10465550063764795 381.95709936805621965 372.40429429983618093 370.52209629686814196 375.89382765436249656 386.06619829489579843 380.81172276612664973 388.58393849751684002 387.97579854716860837 378.07672444266694356 383.0099451407018023 380.63717079197704152 390.99046425842055896 378.99765864594945697 376.29225383445907482 376.36065338452351625 387.18627848761036603 380.0356801155058406 364.17539787041334876 395.49078000569573987 383.57452822674645176 374.92424257971828183 384.30489772744607535 368.44189648808298898 374.02715291634444839 365.70595555271847843 386.55791048260527987 374.10884388261092681 364.06348161602187474 376.2325041925373057 379.93335941335175221 393.90680825695130807 382.56530686803972685 381.93901632106974375 389.74858344893442563 374.22726350674838613 369.8342700693069105 375.63413417517728021 361.64370641639118276 373.22925819895931454 380.50261349126418509 378.18627585407182323 378.42417319043869384 391.84666524700145374 377.75760340760530198 376.99076372843251193 377.23081819425402728 394.65830754547636161 381.72421366883503424 373.97827161339864688 382.47313532435856587 377.99045025090185845 382.98226467795535655 377.69369304094010431 374.79490655550893052 380.78348441118214396 381.32583056503324315 377.5226775648454236 378.65500026030116487 381.70152137233600342 381.81979518869610501 378.69721224706881912 386.01936971515084451 387.25684303264449682 364.36506462798780603 376.13087032946970112 375.2695888361811285 378.0655172561309314 386.03815534363860706 386.89425629872209811 373.49304058764369074 371.32057966805632532 378.60341770136767536 381.47797139433708935 377.43447572935906464 379.73523020721961529 394.70786648557503895 382.6620161605385988 367.5374390805121152 396.49011041306812331 386.66612203037482232 389.941492194194268 382.66080874612237039 376.81021785403999047 375.72213100934317254
-211.97880814656437565 -210.80266067580649292 -210.96850489190222788 -210.42855574197864144 -216.29972623942921928 -210.34744497867978907 -216.37322863717727728 -209.36335029506810201 -220.31955751595489801 -217.85120327424840525 -215.13973970920585543 -205.30948393473855162 -209.82158955151680857 -203.45966483945235836 -202.616857148898589 -206.27502900097167071 -209.49489193545451826 -213.07370414897033584 -214.45707458645156862 -209.56732489257407792 -207.33817610591631819 -210.20592695490233837 -208.35103015422674844 -217.33244072558150606 -205.96833826797586653 -216.02867318100746274 -218.12721779002384892 -214.29222461755796303 -213.59961687382366335 -211.31413216918329567 -207.83727278255872761 -211.91846305282956564 -214.20711704341545101 -208.32604396633863075 -220.17097549014820856 -219.5264666229987256 -210.30103533326766296 -209.16298766957658017 -211.20522109383105658 -208.57629004260499528 -211.68315399670422039 -210.77801058646031152 -210.15011426452289811 -209.96457294354638634 -218.13433241667092943 -210.44056933420958444 -207.16424433120425874 -214.24505676424885792 -212.31891118830816367 -208.98416971150976451 -206.42196716138755619 -207.3660058294288433 -203.27361950343475883 -205.31368836542483791 -213.22642898303334391 -218.45698371335564048 -214.40668373635324429 -208.74555804630429634 -209.01010594255873798 -203.85042581852815147 -218.94650305412503144 -211.78127870094945706 -212.45249209627237974 -215.75592456450016243 -221.21709859529039477 -211.35152051405987095 -221.00403996021697139 -217.00090904735469621 -214.02625468555925181 -213.53343788914443735 -204.7075673414082928 -220.58846009824148382 -213.77565972671314398 -210.61373182312212293 -209.48450443471867288 -223.74528937083857727 -217.25494967961742532 -208.96322869147348911 -206.17070497072231205 -220.37557778516423923 -204.56670388321632004 -210.58781008542860036 -225.58053893283710067 -205.57865459490145099 -215.65529363960772002 -213.97365236182142212 -211.11090347613193785 -213.78047240941566542 -207.2018859119007459 -209.70962122564955621 -209.13485537579791185 -212.77040797777371495 -211.29289867776381584 -210.68175754859021254 -207.35861834776736146 -208.52463516987165804 -209.50799622752728624 -203.17300267249297008 -204.88549230336619189 -204.56576295681853139 -203.24324680164292545 -205.38821548464497369 -212.0725317223405284 -206.83954583243200886 -214.84451593574732442 -213.43359198759605988 -212.99926304720565895 -213.83470632135339429 -211.55119527087495612 -217.19229934847194841 -215.24005301762232989 -213.80670036891754648 -223.60589793159689975 -203.89077223187459253 -213.72908908436826891 -211.26947406359724368 -206.98412706283897933 -219.04926232922599638 -216.00268743177949204 -208.71487473242697774 -215.17064611837835741 -206.09298664640357401 -220.13100946612729558 -211.23717764348461401 -207.54194725149039868 -196.56846779098844991 -206.98129260136076368 -210.81262368165542398 -204.67556980798914879 -208.43391559505857913 -215.4203207580370929 -195.2676898773411267 -217.5948705879204681 -214.95522634487812752 -214.28323879569290966 -210.88350734862365243 -212.12175139565019322 -211.78452541301518863 -209.33204173378297241 -219.59187934728686287 -212.01499088111884816 -214.31495245429368879 -209.4436729001937465 -213.28925645463712613 -211.66596256578299062 -202.52806441846672669 -212.65718041255860271 -215.27270993625529627 -212.63110461893035108 -217.33997640056483647 -212.43180508748636726 -212.82952810248329456 -213.246235783451624 -213.5700630559819615 -209.13598236798316066 -225.2528332100297348 -206.89418583324271594 -206.57546372135058732 -211.68808306217505333 -199.99152124723553925 -216.50330281232331231 -211.99585989682208265 -224.85451275128397697 -219.55200606279771591 -204.84484587136719824 -213.98175098750706979 -213.96102156739715383 -207.9108801739044452 -205.08888446538222183 -215.61554983277150654 -214.64892930799513238 -214.70341220038278607 -216.70303250429782338 -214.90014730990560565 -208.55724647872432342 -210.41602534425561544 -215.89129544435070329 -212.37042861413800665 -211.79424924459999602 -220.91992277331971195 -203.31687609105301817 -210.96542210435748643 -206.20561994456244292 -208.14185336241328628 -214.06326442899430162 -215.90669454257209736 -205.55061827921377926 -215.67838022173253876 -209.1546648947177971 -208.00801143549023209 -217.2046620846127496 -212.81974463491607708 -208.92329597540938835 -209.11495883275196661 -204.93287156562018936 -208.04079926041600856 -213.78300258000675171 -208.33507694142144828 -207.89564920454333219 -205.69262282400819686 -211.93452693507492768 -214.27492774383097185 -231.04587970665443208 -215.103384854857552 -207.25667249361441691 -217.48081488208771361 -213.71517786941603845 -208.5702891817626039 -201.68433557127772815 -206.14120995194195984 -206.10699971183154844 -210.50317015357950368 -215.99246096761029889 -212.22715174480737232 -207.35460140819378694 -213.16552632042024129 -213.50786585168035003 -217.01832500510030854 -217.54956189018827217 -203.77633999544460153 -208.67409208650357755 -203.62338138238499141 -209.47318352124182184 -205.59617320103149041 -212.33415041382397703 -216.30527781844790525 -208.18794426503930595 -208.95810542451431502 -215.84831320165415036 -212.28374393209261939 -221.49829678515041564 -210.93956486149843954 -212.82984489471900247 -205.73783909745500864 -211.06605492186810125 -215.31695459896391753 -216.47117014500506116 -210.63480567830455925 -203.08258745809698098 -212.57953500989177087 -217.09742365873896119 -212.24895943051313907 -214.57591871163606356 -207.74817105665638906 -205.91254928714656103 -215.16118362992341417 -208.70438050356372628 -214.44241459816669249 -218.95507543842333575 -214.49865903255914645 -206.92887636211170843 -209.59441084364695485 -205.88448696628822177 -205.00505569000682726 -215.36373776537865865 -206.35395634573046664 -218.15734060459183752 -218.49614043735238056 -213.15481061538554286 -206.26556035372334463 -208.78192950371081338 -207.8168673299731779 -214.66926696033570465 -209.07114738844484236 -210.24585484088970588 -211.1232364926111984 -205.44910884122086259 -209.80156356993583699 -222.72285422409518674 -216.02637526347703556 -210.64198605002161457 -207.89463081518090348 -216.94982712489613164 -214.44180953040893201 -214.38256365944735649 -208.16886507666657735 -206.24771483178184894 -210.44978207346369459 -207.37607473717898188 -222.97616123010294586 -207.70510761668745658 -205.85641425292740792 -216.45214633906002177 -212.06819939370345196 -206.03182015460075149 -213.57536426085542303 -205.78303690648328939 -222.436661643766314 -219.28654461266413023 -218.83903863158539593 -206.56040135549037018 -212.48205505250095371 -203.75904049603656176 -217.117277570312325 -215.84345490333723205 -208.38480477655363643 -204.27474476814788318 -205.73187685774504985 -213.40782877861002476 -214.26214655227343542 -212.38992558476837758 -208.42999179984894909 -211.46988881116942594 -206.74212255654484238 -206.07518627141055845 -207.03124681369791915 -202.90708735607748281 -213.64685423241522244 -204.73839149668708615 -218.35792408926536723 -209.825312033510329 -201.50864156364528412 -210.17926544171078262 -209.01950162630359387 -209.75608938976668583 -208.62730946003929944 -219.42459551358220438 -210.52436365177402422 -216.79895338039554531 -217.63346208861460696 -214.80106425710539497 -229.94052635192176126 -221.49090167365247339 -213.08011326360943372 -203.5688476569277725 -209.22513460662906937 -209.58162453541322634 -212.77295954732829841 -215.65831329912086289 -214.13865334066954915 -211.25914355583421411 -215.580470010187355 -208.41953720363517277 -208.22538951113853045 -217.38903714145294543 -215.38018325429987954 -210.0673536489922526 -210.51813836832639026 -211.26801395008811824 -217.64458879963447657 -214.52266509668095296 -211.76565019646909604 -216.19200800470372315 -209.68016607156124564 -207.9656517148982573 -213.84653506015965263 -205.19512204566782998 -212.27114020895066915 -217.49778886364603636 -216.59759199264436802 -209.84257071620277202 -212.92545158866769839 -213.89197206381467709 -207.52888297027521958 -220.86675654765923582 -207.78747333718163759 -213.06787354310097271 -209.27448007586204426 -208.90245796733083239 -215.00517986261695569 -220.63300877780841347 -213.9400914148633035 -201.79236943584714936 -205.80730139787837629 -216.00315320028613542 -215.63990110080573004 -211.37983042311975623 -212.4296866933764818 -215.06891973109350147 -216.26101608547310207 -210.25299046266283653 -224.07792309037392897 -208.92640458617435684 -214.79032645994504946 -216.75076186862281702
-1167.1378004287946624 -1151.4624208626175914 -1142.0315925661686833 -1163.4329402962910081 -1162.4301740652481385 -1151.6301463782845076 -1169.8760588122434001 -1182.6847449211377352 -1136.886051610278173 -1152.6177449075566983 -1167.9140302981211335 -1153.3843435584105919 -1209.9896917956421021 -1162.67933096471711 -1171.5454491925770526 -1181.3482593844187249 -1152.4029554950038801 -1172.4161956201814974 -1162.0374857839392462 -1153.8545448581164692 -1129.9800343011993391 -1166.583263769696714 -1164.6822083485433268 -1161.9064388590129511 -1130.9196637367131189 -1185.0547723402191878 -1147.8066800808339849 -1179.1006613544559514 -1158.2544846845862594 -1147.4901536700751876 -1161.3652512869430211 -1165.1892808353200053 -1173.4121490905924929 -1170.6442567060539659 -1176.6139642058046775 -1154.0078880560392918 -1179.5598654574357624 -1147.6958566146390694 -1140.5552611373523177 -1163.1139386269639999 -1175.348570663359169 -1158.731684361169755 -1179.8011782426128775 -1184.353307019310023 -1151.3698186954281937 -1166.5375230703998568 -1166.5828361686099015 -1154.9499365534750268 -1173.0312628264496198 -1159.5796495741283252 -1158.0306342844833125 -1158.9458932926768284 -1176.5574366286259647 -1155.7194051706953815 -1175.9460304286371866 -1167.3831203829354308 -1173.4615979165978388 -1175.9481421797108851 -1189.3423857909760954 -1180.8409497215445754 -1159.8194985688091947 -1141.676350920429968 -1149.5638197563191625 -1173.9146546051151745 -1160.599422433555219 -1147.492021214978422 -1157.5229929139904925 -1147.8530302239093999 -1172.5230250712336328 -1160.3118101372679121 -1196.6812868346389678 -1160.8083130801719562 -1182.6832104476775385 -1171.2229538851204325 -1151.4857526922705802 -1163.8621543038634627 -1159.0525209755044216 -1171.8325745010456558 -1165.4440676414455993 -1176.6397392982514702 -1181.1035113362506763 -1162.5302460525217612 -1155.8203433939240767 -1174.2676862818659629 -1182.6616244422698401 -1161.8062420948149338 -1161.4919742328381744 -1166.6974742437519126 -1169.7270758094955454 -1170.8212295417240512 -1160.5997765431075095 -1159.8032094522884563 -1167.8508050646294123 -1152.1207775070172374 -1158.6448697456783066 -1164.7899954458050615 -1157.2417794726354714 -1148.4303465032896838 -1181.5457118005313077 -1182.6589979621724069 -1166.8272043976871828 -1149.9086892071709372 -1157.1844653452478724 -1176.2415158615765449 -1162.1423851759977879 -1153.9814919128855308 -1165.5469205263734693 -1167.6656897719922199 -1169.842074788143691 -1162.4884586851533186 -1139.5286397719751221 -1159.2189206728928639 -1158.1619732329379531 -1164.6941710456133023 -1164.8637790657601272 -1198.8010326629089377 -1176.3426534828572585 -1174.7224616672740467 -1183.6756179292824527 -1181.5031200958103454 -1191.8932146291360823 -1177.07281484825603 -1165.8932762728813941 -1167.2444738379092541 -1151.2348560805453417 -1171.6234343737844483 -1150.76751782386782 -1163.3808134678793067 -1188.5834396093264331 -1173.873458260702364 -1172.4920731866559436 -1179.7617380697065528 -1172.6220819983821002 -1147.627597753643613 -1174.2232189283645312 -1152.248420265343384 -1158.7401297366945983 -1145.5511558840335056 -1167.8884258098264581 -1195.4260538644909957 -1148.1536834184025793 -1177.590766985135815 -1148.0545582245631522 -1165.139430470099569 -1161.7920358417511579 -1155.0080236000826517 -1153.8997162344869594 -1154.2899018239381803 -1170.1018360181938078 -1190.7114123590404233 -1155.6573829522851611 -1183.2432663924710141 -1167.7227863189159507 -1163.334358081658138 -1168.9501500424546521 -1146.1997337962911843 -1163.6358563120638792 -1186.532472113654876 -1181.4766036534028899 -1132.9106637835263882 -1161.8214836370757439 -1170.94541084167804 -1141.271646936546631 -1152.1114127589964937 -1182.3338289960729526 -1168.2571352814593411 -1154.0835365815905789 -1188.4203433520365252 -1154.2784769725851675 -1169.503617173567136 -1168.4044772851705147 -1157.5965262153497406 -1155.8084787941525065 -1157.2368627588625714 -1156.1428795711958628 -1168.4394989720303784 -1158.8477723312350918 -1178.4333394345769648 -1167.6902482770080951 -1159.3632901703667812 -1164.0492765136370963 -1170.3500667378309572 -1178.6284584751092552 -1148.1015582076142891 -1151.7925893999949949 -1152.5435148207002385 -1178.7393670698641017 -1166.7666379766251339 -1166.9216782993955803 -1152.2607638087276882 -1173.6158470255666089 -1159.191068474724716 -1141.6192825788161826 -1156.5218557965363289 -1138.2963977722397431 -1182.3256357205013956 -1164.3483352658272452 -1173.8001003476238111 -1163.9301934108509613 -1157.97401968478448 -1198.4325399026779451 -1147.2045065420998071 -1164.5939949430874094 -1161.1609651915089216 -1139.0412607737964663 -1153.0007841812052902 -1161.1770452765942991 -1142.1903243564534023 -1153.6402423183717474 -1160.5923321465743356 -1156.7605562264939181 -1159.4020592144183865 -1166.8603743782930451 -1170.9540283653907409 -1160.968155681116059 -1149.0615989670316139 -1157.6876405136001722 -1174.4623569226780546 -1170.6253134106743801 -1168.7629384842771287 -1169.8232862987513272 -1168.8261518665403855 -1158.7806121106923456 -1168.5491206864555807 -1154.7721391294535351 -1171.2472661893443728 -1162.9851359269166551 -1182.3841316161260693 -1153.2462840950054215 -1161.7945737113232099 -1174.7744589366532182 -1200.764128569964214 -1166.7731828800481253 -1147.3034000101899892 -1184.7457799838082337 -1171.7652759137317844 -1190.8303552193917767 -1160.1718617251976866 -1168.7920827467837626 -1169.5474653862813739 -1146.3055165228217902 -1167.7081777574285297 -1159.1920093731955603 -1159.0555582538031558 -1147.0457547704527315 -1180.3535820079764562 -1161.8732219242388055 -1169.6822692259972882 -1157.0164399127959314 -1152.0094234118985241 -1174.516382275247679 -1180.8048070945376367 -1146.2966017179653591 -1158.0528328733398666 -1160.5786250425653634 -1156.6993154842127751 -1179.150332230178492 -1144.9981128583385726 -1180.0176321045805707 -1166.3576855015467117 -1188.0747403304951604 -1158.9501432761232991 -1167.4185042910555694 -1163.8244234065205092 -1175.182761889808944 -1145.9033175954709805 -1151.6960704089422052 -1167.92043754045676 -1169.3623696882391414 -1152.9867391983866582 -1157.5552225029841793 -1154.1213775153266852 -1171.4394479952004531 -1139.3015822743643639 -1168.5727731663153008 -1175.8154979680700762 -1162.4783545080740623 -1135.6164998532337904 -1171.7572822884396828 -1159.1974580784012687 -1160.5813321353734864 -1163.5530440678687683 -1168.637944540620083 -1160.5019027260809708 -1170.1918478998034061 -1157.7211269391823407 -1141.4195422405202862 -1188.2441988893008329 -1173.7758754722410686 -1178.7974014365863695 -1148.2171990275830922 -1161.5412060945175199 -1153.2811280941680252 -1156.0530735504262339 -1169.4885485505753877 -1172.6920632839310201 -1164.9868594246622706 -1153.9567946375484553 -1163.5782771450244582 -1135.3523436975037839 -1161.8022990199158357 -1176.9609842951126666 -1172.4994648725366915 -1166.9209807869574433 -1151.4940453571780381 -1178.6256067718984468 -1169.7373407711838809 -1160.746385595577749 -1155.3142630266370361 -1149.7236184433979815 -1144.63500013194448 -1172.3832185850806127 -1151.5003094873302416 -1198.9962497858032293 -1166.9527112234202377 -1149.0730700423318922 -1167.3323542084021938 -1166.2312365879322442 -1161.7122879393868971 -1142.9611859977076165 -1148.7532966091032449 -1145.10024176203774 -1134.6995943084816645 -1139.1250187390487554 -1187.6924958920230893 -1153.9790049174775959 -1153.0115885958264244 -1158.4286479098266227 -1172.2652118964349484 -1143.116878192973445 -1172.6296409318522365 -1141.0716435802200976 -1179.8087549580113773 -1154.2763648801503678 -1158.3643840702422949 -1176.7648345348718522 -1192.5651090536409811 -1150.6027116971808937 -1161.2714358313048706 -1159.9330917022120957 -1147.6097881208959279 -1162.3640141548182783 -1179.1524953707603345 -1171.7908945397268781 -1177.0812078867122636 -1181.0845395354906486 -1175.6229608535134048 -1179.580431680334641 -1167.3356453498047358 -1177.6138497188885594 -1160.9845147885753249 -1156.4111396975929438 -1171.3842497554451256 -1177.4350771234935564 -1147.1440365322680464 -1156.7513661644363765 -1163.6314913680157588 -1158.7206864005636362 -1158.101521090161441 -1159.4250756053170335 -1168.7402311231301155 -1174.4719009408263446 -1154.2757711333572388 -1174.9911968728642933 -1171.4388143928524642 -1154.8867166994848503 -1156.7175401662041168 -1174.4755514762464372 -1134.2278759485134287 -1193.3326838572529596 -1161.4940105246155326 -1151.8455246122198332 -1181.4317377432889771 -1171.2403231062196483 -1143.921827327005758